1005 128
160 0.22178371 -0.095929764 0.11668816 0.05246361 0.024438558 0.4224866 0.27531716 0.029768435 -0.04953331 0.5747106 0.46678725 -0.22518922 0.043041494 -0.4353711 -0.2551551 0.26068744 -0.03701483 -0.012652958 0.018502645 0.04958414 -0.02880272 0.14046095 -0.024055999 -0.097672045 0.11583636 0.10194498 -0.06731251 0.24389327 -0.15578896 -0.06774322 -0.10309933 0.18199739 -0.64641684 0.28304967 -0.239312 -0.18915758 0.008812811 0.037272237 0.4408021 -0.2723364 -0.24645507 0.35858458 0.2907386 0.24668095 -0.33165184 -0.6403536 -0.1913481 -0.06908346 -0.42077804 0.060919136 0.044631485 0.31288403 -0.22537175 -0.22499791 0.03837157 0.08112584 0.33541152 -0.036155414 -0.21498397 -0.3635266 -0.6712555 -0.02489102 0.31490514 -0.26505145 -0.030338086 0.044240534 0.0024216631 -0.044968784 0.16589214 -0.4172695 -0.07666968 -0.23915033 -0.06917414 -0.32671568 -0.6264605 -0.38956392 -0.122360535 -0.21925493 -0.10502194 -0.016334772 -0.22241053 -0.14890368 -0.26010448 0.47558168 -0.027481114 -0.09159754 0.030699378 -0.46805227 0.27083838 0.019528106 -0.31975183 0.047249224 0.3164011 -0.12970696 0.21910803 0.0959738 -0.04551245 -0.5382315 0.11295235 0.033102404 -0.20945841 -0.051257763 -0.011357416 -0.06430944 0.010027587 -0.08954611 0.02544588 -0.08951011 -0.47601834 -0.09982647 0.3179003 0.24689452 -0.3685155 0.32613072 0.42695165 -0.066691115 -0.15747446 -0.35964206 0.097663626 -0.30961105 0.3038547 -0.412589 0.37181622 -0.06513128 -0.20351519 -0.61097306 0.17678753 -0.14230834
82 -0.14361168 -0.6306578 0.31973106 0.082375795 0.35413623 0.043900542 -0.06991865 -0.39354238 0.22675149 0.35993367 0.012432242 -0.1405257 -0.1350731 -0.16555631 0.26961923 0.47799444 -0.06551103 0.4741673 -0.31205386 0.39749828 -0.6728505 0.35262728 -0.4664845 0.069084436 0.017188486 -0.33792666 -0.26796088 -0.5102386 -0.24095306 -0.15206532 -0.37178683 -0.047678478 -0.07772377 -0.22835207 -0.3472809 -0.07297744 0.14690298 0.0015557893 0.20258366 0.47117648 0.014163784 0.3571114 0.3689782 0.10765262 -0.12210701 -0.23307088 -0.4402916 0.091563486 -0.29764682 -0.15642333 -0.20055811 0.3032852 -0.19919564 0.059215974 -0.16726503 0.076670535 0.1069102 0.33853117 0.09083935 0.17625324 0.26166892 0.12419146 0.13009894 -0.2843521 0.1642286 -0.2630695 0.40498278 0.2573133 -0.16259165 0.0446294 0.03662921 -0.12053917 0.016437419 -0.51811296 -0.19426848 0.023369744 0.14312951 0.21943453 -0.18867698 0.119952835 -0.11481065 -0.067254364 0.21825698 0.21228707 -0.092724785 0.42847565 0.4654497 -0.046076447 0.12967792 0.31549197 0.037090007 -0.28738043 -0.25212166 -0.19866565 0.28183538 -0.36206526 -0.25455582 0.014514696 0.32419422 0.07102199 -0.30106023 -0.31011757 0.12942165 0.18356872 0.79208034 0.03642184 0.1903786 -0.19348167 -0.07856278 -0.64995646 0.36557218 0.47200236 -0.28634375 0.24736063 -0.10695868 -0.35355505 0.29778737 -0.05077941 -0.054834604 0.22775148 -0.11549391 -0.64829046 -0.36949733 0.12460657 -0.40454468 0.11679109 0.6070884 0.5199962
121 0.024082681 -0.03635386 0.18171978 0.33670807 -0.073976636 0.039097227 0.20778516 0.042027928 0.015090535 -0.4595228 0.19995272 -0.17216177 0.029464811 -0.34343773 -0.0238019 -0.12164323 0.03298451 0.39076528 0.02864138 -0.08842017 -0.70759857 0.44372663 0.018420193 -1.0104746 0.046468418 0.47079083 0.11887218 -0.061359204 0.11710242 0.26867893 -0.2674127 -0.20839585 0.14033045 0.4553697 -0.018890494 0.60249335 0.23495197 0.7156129 0.026517047 -0.19442888 -0.11159081 0.6615995 -0.3087752 0.11455771 -0.41584224 -0.28824666 -0.27679977 -0.051758986 -0.5823856 0.23238376 -0.28320795 0.07605742 -0.39567038 0.36080432 -0.3528895 0.097708546 -0.2871234 -0.16712767 -0.2752431 -0.4904876 0.30417088 0.052818194 -0.07034276 -0.7721987 0.5192626 0.020642908 0.40206033 0.23837312 -0.33171174 -0.0560098 0.41247845 -0.5897255 -0.118750595 -0.33803472 0.05059243 -0.13634092 -0.3184623 -0.14332202 0.17532013 0.27331778 0.50101423 0.25939494 -0.29915482 1.1357439 -0.11291312 0.3807181 0.5949952 -0.51974416 0.065128654 -0.14517356 0.47601917 0.06379411 -0.04200335 0.0056425673 -0.049966313 0.0018090695 -0.17135662 -0.032557186 0.000974023 -0.41184875 -0.4341302 -0.3518119 0.14356011 -0.12895575 0.16236025 0.10143937 -0.45849982 -0.0004954616 -0.4013723 -0.12500858 0.14497223 -0.056775253 -0.027054423 -0.2240294 0.1804171 -0.26211232 -0.7984126 -0.21816872 0.3812122 -0.14113146 0.022777267 0.121258356 0.01076307 0.24786612 0.30717307 -0.48170072 0.3688903 -0.48422587
86 0.8518967 -0.045315064 0.43492663 0.45428297 0.21599147 -0.22896817 0.36657202 0.048025247 -0.558641 0.12401136 -0.114870444 -0.10478644 -0.043479186 -0.19028878 0.34748706 -0.032723404 -0.43282285 0.45151007 -0.07771178 0.21349812 0.07281694 0.49325204 -0.100168444 -0.18372253 -0.58860826 0.9847318 0.065244496 -0.110314555 0.34959757 0.2506717 -0.25803256 -0.3030714 -0.063649364 0.3861948 -0.21817172 -0.20823456 0.04195744 -0.4322535 0.44762808 0.18253955 -0.08862998 0.76806325 0.036952082 0.42866287 -0.25534967 0.35568857 -0.43284538 -0.078703575 -0.572362 -0.8895493 -0.21934254 0.17884505 0.21169938 0.12011121 -0.1501525 -0.09247514 0.45491752 -0.00089533324 -0.11420687 -0.0840867 -0.20906778 0.033044264 0.14961264 -0.4605403 0.31766787 0.102740355 -0.5873944 -0.8425027 0.2649924 -0.057235926 -0.21681239 -0.10856738 0.36814708 -0.15425657 -0.35323936 -0.5515252 -0.160646 0.18820733 0.21601717 -0.720102 -3.7429505e-05 -0.053424254 -0.053669576 0.024737377 0.53383166 0.04782224 0.06316837 -0.14019562 0.23441143 -0.119263925 1.1331518 -0.28729588 0.23921393 -0.42904195 0.2577781 -0.46956077 -0.04872785 -0.16743252 0.25093976 -0.20040905 -0.27064672 -0.062152818 -0.3629351 0.35013402 0.009232202 0.20213369 0.32675847 0.03129335 0.21723548 -0.22019045 -0.029341307 -0.2584325 0.1145054 0.33084518 0.11771305 0.16104008 -0.44200552 0.14080982 -0.44918588 -0.07047016 0.020494882 0.012208334 -0.2673898 0.12647082 -0.4823528 -0.15324582 0.41013375 -0.38634172
107 0.35449916 -0.2945158 0.032567162 0.13277781 0.026822317 0.014516061 -0.09727338 0.17764093 -0.17858538 -0.098537475 -0.10827181 0.29411936 0.07796555 -0.13388647 0.19490194 -0.08077726 -0.1433429 0.06480134 -0.7862012 0.36829206 -0.10600981 0.45218283 0.20574434 -0.21638654 -0.15244377 0.19680738 0.35702983 0.2792445 -0.14091197 -0.31383342 0.12109862 -0.016308414 -0.62331325 -0.19432306 0.0069623813 0.12520973 0.50606626 -0.59838265 0.14048451 -0.19898485 -0.2791792 0.2422832 0.030000726 -0.03188068 -0.22815812 -0.19653235 -0.0682259 -0.37245426 -0.06353736 -0.4732717 0.726465 -0.1466197 0.03578645 0.078755386 -0.29559365 0.06964863 0.16394395 0.4152729 -0.58906114 0.17340456 -0.358911 0.039834797 0.39180762 0.2019501 0.40037638 0.008902382 0.27797124 0.1330217 0.03768436 0.1642947 -0.068716794 -0.4832296 -0.70946544 -0.5039496 0.084890634 0.22755311 -0.4022666 -0.31423002 -0.09892078 0.41919115 -0.09177606 0.4130028 -0.4660138 0.23502192 0.29333457 -0.074672535 0.73143643 -0.3085846 -0.003795914 0.27466136 0.066785805 0.098264925 -0.23983645 0.2155377 -0.26475802 -0.105263196 -0.17876673 0.037853755 0.44486004 0.354623 0.0263087 -0.20830543 0.06522286 0.046890795 0.12938267 0.07858271 0.29331484 -0.31691554 0.063987836 -0.41762075 -0.02575357 -0.46253446 -0.3123312 0.14600176 -0.16476052 -0.16671284 -0.40666744 0.16309473 -0.6928798 -0.076994084 -0.010012777 0.0485686 0.12905054 0.63819325 -0.39807805 0.13112228 -0.00796525 0.1763627
62 0.11034525 -0.309301 -0.321124 0.2203925 0.32059652 -0.14420196 0.027135229 0.17526406 0.014593883 -0.27691853 -0.06233176 -0.61061424 -0.26150137 -0.3911386 0.13104086 0.01835976 -0.06897025 0.10888256 0.38332614 0.7843616 -0.24061508 0.18564706 0.024836488 -0.007087278 -0.3956226 0.14909582 -0.07767266 -0.5495565 -0.25472313 0.20549993 -0.4160726 -0.3483726 -0.07861708 0.059496135 0.38978285 -0.04969253 0.03808214 0.11311281 -0.28452107 -0.13349089 -0.010298524 0.5345223 0.59850657 0.5717615 0.4936783 -0.040018626 -0.21597944 -0.42590174 0.10477716 -0.2632581 -0.03352424 0.24397175 -0.2679408 0.4945801 -0.360535 -0.07388438 0.5146666 0.34078354 -0.6256396 -0.28669694 -0.053308453 0.15769395 0.025980316 0.40170443 0.15988205 0.21785754 0.12038661 0.21798688 0.07392835 0.073950954 -0.21772058 -0.0070914035 0.027664358 -0.40320307 -0.07170696 -0.061787184 0.19865224 -0.0003365484 -0.23044449 -0.13893764 0.043386452 -0.25732893 0.24095957 0.34825763 0.051904507 0.17645961 0.542553 -0.41634417 0.37233326 -0.4987578 -0.33694458 0.09088313 -0.14039825 -0.3152626 -0.17535663 0.39221886 0.5192352 0.063910805 0.28973293 0.04877203 0.12620485 -0.16056994 0.20650432 0.10132576 -0.21655309 0.13759772 0.23258463 0.1465579 0.14341365 0.10088406 0.36678118 0.11567602 -1.0378723 0.025900517 0.2469306 -0.16178764 -0.6557483 0.64126354 0.050865386 -0.35476503 0.27540967 -0.66493756 -0.13518803 0.11928577 -0.23247172 -0.14192043 -0.04573952 0.09819591
5 -0.060529634 0.3604669 -0.3018809 -0.04351158 -0.072409555 0.09478074 0.14983723 -0.6143586 0.25056854 -0.39441583 0.38446754 0.8515495 0.41643953 -0.24301195 -0.6467054 -0.16160458 0.20044546 0.23236045 -0.13692623 0.42706484 -0.38611916 -0.18738271 0.32869294 -0.24055128 -0.08518183 0.002959427 -0.2555641 0.11993265 -0.16199204 0.14846309 -0.038566563 0.06138356 -0.107277684 -0.27881622 0.02294637 0.32120723 0.40373978 -0.22848822 1.1687726 0.18250318 -0.026578771 0.16476151 -0.14956146 0.19467717 0.17376328 0.7223705 -0.82937294 -0.80264986 -0.33367866 0.37326324 -0.053237077 -0.3094032 0.15362217 0.15856 0.7001068 -0.1339435 0.43338168 0.40366748 0.13953227 -0.21245433 -0.3085711 0.5286963 0.090566546 0.24938004 -0.059595052 -0.45790148 0.6370209 0.47101468 0.36078805 -0.38879576 -0.51149523 0.6693497 -0.03483366 -0.12286003 0.2636389 -0.24308701 -0.4462741 -0.022913452 -0.018502189 0.015202067 -0.82936156 0.5853777 0.54469436 -0.01082065 0.18927148 0.37178287 0.5933106 0.12730156 0.31651723 0.1682749 0.23034048 -0.32153994 -0.2756728 -0.5069772 0.4979385 -0.17275026 -0.33119962 -0.53076506 0.15012245 -0.09338815 -0.074814774 -0.1981286 -0.38802347 0.50452733 -0.072180524 -0.060635954 -0.6852663 -0.3589567 -0.3948576 -0.17321564 -0.052851055 -0.08862507 -0.41709512 0.18805958 0.31980073 -0.22554168 -0.47878402 -0.18497697 -0.3824251 0.2022022 0.2298529 0.2696008 0.098658346 -0.18469088 -0.7050574 -0.13425912 0.35114318 0.102280185
13 -0.51565826 -0.23624736 -0.45494056 0.035156596 0.5900944 -0.18281828 0.31216356 -0.15505545 0.14918345 -0.19324681 0.57211316 0.6006774 0.3981735 -0.33548072 0.066556565 0.6933791 0.1703169 -0.9895607 0.4279221 0.46099487 -0.09080096 -0.25261632 -0.12899424 0.037614293 -0.26842558 -0.33436394 0.392452 -0.28588864 -0.4465411 0.10977543 -0.09464738 -0.08763649 0.31127352 0.09797967 0.26615462 0.11278492 -0.35790703 -0.02921338 0.6364131 0.1327457 -0.08431169 0.50730115 0.04180532 -0.31691137 -0.019292213 -0.15996982 0.44915974 -0.019554406 0.4149253 -0.31767628 0.31031638 0.44022173 0.12708631 -0.17644234 -0.5265841 -0.11524052 0.3490109 -0.5489651 0.29985237 -0.9848157 -0.3440952 0.10015049 0.21497712 -0.45301023 0.3189709 -0.019696312 0.59901327 0.060268 -0.17803432 -0.14891975 -0.52277964 -0.91187733 0.2184395 -0.26158008 0.12592223 -0.27897105 0.19743413 0.67797863 -0.16867045 -0.10350793 -0.24314624 0.43219957 -0.0940797 -0.13508037 0.2443007 -0.13514896 0.43253326 -0.34725887 0.36033592 -0.23174882 -0.3196871 -0.2225866 -0.00338001 -0.08828273 0.049675114 0.025275093 -0.42977148 -0.28498593 -0.18729378 -0.48742464 -0.3175537 0.17031527 -0.13711965 -0.0059518674 0.41941184 -0.20165241 -0.2770853 0.21127123 0.19340846 0.19068989 0.19171968 -0.36866987 0.2651207 -0.074246295 -0.41021383 0.21275786 -0.3317826 0.44414085 0.38158917 -0.14247015 -0.7403745 0.13940789 0.024539292 -0.19140743 0.44165698 -0.0423049 0.32084304 -0.17780457
166 -0.12915593 0.044240132 0.25663036 0.022426356 1.064035 0.51518255 -0.12748238 0.043216646 0.16685115 0.07806526 0.5314562 -0.26004007 0.37225154 -0.34261268 -0.3807841 0.03250084 -0.022721376 0.17273164 -0.17102323 -0.30326232 0.12406731 0.21534346 0.20453283 -0.41165876 -0.7631552 0.07112433 -0.34753114 0.8444995 -0.31766793 0.0331633 -0.2827286 -0.5030646 0.6742464 -0.49424908 -0.24258499 -0.11245817 0.16877191 0.86045545 0.5302535 -0.19993587 -0.2372594 0.63226 -0.7096239 -0.14322753 0.13856292 0.44822615 -0.041282855 0.34368658 -0.12763712 -0.6204382 0.5793498 -0.04131602 -0.2368584 -0.35110465 -0.48360682 -0.11843602 -0.17560767 -0.19714019 -0.13434798 -0.026007596 -0.35622403 0.5670605 0.77755946 -0.31433502 0.1202913 -0.03749379 0.8286526 0.13164409 -0.2597987 0.043775164 0.3103041 -0.2780152 -0.32338855 -0.22875707 0.35906833 0.12819585 -0.024013028 0.23333578 0.46585104 -0.50024706 0.16896206 0.06954743 0.52660197 0.11905541 -0.14008361 0.10721242 0.5258666 -0.296011 0.7016571 -0.70164585 -0.26779017 0.6074732 -0.20293936 0.3100099 -0.314528 -0.0742747 -0.40386295 -0.5172993 -0.18443659 -0.066935726 0.28250417 -0.056736715 0.616178 0.57531434 0.08155035 0.5271407 -0.26494664 0.82201064 0.4230027 -0.68662703 -0.4198731 0.060675547 -0.45522118 0.04382101 0.16083167 0.10687909 -0.49135828 -0.18273576 0.09577438 0.0768032 -0.1950954 -0.006905134 -0.4074439 0.21180612 0.07289652 0.19016008 0.40355316 -0.012363624
434 0.50926036 -0.35997787 -0.121672966 0.04239806 0.4545332 -0.2226439 -0.13958941 -0.35192072 0.08279211 -0.0988473 -0.16005877 0.27371952 -0.18612221 -0.35513842 -0.22643156 0.37073636 -0.4780995 -0.06415767 0.35446042 1.0802087 -0.34015873 -0.037812896 -0.13591276 -0.5927492 0.0236365 0.6550707 -0.062422954 -0.2645556 -0.30095324 -0.27781525 0.3329731 -0.003155721 -0.08073591 0.36460426 0.4272168 -0.16324668 0.08551201 0.18351687 -0.16192557 0.40821236 0.23501533 0.1628683 0.0052420585 0.23568821 -0.17205098 -0.32144937 -0.03273885 -0.61362964 -0.5675835 0.16881412 0.046940994 0.14715387 -0.6055262 -0.4288025 -0.53103745 0.3472907 0.18426342 -1.1651682 -0.39846975 0.32376918 -0.32043722 -0.030592324 0.30987942 0.3014465 0.20402974 0.2807047 0.4249575 -0.14775752 0.20787907 -0.13286512 0.18722977 -0.7589414 0.25066802 -0.45175448 0.11389625 0.16793059 -0.02172269 -0.16242422 0.28323463 0.15730159 -0.40573886 0.36773318 0.019239163 -0.19763362 0.028645495 0.15033858 -0.08475368 -0.47217408 -0.47013605 -0.3420093 0.09531768 -0.65255237 -0.4472948 -0.11481769 0.66735435 -0.17452036 -0.12706599 -0.10839235 -0.31702226 -0.48544934 -0.49585596 -0.0070325835 -0.11818418 -0.15824798 -0.07765498 0.1781017 -0.27801755 0.05132191 0.17864288 0.33192137 0.13545953 -0.7320829 -0.31719416 -0.5218877 -0.17980711 -0.3486207 -0.2295581 0.016915586 0.39288157 0.034545805 0.008823635 0.4728855 0.27447617 0.072260655 -0.30557936 0.26365346 -0.3136551 -0.132926
64 -0.22206022 0.2170969 0.010810994 -1.0479978 0.640906 -0.7351277 0.13252907 -0.41661987 -0.1765558 -0.065457426 0.084459394 0.15535098 -0.07907744 -0.7073734 -0.7225733 0.39520776 -0.12414551 -0.5419544 0.13987719 0.2226066 0.39805904 0.033299934 -0.2984301 -0.77760446 0.07008706 0.409586 0.47573265 -0.21600138 -0.06657656 -0.013346137 -0.11186485 -0.0828653 0.5289574 0.13059296 0.50417316 -0.16998729 0.66377044 -0.16332096 0.4956013 0.17335531 -0.06522476 -0.046391822 -0.106169194 0.6453638 0.074135706 -0.3152322 0.4191532 -0.6607608 -0.2220838 0.03137174 0.1502183 -0.30675003 -0.10283178 0.007315509 0.15131418 0.03630525 -0.14462514 -0.16738482 -0.104580574 0.50290835 0.3769534 0.06994964 0.39243484 -0.122449204 0.37288976 0.07803578 -0.033379227 -0.03546075 0.24223232 -0.16140476 -0.2887542 -0.058995727 -0.1548783 -0.6203693 -0.13062601 0.310166 0.16060536 -0.19081981 -0.30431876 -0.09515322 -0.24850348 -0.66259754 0.77947176 -0.34954926 0.3271171 0.36669284 0.23599292 -0.17105694 0.15374126 -0.3671714 0.23733935 -0.02008659 0.1996373 -0.42898065 1.0665344 0.3667878 -0.48332363 -0.29406437 -0.2993978 -0.65844256 -0.024511231 -0.11108972 0.22189152 0.7973512 0.3199722 -0.2839836 -0.092656314 0.32393947 0.28707227 -0.071348146 0.38830197 0.21902597 0.13286598 -0.081836544 0.077528626 -0.58701086 -0.64226705 -0.083409056 -0.13677871 -0.015802447 -0.21972917 0.060434565 0.6075918 -0.107498065 -0.1286612 -0.36597812 -0.2505975 0.11992564
129 0.5750719 -0.17571326 0.0074188495 0.114810154 0.35295278 0.30104196 -0.25822017 -0.2561986 0.2745185 0.58081853 0.3949768 0.046543285 0.6668611 -0.120167315 -0.65325177 0.22435103 0.29869837 0.28257892 -0.32682052 -0.095011055 -0.18652916 0.36401996 0.10459171 -0.022377163 -0.5735787 0.18232954 0.057068896 0.14664547 -0.5560937 0.032948386 -0.00064775476 0.27338168 0.63911456 -0.0014793648 0.27293 0.09478655 -0.09666078 -0.27801558 0.1781005 0.4834949 0.07787261 0.26458505 -0.5680013 -0.2158177 0.21719618 -0.017302312 -0.37467238 -0.41573137 -0.6002777 0.55525935 -0.7084955 0.19388936 -0.095610455 0.056970153 -0.6216804 0.20085432 0.10406938 -0.86704797 0.22016372 -0.2438197 -0.214986 -0.141217 0.1072868 -0.17285109 0.032447416 -0.43915185 0.5314068 -0.45555338 0.2984724 0.33582765 0.42376685 -0.14868543 -0.27726775 -0.48405567 -0.15969428 -0.11909347 0.21457162 0.20620182 -0.21052065 0.5623296 0.55986965 0.1825105 0.2252782 -0.16998725 -0.13293615 0.23412259 0.7742491 -0.2881593 -0.21078369 0.3451565 -0.18219915 -0.5172101 -0.29610634 -0.37859717 -0.08415854 -0.30333275 0.27097675 -0.28217077 0.08433059 -0.54050195 -0.2581639 -0.66525173 -0.20999798 -0.61219156 -0.4037602 -0.028718185 -0.3948335 -0.01114471 0.3125601 -0.22825718 0.5540775 0.35003164 -0.5958979 -0.2934269 -0.33109298 0.4018425 0.27934888 -0.15101646 0.25242868 -0.02115426 -0.26133144 -0.24089792 0.04034378 0.2626908 -0.10252919 -0.23736222 0.009005983 -0.6734863
211 0.0028393688 -0.27376074 0.03667846 0.2875593 0.6935627 -0.020516757 0.44875693 0.12304671 -0.30816644 0.33673602 -0.050259076 -0.29828757 0.017958222 -0.46409434 -0.11805539 0.5924887 -0.16151832 -0.08096119 -0.6135998 0.018373372 0.28513244 -0.25900918 0.14806852 -0.45317298 -0.035231337 0.42454255 0.048858352 -0.47451493 -0.32496494 0.022074204 0.32252687 -0.5782244 -0.32993856 -0.026569357 -0.04868022 0.08107466 0.85345364 -0.038376328 0.8317462 0.007488709 0.36361665 0.49952915 0.1936484 0.02350844 0.45626852 0.39757034 -0.040601898 -0.5177042 -0.2042052 -0.0377107 0.09840478 0.57858336 -0.5929489 0.19646035 0.5736885 -0.10961951 -0.004407535 0.008830134 -0.12820518 -0.44448778 -0.06287914 -0.3605329 -0.2615196 0.29298365 -0.28743094 0.022745412 0.52341586 0.29773986 -0.5981354 -0.48943007 -0.120211706 -0.43574435 0.18979731 0.37764892 0.089681126 0.3454025 -0.36208817 -0.17696683 -0.012035251 0.49964592 -0.045753025 0.039482646 0.43826827 -0.09929233 0.26245853 0.16689324 0.6879193 0.19279331 -0.17157845 0.28480047 -0.6604539 -0.1292835 -0.08568767 0.2820875 0.43348417 0.17882492 -0.19531114 0.11303507 0.1479854 -0.95756805 0.34252775 0.46074468 -0.04756271 -0.29663867 -0.6784666 0.108556785 -0.73668355 0.24921305 -0.2209304 -0.09118733 0.86319464 -0.35479876 -0.23717827 0.052353017 0.348651 -0.21833122 0.33460742 -0.12684612 -0.041614003 -0.60217404 0.14004043 0.029098643 -0.4016936 0.49104607 0.26710618 -0.14668141 0.3976552 0.5168351
377 -0.1296382 -0.10492764 0.52199775 0.12924051 -0.14898126 -0.33196986 0.16455303 -0.7494186 0.35557163 0.42121923 0.34838197 -0.21839482 -0.16048497 0.022265293 0.030840542 0.3115986 0.3290116 0.3081551 0.05654274 -0.23535512 0.07926543 0.31968 -0.07888242 -0.29440802 -0.34378722 0.315145 0.81197035 0.5853695 -0.40595645 -0.4438268 -0.19710475 -0.0891887 0.20555463 0.03497714 0.312184 -0.20686023 -0.062363498 0.5316052 0.39879403 0.5093762 0.3460661 0.22288814 -0.23795143 -0.48849106 0.1520498 -0.33414054 -0.21601544 -0.5118875 -0.38839158 0.15539932 0.17329565 0.685078 -0.2162893 0.15976328 -0.691711 0.6973072 0.3123892 0.18575321 -0.3139615 -0.1009034 0.12270425 -0.3350099 0.79459727 -0.1920374 0.50164235 -0.4028776 0.34257802 -0.4575384 0.18157506 -0.25997758 -0.44563523 -0.007904132 -0.4433227 0.0143016735 0.8478162 -0.083843045 0.085004285 0.1814216 0.041766938 0.23887378 -0.58977723 -0.21188481 -0.6234871 0.65270114 0.16571474 0.53149456 0.3630228 -0.6322102 0.22387536 0.35416284 -0.124378644 0.41850498 -0.25353894 0.021653984 0.30166256 -0.08160423 0.42825967 0.11128533 0.0944868 0.8673326 -0.35547897 -0.09633285 -0.41439757 -0.07390151 0.14930066 0.6306972 0.11965246 -0.43739787 -0.7670729 -0.32443434 -0.17919984 0.18145443 -0.2320951 -0.21921045 0.7779462 -0.41881746 0.16724718 -0.12815824 -0.1517994 -0.19828002 0.1673668 -0.45079178 0.07833502 -0.28403518 -0.21460421 -0.39457023 0.5793555 -0.1433568
183 -0.11187273 0.21583891 -0.19257236 0.2652858 0.3876945 -0.06003644 0.20133306 0.22385228 0.113243885 0.39269808 0.21463676 -0.27629977 -0.032974724 -0.18444544 -0.014485973 -0.10367963 0.5564221 0.0376777 0.05551326 0.100794904 0.10434273 -0.12332384 0.20737 -1.1091346 -0.49189278 0.50177544 0.11707096 -0.0856142 -0.41410774 -0.065408245 -0.5824815 -0.5485009 -0.1563331 -0.0935725 0.2721084 0.5996743 -0.07855829 -0.50705695 0.40184966 0.027179485 0.6468801 0.5334547 -0.021583278 -0.26228827 0.13785073 -0.17794855 -0.070580624 0.58819133 0.08366828 0.25110468 -0.69897044 -0.13427262 -0.41480702 -0.7243926 -0.3907605 -0.5704997 0.32997185 0.07748606 -0.19603388 -0.41712025 -0.18182673 0.0396123 0.66049916 0.07622434 0.17499334 0.04750295 -0.3610096 0.09331943 0.1497602 -0.5696066 -0.5090567 -0.26394743 -0.06899639 -0.075902425 -0.45230842 -0.40240946 0.25482443 0.29227442 -0.20648503 0.5773903 0.10891328 -0.18418002 0.15302427 -0.042092804 -0.13049135 0.15123543 0.20023605 -0.4276456 0.3497696 0.5681062 0.01566681 -0.45333046 -0.12221534 -0.106672764 -0.020161338 0.006243138 -0.110143624 -0.037960872 0.4315272 -0.60692894 0.04148173 -0.29503384 0.08813478 0.28367 -0.3865733 0.22186139 -0.030029373 -0.37809864 -0.3571575 -0.16770524 0.17510681 0.19237483 0.21683526 0.38736042 0.26956853 0.46250784 0.018165795 0.5445552 -0.8127666 0.66310966 0.016661838 0.30921456 -0.13996185 0.3271573 -0.18432172 0.43580166 0.0063237096 -0.466378
249 -0.4152599 0.008321867 0.7303726 -0.27775872 0.33089882 0.2810626 0.19788428 0.51859164 -0.37426832 -0.36814806 0.5001032 -0.22093658 -0.11542096 -0.48275584 0.0017084234 0.44494447 -0.21657473 0.24888186 0.15414973 0.32862914 -0.2782538 0.34174347 0.06558958 -0.22562902 -0.6636629 0.32159778 0.15148126 0.15012734 -0.35027173 -0.30120844 0.03564677 -0.61587775 -0.28330296 -0.56129193 0.30780053 0.1353027 0.025389332 -0.45420063 -0.053879596 0.35437322 0.31183118 0.63933045 0.8326421 -0.19143507 -0.5714815 0.20645322 -0.38635474 -0.19257575 -0.9216704 -0.056763124 -0.087183334 0.09582223 -0.08611668 -0.102422476 -0.6241762 -0.36122653 0.5924573 -0.23930511 -0.18005343 0.20350249 -0.6480346 -0.4528272 -0.08532736 0.16436236 0.30914694 0.05475014 -0.30389097 0.40679732 0.21474686 -0.07136329 0.3594845 -0.6026937 -0.05036408 -0.26468664 0.48796117 -0.44476047 0.12327742 -0.18868935 0.19457029 -0.092923686 -0.057265505 0.7575391 0.8520601 0.0876123 -0.044414163 0.050183903 0.80017716 -0.40731606 0.059122313 0.046718307 0.38787955 0.31294343 0.02391083 -0.5490092 -0.15999617 0.2750518 -0.29120895 0.11139387 -0.22379568 -0.57223976 -0.052817713 -0.09181891 -0.35017043 -0.106788024 0.17640308 0.16289665 -0.41232255 -0.6980254 -0.20610291 -0.014331353 -0.24067244 -0.07620613 -0.030243557 0.4887485 0.032329768 0.07926405 0.46337625 0.21015829 0.08333869 -0.5016444 -0.3502421 0.061593167 -0.7056066 -0.05246364 0.14871845 -0.09773844 0.1781772 0.23996377
533 0.361534 -0.38916948 0.101464584 0.15867518 0.3048345 -0.13782112 0.04161802 0.16115355 0.27742976 0.29056427 -0.37975553 -0.20041367 0.030972557 -0.21283123 0.17492229 0.48798534 0.24244562 0.06412243 0.34525076 0.64302635 0.6460659 0.25307888 0.006864904 -0.32393265 -0.94524986 -0.15621062 -0.20430551 -0.8224239 -0.08633094 -0.076810695 0.08788934 0.10530967 0.10234827 -0.41856194 0.17474943 0.28486043 0.16767778 -0.536805 -0.15094608 -0.60418445 0.41983974 0.4364552 0.34196302 0.39607123 -0.19938073 0.2822897 -0.49800485 0.23539898 0.06638341 0.13133518 0.5840567 0.7163243 -0.17059845 -0.33475816 0.6798949 0.22227189 0.09966623 -0.2771909 -0.44652328 0.25477305 -0.45027298 -0.2826607 0.63242745 -0.016345058 0.2636198 0.53585255 0.29693082 -0.068126805 0.27578148 -0.79593605 0.19738197 -0.54087335 -0.56654525 -0.18652171 -0.1129716 -0.14258167 0.13535094 -0.07973083 -0.6552736 -0.12881869 -0.21919045 -0.21311899 0.3216983 0.46672148 0.24161993 -0.15834504 -0.29269588 -1.0435464 -0.24644516 0.35846215 -0.50918293 -0.5410437 -0.1875239 0.17652841 -0.48064357 -0.4311156 0.28303897 -0.050830048 -0.052914437 0.05430902 0.2726494 -0.14175467 -0.80021334 0.14548677 0.09906049 0.07485029 0.3074511 -0.49059242 -0.1291735 -0.019165123 -0.17385547 -0.34819075 0.06007984 0.015532424 0.3628294 -0.09306387 0.4590819 -0.14040086 0.28798956 -0.18251659 -0.095352896 -0.096911594 -0.11714961 0.0022886167 -0.9038437 -0.51637965 0.402983 -1.0958748
105 -0.29991314 0.0052563264 0.6056255 0.23724572 0.56524307 -0.44871208 0.024698291 0.2531587 -0.06611578 0.42020705 0.13908422 0.60207665 0.16584307 -0.20699233 0.3341011 0.09046598 -0.3628896 0.32181817 -0.18853961 0.39673954 0.10244777 -0.66960937 -0.18919246 -0.37095428 -0.29984865 0.284849 0.18571894 -0.23995794 -0.4594649 -0.321829 0.22284043 -0.097745314 -0.42106494 -0.43903208 -0.13569282 -0.08142765 0.046257693 -0.1317023 0.2889688 0.1803323 -0.34765354 0.0066468543 0.12271458 0.16498116 -0.2033472 -0.21740882 0.059641782 -0.11819275 -0.23492825 -0.09774386 0.24616489 0.30367744 0.087628484 -0.31883365 0.043246448 0.4166534 -0.079337396 0.018930292 -0.16335958 -0.3206373 -0.34616715 0.12494772 0.70684636 0.15884979 0.3674139 -0.38047504 0.12328775 0.39076558 0.23207521 0.2831857 0.641053 -0.022834951 -0.6054501 0.16951987 -0.10507006 -0.12595746 0.63853455 0.17290172 -0.03756837 0.32863197 0.2191702 0.24317877 -0.09360452 -0.20905116 0.15311185 0.8656585 0.6700872 -0.66531706 0.55325377 -0.0838093 -0.1550592 -0.40329742 0.10566926 -0.42905855 0.6239692 0.13426082 -0.3955857 0.07528246 0.5250104 0.51441884 0.498319 0.19731963 0.589601 -0.47168976 0.11990145 -0.20469978 -0.10207715 -0.47342688 -0.03699015 0.11719477 -0.5315471 -0.42081967 0.38157263 0.02764432 -0.3023879 0.086003 -0.0069883764 -0.15087304 0.36061525 -0.082639016 -0.13409823 -0.13317661 -0.16235101 0.6603098 0.13535897 0.08779685 0.06759713 -0.5958131
106 -0.04079045 -0.24714035 -0.053599965 0.28166667 0.27690396 -0.29358765 0.8658208 0.19102038 -0.08155548 0.32520163 0.6202778 -0.28103152 -0.06785864 -0.18242367 0.34708455 -0.1450304 0.23068249 -0.40419614 0.1772743 0.0029712322 0.36955678 -0.10223581 -0.28463116 -0.16378275 -0.1794221 0.026244408 -0.73083925 -0.41502833 -0.35796702 0.2707045 -0.6702461 -0.48650253 0.12613285 0.14793171 -0.2119442 0.075349666 -0.25988552 -0.578194 0.17985502 0.39268395 -0.31682026 0.6155476 0.14198577 -0.0999415 0.44942567 -0.17808251 -0.8222747 0.560814 -0.63987595 0.15839516 0.23555866 0.09755511 0.09796628 0.3649142 -0.4358534 -0.23384574 0.13324577 -0.19528003 -0.5606743 -0.51699895 0.32479912 0.083472475 0.41751027 0.16554368 0.7602115 -0.44406655 0.54286855 0.37866682 -0.12948675 -0.67596966 0.20211476 -0.4208962 0.7229571 0.12076223 0.47159258 0.14810003 0.3460279 -0.22904791 -0.11950885 -0.14850163 -0.8602707 0.35853687 -0.29166558 0.1345757 -0.089395784 0.7322168 -0.16260263 -0.34950015 0.36898103 -0.78512466 -0.32063 -0.17025302 0.67701745 -0.49926722 -0.009625486 -0.34628856 -0.19265464 -0.26188606 -0.11857864 -0.21778648 -0.085894205 -0.021952325 -0.09133475 -0.18404579 -0.29695424 0.29085308 0.09389414 -0.012133416 0.0034983633 -0.34232712 0.1318194 -0.052670177 -0.012149604 0.44499415 0.3135896 0.025718724 -0.18531887 -0.2658393 -0.2172343 0.23444211 0.5822987 0.001970633 -0.04555403 -0.14513211 -0.40809608 0.38314933 -0.3019201 0.50680166
21 0.33251268 -0.12838599 0.14723147 0.44640142 0.5441236 0.35736626 0.9359679 -0.36848053 0.26848912 0.01205943 -0.2711328 0.2350173 0.0030126488 -0.6666076 -0.0669643 -0.28368396 -0.07375629 -0.48081538 -0.37965617 0.5810457 0.44458443 -0.08647673 0.06632614 -0.5192439 -0.13218756 0.65022475 -0.6209413 -0.2668757 -0.29009297 -0.34810287 -0.5910553 0.32635316 0.7587637 -0.07337287 0.47682777 -0.09881859 0.018385727 0.060888134 0.097593896 0.072289094 -0.3656208 0.059702013 0.46382108 0.17241949 0.34581646 0.08173975 -0.1016746 0.21354072 -0.29024222 -0.19872805 -0.15557201 -0.24791257 -0.3606629 0.3469835 -0.39457384 0.26530328 -0.27721256 0.05973298 0.198628 -0.21498618 -0.44146967 0.030818902 0.42718217 0.03777348 0.18203409 0.40023386 0.48091945 0.14961801 0.2000701 -0.56000453 -0.024579797 -0.52561367 -0.6922252 -0.43243444 1.0166057 -0.3990825 0.28194934 0.14676303 0.5733536 0.06802256 0.11037624 0.3631472 -0.056925002 0.37711075 -0.36226463 0.4837679 -0.19524127 -0.15120345 -0.05336729 0.19090618 0.0053605754 -0.30465162 -0.3734098 0.14808722 -0.35136786 -0.1913656 -0.18963374 -0.17420742 -0.14640354 0.4507421 -0.7268987 -0.16256082 -0.21201542 0.16371475 -0.41554907 -0.3239529 0.027593432 -0.14206822 -0.5158837 -0.16658574 0.40893772 0.07797642 0.041361388 0.05838089 -0.11669299 -0.265814 -0.34679 0.5977317 -0.5914826 -0.046058 0.17758502 -0.1258195 -0.19103152 0.04343179 0.03446311 0.278558 0.008975934 0.19754224
84 0.15414262 -0.4748789 0.49308982 0.6581553 0.41360638 -0.37401718 0.1485843 0.091557086 -0.19506562 -0.09403562 0.086318195 -0.038242914 -0.8711301 -0.27207348 0.38364524 0.94105405 -0.05698138 0.36801383 0.048623238 -0.06942398 -0.19431442 -0.21670948 0.81385 0.3710484 -0.3860576 0.7844675 -0.15858448 -0.4533187 -0.71977556 -0.4555114 -0.46324208 -0.21208274 0.6780377 -0.07007095 -0.48336005 0.058257546 0.4915178 -0.20350067 -0.046809148 0.09435351 -0.33623108 -0.21232836 -0.43280816 0.55512065 -0.06765962 0.3365474 0.38538656 -0.30296934 -0.37854117 -0.042513445 0.25407222 -0.07070217 -0.15063538 0.2410518 -0.304385 -0.43878496 -0.191257 -0.17341864 -0.6049464 -0.37930733 -0.14030823 -0.019913925 0.068618946 -0.66616416 -0.091448404 -0.7219141 0.15923849 -0.2834266 0.60939795 0.08091476 -0.8378756 -0.29699308 -0.26984763 0.073905535 0.17592782 -0.41599756 -1.0830455 0.65634274 0.05948624 0.33948636 0.30153492 0.28720984 -0.05082401 0.18991224 0.89681256 0.4932359 0.84676963 0.03327986 0.67767256 0.27482554 0.13433935 -0.13590729 -0.6193876 -0.017343415 -0.63547695 -0.052238356 -0.24499737 0.1678063 -0.021640021 -0.17976491 -0.38470763 0.22129603 -1.0356848 0.09450719 0.80815727 -0.20547181 0.07074431 0.123799786 0.38574544 0.089643784 -0.16962077 0.61208767 0.2319082 0.20048344 0.51230323 -0.3450746 -0.32473874 0.20554976 -0.43915498 -0.090445995 -0.41750264 0.28703997 0.24218626 0.7068318 0.41711804 0.1768514 -0.3863884 -0.29493937
283 0.17616384 -0.22821756 0.10341433 0.79938376 0.3837339 0.16362303 -0.8665564 0.1987047 0.20900077 0.20776092 0.24434854 -0.21184768 -0.17910598 -0.15301487 0.39497617 -0.0936984 -0.30279052 0.5814327 -0.2238 -0.07382334 0.24974494 0.45826644 -0.066106915 -0.62102026 0.07384019 0.26597145 -0.073010325 -0.18410677 -0.5547659 -0.29564345 0.08644673 0.21545523 0.51129144 -0.15184876 -0.11083068 0.38146454 0.16226357 -0.52847135 0.083508775 0.14366135 0.14409313 0.28919804 0.18821956 0.61532414 -0.20191087 0.4251565 0.2661647 -0.6333806 -0.19268484 -0.14732333 0.11506545 0.3144524 -0.950124 -0.05926913 0.037793674 -0.3386183 0.17487037 -0.0060482216 -0.52965426 0.41830426 -0.2166548 -0.065311305 0.24937479 -0.41261002 0.35689813 -0.74144626 -0.21650115 0.041865513 -0.26387694 -0.2907079 0.11587984 -0.24476163 -0.031778548 -0.55969566 -0.04543289 0.24792865 -0.17533779 -0.21934459 0.1276679 0.056237236 -0.10794181 0.15894417 -0.075396284 0.1515162 -0.2541626 0.73888 0.09807086 -0.03910554 -0.14475666 0.77036965 0.297493 0.29864585 0.64371353 -0.53635496 0.25897488 0.08125189 0.12957448 0.031214766 0.19419086 0.112383574 -0.27335268 -0.18521854 0.3192821 0.62799096 0.45915356 0.23365265 -0.28469643 -0.5716234 -0.42965183 -0.06706906 -0.20586537 -0.32082728 -0.34062415 -0.471669 -0.24423279 -0.54166144 -0.035959348 0.22350721 0.20605369 0.019885084 0.28561378 -0.27665618 0.039231963 -0.3976903 -0.3265618 0.3585071 0.23259437 0.14969936
128 0.03126512 0.33311212 -0.4697425 0.65159273 0.9154243 -0.22574165 0.34611344 -0.44777426 -0.09214189 0.19201705 -0.3309114 0.14459388 -0.356862 -0.212645 -0.08074291 -0.052273244 0.071051314 0.21176197 -0.30095565 0.058075573 0.30728963 -0.20321208 0.5544952 -0.4228768 -0.42034847 0.3817316 -0.32686168 0.8893179 -0.017420437 -0.038327094 0.07241807 0.32460397 -0.33585244 -0.3758076 -0.12200311 -0.03282069 0.054659054 -0.19401057 -0.5234687 -0.16657597 -0.76815706 0.08806848 0.6582093 0.17970462 -0.014567541 -0.11129871 0.080385335 -0.055048324 -0.6636264 0.28723586 0.15332784 0.791644 -0.20097144 -0.2773514 -0.24055317 -0.31626227 0.39340577 0.23613086 0.065462865 -0.051156484 -0.3980144 0.6073222 -0.23164287 0.05167089 0.29416692 -0.19324468 0.41135773 -0.48553127 0.30129093 0.15627868 -0.06692384 -0.13952634 0.23476183 -0.4443525 -0.2196759 -0.58251834 -0.18658324 0.14372873 -0.42804906 0.5427082 -0.4080503 -0.05989551 0.2053782 0.5237698 -0.17115492 0.73008025 -0.19326046 -0.2201318 -0.009393485 0.41072008 0.07566798 -0.43548688 0.1907648 -0.56283975 0.2204173 -0.17776261 0.39679366 0.16615832 -0.28261954 -0.19107889 -0.079887554 -0.16777162 0.13291906 -0.10856387 0.049424995 0.47396976 -0.21567202 -0.24471152 -0.38415602 0.03558201 -0.037901133 0.025531063 0.40675467 -0.2261371 -0.42191324 0.2213525 -0.31404865 0.5988502 0.52064073 -0.86335456 0.078112856 -0.29691842 -0.8722777 -0.2943342 0.0930799 -0.39352322 0.1709052 0.08273936
114 -0.14398836 0.48618728 -0.26657978 0.8465994 0.26054433 0.4566047 0.51950073 -0.3565286 -0.4322659 -0.6840523 0.2068029 -0.18768622 -0.05099062 -0.13024706 -0.3792898 0.087239325 0.45714426 -0.20444441 -0.2493916 -0.23559952 -0.39011714 0.014063148 -0.06850057 -0.42359608 0.06739383 0.38323876 0.12987606 -0.44632468 -0.1900641 0.12404243 0.40910134 -0.4606393 0.33175245 -0.23104924 -0.40108117 0.71797 0.35304034 -0.09288172 -0.14186235 0.23899604 -0.106477 0.33802387 -0.2608976 -0.11888316 -0.57916176 -0.19301026 0.3897918 0.008229529 0.10448351 0.109906115 0.15267277 0.16860099 -0.109034434 -0.03684966 0.3272478 -0.17700508 0.6468234 -0.05197958 0.07026842 -0.20790711 -0.21855411 0.17326635 0.69864345 0.1540975 0.9037755 0.3927523 0.5294144 0.08072443 0.2873289 -0.065622374 -0.21709767 -0.44588575 -0.7532215 -0.50122297 -0.0020698777 0.06162993 -0.10854861 -0.19308513 -0.6540638 0.67541426 -0.46753794 0.4041723 -0.29949075 0.25589952 -0.25095993 0.25400046 -0.06605875 -0.47629148 -0.8439071 -0.44422287 -0.643107 -0.7416526 -0.11506578 -0.23591927 0.10211776 -0.55586934 -0.21149468 0.32399616 0.2081947 0.08084145 -0.30644915 0.0334598 0.074284606 0.2067795 -0.33870897 -0.21747442 -0.026494235 0.8494103 -0.2667698 -0.48122096 -0.12297403 0.6270546 -0.51674753 0.0081235105 -0.27609178 -0.15077862 -0.5341918 0.26410306 0.6893247 -0.011053461 -0.27108592 0.37692773 -0.2900393 -0.3424285 -0.39197966 0.077266745 0.2922649 0.15735932
420 -0.17018047 -0.13223284 0.07823696 -0.23154376 -0.1965631 0.46210176 0.88422096 0.07963004 0.86016536 0.60456866 0.30597165 0.54453534 0.025273457 -0.18466988 0.55759877 0.022816526 0.031239206 0.090689056 0.10186653 0.4678534 -0.28399497 0.24135719 -0.053511858 -0.71828306 -0.6625385 -0.38230973 0.6529599 0.032134674 -0.6067389 -0.17920904 -0.29789874 -0.105601676 0.62154746 -0.37668338 -0.5491444 0.31229663 -0.49125153 -0.057104446 0.2610717 -0.44229153 -0.27304888 -0.4969654 -0.3834433 -0.012685367 0.07136776 -0.2906823 -0.01176135 -0.5439006 -0.33337334 -0.1534681 -0.18521416 0.09585313 -0.062053587 -0.23851724 -0.5217854 0.28709385 0.03144945 -0.010705148 -0.8907077 0.5283487 -0.4954974 0.4798882 0.69015974 0.43469852 0.17854953 -0.14523116 0.5598128 0.24012993 -0.022020873 -0.3788527 -0.268254 -0.7787651 -0.23504551 -0.35208356 0.25430822 -0.28220734 -0.5929808 0.1494797 -0.28166735 0.05700257 -0.38285625 0.20292138 -0.0132925045 0.9843625 0.029226094 0.015134571 0.3226389 0.0630598 0.5867372 0.19518654 0.47601902 0.3359526 0.43199435 -0.27983436 0.119209535 0.3565808 -0.6838987 0.66917574 -0.14563696 -0.04005133 0.5050141 0.2723098 0.25033385 0.59232926 -0.1664459 0.565737 0.19930509 -0.030667396 -0.27019125 -0.6115574 0.19970648 0.50403786 0.59039277 0.06917142 -0.48018742 -0.4903169 -0.27340358 0.34676072 0.26711583 -0.47900376 -0.07933246 -0.066945046 -0.38891754 -0.047346182 -0.25450027 0.14611083 -0.2010004 -0.34946847
83 0.36490396 -0.42514473 0.3523058 0.016360423 0.8379695 0.04870034 -0.22326475 -0.06369095 -0.20254736 0.49740097 0.69372296 -0.044013813 -0.18846887 0.026625007 -0.35911772 0.05874235 -0.37046176 0.019070946 0.14206086 0.15903334 -0.06766339 -0.11063285 -0.59907126 0.06547245 0.2414695 0.4369682 0.1449154 -0.36706722 0.32663545 -0.28425053 0.20901868 -0.13385926 -0.45813406 0.4049337 0.10788664 -0.048999615 -0.011278307 0.46768734 0.17167069 -0.009084988 -0.18574703 -0.29178762 -0.038564805 -0.08067261 -0.6805274 0.036147233 0.27431956 -0.05592677 -0.19093329 -0.2891573 -0.07959832 -0.095219284 0.02207622 -0.032486036 -0.42116913 -0.8641078 0.34821653 -0.07055095 -0.33424833 -0.13252208 -0.19332522 0.37755805 0.7020796 0.0506156 0.81931216 -0.3089909 0.065604635 0.3837245 -0.17140174 -0.08761311 0.07090476 0.4345191 0.41702288 -0.60139644 0.4994035 -0.13628677 0.005431764 -0.09367237 0.23626724 -0.24204175 -0.3813725 -0.021945026 0.034456253 0.6464379 0.04781612 0.6017398 0.019883567 -0.07170115 0.56047493 0.28734356 -0.18268637 -0.21565515 -0.41540802 -0.3164289 -0.32502317 0.32717085 -0.17135347 0.0012550362 0.18041778 -1.0044596 0.32788855 -0.24772169 0.06772659 0.15645802 0.05895219 -0.66777474 0.01344658 -0.4030726 -0.095618226 0.18533997 -0.283948 -0.25734374 -0.2958194 0.01682331 -0.017586576 -0.518618 0.3031624 -0.15554969 0.09719107 -0.4606331 -0.38386452 -0.16077502 -0.3624351 0.34520474 -0.17728995 -0.5958869 -0.28292227 0.27904427
333 -0.006516406 0.25590003 -0.2795996 -0.0036101926 -0.32739943 -0.28797817 0.15819272 0.6425857 0.075708546 0.34995344 0.42644206 -0.25153658 0.22774827 -0.7472009 -0.17375328 -0.08249745 -0.060193308 -0.3872841 -0.14435478 0.20237724 0.49642903 -0.17352696 -0.28923368 -0.5508905 -0.27186197 0.33113962 -0.44405547 -0.3056186 0.025372414 0.1797056 -0.36857748 -0.29223928 -0.61317766 0.40727654 0.042128053 0.45909548 0.15286197 -0.18696071 -0.46867847 1.0746125 -0.27434182 0.30348358 0.05958361 0.24606107 -0.21262364 -0.1713857 0.332651 0.10565169 -0.38255644 -0.3677576 0.20370184 -0.20845775 -0.49651277 0.39735445 0.28313914 -0.13445966 0.23842718 0.021886617 -0.16130134 -0.044769514 0.056719292 0.001985331 0.4306185 0.017926402 0.15539953 -0.4980444 0.23451698 0.48055723 0.017112691 -0.15553561 -0.17777616 -0.13509962 -0.19271716 0.05766791 0.43368858 -0.22635531 -0.08382542 0.082211375 0.063849896 0.5955081 -0.06245478 0.38450053 -0.0056874636 0.12598261 -0.48779446 0.19476534 0.67010546 -0.31117806 0.12958235 0.64795136 0.5690712 0.3156857 -0.05924683 0.37272763 0.11208844 -0.48378223 -0.43319687 -0.4291573 -0.022164132 -0.44041938 -0.29280242 -0.18539523 0.08191406 -0.26466668 -0.103210784 0.62613624 0.37993395 0.6027079 0.018792972 0.0064993794 -0.5945326 -0.056635905 0.035734423 -0.10798164 -0.19782595 -0.24617633 -0.16052051 0.015145082 0.11783929 0.09082066 -0.55829847 -0.46902627 -0.060484882 0.04260519 0.14594123 0.5903951 0.37932694 0.071138114
142 0.4989159 0.24733089 0.1390764 0.70861113 0.6774569 0.23358102 0.3663151 0.738324 0.020017922 0.19156168 0.57292545 -0.08251825 0.027416138 -0.21701594 -0.06870846 -0.28064483 -0.10119762 0.11007736 0.2947046 0.06969366 0.26193717 -0.051538687 -0.35257697 -0.73578113 -0.08503723 -0.14284736 -0.07779726 0.02290144 -0.39905027 -0.34150526 0.18563113 -0.137158 0.466059 0.07055846 -0.26034963 0.48125243 -0.26113427 -0.11107565 -0.2030284 0.024300149 -0.42069006 -0.068139575 -0.2299682 0.2670184 -0.23317412 -0.28592435 -0.72837406 -0.3992173 -0.15213549 -0.26683533 0.25197366 0.7408889 -0.06850698 -0.3662726 -0.44132775 0.109906994 0.40143663 0.37028065 0.42950445 0.10626876 0.23632112 -0.22559033 0.16187312 -0.3115908 -0.33829862 -0.14813939 -0.1379133 -0.048973225 -0.014884941 0.49892485 -0.15868443 -0.71519154 0.40305126 -0.5339611 -0.053252216 0.2381765 -0.1969654 0.2817906 0.20283698 0.31897548 0.23414615 -0.24483128 0.12400554 -0.035793666 0.54641384 -0.2739744 0.79588735 -0.32589245 0.09388457 -0.15893786 -0.38383707 0.26133385 0.33356127 -0.59424305 -0.0874706 0.6120917 -0.17882897 -0.23946342 0.020241534 -0.20066851 0.34011707 0.29341677 0.13158272 0.67205477 0.076557145 0.38137636 0.15930535 -0.08436239 -0.26825783 -0.497622 -0.23250607 -0.90034676 -0.26611167 0.14130683 0.561466 -0.36429983 0.0665405 0.5347428 -0.8489106 0.036565114 0.5149929 0.35951144 -0.81733084 0.5305531 -0.05087363 -0.022831414 0.10728038 -0.2507267
301 -0.063227616 -0.026123667 -0.06872919 -0.33528164 0.37210223 -0.17563422 0.30559248 0.16294008 -0.43207034 0.15985088 0.29911247 -0.016335834 -0.7092795 -0.54417336 0.6515443 0.43582156 0.40758973 0.42409948 -0.05462669 0.25865072 -0.55427253 0.77749354 -0.8240272 0.5273976 0.45069718 0.67421937 -0.45838422 0.18498237 -0.72776896 0.6536964 0.1647021 -0.24169534 -0.5649777 -0.41708013 -0.31046665 0.3813699 0.059055228 -0.27841964 0.34446055 -0.3301247 -0.013143162 0.14208268 -0.17538735 0.6206693 -0.2617054 0.5765525 -0.52471566 -0.22054823 -0.004216836 -0.10677552 -0.03976684 0.24035314 0.5579462 -0.03971844 -0.08285184 0.14024034 0.16930743 0.17218398 -0.1147142 -0.38604876 -0.37625584 -0.15206996 -0.25673172 0.21409307 0.09495762 -0.03526952 -0.010567134 -0.08706085 -0.73605275 -1.1981368 -0.79613113 -0.3339912 -0.3829542 -0.39352718 0.40213802 -0.24399228 -0.41150716 0.06389625 -0.32095027 0.18318966 0.24457017 0.2087748 0.39409035 0.10869595 0.16571917 -0.08359037 0.7571084 -0.9293159 0.36056826 -0.13975592 0.39696684 -0.5963893 -0.1984597 -0.36076015 -0.031030716 -0.265317 0.36052898 -0.32400143 0.17955716 0.08835091 -0.8146648 -0.48707566 -0.33820271 0.2101701 0.6983984 0.48787165 0.22634494 0.1245661 -0.07665266 -0.43972915 0.095993996 -0.2830756 0.09902834 -0.025338678 -0.0906008 -0.39831415 0.29605976 -0.12547635 0.17043997 0.36375934 -0.32037023 0.4959594 0.17530337 0.06958101 0.48329872 -0.07838344 -0.009773625 0.5244053
87 -0.03333318 0.32642302 0.021764705 -0.4486546 0.4564431 0.59483427 0.48507527 -0.52059865 -0.002892457 0.38111463 0.1693882 -0.07288003 -0.42318976 -0.43646607 -0.2516812 0.18001531 0.045479074 -0.2705 -0.45753592 0.22908285 -0.060590364 0.23572531 -0.16431664 -0.5637883 -0.26509413 -0.15224974 -0.008491392 -0.069664896 -0.2418927 -0.042161725 0.01570369 0.42552897 -0.13661847 0.07377448 0.24965303 -0.33297822 -0.008020713 -0.40656054 -0.69232124 -0.13081385 -0.19823563 0.26277286 0.3546219 0.21596314 -0.3494609 0.7109663 -0.19542414 -0.18831445 -0.36464697 0.4796869 0.31178784 0.3259147 -0.17991781 0.45116782 0.040035672 0.3230499 0.7432332 -0.74273753 -0.19023885 -0.17947547 -0.097416036 -0.142056 0.50061285 -0.51925313 0.43342173 0.85815626 -0.32616106 0.17306006 0.17681861 -0.1424612 -0.28436896 -0.16089685 -0.2381629 0.17843765 0.10392698 0.2318346 0.13007595 -0.33687705 0.24177161 -0.32043657 0.11796765 -1.0747452 -0.01208381 0.26117402 0.35375965 0.2893376 0.58944243 -0.22084387 0.70641387 0.21360171 0.14758995 0.20081681 0.22709337 -0.34037238 0.17640044 0.16694283 -0.235585 0.41622892 0.035639983 -0.43463993 -0.06911504 -0.16066553 -0.37113157 -0.1189027 0.26017302 0.014925355 -0.5792525 -0.005451131 -0.17696516 -0.91873014 -0.102500245 -0.39025748 0.07968727 0.19889165 -0.6245727 -0.15979886 0.6156582 0.44102326 0.15480931 0.4677462 -0.5708893 -0.2932968 -0.49822026 0.62750846 0.3817342 -0.11546221 -0.121027455 0.14069034
282 -0.2965512 -0.08745528 0.38350016 0.025107687 0.300458 0.29194966 0.21194579 0.037562676 -0.06448678 0.5903057 0.19385208 0.05251091 -0.05861722 -0.46984917 0.5825838 0.2815968 0.70927864 -0.022386469 0.16928037 0.23968361 -0.32801497 0.5622454 -0.23105809 -0.4004775 -0.176544 0.12107215 0.051046997 -0.47279698 -0.43838358 0.28024787 0.06838236 0.016814992 0.10405343 -0.62484616 0.43254372 0.48894653 0.05009334 -0.22591065 0.17836632 -0.72435695 -0.97204655 0.53798974 0.03495794 0.076205365 0.4795894 0.06450795 -0.41327956 0.069057405 0.047211338 0.4330776 0.47536495 -0.17448924 0.01466742 0.067041636 -0.34394652 -0.05242083 -0.18407428 -0.20476444 -0.07214758 -0.15810025 -0.21157633 0.41296786 -0.06900364 0.45566466 0.46979126 -0.5135754 -0.014764943 -0.35406667 -0.0055552456 0.09670445 -0.14540945 -0.08139915 0.38317332 -0.41318154 -0.66173357 -0.37021935 -0.9118555 0.6141258 -0.12392265 -0.21305908 0.3132812 -0.08994608 0.2878471 0.59446895 0.76028967 0.1912613 0.212487 -0.060876105 -0.057915807 0.50102043 -0.52071863 0.20773105 -0.79792887 0.12084674 0.6845774 0.38988152 -0.6845919 0.33092633 -0.0013091961 0.1552792 0.17800352 0.49936157 0.24391155 0.23782502 -0.10598098 -0.03232659 0.53959745 0.5601752 -0.48042196 -0.56777185 0.10412162 -0.3109827 -0.06823202 -0.20454004 0.015036747 0.23764041 -0.30393535 0.845806 0.37313995 0.11688562 0.019055566 -0.12936372 0.20022741 0.98523456 -0.068320885 0.10213899 -0.66679305 0.2849239
820 -0.2559828 -0.25813565 -0.47131053 -0.47682595 -0.2381719 -0.1643984 0.21454333 -0.2965245 0.7344034 0.23782241 -0.2766769 0.14395581 0.32946855 0.30566624 0.039109413 -0.12546377 -0.8522525 -0.2615895 -0.25287133 0.3420029 0.17940873 -0.72249484 0.4778251 -0.28735334 -0.51041967 0.44466853 -0.25258362 -0.090200916 -0.51405567 -0.590778 0.1274976 0.5265807 0.8045714 -0.058120634 -0.33581793 0.20430739 0.22259751 0.07349476 0.01892221 0.32224494 -0.21302135 0.160723 0.028553355 -0.07175158 0.21624087 0.096131496 -0.10588285 -0.684317 -0.59977335 -0.27753237 0.009374782 -0.06838035 0.30730802 0.4645686 -0.23252156 0.32406193 1.01931 0.19875278 0.051113408 -0.03109952 -0.7579823 0.43791512 0.10546856 -0.0762621 0.5792707 -0.005901371 0.08619252 -0.426082 0.3209146 0.07323663 -0.42512253 -0.19121483 -0.34007958 -0.17565027 0.019768082 0.005641582 -0.56536835 -0.23502307 0.070769064 -0.08456581 -0.48661214 0.10120689 0.3709144 0.037479375 0.42998177 -0.10251683 0.9792777 -0.74815875 0.15792146 0.5047683 -0.15322089 -0.38361952 0.49960604 0.27712926 -0.095288225 0.050700262 0.2812607 -0.381319 -0.056865208 -0.61554307 0.038837425 0.39271927 0.5536936 -0.45731667 -0.20341985 0.06870962 0.39628118 0.2572396 0.40057164 0.37603906 0.4800902 -0.65511215 -0.19489086 -0.4616499 -0.2386314 -0.15439838 0.22798298 0.23868658 -0.038337618 0.03313267 -0.2125766 0.117903344 -0.44025382 -0.50288 -0.3762602 -0.96232057 -0.1691315 -0.39152008
424 -0.39284852 -0.111865476 0.09534767 0.17676786 0.0872067 0.005917977 0.166191 -0.8736964 0.14134455 -0.28536946 0.1406415 0.09345038 0.40050906 -0.3513391 -0.13682777 0.063144416 -0.69481504 -0.11577912 -0.17631343 0.2049762 0.28446537 0.5880389 -0.17698914 -0.38439578 0.18697484 0.4670113 -0.1334019 -0.27597263 -0.5119285 0.13297741 -0.207848 0.19178402 -0.289854 0.08553118 0.32248047 0.3362801 0.05111762 -0.07673277 0.12345246 0.57983726 -0.1418204 -0.6301068 0.27445206 0.53177017 0.18218905 -0.22305326 -0.88584316 -0.06868636 0.10246843 0.4325551 0.3739303 0.07616222 -0.29842082 -0.3796395 -0.52379084 -0.115437955 0.08532657 -0.015432313 -0.14870238 -0.38632524 0.065740496 -0.036535904 0.18677719 -0.24306189 -0.011039553 -0.10073322 0.25052556 0.4776505 -0.0124166645 0.0014727833 -0.15383728 -1.0255262 -0.20783609 -0.07816673 -0.35089588 0.54474443 0.13117377 0.39255357 -0.5992804 0.31224594 -0.13393179 -0.4290491 -0.11278342 0.17391858 0.111531585 0.22887984 0.06466224 -0.5465469 0.4530729 0.15410541 -0.069536395 -0.034952804 0.57390547 -0.043873318 -0.27212852 -0.6679339 -0.15720549 -0.03316638 -0.41254103 -0.14432625 0.76040244 -0.28984052 0.32576022 -0.07029284 0.5545342 0.11087667 -0.24500486 0.52787995 -0.55963933 -0.19682167 0.017659219 0.20187546 -0.26018292 0.118034 -0.1958478 -0.77996325 -0.16935304 0.03272846 -0.24006806 0.33141816 -0.113144 0.034554277 0.3503581 0.42638695 -0.18104115 0.11564133 -0.17698379 0.3217559
115 0.19629607 0.6680723 -0.36143053 0.8030751 0.6659892 0.008586256 0.43425024 -0.19467716 0.136372 0.011203921 0.15886085 -0.44414535 0.5418085 -0.58827466 0.44823998 0.5695875 -0.07397534 0.07427898 0.38529775 0.3030174 -0.26678726 -0.2316712 -0.003302341 0.07311053 -0.19140461 0.30707282 0.037582774 -0.15041208 0.20281212 0.5851418 0.1025225 -0.4022913 -0.20255016 0.5760999 -0.56173533 0.85824007 0.21907912 0.07582924 0.03885338 0.65371007 0.22472385 0.8260883 -0.17783155 -0.27379367 0.25868 -0.26651904 -0.107266955 0.30934465 -0.26402584 -0.02785915 0.23504242 -0.12931521 0.08192556 0.04207639 0.18024729 0.12857838 0.4453752 -0.33866385 -0.38753322 0.14293544 -0.39162624 0.18247488 -0.40166247 0.16193902 1.0844698 0.51406884 0.1538338 -0.002173041 -0.2297855 0.7733145 -0.21134178 -0.38857135 0.1188097 -0.4232706 -0.19368142 0.344925 -0.34725118 -0.18224756 -0.5137071 0.18882146 -0.04135681 0.3553619 0.49951893 0.2201372 -0.1247756 0.45689267 0.41351902 -0.017964201 -0.478782 -0.30378458 0.30297735 0.35232222 0.15996033 -0.7947529 0.04839352 0.4246714 -0.54990816 -0.18061802 0.21625131 0.36353624 0.05964973 0.06466102 -0.0029466425 -0.06099871 -0.36925068 -0.057406858 0.33228776 -0.18624881 0.09871209 -0.3773954 -0.12942538 -0.7310926 -0.103152014 0.928837 -0.07873943 -0.576071 0.44370997 0.39251897 0.48978215 0.14815423 -0.056778967 -0.16481979 0.34724987 0.41719347 -0.07012755 -0.73427665 -0.6723333 0.13136691
96 0.023921488 0.16793184 -0.75387156 0.37199214 0.39625186 0.22923405 -0.14780141 0.11390384 -0.24326907 0.48936203 0.10903614 0.7028979 -0.26017612 0.1255417 -0.5678133 0.09586978 0.36736402 -0.26297832 -0.1443507 -0.112369016 0.10059836 0.33283976 0.3759117 -0.29667976 -0.2299214 -0.106564924 0.12923607 -0.16522013 0.57175696 -0.035225462 -0.37861478 -0.3601735 -0.4616614 0.27534145 0.40558752 0.20039766 0.48464328 -0.020103533 0.7971991 0.85816205 0.14091532 0.25272563 -0.18834545 0.6838491 -0.40778354 0.023035811 0.31969795 0.38957986 -0.4698912 -0.37312675 0.46096808 0.5596876 -0.59734714 0.040692896 -0.36268136 0.401699 0.4198513 0.69331086 0.3921093 -0.34171563 -0.30595192 0.22837158 0.346864 0.16964549 -0.07158681 -0.0598926 -0.02414837 0.072964765 0.47799474 -0.106626034 -0.30537382 -0.7476556 -0.06965484 0.6208087 -0.17815804 -0.6420554 -0.7495488 -0.13508813 0.09687366 0.086086504 0.3108994 0.42758703 -0.0035599691 0.4223855 -0.18346907 0.46662235 0.55299675 -0.12937221 0.5657588 -0.0533538 0.31801957 -0.3966416 -0.67112124 -0.77874124 0.19853131 -0.28794548 -0.7190691 0.031610455 0.74314827 -0.0072960923 -0.74810266 0.7034061 -0.34167403 0.6664931 -0.09137111 0.0949221 0.25803182 0.082488276 -0.16751075 0.048671164 0.20679878 0.050090488 -0.14464581 0.6094557 0.31595048 0.20343325 0.93776476 -0.35080704 0.1357982 0.41903153 -0.14395037 0.19816425 0.09337908 0.09910787 0.1456022 0.21348532 -0.50030684 -0.17808099
256 -0.3216195 0.1469376 0.45558536 1.2660171 0.43637943 0.11363567 -0.16021213 0.33373436 0.5110466 0.39814392 0.17934202 -0.5286112 -0.5070553 -0.36239603 0.12002972 0.27152318 0.08218413 -0.001655979 0.12217765 0.5498653 -0.47059625 -0.13955756 -0.023624765 -0.70849395 -0.6202225 0.33709982 0.32075793 -0.324915 -0.18221386 -0.052366953 0.22235695 0.23456793 0.23681173 0.3166117 -0.011456731 0.03187562 0.18897715 0.29820153 -0.013593315 0.22275153 0.2659703 0.18439032 0.065783285 -0.6336118 0.095552005 0.030014953 -0.32214487 0.5528622 -0.2896238 0.12549737 0.25670928 0.71934146 -0.042610627 -0.15797749 0.096758746 0.17925762 0.3105579 -0.31500882 0.8749808 0.060790937 -0.3092088 0.5404682 0.2125855 0.025033515 0.26656434 -0.16577588 0.37990022 0.10768557 -0.39144838 -0.28989553 0.6359054 -0.0142889535 0.039190628 -0.6816035 0.32997507 0.08649133 0.13168594 0.22437909 -0.25062522 0.35070896 0.19727321 -0.090282984 0.5002441 -0.45274282 -0.43449378 0.4521586 0.7732783 -0.20127808 0.12103709 0.18935598 0.76489687 0.50217843 0.22688296 0.12553243 0.32175267 -0.51794857 -0.29512456 0.3345589 0.34656757 -0.4896587 -0.31451604 -0.2918877 0.28888372 0.7328571 0.081229 -0.38604525 0.729625 0.24182917 0.24639656 0.15813348 0.28084436 -0.018149585 0.11249565 -0.26015508 0.23199207 0.1863924 -0.21975714 0.41846672 0.16609624 -0.29160908 -0.11220205 -0.36439514 0.07432247 -0.006630678 -0.17713344 0.04032568 -0.5275534 0.04881892
63 -0.14899752 -0.09487613 -0.46302247 0.70235544 0.32461533 0.090763174 0.6200808 -0.01861682 0.6205425 0.40179858 0.6397829 -0.23449653 0.26155058 -0.30706525 -0.020214804 -0.4781947 -0.23925953 -0.055511475 -0.40375218 0.7391448 -0.37604585 0.18936415 0.43325025 -0.47929394 -0.15383294 0.37179536 -0.015395388 -0.03677303 -0.45511064 -0.31427053 -0.069254726 -0.09047794 -0.46835485 -0.00032340325 -0.015630146 0.22951818 0.016646931 0.56471187 0.32788664 -0.011515267 -0.23519692 0.471196 0.4970504 0.50280637 -0.12140859 0.714105 0.25072902 -0.08249145 0.043178044 -0.11752316 0.16839927 0.36505252 -0.21079248 -0.15330073 -0.34443018 0.14209752 -0.13924176 -0.50426406 0.840702 -0.112028345 0.1990821 -0.19109859 1.1263247 -0.2911841 0.3029699 0.34835437 0.136937 -0.25798917 -0.0067941574 -0.5389218 -0.34601817 0.18685941 0.7249931 0.40177107 -0.22344807 -0.07894254 0.27393937 0.2735067 0.4718379 0.37408733 0.62891495 0.365989 0.38824955 0.44868043 0.29678112 0.26071432 0.39724734 -0.39575875 -0.29989365 0.45518452 0.16126947 -0.29164386 -0.71642625 -0.10182666 0.71214575 0.46138778 0.06372189 0.115825005 0.36897013 -0.3125891 0.26077715 0.4927945 0.07475942 0.5833501 -0.018720282 -0.289007 -0.066438705 -0.5460799 0.19748047 -0.29991758 -0.041193176 0.608896 0.24450184 0.2901043 -0.23800515 0.08954782 -0.61593056 -0.09786628 0.25525016 -0.24882613 -0.1859119 -0.47134697 0.5159399 -0.5558356 -0.4839833 0.31618324 0.19569676 0.53525054
405 0.30576003 -0.52960634 0.24961887 0.024912708 0.23018686 0.063541405 0.12747143 -0.16628607 -0.66839755 -0.3223018 0.42875898 0.1251174 -0.33656907 -0.25164235 -0.33222538 -0.15826434 0.09850647 -0.32391232 -0.14473124 0.47551483 0.08919366 -0.06628104 -0.48534247 -0.7371414 -0.7491885 -0.038776416 -0.28235373 0.4598099 0.2754639 0.12089999 -0.5413718 -0.23434061 0.39177012 0.48838937 0.59520614 0.99852 0.3362504 -0.18834293 -0.6265931 0.62670934 -0.6094741 -0.22031395 0.19882807 0.03646747 -0.43565753 0.09786719 -0.15471824 0.14925827 -0.1304689 -0.001056751 0.06923488 0.5830635 0.09868894 0.23293647 -0.21889728 0.3605799 -0.19476411 -0.22436649 -0.3957814 -0.25046638 -0.6161652 0.1357621 0.06248759 0.02061064 0.1594819 -0.16850294 0.017238773 0.23030809 -0.039507084 -0.18920745 0.36451885 -0.32039943 -0.1084658 -0.81001353 -0.04815582 0.8192629 -0.18980813 0.08617616 0.5625923 0.4902688 0.27370378 0.5442844 -0.23760012 0.38626987 0.0042741583 0.18904501 0.40048313 -0.8724489 0.14458005 0.0928987 -0.47360748 -0.57789856 0.26741603 0.0017009691 0.24661788 0.053099867 -0.20612392 0.2857199 0.10597249 -0.6720921 0.04310538 -0.5373434 0.1035736 0.24340892 -0.36774734 -0.3152531 0.78717417 0.51655316 -0.5048057 -0.37563944 0.41999876 0.261819 -0.7607727 -0.004282858 0.0022768327 0.10504924 0.53895277 0.3099989 0.8414112 -0.22065563 0.17212862 0.0076777865 -0.42614698 -0.042507138 -0.16269884 -0.14947203 -0.34168488 0.34366742
58 0.6314925 0.45039704 0.025500633 0.07811143 0.74401087 0.028946398 0.4242158 -0.15875551 0.36222732 -0.104175285 0.24503513 -0.30768615 -0.25774953 -0.07991946 0.4130066 0.00042577874 -0.09624601 -0.23151524 0.0778406 0.5846482 0.20019111 0.24177486 0.34529316 -0.6325838 0.2532949 -0.5061955 -0.4373671 -0.25615525 -0.003902732 -0.3973889 -0.755625 -0.32087392 -0.037776697 -0.07651518 -0.3265234 0.5751221 0.23377849 -0.7081761 0.57476145 -0.35229042 -0.3530521 0.14623189 0.502208 0.23737551 0.16040207 0.7123503 -0.28695315 0.037006367 -0.46216035 -0.14276259 0.122514345 0.16279382 -0.20058867 -0.34418294 0.26398608 -0.16849157 0.014831076 -0.0047499314 -0.34151688 -0.1285446 -0.27070323 0.24360876 -0.20487894 -0.8932566 0.6162785 -0.38161477 0.17702654 0.16791728 -0.31475794 -0.110069305 0.058322802 -0.6251281 -0.035659727 0.38828698 0.40006882 -0.21589215 -0.32607764 -0.98802394 0.22674218 0.029991752 0.61535025 -0.7137377 -0.09543234 -0.5166392 0.0027662078 0.3427194 1.0108501 -0.17037432 0.1051568 -0.7584742 -0.075851575 0.11772779 -0.07541819 -0.28321785 0.2014886 0.5956592 -0.08189785 -0.105160356 0.029434195 -0.4583475 -0.024475744 0.7382224 -0.23870957 -0.32834643 -0.1864431 -0.43131483 -0.14232446 0.20803468 0.16344641 -0.31401712 -0.06741431 0.12258955 0.22776364 0.06118543 -0.8763431 0.35090342 0.16430224 0.32817188 -0.030344868 0.038826235 -0.2993311 0.32169506 0.07831525 -0.057344902 -0.82966954 -0.5674849 -0.064603515 0.26564032
280 -0.21025828 0.15726851 0.5597993 -0.3548005 0.6673554 -0.039838336 0.036924217 -0.44961596 0.40898955 0.4219799 -0.15538304 0.10428082 0.24185015 0.16564927 -0.048155587 0.5907022 -0.28301892 0.19378105 -0.27677575 -0.21552272 0.33344346 0.100589775 -0.5046046 -0.31853747 0.062948555 1.1068659 -0.24497506 -0.14689143 -0.19087544 0.2431967 0.6606526 0.195698 0.36856505 0.2827667 -0.015752163 0.39129764 0.4404856 -0.358655 -0.101622604 0.040304787 -0.099290095 0.025604283 -0.29972708 0.048773095 0.20086008 0.06352016 -0.57896185 0.18978831 -0.28767782 -0.2536861 -0.31538865 0.19096543 -0.36164466 -1.1772102 -0.79853415 -0.08714526 0.23161793 -0.39679983 -0.1450242 0.2911225 -0.046510737 0.26173046 -0.16501103 0.29446632 0.3553306 -0.53764504 0.42490366 0.06349267 -0.259191 0.19818044 0.24794227 -0.08205724 -0.040008344 -0.110502906 -0.032373816 0.38300905 -0.15094392 -0.20885336 -0.35572454 0.58022696 0.43897748 0.11526795 -0.26555872 0.22912613 -0.35839936 -0.07233686 0.6256779 -0.13092797 0.5613856 -0.06422395 0.13290901 -0.3001403 -0.38643602 -0.17630613 0.36868355 -0.08774787 0.25491938 -0.4700743 0.2439136 -0.45448804 -0.86509037 0.06773055 -0.47004446 -0.42460516 -0.48932064 -0.12433121 0.18831132 -0.17451032 -0.18002729 -0.15288036 0.5551588 -0.18883537 0.31422004 0.17377758 -0.3290695 -0.429441 -0.41693467 0.07299782 0.552768 -0.17426662 -0.167652 -0.28550446 -0.011567031 -0.21083558 -0.60350907 0.04045543 0.029059673 -0.39683235
252 -0.0115280105 -0.39999622 0.77312386 -0.38763186 0.29650962 0.14351696 0.3934623 -0.010608936 0.46474987 0.30509782 0.76323074 -0.050222635 0.31397104 -0.694421 0.5482983 -0.6546217 0.48343652 0.018722983 0.17193536 0.1561736 -0.42204723 -0.374711 -0.25076255 -0.3286518 -0.2356673 0.4567676 0.3871267 -0.51065266 -0.15466641 -0.5506301 -0.17117083 -0.16158862 -0.83492625 0.13031694 -0.048811078 0.22533084 0.13543968 -0.28367177 0.12708019 -0.49379486 -0.5285897 0.001641281 0.21404046 0.44706598 -0.43953064 0.07253593 0.21728863 -0.016755737 0.19131711 -0.3583809 0.82170904 -0.20288606 -0.532394 0.25540295 -0.17130093 0.429288 -0.010877729 -0.7684602 0.34253767 -0.3549192 -0.25839552 -0.030201392 0.20883676 -0.031224776 -0.075701624 -0.31247336 -0.5816023 0.5874435 0.040085852 0.18348637 -0.46336877 -0.18000409 -0.29935616 -0.15413979 0.192071 0.0131609095 -0.15830138 -0.64356965 -0.11312494 0.8931416 -0.66584617 0.04073815 -0.25625166 0.32906377 -0.1546136 0.50848657 -0.122789316 -0.62111247 -0.45655861 0.6191408 0.38738564 0.1175638 -0.29469147 -0.73044163 -0.18907656 0.39495698 0.0031678139 -0.13441744 0.3684213 -0.86882794 -0.25809085 0.26909685 0.2353553 0.30594793 -0.17835848 -0.8834866 0.047149092 -0.079648 0.21626973 -0.55897766 0.12234945 -0.24712612 -0.08332327 0.22234072 0.086158015 -0.27688915 0.18739414 0.090282 -0.24431802 -0.19420105 -0.14747222 -0.32549366 0.16539769 -0.5703577 0.57634526 -0.14110118 -0.43611374 -0.053752866
411 -0.3315315 0.45212975 0.100603946 0.6912742 0.011477105 0.40303996 -0.090550415 -0.05137775 0.24934378 0.34696612 0.05281753 -0.09444115 -0.18247227 -0.94873166 0.3784565 0.052286003 -0.04067894 -0.91482025 -0.3308669 0.42723718 0.5526929 0.008860785 0.11710923 0.08912871 -0.6238243 -0.18765686 0.21802838 -0.6021832 0.087994486 0.10407755 0.66009074 0.18018548 -0.031327117 -0.39454553 0.4737877 0.73160136 0.10924318 0.2870185 0.7960055 1.1287348 -0.5463908 -0.3728048 -0.055317566 0.33406058 -0.15413119 0.25214934 0.07381625 -0.23467486 -0.3603247 0.20483 0.38337693 0.36508122 -0.6840392 0.70550245 0.19204506 -0.010484854 0.3064469 0.46300387 -0.12367262 -0.05602148 0.23779418 0.06143949 1.1883979 -0.26199034 0.24320902 -0.4924666 0.54533803 0.5716246 -0.49116153 -0.14014125 -0.1596972 -0.19542502 -0.388049 0.12794456 0.40906534 -0.37222534 -0.25550365 0.20187813 -0.4223805 0.22168858 0.33205765 0.19741376 0.4820943 0.3894425 -0.39456004 -0.22014856 0.24152218 -0.75497586 0.253186 -0.34487844 -0.1843036 0.16753145 -0.30308133 -0.43270773 -0.14725663 -0.84984064 -0.07700071 0.21467811 -0.068237975 -0.18920496 0.35567072 0.54829055 0.20722744 0.6130037 -0.35898557 -0.43700874 0.06919328 -0.5313054 0.057447616 0.36136127 -0.09943631 0.16226663 -0.31157786 0.7097571 -0.94944715 -0.54342085 -0.37325332 -0.14312801 -0.02300578 0.056006793 0.12502953 -0.16296409 0.1715125 0.1770138 -1.0295519 0.21531759 -0.774307 -0.8410625
6 -0.3708929 -0.007052354 0.42185923 -0.498997 0.22202812 0.17696677 0.11579824 -0.696706 0.37130022 0.018828327 0.062681384 -0.27524665 -0.029658267 -0.1269671 -0.26954806 0.05137127 0.36302617 -0.32184368 -0.24556738 0.17907839 0.4573593 -0.2939196 -0.07203687 0.058135603 0.13103275 -0.04784954 0.46812636 -0.46605045 -0.18963128 -0.6902609 -0.10620929 -0.7225187 -0.312541 -0.42641973 -0.52508044 0.33549055 -0.41689608 0.2745633 0.76141125 0.09281013 -0.011977412 0.11435513 -0.39285153 0.8797429 -0.20232277 -0.054926664 0.054184295 -0.21182214 -0.44064438 -0.59080505 0.3335039 -0.26137236 -0.30137473 -0.047744915 -0.089499965 0.7866432 0.60195565 -0.11117499 -0.16377786 -0.5572938 0.15789227 -0.13236861 0.7984981 -0.5599869 0.52774924 0.24680024 -0.48018682 0.5635591 -0.0020915116 -0.07794525 0.009057966 -0.46582693 0.36871758 0.33329147 -0.1613042 -0.28208038 -0.24827927 0.24154009 -0.8435878 0.31407413 -0.06672726 0.2975977 -0.034766093 -0.08169206 -0.13859488 0.34499454 0.40779984 0.20914622 -0.29942757 0.60140395 -0.3384192 -0.20045531 -0.37129006 -0.7694248 -0.008291459 -0.18681471 -0.18194994 0.24248873 -0.14585783 -0.09417441 0.089185186 0.092626125 -0.7074466 0.277324 0.38319308 0.29211307 -0.48958087 0.81448406 -0.25986442 -0.55129766 0.3389817 -0.20881413 -0.3420447 0.012273177 1.2050902 0.44758233 -0.6360408 0.02206539 0.041693207 -0.91287637 0.11047521 0.07786937 -0.4753582 0.12974395 -0.9934422 0.36857906 -0.27662712 0.1649675
212 -0.056359064 -0.5967803 0.31571528 0.038783107 -0.02123249 0.34099802 -0.6201607 -0.36239266 -0.19871819 -0.05643924 0.507965 0.039773393 0.072469205 -0.21973316 0.15683404 0.16524686 -0.18240014 0.57135785 -0.4061271 0.3625119 0.12959313 0.41023326 -0.34814313 -0.70645434 -0.5263517 0.19258581 0.13257794 -0.1379965 0.42839664 -0.36000863 -0.7356024 -0.2515401 0.33031553 0.21865438 -0.28346613 0.3083739 -0.16968566 -0.12316567 0.34537536 0.7578066 0.0042704865 -0.111122645 0.51309764 0.23933096 0.13968937 0.3258444 -0.008897455 -0.14029774 -0.07432676 -0.47319356 0.7965371 0.3843104 0.1466638 0.3885674 -0.37029794 -0.2425065 -0.32475233 -0.4758315 -0.11921049 0.20145269 -0.071715556 0.012975695 0.47837 0.48632774 0.9382628 -0.7540663 0.22531196 0.011868744 0.23712948 0.4364196 -0.0473677 -0.38867208 -0.031205535 0.12873004 0.08329626 0.11769057 -0.08959238 0.14780635 -0.03250012 0.7208164 0.59524053 0.25305578 -0.5042077 0.06320108 0.5367572 0.2501208 0.11894071 -0.6106849 -0.037139904 -0.061110638 -0.48688036 -0.36026335 0.23249349 -0.08466519 0.22892995 0.025876572 0.4435173 0.04883696 0.21449003 0.352111 0.16796184 0.65794915 0.9920632 -0.117328666 -0.10796055 0.4759497 0.01669191 -0.28056195 -0.58375394 -0.1537282 0.8162586 -0.35007542 0.019338226 0.6539807 0.09307369 -0.24015622 -0.42932576 0.79053223 0.80370134 -0.24089989 -0.42222545 0.0031022432 -0.08059534 0.08024544 -0.18480039 -0.2784997 0.2442523 -0.21673514
165 0.5120118 -0.4589022 -0.029653106 0.112414375 0.99552023 -0.5267984 0.5677114 -0.16708729 -0.49644512 -0.14452882 -0.05426964 0.06753 0.29390833 -0.2345163 -0.5198607 0.40406302 0.28644124 -0.26594952 -0.6472339 1.0624083 0.14294855 0.113553695 0.18828233 -0.093477726 -0.580353 -0.5240579 0.048075 -0.2022699 -0.068551965 0.3831867 -0.2736216 0.31100652 0.35360998 -0.10511164 -0.4819718 0.07705199 0.47148523 0.22309858 0.3241567 1.2727296 0.117586225 0.34075698 -0.559464 -0.17184058 -0.23009928 -0.38341272 -0.1659991 -0.60595566 -0.29414162 -0.33441877 0.46463007 0.5345485 -0.042284884 -0.12904601 -0.3996128 -0.17467554 -0.16585214 0.23361075 -0.19227013 -0.50663453 0.25985846 0.76916456 0.67587906 0.16206618 -0.09480758 0.03991404 -0.1241029 -0.2693928 0.19336544 0.5884475 -0.55669844 -0.92831504 -0.28949422 0.10453189 0.3722859 0.17349611 -0.51888025 0.4759823 -0.3173304 0.55130374 -0.39114943 -0.26585087 -0.1008508 0.0075421752 -0.58961445 0.03414663 0.38117233 -0.2794427 0.050915297 0.06039231 0.48088235 -0.020210067 0.41710263 -0.4121935 -0.39790735 0.1277885 0.40667266 0.72613263 -0.27500466 0.34236395 -0.017860051 -0.049226265 -0.15592626 -0.13199905 -0.11958296 -0.25796223 -0.3581663 0.12834504 -0.23143578 -0.32730827 -0.43662986 -0.09531207 -0.13541935 -0.2189886 -0.54909045 -0.4245797 -0.062273085 0.23791204 0.70228934 0.4673769 -0.34465754 0.25181055 -0.4648968 0.04684125 0.31740752 -0.24470161 -0.10356273 -0.010407773
494 0.17347251 -0.05688742 0.58125055 -0.113561206 0.007615834 -0.05435137 0.28585705 0.19187596 -0.2846433 0.085569926 -0.14575078 0.17490527 -0.16351372 -0.6760999 0.052994438 0.08798533 -0.3917462 0.105698854 0.35546434 -0.6319791 -0.26877472 0.606933 -0.19031215 0.086743884 -0.14309941 0.20712283 0.4342679 -0.7048229 0.26751444 -1.2260638 -0.58163065 -0.3090924 -0.036545604 -0.00037260912 -0.21534187 -0.44207588 0.26160747 -0.4965978 0.43731064 -0.15867674 -0.4220088 -0.054865435 -0.09393451 0.4426058 0.28718746 -0.29388344 -0.096620426 -0.5393261 -0.054121472 0.14927791 -0.1715881 -0.03295578 0.16326326 -0.61272323 0.7994917 -0.20087874 0.40425673 0.0038618252 -0.3529125 -0.023783816 0.461918 0.11575194 0.3390239 -0.4629233 0.56211585 -0.40606 -0.32866642 -0.763436 0.026109602 -0.093096755 -0.06678879 -0.43906787 -0.690527 0.097557925 -0.41872862 0.42578724 0.0295066 0.17663746 -0.02702655 0.022653606 -0.1897389 -0.13918373 -0.4532108 0.5116084 0.42179275 1.1564827 -0.12338401 -0.29736754 0.6331126 -0.023529485 0.2370102 -0.084360465 -0.43075052 0.029536376 -0.40980515 0.17411101 -1.2834013 -0.31440228 -0.47841752 -0.059255723 -0.532579 -0.10106024 0.16080032 0.7732859 -0.00198833 0.6650664 -0.2808434 0.39093766 -0.5845759 -0.80179614 0.1447362 -0.6404133 -0.5592408 0.10783826 0.351815 0.1829249 -0.88242614 -0.07113329 0.002968391 0.22431171 -0.79748887 -0.3533633 -0.06297117 -0.4064579 -0.62822795 -0.17664553 -0.04938301 0.010801961
971 0.25066122 -0.6794963 0.30022442 0.19876653 -0.055657808 -0.11387422 0.815782 0.082553856 0.27849883 0.03264412 0.22376572 0.18791509 -0.16190144 -1.0986892 -0.45809653 0.010892049 -0.6171763 -0.16892985 0.5208223 0.021653093 0.5048879 0.6533154 -0.18643545 -0.19413379 0.106143795 0.42675388 -0.19537193 0.060961567 -0.444071 0.631398 -0.9569089 0.8903121 -0.44349107 -0.48000833 -0.0899586 0.7435975 0.24528378 -0.53030074 0.19901657 0.44528773 0.32516184 0.2472843 0.03337359 0.16249192 0.26149404 -0.18945105 0.32276627 0.14860062 -0.12195072 -0.26888546 -0.380959 0.22936101 -0.49514085 0.26221216 -0.09795091 0.74580556 0.90536577 0.8309044 -0.34058052 -0.30456898 0.08441257 -0.3918941 0.7513349 0.10684353 0.1925837 0.8482462 -0.5714433 -0.3838805 -0.63990176 0.22550574 -0.4203778 0.21131192 0.12892696 -0.28408644 0.00025760525 0.28720477 -0.17502457 -0.036508583 -0.20617238 -0.31734946 -0.39074177 -0.07116416 0.34598687 -0.5575994 0.47910398 -0.06536079 0.33222508 -0.6710229 -0.13074234 0.09947642 -0.37790903 -0.24800994 0.10151251 -0.9761438 -0.40876454 -0.2987621 -0.67024904 0.47423753 0.118225954 -0.10328529 -0.7202639 0.13013998 0.048052106 -0.56572247 0.06955847 -0.046042975 0.18264683 0.5627412 -0.12915406 0.0059325052 0.004912407 -0.23096168 -0.04522067 -0.033699095 0.25814852 0.29757726 -0.0069587147 -0.45367777 -0.07032227 -0.18473181 -0.59690577 0.30797783 0.15703939 0.31655726 0.48633036 -0.46665928 -0.60556597 -0.45210704
81 -0.2898113 -0.71149296 0.14755264 1.0529935 0.35600036 0.17904921 0.3849147 -0.14787155 0.22018275 -0.05283832 0.3531601 0.62916505 0.11811685 -1.1771392 -0.40570575 -0.44067302 -0.03973966 0.20699224 -0.028118746 0.14030412 0.84437275 0.057563707 0.4504658 -0.0888275 0.29828468 0.20114127 0.009218826 -0.75331473 0.07617225 0.103362255 0.7760836 -0.47680306 -0.6907411 -0.4948354 -0.23164177 0.18575151 0.21921459 0.030928688 -0.030883756 0.043750826 -0.16912857 0.086550444 0.063950084 -0.062551424 -0.29308048 -0.11123603 -0.21672332 0.17601809 -0.34958696 -0.0062708473 0.1276877 0.19197151 -0.1609135 -0.17222601 -0.5838318 0.7161447 -0.5331698 0.35037196 0.00746253 -0.19317134 -0.19560379 0.2818478 0.050725557 -0.41714072 0.6444383 0.29312482 -0.3025631 0.019725455 0.44533655 0.08867096 0.46841538 -0.1367366 -0.7415879 -0.5514876 -0.26287723 0.081907384 0.32576856 -0.3398758 -0.5394216 -0.07600301 0.46879005 -0.3310304 0.58422995 0.21349348 -0.27447885 0.8674946 0.59477764 -0.3286835 -0.16656157 -0.3085014 -0.07028952 -1.0478601 -0.24535872 0.005931784 0.32523602 0.9541911 -0.28534403 0.15542068 0.07124286 0.083079934 -0.45448378 -0.37617257 0.28417194 0.45448095 0.2194584 0.2256788 -0.32855293 -0.11341334 0.30023947 0.07408099 0.140104 0.52467436 -0.55528 0.22904037 -0.16801503 0.1304236 0.30623308 0.50136983 0.22804065 -0.7736682 0.23659675 -0.3578751 -0.11896527 -0.56918347 -0.25073743 -0.0057124277 0.02007725 0.15521798
44 -0.114284955 -0.106688425 -0.12390182 0.15787566 -0.25914675 0.12468046 0.71381164 0.35144442 0.053176288 0.13709708 0.22824143 0.117207795 0.24665396 -0.4197062 0.48760492 0.43389443 0.26687843 0.46140772 0.43487233 0.46436676 -0.028747607 0.04967526 -0.21344136 -0.5662473 -0.9139175 0.6065774 0.11448543 0.4555866 -0.2065017 -0.8901703 -1.0071362 0.3143206 -0.081906155 0.19463885 0.68913484 0.34384057 -0.17803138 0.053046234 0.04697816 0.15831172 0.3468277 0.13764396 0.111451834 -0.34818402 1.0075794 -0.14258365 -0.051385146 -0.09473436 -0.65897423 0.17779955 0.12447658 0.6088572 0.31776914 -0.6721476 -0.6838424 -0.028560916 -0.18513408 -0.000852746 -0.86979663 -0.22821094 -0.06488696 0.1496362 0.013228132 -0.65363705 0.27683023 -0.25995138 0.33777186 0.3288612 -0.028395496 -0.25447965 -0.47470385 0.13295199 0.07855247 -0.8086266 -0.7251779 0.07311098 0.22122785 -0.29235363 0.22475924 0.0585719 0.19841439 -0.20709847 0.15719275 -0.23980248 0.06938688 -0.5708435 0.8003097 0.18068427 0.37364468 0.7255402 0.018877024 -0.5039147 -0.073370665 -0.80970794 0.13076319 -0.30872473 -0.58071053 -0.21913414 0.14393698 -0.33708668 0.010875854 0.022140712 0.05309187 0.09929102 -0.60095793 -0.20727594 -0.516504 -0.82301116 0.1498158 0.21145001 0.32880598 -0.31664968 -0.039658606 0.017392773 -0.08550094 -0.64100665 0.09340751 0.38852364 -0.13826159 -0.5521333 -0.085879534 -0.54667884 -1.1268853 -0.16107187 -0.4216239 0.19851342 0.07728942 -0.17394122
169 -0.2700927 0.48260483 -0.113565 0.49603483 -0.032043375 -0.5867865 0.17717929 -0.22988361 0.23634578 0.1345204 0.0057750926 0.2759343 0.102266446 -0.2987603 0.016852105 -0.33651844 0.22042446 -0.29419744 0.013918374 0.59208107 -0.4695353 -0.37490916 0.25439435 -0.1667957 -0.3802788 -0.062877275 -0.29450405 -0.06367407 -0.44644037 0.05973073 0.37930492 -0.031404376 -0.018997023 0.4070926 -0.35724795 0.15422855 0.21661653 -0.45877057 0.22934817 0.18055105 -0.8432121 0.033809606 0.25995648 -0.053285744 0.27615434 0.09531964 -0.45462206 -0.62437016 -0.19349901 0.008669968 0.31167865 0.5106796 -0.23806609 -0.6453782 0.49112344 -0.06856422 -0.23523383 0.30087984 0.3390767 -0.09520146 -0.2679794 -0.53566855 -0.39463925 0.37200302 1.0416857 -0.13519722 -0.20878498 -0.31184065 -0.046977527 0.27280843 -0.3820676 -0.185091 -0.14769812 0.30766314 -0.41627336 -0.16565362 -0.58336663 -0.010197304 -0.037634145 0.44965845 -0.19804502 0.31188634 -0.042268865 0.61111826 0.01701474 0.28140572 0.93333364 -0.35558078 0.21242341 0.20419833 0.47001165 -0.46217823 -0.16695988 -0.86331236 -0.07992539 0.08143627 0.019930845 -0.93272686 -0.1408171 -0.33546838 -0.62750393 -0.18998204 -0.0047705555 -0.20718661 -0.15918618 -0.38832146 -0.3438354 -0.10952154 -0.29356897 0.2039697 0.18847838 -0.43043378 0.5611282 -0.34140614 -0.28479964 0.39243597 -0.051162034 -0.26492238 0.37218946 0.25970814 0.038827576 -0.5691578 0.11837633 0.1950126 -0.05738705 -0.23327778 0.047369916 0.27245557
17 0.5395293 -0.3830533 0.5280586 0.25204322 0.28862333 -0.5888353 -0.46951142 -0.013767425 -0.1840623 0.5423402 0.45816186 0.2652078 0.311735 -0.47814825 -0.2947736 -0.099250644 0.09923206 0.8411461 0.20050153 -0.4390796 -0.049858622 0.3025185 -0.4158905 -0.76003915 -0.65963286 -0.037905134 0.06929231 -0.3394626 -0.40516743 -0.13841894 -0.03892977 -0.44186467 0.425681 0.5347732 -0.5571813 -0.19891538 0.112459674 -0.5308217 -0.119564936 -0.56127214 -0.53871894 0.27045918 0.24495485 -0.5725176 -0.15479381 -0.24547113 -0.40915802 -0.24218248 -0.20490293 -0.29169402 0.782494 -0.040939387 0.38703448 0.18334673 0.56514615 -0.13144736 0.621277 -0.18896975 -0.122461975 0.26181382 -0.3371629 0.4019646 1.0150024 -0.35733658 0.38176888 -0.52285814 0.091721185 0.31160998 -0.17848247 0.24836852 -0.49780664 -0.06786431 -0.24665144 -0.1467131 0.10121286 0.13240908 -0.6197189 0.60183036 0.21353456 0.040289752 0.091357574 -0.27588123 0.16917337 -0.18092605 0.60950387 0.15029714 0.12776287 -0.45583007 -0.039508946 -0.020680698 0.012900195 0.00565334 -0.37869543 -0.8246273 -0.10153609 0.17038323 -0.25465652 -0.50419647 0.13190356 0.24960306 -0.24015427 -0.07402903 -0.07990639 -0.26917112 0.09278808 -0.20469844 0.63012654 -0.41418403 -0.41274238 -0.4955952 -0.42310458 -0.9546325 0.014482193 -0.7167924 0.16533001 0.21359438 0.42043468 -0.50113076 -0.12101396 0.34267798 -1.0185266 -0.26487416 -0.19494635 0.34108236 0.41907635 0.39528057 0.13362117 0.3596425
65 -0.8422099 0.13043669 0.6877165 0.071772106 -0.19238126 -0.08071711 0.7547844 -0.5135524 1.253978 1.1235076 -0.51634866 0.14185043 -0.14648695 -0.30107552 -0.29295465 -0.066483565 0.3014916 -0.28415114 -0.20059706 0.33040756 0.8832773 0.909358 0.099761724 -0.2312782 -0.6738888 0.4929648 -0.12435957 -0.20832376 -0.45252445 -0.09270051 -0.3858236 -0.044243105 0.056408893 -0.5995575 0.24842897 -0.05620502 0.023462998 -0.7747777 -0.4228499 0.26611277 0.28023085 0.28210235 -0.6168286 0.2192801 0.14008777 -0.34999478 -0.30253714 -0.12596056 -0.6674014 -0.7246527 -0.17977771 0.31375185 0.043851 0.2544307 -0.20260707 -0.6830642 -0.1608232 -0.39564517 -0.5123228 -0.45814642 -0.33462685 0.09919449 -0.45073494 -0.21490934 -0.7319494 0.011669441 0.17688587 0.0066010337 -0.67481154 -0.23815517 -0.11267695 -0.037221514 0.36234248 -0.30028972 0.05642658 -0.3038571 -0.20466737 0.28041288 -0.40747777 -0.30540022 0.0067876447 -0.44918334 0.04612101 0.2751871 0.84445745 0.5529017 0.085075326 -0.4024057 0.28079 0.25608987 -0.47784603 -0.0949616 -0.28886113 -0.29337737 0.29776567 0.059189174 -0.26420015 -0.15195052 -0.61268395 0.35765865 0.29395556 -0.27195638 0.34152076 -0.29210407 0.26461357 -0.031339847 0.15700413 0.3371217 0.6050964 -0.4845704 0.20558128 0.23686457 -0.5047271 -0.37931398 0.14482626 -0.053823058 0.028545752 -0.013446427 0.17814012 0.08128345 -0.250984 0.041841634 -0.0300975 -0.2408332 -0.5043396 -0.21922727 0.80967623 0.40517473
133 0.07708811 0.6559998 -0.21145584 0.29588774 0.3643377 -0.9626055 0.097019166 -0.06445354 0.031293515 -0.5606966 0.34758013 0.24021122 0.28666273 -0.7198923 -0.09723674 -0.55834377 0.43707293 -0.0668431 0.032752126 0.32513902 0.37292168 0.11808956 0.28175232 0.1644583 -0.7559297 0.15140665 -0.2374659 -0.41167697 -0.3884492 0.011093846 -0.63185924 0.37055805 0.12054742 -0.40875345 -0.21143214 0.34949985 0.4603828 -0.23229712 -0.22795333 0.38807404 0.23381113 0.06853652 -0.20853034 -0.14606443 -0.084398106 -0.05322235 0.16804029 -0.21865839 -0.066064365 -0.6266622 -0.60846317 -0.09980996 0.3300838 -0.28145966 -0.021443328 0.48696503 0.29967204 -0.04136465 -0.021511722 0.009792369 -0.014093351 0.7548709 0.8307621 0.5721967 -0.18722613 -0.3021953 -0.37389773 -0.34737462 -0.12791379 0.01792322 -0.26121038 0.12618892 -0.2508602 0.066750474 0.6205184 -0.14733283 -0.26164508 -0.8261351 -0.65160406 0.31718102 -0.55636907 -0.18420254 0.4861643 0.29336187 0.15014873 0.3135273 0.709855 -0.11758675 0.5975845 0.33853185 -0.35640892 0.336527 0.21004993 -0.1738877 0.3067329 -0.3458823 -0.5018397 -0.82519794 0.8313637 -0.47222427 -0.098558806 0.018676102 -0.41067898 0.13454266 -0.54951984 0.6568477 0.17982991 0.60621583 -0.24828038 0.072700866 -0.24444398 -0.012163375 0.02555268 0.4975701 0.012707438 -0.45380175 0.34346458 -0.11909545 -0.422072 0.4985479 0.07610167 -0.3309828 0.51238096 -0.053222075 0.20060338 -0.50384146 0.5325158 -0.5908794
340 -0.26575813 -0.2421841 0.2503446 1.0931692 0.7258279 0.4517528 0.92273825 -0.14885944 -0.33466727 -0.19886884 -0.23129444 0.36604902 0.006582712 -0.9369317 -0.31831717 0.18389553 -0.63888526 -1.3092967 -0.18207788 0.31366688 0.6021962 0.4600656 -0.4098801 0.09728344 0.017880585 0.12325026 0.16503544 -0.20556188 -0.15598689 -0.23750828 0.026858732 -0.4924229 -0.35865963 0.65646994 0.4866957 0.3436083 0.13473688 -0.048421297 0.0033498649 -0.5888161 -0.034966465 0.6121741 0.59601086 -0.28805122 -0.010598791 0.86040807 -0.6073821 -0.7241159 -0.06498987 0.10566455 0.2876941 0.81351125 0.59135926 0.21248117 0.639222 -0.52697474 -0.08707799 -0.26789352 0.22234434 0.31549945 0.44843423 0.3273517 -0.372763 0.18158327 0.33289978 0.18460515 -0.18568887 -0.37391225 0.13485806 0.2807802 0.6212921 -0.09391939 0.033424996 -0.16269723 -0.31740645 0.62458396 -0.30771676 0.15228736 0.63158756 0.28133938 -0.59861284 0.18479075 0.4291547 0.21626545 -0.051234204 0.16926293 0.62193155 -0.6527194 0.2842571 0.33252937 0.1419604 -0.28790927 0.5639628 0.16564892 -0.13934171 0.41356233 -0.15274961 0.07948929 0.54457873 0.41491577 0.88554496 -0.7476074 -0.19477054 -0.31817025 0.16904393 0.15129375 -0.32436588 0.38533753 -0.41756436 -0.084802516 0.0593424 -0.4649791 0.009476585 -0.17873803 0.20377812 -0.17189044 0.10202529 0.44651318 0.39429778 -0.18692675 -0.16230837 -0.051895674 0.11288908 -0.07323062 -0.5131075 -0.021076048 0.07085915 -0.056099564
366 -0.4698679 0.3052945 0.69095075 -0.039793283 0.931823 -0.39109185 -0.355617 0.25376987 -0.1462809 0.29202688 0.012624883 -0.09034024 0.6240638 -0.77972525 -0.36771926 -0.2981719 -0.043927312 0.38924074 0.2905862 0.09116674 0.49581087 -0.05620346 -0.23336686 -0.13065915 0.13610403 0.329938 -0.078051016 0.52679306 -0.4390712 0.04502978 -0.58058983 0.18730088 -0.1811257 0.11432292 -0.62158585 0.99764085 0.8086676 -0.09074349 0.20344155 -0.44673905 -0.42988083 -0.16522753 -0.13337255 -0.19959907 -0.2684557 0.42848405 0.62810427 0.22253427 -0.27996325 -0.56806606 0.64151067 0.673377 -0.75746095 -0.10414676 0.81388277 0.6251757 0.44487727 -0.4773354 0.0621507 -0.746085 0.49098462 0.022338817 0.4521683 0.22110197 0.45880824 -0.1500232 -0.24776599 0.15741639 0.3014275 0.1737578 -0.24828683 -0.71041745 -0.31849045 -0.4605455 0.5557482 0.5270168 0.073110096 0.14679435 -0.25502545 -0.25491276 0.15732095 -0.56220967 -0.20051223 0.18654898 0.5017914 0.28417936 0.34425476 -0.63183445 0.53855765 0.43729436 0.062709026 -0.14166734 -0.4694613 0.28845125 -0.5116348 -0.864709 0.34410664 0.02650232 -0.064435095 -0.40107274 0.10227103 0.3015169 -0.6211376 -0.30972314 0.18574251 -0.3460341 0.13120785 0.27642697 -0.09269036 -0.48519975 0.2210566 0.05772609 0.49218294 0.21002492 0.035866596 0.22514814 -0.3558693 -0.016129307 0.19022417 0.046994306 -0.19674616 0.008479228 0.046304714 0.15865295 -0.18634893 -0.33978298 -0.32375884 0.47521144
473 0.15735447 0.38996154 -0.3322765 0.087303124 -0.040097654 0.94052315 0.3590019 0.36515945 0.0019744425 -0.11332469 0.12037442 -0.27412185 -0.2620769 0.13764094 0.5151342 0.18035434 -0.30127707 0.16225763 -0.42097044 -0.04657596 0.032787323 0.19445366 0.4981971 -0.4037492 0.06905118 0.24113372 -0.44429874 -0.7227785 0.72614074 0.55839777 -0.0972243 -0.5190985 -0.042942103 0.5347041 -0.18661173 -0.009306791 -0.04437663 0.29481426 -0.38080093 0.52204216 -0.015795836 -0.4921731 0.058498625 0.26452294 -0.107070684 0.2118665 -0.5775544 -0.418816 -0.19151378 0.3325524 0.45157787 0.032989025 -0.26913676 0.003296271 0.083422065 -0.14496969 0.23206955 -0.47176266 -0.2667602 -0.42911693 -0.20982288 -0.49291113 0.6052666 0.098468944 0.42570037 -0.055315346 0.31274602 -0.19437471 -0.6255887 -0.11546582 0.44291404 0.033802085 -0.33524254 -0.7703258 0.229881 -0.33114424 -0.22507797 0.5546783 -0.486518 -0.13823104 -0.23618488 -0.28356278 0.50418794 0.5288271 0.4317883 0.06888547 0.6704588 -0.020240339 1.0702362 -0.016520176 -0.16799629 -0.22041216 0.35038462 -0.6273975 0.27353752 -0.108768374 -0.19937639 0.16643046 0.06441107 -0.072198704 -0.41926402 0.09592814 -0.33722243 0.033938114 0.0392095 0.33416033 -0.0432207 0.28610602 -0.015090007 -1.0066762 -0.0747065 -0.8099005 -0.19564246 0.4246012 -0.07332013 0.25399014 0.037736185 0.21865782 0.12610239 -0.33173448 -0.09792343 -0.24938868 -0.06957936 -0.07853611 -0.16071172 0.22769947 -0.49204928 -0.15533991
546 0.023679258 -0.2560286 0.0013692102 -0.6707516 0.31622058 0.99457806 0.15773289 0.07103942 0.065345444 0.27134013 -0.19627088 -0.27099857 0.10892997 -0.8988562 0.31640518 0.19185705 0.16285177 0.18347892 -0.048341684 0.1332791 -0.11103021 -0.009825285 0.21856207 -0.54188854 -0.7393542 0.40570745 0.20926602 0.46762443 0.22076592 0.22692144 -0.035625815 -0.6923569 -0.7098946 0.45506185 0.3383221 -0.08597397 1.0179783 -0.5212531 0.82465386 -0.07623857 0.033063933 -0.19112305 -0.5586333 0.12222568 0.24083278 0.7680786 -0.37403354 -0.29631615 -0.5467556 -0.117371656 -0.16385855 0.4877097 0.147425 0.2975232 -0.11557561 -0.60381025 0.8118961 -0.08472854 -0.3436753 0.41775304 -0.0860695 0.115397654 0.7933953 -0.1387675 0.1384283 0.43689483 0.1280528 0.2015135 0.48283228 0.3131139 -0.34436113 -0.088126235 -0.45912522 -0.097218454 0.84991 0.33874956 -0.58342326 0.3785437 0.082165085 0.07068498 0.46835175 -0.22831625 0.336359 0.21564154 -0.22787434 0.44579917 -0.059601046 -0.59239817 0.048705425 -0.25418976 -0.45441502 -0.43164057 0.17642108 -1.2258304 -0.10673906 0.054412447 -0.23655759 0.24661307 -0.2043199 0.033106938 -0.37559652 0.5395646 -0.45275974 -0.20879196 -0.49117622 0.08017466 0.11193563 -0.14952056 0.89458305 0.16463065 -0.7220235 0.1801159 0.2422449 0.8575359 -0.11077121 -0.66383976 0.9547994 0.80385417 0.024718301 -0.20599538 0.4048665 -0.4556013 -0.023768874 -0.047316775 0.16262573 0.2764451 0.74750084 0.53179127
303 0.54958546 -0.14181787 -0.06951133 -0.055864975 0.6501452 -0.07754984 0.8994777 -0.29804042 -0.28508848 -0.30298093 0.507552 0.31645295 0.16198902 -0.08189994 0.3782757 0.2804973 -0.1441624 0.12411816 -0.5622682 0.37034935 0.4136942 0.40477946 -0.22532701 -0.31035784 0.081074506 -0.15395091 0.014766751 -0.8344244 -0.2670414 0.2595089 -0.11269671 0.27518758 -0.30732244 0.28501552 -0.45818046 0.39066607 1.0749137 0.068401605 0.41025943 -0.5504164 -0.3715543 0.33601066 -0.38400754 0.04799359 0.15478413 -0.5021512 -0.69735324 0.06853474 0.29543638 -0.14017937 -0.095315814 0.004521459 0.22203083 0.2123562 0.123061985 -0.036777973 -0.29046205 -0.056168187 0.049017128 0.38030088 -0.2843848 -0.54412544 0.9826968 0.047099583 -0.31804618 -0.3695066 0.3244703 -0.39379704 0.10883476 0.36653677 -0.09666883 -0.53560054 -0.43286258 -0.05490459 0.14844449 0.17096984 0.3536521 -0.7858693 -0.18548477 0.94619244 0.60150045 0.61414313 0.13425758 -0.32998994 0.71402395 0.20553079 0.34074572 -0.43664193 0.43535668 0.36016154 0.30554318 -0.14856958 -0.15606716 -0.7081539 0.17535403 0.5962789 0.02520426 -0.20343034 -0.32939824 -0.0721826 -0.50704503 0.34347042 -0.363838 0.12733825 -0.22928235 -0.2768756 -0.6430558 -0.25821155 -0.32413104 0.06914553 0.4428979 0.54710186 -0.3279139 -0.11900149 0.61427873 -0.46807304 -0.11168387 0.4463245 0.2922142 0.3784314 0.48493347 -0.4827724 -0.5741911 -0.31816205 0.33832812 -0.110168144 -0.21276625 0.11852164
419 -0.4514397 -0.09517243 -0.009902157 0.2978369 0.7021211 -0.1420041 0.017467704 -0.25548935 -0.20129457 0.34062332 0.74776256 -0.22669068 0.4161982 -0.97517526 0.7154279 -0.070651434 -0.21213913 -0.5002485 -0.6799072 0.21341617 0.04777279 0.32045054 -0.34654972 -0.38292536 0.49016201 0.5774449 0.1375647 0.38693023 -0.34709233 -0.8593307 0.030078335 -0.17020656 -0.33241794 -0.23492876 -0.004031658 0.32769173 -0.2796331 -0.0011405894 0.06665147 0.06975008 -0.2989027 0.68714064 -0.7180362 -0.23373483 0.1497335 0.3474004 -0.57158244 -0.11380654 0.100675054 -0.686493 -0.008797026 -0.40419284 0.2758871 0.0594528 -0.14193322 -0.102306485 -0.6306428 0.22082779 -0.17833588 -0.46353564 0.11559672 0.15543006 0.35273054 0.1741161 -0.4687865 -0.082526736 0.9412383 -0.114291616 0.4125044 0.090841025 -0.12148857 0.45953286 0.38262928 -0.24343248 -0.2843118 -0.43422726 0.10893356 0.8910511 -0.0743954 0.5219346 -0.12320666 -0.21649684 0.029172065 0.37051266 0.7513491 -0.08395255 0.48931926 -0.4586764 0.26678067 0.2996501 0.17201436 -0.081929356 0.07861166 -0.502377 0.36875528 -0.4139195 0.23041615 -0.019659376 -0.4669604 -0.7095333 -0.28357896 -1.4840692 -0.6664357 0.33327094 -0.6900993 -0.30801758 0.13233572 -0.38916332 -0.24323945 0.33201927 -0.39337054 0.122812256 0.2875079 -0.24008003 -0.15764794 -0.520037 0.545128 0.42433575 -0.2880796 0.049214493 0.11579094 -0.006839815 0.026514607 0.10554752 -1.0215657 0.09070684 0.03583842 0.46164218
232 -0.14822052 0.41029048 0.53767014 -0.3104365 0.48741058 0.24159758 0.3624595 -0.10861948 0.100784674 1.3624357 -0.015296449 0.08365543 -0.7308722 -0.3772884 -0.37701258 -0.27746215 0.60858065 -0.3701578 -0.33648935 0.031565294 -0.08177587 0.22961241 -0.21052255 -0.78571993 -0.27912113 0.4890696 0.42713752 0.2173384 0.5499001 0.29965696 -0.13924667 0.4852342 -0.07234391 -0.531842 0.33065718 -0.16585839 -0.45021617 0.046746753 0.25698367 0.61113185 -0.06458856 0.09809027 -0.5058198 -0.1367046 -0.37213016 0.38689598 -0.11189303 0.1562802 -0.55125445 -0.72893924 -0.15101974 0.31964347 0.06452323 -0.270927 -0.55581135 0.14333524 0.49644226 0.3302296 -0.2312328 0.95456225 -0.5538459 -0.083078526 -0.064457886 0.0057309857 0.34876713 -0.40441826 0.65283614 -0.23343496 -0.19271928 -0.2947485 -0.5937279 -0.50684434 -0.13152213 -0.29507035 0.0892727 0.4110405 -0.38097224 0.7447197 0.49331802 -0.14571889 -0.413009 0.03623455 -0.20518371 0.6382291 0.57088447 0.22358908 -0.7316486 0.32881215 0.056934964 0.7736072 -0.042786244 0.035826284 -0.34310085 -0.7852465 0.3430957 0.5129467 -0.061591845 -0.9715853 0.0868594 -0.048680246 -0.7812829 0.09252286 0.59868646 -0.5494722 -0.1531841 -0.16955683 -0.42375556 0.22641626 0.62694645 0.13468125 -0.23686877 -0.47128332 -0.13738021 -0.15476686 0.64384884 -0.15267117 0.14961766 0.031049673 -0.11409173 -0.05968081 0.34505594 -0.22098808 -0.173528 -0.3206844 -0.2969978 0.25232548 -0.2017526 -0.18167613
932 0.63943577 0.22634487 0.06374557 0.4121165 -0.06878252 -0.5070874 -0.0049102013 -0.37694326 -0.60723805 -0.20588 0.23418713 -0.4736462 -0.045895487 -0.20098545 0.016808799 0.46068966 -0.7749502 0.4758631 -0.41727945 0.15611961 -0.70536655 0.009971989 -0.54172254 -0.026382709 -0.20839716 -0.21279027 1.0123649 -0.76722777 -0.22477518 0.13311923 -0.17583446 0.4750079 -0.74509186 0.28075185 0.46342206 0.6131459 -0.062924646 -0.32943422 0.0200999 -0.4228317 -0.45433155 0.5539031 -0.25199315 -0.25492552 -0.14642909 -0.19427179 -0.4215382 0.33033034 -0.93285096 -0.5214418 0.4198206 0.064542316 -0.40800118 -0.35788143 -0.49955028 -0.50345874 0.4357257 -0.033053793 0.19141792 0.7527181 0.47762442 -0.27011418 0.060528554 0.057324395 0.36648571 -0.45858166 0.40205842 0.4556674 0.23448141 -0.5390962 -0.72482157 -0.25909176 -0.7846177 0.076382115 0.039022148 -0.39248297 0.37860116 0.3458399 0.3472019 0.4811456 -0.62711287 0.44067323 0.5346962 -0.18858814 0.68840426 0.51496875 0.92108256 -0.59558684 0.35376537 0.33731014 0.27409673 0.03823259 -0.45675722 -0.51635903 0.12071248 0.14607708 -0.05654451 0.17546229 -0.24311732 -0.16414148 0.2928236 -0.37680286 0.4313493 -0.27833995 0.8508802 0.37184364 0.9344052 -0.041338265 -0.05099394 -0.44075227 0.3205599 -0.6044626 -0.14780451 0.7460371 -0.20151365 0.62874883 0.1911146 0.059357386 -0.031836174 -0.7622806 -0.47233436 0.24579743 -0.048318665 -0.103327915 0.032492507 0.050983917 0.06369331 0.20425282
4 -0.068576954 0.50494814 -0.2090922 0.29105493 -0.09966913 0.29335096 -0.10938592 -0.34467465 0.53624296 -0.2903768 0.59989136 -0.20439646 0.5136179 -0.5358495 0.13708921 0.20865005 0.19295025 -0.9570219 -0.34926558 -0.20256999 0.17555061 -0.095721535 0.33496767 -0.51296425 -0.74622065 -0.024398139 0.6404891 -0.5365953 -0.38416755 -0.17617504 -0.36295816 -0.87968457 -0.39747536 0.035327915 0.061100047 0.27965865 -0.019596068 -0.50328344 0.73616976 -0.17834614 -0.010439134 0.061611403 -0.30853492 -0.5672735 -0.82592595 0.6378533 0.16764893 0.026243879 0.004075228 0.07832332 0.27965692 0.4023307 0.2594691 0.21605249 -0.35795945 0.45573545 -0.09157688 0.18077384 -0.4818159 -0.4511037 -0.016565723 0.22704042 -0.15002976 -0.22086164 -0.1814156 -0.18167995 0.1859846 0.109872736 -0.5578988 -0.34059602 0.17018047 0.03133559 -0.13859098 -0.090512305 0.47290698 -0.2799484 -0.2481853 -0.16166824 0.1149867 -0.029339923 0.1807421 0.14297229 0.4315908 0.7415812 -0.02727695 0.29173547 0.78849864 -0.012126352 -0.40745786 -0.17426945 0.12853463 -0.5023644 -0.12917624 -0.7342681 0.21419534 0.21379454 0.42073607 -0.098310865 0.18112496 -0.71714413 -0.30518007 -0.24000357 0.12549238 -0.315841 0.87666404 -0.27608684 0.38947156 0.027839463 0.687124 -0.560195 1.0936214 -0.08094931 -0.5708142 -0.037733342 0.33422485 -0.27365735 0.06155241 -0.18495028 0.57678 -0.3265376 -0.19927788 -0.05165116 0.59869313 0.12472764 -0.51862544 -0.4780975 -0.86146474 0.09917668
329 -0.5906088 0.07699859 -0.72143745 -0.1397994 1.1275508 0.28620857 0.61326617 0.5653182 0.14146522 -0.28105998 0.568738 0.27877462 -0.17467938 -0.09853681 -0.043011513 0.7645447 0.21112573 -0.68437594 -0.094860956 -0.32528472 0.6667859 0.69425553 -0.5165622 -1.3006839 -0.48827147 -0.31536284 0.50333655 0.30943528 0.3429317 0.023070933 -0.08057387 -0.30252314 -0.015030609 0.1598109 0.43732584 0.85688305 0.5403716 -0.5762921 0.6527887 0.31160003 -0.0786709 0.43233255 0.5347278 -0.39901638 0.39285567 -0.5285605 0.22210635 -0.014361869 -0.2035555 0.6137518 0.6367374 0.03379671 0.001214345 -0.07007551 -0.06785316 -0.07194154 -0.4339218 0.0074740476 0.042968757 -0.22710975 0.058240578 0.5607919 0.6628424 -0.59500617 0.56908035 -0.2067514 0.19677955 -0.15995361 0.83997357 0.34245768 0.40856522 -0.3336708 0.22214545 0.15297364 -0.13729936 0.4589554 0.1327625 0.40678966 -0.27471825 0.2289983 -0.88069034 0.20272835 0.40492013 -0.12842073 0.13480231 -0.2747686 -0.24659069 0.013160712 -0.0023710646 0.35556567 0.50197434 -0.13353568 0.54901147 -0.79111016 -0.10300105 -0.09581927 0.39684272 0.5080346 0.5861118 -0.8487798 -0.56904316 0.038625855 0.5445729 0.03729228 -0.05187504 0.93281335 -0.12149019 0.10991273 0.123871975 0.20510805 0.41911888 -0.29159516 -0.32543933 -0.06412469 -0.18847992 0.5086661 0.43375495 -0.08003713 0.5564352 -0.046113998 0.15837882 -0.27578962 0.6223208 -0.118410006 -0.08281746 0.13301913 0.14991327 -0.45003667
170 -0.0052727703 -0.12784693 0.3308525 1.2709471 0.46939966 0.27904007 0.1575624 0.11093351 -0.05970236 0.12941378 0.5898643 0.45367846 0.046174396 -0.4787175 -0.38013226 0.45512006 -0.38273808 0.08862799 0.56007904 0.51897895 -0.1406985 -0.57856065 0.3073775 0.480221 -0.10200868 -0.17632048 -0.14583543 0.3259482 0.4630384 -0.03467972 -0.018623913 -0.51811874 0.21830608 -0.12106295 -0.023611462 0.18912059 0.55060285 0.011604546 0.22892492 -0.021143686 -0.41488528 -0.009899435 0.007435785 -0.5300575 -0.6433263 0.5595496 -0.3327325 -0.49472615 0.3332744 -0.6420988 0.111012645 0.13172835 -0.16513994 0.6009711 -0.63000023 -0.32453775 0.33959663 0.3706618 0.25430304 -0.2732884 -0.5044809 0.44752043 0.012095082 -0.5874366 0.6060525 -0.061793994 -0.18198648 -0.4724511 -0.5247858 0.095862895 -0.3441359 -0.8180399 -0.637952 0.2340028 -0.17713077 0.011828313 -0.16165403 0.11494387 -0.4175151 0.17059976 -0.9962385 -0.34896377 0.23144332 -0.21032456 0.55946255 0.26038936 0.13702165 -0.47571573 -0.12464942 0.14212245 0.09495002 -0.12109013 0.4096921 -0.73033947 0.015939752 -0.24651745 -0.3088304 0.12822078 -0.24548927 -0.6786958 -0.36735055 0.21061182 0.08964396 -0.176789 0.09713437 -0.0045066793 0.7524899 0.3379203 -0.50450283 0.076190025 -0.21486017 -0.47410223 0.06294987 0.26952767 -0.03069022 -0.04559802 -0.13480997 -0.1649374 0.60541034 0.09171163 -0.46414822 -0.4868645 0.45485595 -0.32073078 0.19261202 0.050602563 -0.08527067 -0.5908251
28 -0.2286336 0.27089623 0.35163122 0.26179382 0.7918437 0.14633012 -0.017828105 0.017589664 0.25153983 0.4805863 0.072889365 0.078257054 -0.43490762 -0.44923678 -0.3193516 -0.11582051 0.09533478 -0.39130852 0.5403791 0.1907764 0.07932007 -0.019343551 0.40001994 -0.12092639 -0.28481787 0.3711971 -0.42962372 -0.34936693 -0.18967253 0.16626024 0.45375285 0.49953175 0.49625364 0.138144 -0.40110868 0.24855714 0.3678907 -0.3526909 0.21375524 -0.15324707 -0.010293594 0.5070916 -0.5348729 -0.59944206 0.0090272315 -0.8009807 -1.3499144 -0.16686098 -0.11647524 -0.09188633 -0.06258925 1.1839945 -0.71541816 0.072016776 -0.32514682 -0.12286385 0.6466709 0.2400442 -0.20673758 0.40203735 0.45511454 0.3551938 0.4646681 0.082669474 0.68370205 -0.10451018 -0.6103961 -0.27426273 0.39565328 0.07848019 0.360468 -0.6350986 -0.5899043 -0.32739285 0.042851925 -0.073351726 -0.06870984 -0.039807208 -0.54352075 0.0688273 -0.24352461 0.11184761 0.4292391 0.05201209 0.30661973 0.2343909 0.28622317 0.019673593 0.02690087 0.8702914 -0.21277465 -0.0044442546 -0.26731884 0.42798758 -0.38981456 -0.24149157 -0.56910455 0.29183576 -0.062744126 -0.17952456 -0.4467917 -0.23789231 -0.25295678 0.547829 -0.53848964 0.218568 -0.47283936 0.48126775 0.21216877 -0.035819743 -0.21108954 0.22265743 0.17731199 -0.1098878 -0.3931122 0.12263582 -0.49700105 0.2535257 0.13967523 -0.7893825 0.30704853 -0.39165583 0.82147974 -0.28475663 -0.64194876 0.84085464 -0.43750554 -0.009857748
2 0.30359662 -0.52529806 -0.44412217 -0.026613407 0.72919 0.5779386 0.41386437 -0.030315315 -0.0035570357 -0.27848727 -0.057002943 -0.27167067 0.48314002 -0.16651504 -0.34795678 -0.1472623 -0.27514592 -0.4453267 -0.6594467 0.17779186 0.25798473 0.054830503 -0.002908545 -0.39344978 -0.20236918 0.2189124 0.25321177 -0.19154145 -0.22623977 -0.94174373 0.20360029 0.19969434 0.022953063 0.3023431 -0.18571459 0.89262986 0.27286816 0.21065119 0.2490421 -0.11034124 -0.58091503 -0.060028277 0.19140138 0.26602936 0.04895606 0.55027187 -0.042609915 -0.051877897 -0.0777897 -0.19020264 0.6265919 0.8575599 -0.057044107 -0.7145296 0.09359569 0.09814235 -0.82730174 -0.070314966 -0.13001792 -0.05378398 0.17474388 -0.28786185 0.29542962 -0.7010303 0.20317942 0.031733967 -0.46552077 -0.059782326 -0.12415239 -0.36773863 -1.1539042 0.50292 -0.27486917 0.263399 0.54521006 -0.21821754 -0.046411153 -0.036383763 -0.83487207 -0.28929326 -0.3330647 -0.08778625 0.041882426 0.16141221 0.7614025 0.2223552 0.27497724 -0.3221281 -0.774832 0.22413526 0.32442495 -0.32286155 -0.17167293 -0.59692705 0.4888715 0.53954667 0.500138 0.35923946 -0.4231583 -0.20135672 -0.3566335 0.116303876 -0.19063762 -0.36648133 0.13706505 0.103101686 -0.4262735 0.45138082 0.22021353 -0.097118355 -0.14537877 0.54757625 -0.84102255 0.08769252 0.061392576 0.22075911 -0.6511314 0.08574868 0.91174203 -0.037866894 0.10762708 -0.024351193 -0.08633838 0.7672591 -0.1236248 -0.26261905 -0.099684216 0.40151647
285 -0.6455299 0.2346567 -0.07023871 -0.04577878 0.17446508 -0.4383369 0.25131094 -0.18195096 0.24827302 0.23427324 0.71124923 -0.09821829 -0.07449743 -0.19854926 -0.12356166 -0.043955564 0.13853392 0.1672069 0.47088882 0.6030262 0.26285526 0.2788806 0.2928617 -0.22980168 0.052759845 0.053572156 -0.19297789 0.053472072 -0.29973012 -0.7092601 -0.46182132 -0.06765558 0.20578027 0.35115787 -0.29814848 0.66160935 -0.39600536 -0.29605255 0.1917751 0.023582857 0.09207486 -0.1058408 -0.34754884 0.9972951 -0.2917826 -0.09873301 -0.68807614 0.6585593 0.16172263 -0.3030945 0.5625211 1.0543389 -0.38961112 0.252966 -0.6334983 -0.5528424 -0.1146603 0.2311353 -0.19239368 -0.27921775 0.28620222 -0.20530301 0.0672486 -0.87668663 0.032077756 0.09294754 0.78116554 -0.03259538 0.43111968 -0.70007557 0.15956005 -0.10644666 -0.55926263 0.06722177 -0.26099455 -0.1905492 -0.48462883 -0.019876363 -0.26513168 0.78154576 -0.659055 0.1670441 0.05730315 -0.44634292 -0.07823218 0.12054585 0.6422962 -0.25787777 -0.40668383 0.22766243 0.18542777 0.16854715 -0.4762429 -0.9295097 -0.00681088 0.34294683 -0.3119175 -0.11848827 0.60238475 -0.48216707 0.22215949 0.7627376 -0.4537307 -0.47754425 -0.1921034 -0.10761456 -0.09288291 0.34984434 0.07052069 -0.16702834 0.46792048 0.6266947 -0.32041034 -0.8196247 -0.49221417 -0.23138131 0.26457602 0.31632957 0.52538 -0.3627171 0.32813984 -0.47204 -0.057993237 -0.33824527 0.16248111 -0.37371507 -0.17236276 0.13739014
498 -0.07292613 -0.18559544 0.660955 -0.08672443 0.7626299 -0.025316931 0.41900846 0.5453271 0.04353102 0.692572 0.049402088 -0.55564415 0.43606633 -0.56682336 0.078131065 0.06304808 0.3233142 0.15766501 -0.45049223 -0.81463754 0.18635009 0.35785744 0.23836023 -0.23320827 -0.45606688 -0.30794612 0.21356815 0.2601505 -0.0782215 -0.26130477 -0.13403231 -0.10124717 0.11146784 0.05253708 0.5915294 0.24079789 -0.54101837 -0.39431852 -0.42189062 -0.3826536 0.57345355 0.07030858 -0.23579715 0.06218076 -0.07091955 0.3214657 -0.055239093 -0.17668372 -0.089719415 -0.11665171 -0.34231007 -0.7508889 0.5972621 0.08098247 0.4741452 -0.032585252 0.4253372 -0.019328265 -1.1253835 -0.56473017 -0.30245978 0.76335466 0.1242747 0.5380455 0.79930365 -0.04051366 -0.086027816 -0.25984392 -0.12852043 -0.054628376 0.14912716 -0.5387344 0.0010196635 -0.18845847 0.024001349 0.2106741 -0.47860762 0.31501058 -0.58621407 0.20875528 0.07724587 -0.16935489 0.5006143 0.2848283 0.45110583 -1.2741082 0.18538623 -0.6583072 0.3602258 0.0017779658 0.017231125 -0.49500653 -0.35666186 -1.2952445 0.47823244 -0.035311464 0.004099326 -0.7584566 -0.24129501 -0.23749056 0.09372663 0.2935041 -0.12829532 0.28191188 0.6673544 -0.51205003 -0.3546207 0.16435252 0.012633922 0.33780792 0.78520954 -0.098981366 -0.14899372 -0.054305986 0.40794662 0.08294063 -0.5753972 -0.17445856 0.5887167 -0.58792734 -0.6549317 -0.43482828 -0.28194886 0.34409618 0.25608468 0.1772269 0.061692864 0.25104055
