1005 128
160 -0.11923755 -0.033542056 0.124492206 0.006712297 0.44726422 0.015935808 0.01647986 0.36666042 0.108599305 -0.0649608 0.24431238 -0.5771033 -0.2874566 0.21793383 0.12999502 0.5092512 -0.18093787 0.27914461 -0.12521844 -0.18834585 -0.26903912 0.3005806 -0.3798156 -0.3105124 0.29892224 -0.060282018 -0.063140094 -0.5390081 0.038602162 -0.48382446 0.2270781 0.1466097 0.018227842 -0.49661762 -0.021692185 0.12300432 0.3518257 -0.2673644 0.11464943 -0.29730198 -0.24378228 -0.09396266 -0.03371518 -0.05412853 -0.4324899 -0.18075785 0.033694774 0.013680875 0.19129452 0.1467269 0.08475562 0.3803698 -0.09735494 0.2970593 -0.110403046 -0.12858996 0.4323997 0.56911474 -0.12938564 -0.12621742 -0.06257527 0.28153196 0.29843888 0.130778 0.11191559 -0.7020529 -0.10397357 0.4917449 0.048941027 -0.20447077 0.3643223 0.14359416 0.24245322 0.1666848 0.7499671 -0.49285915 -0.16421777 0.2991973 0.20261644 0.1169701 -0.16280712 -0.31095105 0.04313935 0.5516707 0.43545714 0.2760323 -0.37384647 -0.16059805 -0.40680605 -0.10954 0.4676325 0.49160102 -0.050309923 -0.37860596 -0.057294082 -0.056726933 0.18236557 -0.13310544 0.449878 -0.48456132 0.09959199 -0.046483103 -0.057879888 0.023664886 0.35824364 0.40294316 -0.046436142 -0.29679573 0.051441357 -0.34728298 -0.07116146 -0.45982042 0.15531583 -0.5819567 -0.101948604 0.12794861 0.10629475 0.28073457 -0.3313253 0.09855333 0.3431246 -0.28888232 0.014859196 0.64871424 -0.01442248 0.19042146 0.4102946 0.16585216
82 -0.2659588 -0.20244457 0.118525095 0.022954058 0.38423985 -0.59358 0.3078055 -0.056102704 0.16790211 0.15928663 0.14812832 -0.1610013 0.060283843 0.017000662 0.28780666 0.18321773 -0.46529725 -0.40031028 -0.5734537 0.24553144 0.27327633 -0.2548897 -0.17084177 -0.39668104 0.17741449 0.10194039 -0.10462247 -0.2365252 -0.056005962 0.3289699 0.5659572 0.3397139 -0.39264333 0.28472352 -0.18431659 0.44524783 0.3113261 0.06928568 0.08058046 -0.6405331 -0.1196523 0.07285917 -0.15212224 0.23314959 -0.3909599 0.07069982 -0.21759732 0.057644382 -0.0656662 -0.010334174 0.19100505 0.08645253 -0.037526563 0.5673497 0.13165152 0.3291156 0.25824264 -0.24325772 0.19260816 0.22742292 0.43324026 0.11099084 0.2129698 0.030550078 0.66675866 0.2476787 -0.28407612 0.6465105 -0.24511312 -0.1662245 0.14092688 -0.36258864 -0.84686273 0.08010037 0.11678556 -0.20179996 0.19346122 0.2640198 -0.054744754 -0.08482198 -0.15773784 -0.061678555 -0.16340594 0.37667584 0.33138284 -0.16747648 -0.019551445 0.0039624204 0.15993968 -0.028221797 0.14197116 -0.47053298 0.19548027 -0.03195058 0.16181944 0.13493818 0.31087092 -0.017146004 -0.07866771 -0.47142676 -0.3502588 -0.23238023 -0.17396297 0.04234297 0.10496443 -0.22867526 -0.052220475 -0.31797698 -0.15269135 -0.004946984 -0.315588 0.07891402 -0.2213337 -0.5877362 0.06328786 0.5153215 0.2762178 0.15606228 0.05872706 -0.1358034 -0.25732696 0.008799335 -0.6424472 0.5098018 -0.4854929 -0.15584551 0.40236458 0.35704386
121 0.30807337 -0.15592054 0.09812633 0.28996223 0.51430434 -0.17621857 -0.048873488 0.07051676 -0.23677778 -0.47494444 0.53565073 -0.5244058 0.5754042 -0.18557765 0.2523854 0.33695525 -0.19418947 0.10328162 -0.03332746 0.44157258 0.2890238 0.5137696 -0.5480727 -0.64399725 -0.058374926 0.2777713 -0.2642063 0.64658654 0.25541747 -0.022385143 0.14424784 -0.29220462 -0.3038276 -0.4778332 -0.18457942 -0.06004541 0.19292393 -0.4928713 -0.4697796 -0.9078845 0.48296714 0.26574525 -0.052779812 -0.31503633 -0.149535 0.20199859 -0.063301034 -0.23808652 0.25105542 -0.06859445 0.27394357 0.47538692 -0.13035087 0.3596141 -0.20609196 -0.22004344 0.03579592 -0.029448722 0.14225948 -0.002193317 0.0055340664 -0.41590026 0.5763764 0.13807604 -0.2187012 0.2672504 0.08931196 -0.10911867 -0.1386036 -0.45046678 0.15606432 0.046436865 -0.06695047 -0.2531267 0.4726645 -0.23982409 0.18878274 0.29350388 0.16715086 0.117845155 -0.2394772 -0.38664532 -0.033896316 0.12827778 0.0031840685 0.0056430358 0.02320331 -0.45074466 0.365276 -0.57409644 -0.01847324 0.20871362 0.3147558 0.20625263 -0.29047316 0.3570347 0.1870362 0.1364615 -0.21338224 -0.3119495 -0.4711463 0.4523326 -0.09734794 -0.2550048 -0.23202911 -0.065457836 0.5716155 -0.17959988 -0.32218316 -0.5620652 -0.022274956 0.109324075 -0.18730578 -0.1307846 0.19396047 0.0828318 -0.27569944 0.09673104 -0.5033613 -0.3122857 0.044175576 -0.19965942 0.017337166 0.13220347 -0.24845618 -0.17053021 -0.008900441 0.02596992
86 0.064388804 -0.15813576 -0.35328108 -0.20151362 0.59481317 0.24698626 0.19488122 0.52359337 0.4125571 -0.13476396 0.39431775 -0.22785915 0.19080776 0.47657764 0.09324543 0.24813624 -0.084323175 -0.23952018 0.15859565 0.534801 0.25228542 0.32998234 0.004599809 -0.19407184 0.17941846 0.08646907 0.55381364 -0.38473856 -0.4147743 0.2940519 -0.0026192588 0.37628588 -0.14992656 0.46679157 -0.07459366 -0.18906473 0.45600024 -0.6549493 0.036240265 0.026688982 0.53197086 -0.62588805 -0.28145298 -0.091053344 -0.34883428 -0.17537451 -0.14031738 -0.12548624 0.14362451 -0.15921128 -0.51792806 0.6747734 -0.17412548 -0.034542646 0.07796487 -0.2466674 0.053167157 -0.74696994 0.3958969 -0.09548608 0.35033777 0.28221664 0.43593946 -0.320894 0.5162731 -0.42416823 -0.18773083 0.14746279 0.33197203 0.08937241 0.35820088 -0.10736364 -0.18325275 -0.96254826 0.20668423 0.096583575 0.6198722 0.24733695 -0.6103454 1.3846527 -0.3679867 -0.5509585 -0.23553583 0.24833158 0.06499106 0.12649813 0.2919375 -0.23672685 -0.22860704 0.076373324 0.36173528 0.5383997 -0.068588994 0.13292453 -0.62977076 0.16944912 0.28813475 -0.31108677 -0.1745386 0.09126003 -0.460428 -0.39622593 -0.68253094 0.12582521 -0.2145722 0.22549322 -0.41780868 -0.03961022 -0.28749195 -0.16718343 -0.16854723 -0.13051955 0.23844583 -0.094563656 -0.06617871 0.36719507 -0.505807 0.03599801 -0.49303144 -0.23259878 -0.5539051 -0.033079453 0.35307714 0.61346984 0.32307082 -0.2162389 0.11560772 -0.017410269
107 -0.41099137 0.23751636 0.17697488 -0.08551906 0.40242314 -0.1144615 0.25173518 -0.51570696 -0.237074 0.3836581 0.3902441 -0.009883691 0.13935263 -0.57024986 0.091702074 0.85410136 0.07810439 -0.5495969 0.33884692 0.2375901 -0.24691464 -0.19414738 -0.027535956 0.018221432 -0.24206464 0.27497697 -0.32405707 -0.2089992 -0.34922397 -0.021934967 0.044417083 0.035112277 -0.12688869 -0.10359319 0.2314589 0.33883876 0.6778792 -0.37447166 0.062176652 -0.227644 0.29183877 0.8410937 0.3453587 0.22660808 -0.47088706 -0.39148057 0.11835113 -0.10166425 0.41775438 0.091582865 0.24579406 0.65169555 -0.048453674 0.17656419 0.29009372 0.1866193 0.112653755 -0.06851305 0.16522457 0.18749918 0.10535868 0.2634908 0.2577599 0.120974876 0.020990703 0.21600859 -0.3430257 0.19101581 0.35837084 0.25795594 -0.06488027 0.63080335 0.07123965 -0.42947495 0.079923086 -0.45747945 -0.0110315 0.03601644 -0.23224029 0.006920693 -0.56229496 -0.62826085 0.15680611 0.13727508 0.16611147 0.3884715 0.5029608 -0.38129464 0.18163848 0.22126435 -0.1111114 -0.04074235 -0.017627213 0.6184889 -0.15592577 0.49211925 0.31433237 0.052708436 0.3372467 0.25326967 -0.13150789 0.39342222 -0.069322065 -0.15677342 -0.028865842 -0.007571583 -0.4338374 -0.035200454 -0.4767658 0.1714627 0.18107364 0.115330905 -0.17497797 -0.2634998 0.09928347 0.058636762 0.041113812 0.055287298 -0.24057506 0.113688245 -0.17494535 -0.13226637 0.17017165 0.05862135 -0.22589092 0.44493228 -0.15433541 0.0036606775
62 -0.118400864 0.29194418 -0.3737546 -0.09062899 0.84057117 0.57184976 -0.17898805 -0.22271338 -0.24391225 0.72214544 -0.1312292 0.35799497 -0.16062658 -0.42219645 -0.20209444 0.5454849 -0.3368451 0.5180794 -0.44867307 0.15399817 0.20573474 -0.35770246 -0.16794957 -0.2507485 0.021112073 0.565701 0.36524087 -0.25375095 -0.39674523 -0.14960617 0.36393183 -0.21840326 -0.6152868 -0.18440974 0.15337919 0.089942396 0.18156254 0.26540115 -0.14602673 0.22145562 0.024322763 0.08677669 0.00046167715 -0.07104594 0.19703177 -0.12504086 -0.08947257 -0.039631937 0.2267155 0.2884029 -0.07369624 0.018051762 -0.37294337 0.35984814 -0.13253777 0.07705771 0.11468873 -0.14542134 0.24434754 0.21111359 0.17922631 -0.07343168 0.35288796 0.22901699 -0.018165415 -0.10751616 -0.2766331 -0.20138885 -0.21644898 -0.09188556 0.4754011 -0.1009547 0.59168863 -0.12566684 -0.06841657 0.232799 0.14627264 0.034980763 0.24068458 0.24077977 -0.5925912 0.025780864 0.335598 0.5419898 0.107040316 0.6360248 -0.41475266 -0.20411006 0.20438583 -0.09143481 0.12249019 0.15714093 0.2578834 0.35799623 -0.41477004 0.66040957 0.065415934 0.18152115 0.14944181 -0.04666204 -0.23341776 0.40412372 0.28285 -0.014206007 0.56307524 0.17306606 -0.37488228 0.025906224 -0.14153378 -0.066444114 0.055980574 0.2531931 0.5931584 -0.55431503 -0.122787535 0.20358388 0.0069559915 -0.07549376 0.055589344 0.020667754 0.1134519 -0.07157794 -0.32952592 0.49417892 -0.102505155 -0.20625763 0.36538824 0.2749602
5 0.37393796 -0.15087272 -0.20157431 0.15368403 0.6134476 0.0064119096 0.3599602 0.14720099 -0.20895614 0.31685805 0.047565844 -0.31343007 0.032415397 0.1837241 0.096107185 0.02984311 -0.17139745 -0.25062084 0.065400854 0.3179366 -0.41870964 0.41655284 0.4584595 0.109061755 0.30872193 0.16250126 0.48448396 -0.07089385 -0.36981148 0.0787311 -0.122254394 0.21242447 -0.21687044 -0.5410574 0.22252472 0.50346524 0.99865246 0.1761583 0.33574447 0.16027932 -0.21753202 -0.5310814 -0.5978368 -0.2815989 0.0009417553 0.0030505145 -0.03124605 -0.106792204 -0.045980785 -0.8763374 0.9448232 0.5997632 -0.36258438 0.27105123 -0.5475472 0.52529395 0.11332115 0.015961388 -0.07560696 -0.1757037 0.14863242 0.113614425 -0.0006511468 0.32341856 0.014957416 0.39292678 -0.21542375 0.09070334 0.36281422 0.4876968 -0.53057635 -0.3822129 -0.22277544 -0.42584527 0.04349312 -0.15653351 -0.012473694 0.11283714 -0.32475474 0.18965091 -0.49706697 0.1595376 -0.08408072 -0.44370988 -0.52349156 0.14672218 0.24081141 -0.37944874 -0.29295176 0.12573671 0.19681716 0.65733105 -0.35075325 0.4211487 0.086869754 -0.0770561 0.3912771 0.004702394 0.14369527 -0.043260705 -0.20766404 0.29519227 0.67478555 0.35868913 0.21495363 0.14843857 -0.28242886 -0.38811716 0.07758825 -0.31543356 0.6393361 0.039772242 0.3325683 0.5013417 0.30659074 0.02742656 0.15332426 -0.069555536 -0.015379869 -0.24175254 0.12659818 -0.18089046 -0.13622358 0.18069881 -0.3060729 -0.79940724 0.49955627 0.5673249
13 0.3080722 0.21240175 -0.2793979 -0.24715725 0.051942833 -0.8282103 0.09518703 -0.23715518 0.48113677 0.15102458 0.059399173 -0.13309892 0.2838781 -0.39722326 -0.22719406 0.02405783 -0.7814394 0.7375041 -0.2985629 0.55098575 0.5741139 0.30489326 0.769093 0.60195506 -0.86449397 0.07483201 -0.0072967717 -0.21047325 -0.39905697 -0.15202858 -0.0885469 -0.15873612 -0.37180406 -0.11268334 0.012310819 0.23009357 0.05749513 0.20228453 -0.33955443 -0.21213348 0.021598542 -0.051006783 -0.21527332 -0.5072658 -0.030354902 0.44901454 0.10526316 -0.06763008 -0.5728736 0.059719786 -0.12649024 0.12455552 -0.54275966 0.13259386 0.37926677 0.29432607 0.21189055 -0.33878574 -0.38489336 0.37304804 0.010075742 0.30344063 -0.53669214 -0.042711463 0.25146446 0.1838085 -0.8042946 0.15073012 0.14896187 0.16628438 0.19842492 -0.48092765 0.082452506 0.39382115 -0.04798705 -0.39721715 0.25417688 -0.077625684 0.007830134 0.20485646 -0.22235306 -0.20127653 0.34078273 0.028690994 -0.4063939 -0.33439866 0.6213692 -0.499301 -0.17458326 -0.021094915 0.4385703 -0.13484028 -0.06892273 -0.8875556 -0.15150155 -0.05957548 0.26227832 0.15462303 -0.11144459 0.32319903 -0.011509009 0.012139992 0.06065866 0.0257185 -0.41326326 0.04747831 0.059318144 -0.6201512 0.013478496 -0.6816645 0.2155551 -0.0673988 -0.55039805 -0.23994526 -0.46877962 0.61492515 -0.49986747 0.7759936 -0.018255508 0.29676834 -0.24505615 0.2405613 -0.18664272 0.6152377 -0.26051012 -0.034663 0.14661768 -0.52532595
166 -0.7063111 -0.2358122 0.19986093 -0.08827683 0.50227183 -0.39484698 0.77426726 -0.2344069 -0.026460474 0.4321944 -0.13018832 0.052001122 0.15233803 -0.2651485 0.25364712 0.13166976 -0.5598962 0.23077725 -0.086311035 0.9927303 -0.090594724 0.22857352 0.32112202 -0.7087628 -0.37800947 0.024108773 0.04664255 -0.2116878 -0.26164082 -0.2898273 0.35057247 0.12701495 0.08850048 -0.37926075 -0.10604604 0.03487923 0.6087924 0.47492296 -0.063076995 0.0001948922 0.012337196 0.450916 -0.06656861 -0.28176326 0.35061952 0.5372893 0.15484273 -0.29498985 -0.064121015 -0.5196719 0.04844188 0.25714245 -0.71301454 0.035283875 -0.39047796 -0.36670595 -0.32650283 -0.22790657 -0.19239907 0.5150284 -0.6008398 0.06458808 0.29064372 0.5803114 0.28866473 0.22537698 0.20276101 0.06994555 0.26273388 -0.34478423 0.84847796 -0.27824676 0.039748352 -0.10073465 0.23740675 0.28468472 -0.29642522 0.15733325 -0.050208602 0.35021517 0.28422916 0.14164524 0.022210686 0.08998352 0.11970772 -0.638349 0.7115594 0.67969465 -0.2346068 -0.0038857406 0.643112 0.34066558 -0.33413947 0.17727593 -0.0372566 0.062687345 0.7682262 -0.15824878 -0.18344724 0.80807865 -0.1427582 0.22157584 -0.17426784 -0.7966838 0.25910044 -0.182101 0.6098397 0.54152805 0.3433727 -0.25597855 -0.11618176 -0.049149252 0.040529378 -0.19063893 0.13916445 0.77359414 -0.94769764 0.48105338 0.5782483 -0.12534122 -0.22074533 -0.12065943 -0.5925539 -0.20518705 0.09116024 0.119932346 0.051998407 0.39919943
434 -0.119127505 -0.69208103 0.0051271794 -0.21897818 0.08221793 -0.455705 0.4039743 -0.7954583 -0.2179889 -0.49581915 0.7170717 0.684848 -0.0022308643 0.9316808 0.7296118 0.104284674 -0.7387047 -0.21245529 -0.06555297 0.07655074 0.32593814 0.085937716 0.41525114 -0.35784695 -0.23677725 0.445872 0.5548941 -0.77118486 -0.07501262 -0.4828867 -0.17646942 -0.38183025 0.14041035 0.2592316 0.21239574 0.21550713 0.2799332 -0.14038993 -0.87267417 -0.3286586 -0.22405289 0.13498431 0.105914384 0.5879259 -0.41443196 -0.21820714 0.031544603 0.32439297 0.26429176 -0.51438266 0.37544066 0.13186163 -0.7328109 -0.09796019 -0.2071728 -0.26710546 -0.3716175 0.2391295 -0.19932793 0.012495196 -0.1204248 0.004848274 -0.15102279 -0.25385392 0.17460336 -0.121231295 -0.27386585 -0.05297228 -0.3121582 0.17838995 0.28219602 0.3642797 0.2068493 -0.8536977 -0.45256257 0.01124502 -0.07523075 -0.36570334 -0.06511064 0.119950324 -0.6434053 -0.13299271 -0.009601806 0.21973458 -0.3513405 0.07479333 -0.49925283 -0.57106394 0.031405654 0.046743784 -0.16421178 -0.2886681 -0.06566476 0.23296553 -0.5314552 0.15476505 0.105557986 -0.22640811 -0.02863612 -0.5415708 0.16961358 0.62220967 0.19173416 -0.48612386 -0.17898683 0.15294842 -0.16992012 -0.10172633 -0.20949455 0.057422865 0.20663105 -0.20530777 0.11567209 -0.4941107 -0.323064 -0.051858157 -0.19300489 0.3976529 -0.41533405 0.28443027 -0.3405855 -0.36968872 -0.18112713 0.7511215 -0.103053354 -0.3988788 -0.12603186 -0.14914067
64 0.2411813 -0.51840234 0.085825704 0.46195695 -0.030388441 -0.3325513 0.18958443 -0.056428127 -0.6685454 -0.3878982 -0.26122892 -0.4027595 0.31038564 -0.2662399 -0.056001265 -0.08958819 -0.012984183 -0.28223777 -0.81024325 0.22068466 0.12635675 0.15015142 -0.04171362 -0.041333877 -0.21710782 0.9983775 0.32175684 0.2152073 -0.047081668 -1.0462811 0.52402675 0.19983165 0.43336958 0.55745345 -0.24933705 0.40760782 0.5051968 0.08007375 -0.38573694 0.08835771 0.19868664 -0.052043017 -0.4329962 0.72224945 0.43365234 0.07060499 -0.25449228 -0.07594392 -0.2049627 -0.034967072 0.5198378 0.7758307 -0.8445896 -0.35138556 0.07773119 0.41170004 -0.13720691 -0.15018219 -0.23021667 0.6417334 -0.5121628 0.4774355 -0.6523717 -0.10716887 1.0681963 -0.54565406 -0.33794665 0.75460005 0.26967877 0.44116607 0.5321477 -0.33458352 0.38028765 -0.073421545 0.071853906 0.017020041 0.5000169 0.20382835 -0.34735334 -0.1506542 0.091082215 0.053494807 -0.25231192 -0.13558331 -0.79840803 0.04737031 0.09362388 -0.20377032 -0.094814785 0.13483876 -0.15713926 0.049227662 0.09493715 -0.22209126 -0.08048675 0.33192652 0.68549985 0.39743513 0.01655163 0.092678525 -0.08799707 0.006167096 -0.51880974 0.020758735 -0.42947125 -0.30760384 0.1650795 -0.21687509 -0.35442966 -0.23551404 0.9639224 -0.15847407 -0.038350485 0.059522223 -0.14665012 0.13076885 0.13370742 0.45991442 0.19635601 0.376036 0.18754824 0.15254565 -0.041825265 0.20290065 0.25366893 -0.49594885 -0.086964644 -0.20277123
377 -0.97094816 -0.23300722 -0.6366159 0.22284962 -0.13349105 -0.051742103 0.4586932 -0.2490502 0.6921191 0.24583639 -0.11083775 -0.5768208 0.60223496 0.4907385 0.61962324 0.5659681 0.057913877 0.1467092 -0.26313463 0.076722465 0.023102866 -0.120152384 -0.22835796 0.13730882 -0.12706147 -0.075063415 -0.024236837 -0.60796136 -0.41788793 0.51504314 0.40095377 0.37327582 -0.5599238 0.08139528 -0.1561494 0.46872583 -0.38603696 -0.8561322 -0.4766633 -0.275486 -0.21128774 0.22869462 -0.2979152 0.46461627 -0.49835467 -0.10953757 -0.73803484 -0.38280746 0.5243658 -0.70288074 0.19434902 0.3495178 -0.34897497 0.48497787 -0.4116451 0.044280086 0.43840605 0.28449333 0.20183271 0.2199285 -0.39294246 0.10960987 0.23632017 0.1827411 0.5094027 0.26173759 0.19973323 -0.3636263 -0.3453927 -0.0700803 0.007510592 -0.71634364 0.5526047 -0.05790563 1.0728283 0.16065055 0.5029092 -0.08097455 -0.041175902 0.23179586 0.029243886 0.23995622 0.18045713 0.1933976 -0.102096535 0.014339024 -0.63387764 -0.19584408 -0.24911427 -0.06659715 -0.25861105 0.33887425 -0.06275663 0.009004253 0.04071113 0.11515887 -0.29537487 0.036594782 -0.17796122 -0.55288243 0.093354926 0.22702327 -0.70408046 -0.5012604 -0.20161465 0.1953579 -0.26192683 -0.012409912 -0.26386613 -0.51317024 0.13387607 -0.3292831 0.10245268 -0.017669264 -0.1347994 0.009569736 -0.33139658 0.2155188 0.019918112 0.1744432 -0.079422794 0.16462909 -0.05084183 -0.6452256 0.28555417 -0.062284134 0.97255754 -0.11797251
211 0.36479756 0.070952065 -0.37243247 -0.3074996 0.35982856 0.54235655 -0.0061055403 -0.47638 0.55233806 1.0461605 0.09607012 -0.01616322 0.15015677 0.17854048 -0.110848345 0.001190504 -0.3568244 -0.17371537 0.27707145 -0.32921588 0.23516642 -0.0456292 -0.5598767 0.026912613 -0.42331493 0.048662808 0.06370036 -0.3915312 -0.71984965 0.057768654 0.23226322 -0.4699873 0.280304 -0.08980031 -0.4233765 0.111819506 0.12203179 0.33860335 -0.15901445 0.24264903 0.12344994 0.024300924 -0.370664 -0.50812584 -0.5292513 -0.19528721 -0.6234255 -0.39893702 -0.048943955 -0.063782595 0.6802952 0.30563754 -0.4719241 -0.45458785 0.43548018 0.043457907 0.067230105 -0.25042543 -0.036697067 -0.11430328 0.42594156 0.24009368 0.47812197 -0.40429643 -0.23980783 0.06773212 -0.36569825 -0.17769858 -0.22923718 0.3069186 0.2741375 -0.05266156 0.17871211 -0.3782255 0.023619257 -0.10892749 0.445095 0.15187114 0.2967156 -0.5099983 -0.9555294 -0.56557596 0.09221046 -0.2194204 -0.20487675 -0.1105532 -0.010431979 -0.24994183 0.21715255 0.029880103 -0.52118397 -0.011482265 0.5142923 -0.1884012 0.85310435 0.6011953 0.08803136 0.88881236 -0.14075232 -0.5662441 0.06578299 -0.5169373 0.06182802 -0.5841339 0.7758405 -0.7046595 -0.05839754 0.23638731 -0.42309737 -0.0042571533 0.34668905 -0.4189107 -0.25158533 0.09436502 -0.63332915 -0.47916403 -0.6887477 0.5615897 -0.008528093 -0.09443014 -0.7725614 -0.027433028 -0.47875544 0.6517998 -0.72155434 -0.34665686 0.09740763 0.392618
129 -0.35876584 -0.37692842 -0.2152551 -0.13228942 0.12994134 -0.33161536 0.37698773 0.38070852 -0.0023098679 0.3251356 0.0021938025 -1.1535327 0.11057722 0.07759464 0.15316351 0.23973134 -0.18510275 0.52394116 0.18459883 0.47121248 0.3707195 0.31717607 -0.46861348 0.14570801 -0.6896236 0.4396579 -0.16164085 -0.04284592 -0.5246164 -0.28267002 0.05472082 0.48484007 -0.71123546 0.15441126 0.44090286 0.45071664 -0.5399196 0.032199804 -0.58112454 0.051266223 0.22813764 0.1036112 -0.26340044 0.14539976 -0.41208908 0.29159644 0.10638572 -0.06957602 -0.032408003 0.4322594 0.67515147 0.3380777 0.10149308 0.5533784 0.14429218 0.7317181 -0.24386546 -0.3340273 -0.6477586 0.11104129 -0.48465922 -0.10103254 0.16562104 0.102553956 -0.0241515 -0.15491085 -0.13221943 -0.3508599 0.113339454 -0.063698374 -0.4440226 0.0134496335 -0.035188194 -0.4095546 0.13228418 0.29906374 0.18828781 -0.02642947 0.12692492 0.118044585 0.09349391 0.2848297 0.2559676 -0.7104115 0.089486524 0.10335453 0.054034915 -1.2537545 -0.5856248 -0.0935065 -0.038363 -0.37855697 0.035079643 0.04416086 -0.060483664 0.03871593 0.23704337 -0.5220609 -0.43324718 -0.10987439 0.1181955 -0.12873855 0.21062173 0.53637755 0.33338937 -0.12328484 -0.10664815 0.14983158 0.57212675 -0.010753374 0.063274935 -0.37541956 -0.25419903 0.2079463 0.17071526 -0.046045695 -0.18840635 0.2660127 -0.14717652 -0.80142206 -0.33547035 0.15855913 0.12868634 0.03145289 0.090819664 -0.14464447 0.26468858 0.078990065
183 -0.19700667 -0.23030779 -0.3443599 -0.25725147 0.27277142 0.20464031 0.079158045 -0.089020364 0.008344573 -0.09884694 0.08043216 -0.070744194 0.2166336 0.13774368 0.18978672 1.1535677 -0.49374828 0.17912707 -0.3680898 0.33447105 -0.26293746 0.3837492 0.18447253 -0.35897675 -0.6972947 -0.064221606 -0.16836075 -0.12097116 -0.26695636 -0.09308962 0.1916499 0.32007673 -0.07994542 0.5871426 0.1541912 0.18916337 0.54912937 0.12285957 0.16344848 0.049709164 0.20370501 0.33377406 -0.5640526 -0.07174279 0.94340956 -0.73985475 0.23688394 -0.012107914 0.29156405 -0.49933273 0.1003101 0.41571388 -0.114309385 0.0015239546 -0.2875956 -0.3416988 0.5418227 -0.09116961 0.17422244 0.1258519 0.24967802 -0.5734364 -0.41674623 -0.1475567 -0.26107022 0.25523797 -0.027960986 -0.33841398 -0.24013403 0.48955044 -0.07513732 -0.19274893 0.43925887 0.12699233 0.32255894 -0.2732495 -0.040353533 -0.12638563 0.1051583 0.1818191 0.099848084 -0.66033345 0.46872208 -0.37005654 -0.38250765 -0.2303826 0.48019075 -0.3884703 -0.36052135 0.806285 0.03370481 -0.08879973 0.13090381 0.60991037 0.33154297 -0.65090734 0.07955798 -0.5772415 -0.6540954 -0.7125891 -0.35398984 0.09139577 0.010227242 0.04634903 -0.1715741 0.15530166 -0.20622188 0.3441176 -0.07803408 -0.08179021 0.25845253 -0.3154741 -0.32675654 0.054808043 0.13865785 0.12708858 0.55999655 0.30059654 -0.28207013 -0.11730642 -0.26540035 -0.203571 0.14506872 0.8755355 0.0014841773 -0.45714957 0.09542896 0.97362024
249 0.118323974 -0.11216119 -0.10784354 0.451396 0.47823846 -0.15704334 -0.35735592 0.021705797 -0.0417197 -0.30000034 -0.035976756 -0.4952712 -0.40943643 -0.62402123 0.5163342 0.21945317 -0.0867721 -0.1477914 0.17093886 0.9980696 0.118838616 -0.14288016 -0.12350247 -0.4041572 0.19217396 0.23775761 0.030750219 -0.6066541 -0.5156955 -0.044888202 0.08483306 0.1474247 -0.3991869 0.2624469 0.37554255 0.18325052 0.3044448 -0.3041106 -0.10568619 -0.17201468 0.2755082 0.5388618 -0.024657048 0.5520506 -0.12145674 0.19755147 -0.00033882968 0.09932345 0.21900633 0.12882929 0.25493407 0.6857007 -0.031569686 0.72922736 -0.38289168 0.22494324 -0.3675186 -0.65503144 -0.38081577 -0.4940378 0.117851906 -0.52126235 -0.24568912 -0.09584589 -0.11547969 0.51519376 -0.51155716 -0.6010661 -0.079630785 -0.47683465 0.1665055 -0.6265426 0.09787877 0.12234399 0.02004576 -0.2848033 -0.04233055 -0.42084047 -0.13770506 0.54600596 -0.20166388 -0.954133 -0.37736043 -0.1933995 0.17045031 -0.4824817 -0.10615127 -0.068115056 -0.066926144 0.80375254 -0.52874076 0.061348345 0.60585207 0.50339425 0.3757666 0.3890908 0.10649557 0.54175824 0.19367318 -0.6612538 0.25047618 0.62448716 0.22728005 -0.03166348 -0.0029973267 0.325936 -0.69352925 0.5128645 0.2119013 -0.4006126 0.2343155 -1.0995133 -0.3334933 -0.5529942 -0.5054943 0.14274971 -0.44842264 -0.47522038 -0.17896566 0.41517442 -0.13508388 0.03421975 -0.2597961 -0.02776957 0.015274617 -0.07175922 0.25609997 -0.28917032
533 0.1382794 0.33819938 -0.2845903 -0.33777943 0.451885 -0.08743562 -0.1819482 -0.3333019 -0.22557847 0.33568293 0.009765606 -0.3225256 -0.16840412 0.16907497 -0.32166654 1.0052149 0.16019396 0.18332092 0.011889965 -0.39073515 -0.073423274 0.18421559 0.054825537 -0.08447223 -0.8505973 -0.75802004 -0.09766577 -0.30135557 -0.6755035 -0.2550952 0.014301249 -0.497775 -0.3825864 -0.27387038 0.19917008 0.34218463 -0.07724122 -0.4497587 0.5612507 0.38518766 -0.6876735 0.11615713 -0.7776719 -0.049344882 0.34839955 -0.3201732 0.19859935 -0.16331725 -0.24334927 0.31228203 0.022909785 0.6735727 0.050869882 0.47098285 -0.119691536 -0.059662946 0.39526674 -0.17430478 -0.13588543 0.06208392 -0.44176453 -0.2242204 -0.22143559 0.10136993 0.03527976 0.23879541 -0.51061505 -0.007400183 -0.062058646 -0.47633228 -0.03076093 -0.01764098 0.16707359 -0.5724235 0.0037670352 -0.08686341 -0.18905018 -0.12707731 -0.39842823 0.47797248 0.115116514 -0.07993117 -0.3343276 0.001194279 -0.36094004 -0.265468 -0.90867966 -0.41389918 -0.17069605 -0.25117052 -0.40315416 0.088495724 0.038202986 0.059186395 -0.48242497 0.5214605 -0.28681946 -0.14619571 0.029709397 -0.17954327 -0.57984257 -0.6532056 0.122798346 -0.38641003 0.24043413 0.08806646 0.2332547 0.27176455 0.6159442 -0.85062313 0.014009993 -0.10680335 -0.076975 -0.29601946 0.46985748 -0.1797496 -0.36842886 -0.63440156 0.1824367 0.069745384 -0.41934958 -0.19874533 -0.47800553 0.33299446 -0.011959411 0.0735409 0.17965122 -0.39097705
84 -0.2051143 0.29036933 -0.4568035 -0.08092223 0.6512364 -0.3897502 0.14134978 -0.124467984 0.22898537 -0.013661876 -0.28388163 -0.051013056 0.14474687 -0.9514269 -0.045660935 0.12977263 0.61378425 0.06840016 0.3753019 0.758704 -0.54818666 0.12887035 -0.15155992 0.21498159 -0.19226708 0.111767136 0.07634198 -0.18131101 0.13648291 0.53556246 0.38458 -0.20592648 -0.4001716 -0.79979086 0.80836505 0.15244852 -0.17179178 -0.10968884 -0.87384945 -0.27342445 0.17957762 -0.26989886 -0.45861134 -0.28982833 -0.17298554 -0.17352118 -0.64414775 -0.67875296 0.1531965 0.3908573 0.89420617 0.12309542 0.25452933 -0.12954761 -0.30533168 -0.1850127 0.15806103 -0.14272326 0.5332515 -0.14926721 0.40285873 -0.09448957 -0.39156103 -0.44665056 -0.021186505 -0.33466125 0.09254351 0.24965017 0.32028455 -0.0733279 -0.028835764 -0.2722476 -0.17991552 1.2057667 0.65531 -0.10985924 0.63278043 -0.41981277 -0.11891843 -0.26204166 0.63844097 -0.47351098 -0.08750223 0.34554058 0.66674536 -0.44710836 0.6066516 -0.7186335 -0.16053925 -0.63711196 0.06807859 0.019576568 0.2242965 0.9258161 -0.26819494 -0.0054280604 0.2787761 0.20684704 -0.14122595 -0.08788651 -0.50771123 -0.00043902048 -0.44209218 -0.40300477 -0.4322804 -0.47079936 -0.16245219 0.41205198 -0.16970387 0.23080294 0.8255995 -0.42640463 -0.18221606 -0.011681531 -0.364492 -0.2769209 -0.72990656 0.34258476 -0.27272734 -0.56514996 -0.4063444 -0.38334385 -0.11599997 0.5189925 -0.47604796 -0.059824377 -1.0112894 -0.02423677
21 0.048916917 -0.45096046 -0.20833544 0.23026453 0.11505994 -0.7681543 0.6432906 -0.18655705 0.09939437 0.3727714 -0.45960653 -0.018255334 0.25609213 -0.49217644 -0.40413067 0.19103122 -0.15049234 0.5815553 -0.43797275 0.7572648 -0.031797476 -0.038277447 -0.45580843 -0.5467543 -0.12978807 -0.2384433 0.103761576 -0.03093222 -0.23355079 0.19902878 0.19494748 0.21332277 0.0047336724 0.15219408 0.6118141 0.3320423 0.07783319 -0.24686484 -0.91575646 -0.3609892 -0.16687864 0.050097782 -0.66482484 0.31988505 0.054474536 -0.3601583 -1.193257 -0.508677 -0.43421322 -0.17001441 -0.13733114 0.16207395 -0.16731259 0.54603964 -0.2737849 -0.21523872 0.3275529 -0.49745354 -0.095297374 0.26811096 0.27960944 -0.33595636 -0.31083044 -0.3711269 -0.2805424 -0.21445806 0.06545657 0.07143902 0.29375136 -0.0076169153 -0.7304055 -0.17500976 0.1412028 -0.424469 -0.6452127 -0.3791966 -0.3376861 -0.048484605 -0.62414026 0.21306756 -0.7789281 -0.21232921 0.10394582 0.087025106 0.7718225 -0.20786522 0.12204271 0.15767585 -0.3658096 -0.45011863 -0.06989536 -0.883816 -0.05137851 -0.47650564 -0.07202263 -0.04455142 0.19038662 -0.16594672 0.079187885 0.1683535 -0.05262436 0.38321337 0.26785195 -0.076606534 -0.055324506 0.07390293 0.075728945 -0.07952037 0.012970798 -0.66224647 -0.51574004 0.17177673 -0.32895043 -0.1927913 0.25874 -0.30682868 0.054545213 0.20970507 -0.23170404 0.08307873 0.3203622 -0.3713727 -0.36020255 0.5036617 -0.21766074 -0.5536612 -0.32145196 0.15610257
106 0.1239343 0.030926768 -0.194517 0.26433727 0.55969536 0.4017919 0.648146 0.12256279 -0.0020450964 0.34861434 0.31949735 -0.30281407 -0.0814723 0.26444352 0.21131712 0.4479084 -0.40016538 0.36636665 -0.5914242 0.57178384 -0.20113842 -0.3012881 -0.5672527 -0.13236065 -0.8914263 0.3016951 -0.23901 -0.56473154 -0.45486313 -0.2571499 -0.10878034 -0.37926582 0.043166045 -0.17717172 -0.3825418 -0.26061007 0.22293916 -0.47005188 -0.16425109 -0.29031852 0.17860913 0.10560153 -0.022950955 -0.86777115 -0.42305326 -0.19768211 -0.47587284 0.17907673 0.18528801 -1.135327 -0.55724865 0.10543431 -0.15515007 0.2925534 0.262356 0.4051735 0.52515537 -0.29539746 0.16541669 -0.13175106 -0.15294676 -0.11711727 0.7872445 0.049395 0.19858687 -0.04897992 -0.3461844 0.46283683 0.58744645 0.10378482 0.03609565 -0.25965264 0.16361172 0.118139856 0.2840603 0.3664906 -0.6973299 -0.2169355 -0.398163 0.14891885 -0.4261107 0.6850437 -0.4310454 -0.0009987723 -0.28611556 -0.25479248 0.19003208 -0.38023886 0.03732805 -0.15950911 -0.17558023 -0.43721735 0.30761412 -0.3407409 -0.056482892 -0.004646585 -0.35437062 -0.11106273 -0.5253649 -0.9477202 0.53819996 -0.053550873 0.3061729 -0.3320016 -0.48137102 0.48321235 -0.5270469 -0.019625224 0.4176916 0.12422995 0.24101037 -0.5863295 0.19881894 -0.31227565 0.23825015 0.02164086 -0.46917865 -0.07827234 0.9407087 -0.9539597 -0.31856805 -0.33034158 -0.028469738 0.3697263 -0.19968586 -0.3591745 -0.13250324 -0.21826676
105 0.058146033 0.16789553 -0.106189735 -0.19751121 -0.06323504 -0.24409318 0.29372323 -0.20540847 -0.46267927 0.479303 0.16490576 0.19934858 -0.20735681 -0.15549481 0.23396248 1.0014783 -0.3515697 0.401681 0.21334623 0.11663733 -0.3137769 -0.23419136 -0.5637854 -0.5708517 -0.24875022 0.5428995 -0.0028437471 -0.4564015 -0.0023553926 -0.16736865 -0.48098066 0.06462975 -0.2164232 0.34789196 -0.14668523 0.49802467 0.46287203 -0.6984332 -0.23954107 0.16903593 0.06301491 0.16562343 0.47910705 -0.016730549 0.15769787 -0.1957839 0.06705477 0.12578511 -0.062259328 0.02919425 -0.41135168 0.51084256 0.31591436 0.16170801 0.51788116 0.08596635 0.5435648 -0.15255608 -0.07201551 0.05926013 -0.4063296 0.17927696 -0.026489595 0.09709165 0.5705597 -0.24755444 -0.49795106 -0.33010173 -0.49597594 -0.21987008 -0.49407092 -0.4587347 0.4362738 0.13304682 -0.23560707 0.27784044 -0.034146667 -0.17900611 0.1512099 -0.09569878 -0.2313614 -0.35257038 -0.038444497 -0.116552144 0.22447984 -0.3423075 0.82259226 -0.40448666 -0.085578576 0.019807193 0.31796357 0.15725414 0.09286694 0.2811288 -0.16650133 -0.0859255 0.105775565 0.572319 -0.19116884 -0.09302378 -0.21067616 -0.3445697 -0.23171155 -0.58030343 -0.38480687 0.7855045 -0.3021291 -0.7196777 0.21694021 -0.08167739 0.27468187 -0.4683132 -0.51772416 0.42140636 0.18986695 -0.28754514 -0.44691646 0.5832674 0.41318044 0.11542276 0.15835488 -0.16469644 0.07410131 -0.0042169145 0.50378686 0.080511995 0.2351052 -0.07693465
283 0.06538742 -0.4128057 -0.085039385 0.5158044 0.1859258 0.30767936 0.4271543 0.4612845 -0.64116657 0.21837835 0.5695514 0.29618925 0.025551036 -0.17675112 1.1712917 0.37217042 -0.18001759 -0.5594436 0.69818085 0.37265912 -0.25803334 -0.15775749 -0.31391376 -0.8806741 -0.28867635 -0.1697869 -0.06356367 -0.37617767 -0.18602337 0.3286592 0.044147827 -0.360624 -0.1445322 -0.2916489 0.00802656 0.7928864 0.22482404 0.12477635 -0.102402195 0.28574914 -0.52938616 0.060506266 -0.44009745 0.35434586 -0.3191261 0.021451665 -0.11185072 0.20414856 -0.29542312 -0.8191693 0.14787044 -0.24284236 -0.2076353 0.15075085 -0.24790205 0.057363003 0.46198606 -0.19826081 0.05932371 0.23520726 0.053185068 -0.16505544 0.22539349 -0.21963455 0.74974704 0.6596922 0.107984364 -0.06952313 -0.069011346 -0.14665183 -0.41153088 -0.39152563 -0.3236679 -0.051179267 0.26252446 0.1823574 0.4671881 0.3825728 0.28626686 0.09085876 -0.16762987 0.22444247 0.30952066 0.92254555 0.4621212 -0.020753615 0.23341201 -0.14191188 -0.45859534 -0.38003942 -0.63185686 -0.3417926 0.22148028 0.70538074 0.042379647 0.151583 0.272951 -0.32274783 0.15579768 0.055923022 0.04328203 0.3213614 -0.26052707 -0.048047706 0.60971516 0.31560656 -0.26205602 -0.5154749 -0.10673105 -0.41745386 -0.45736662 -0.23152703 0.09716372 0.033229437 0.07631495 -0.23901741 -0.6689747 -0.16804788 -0.197852 0.29946777 0.23647983 0.38527185 -0.59701216 0.20830987 -0.10465155 0.18917607 -0.029705718 -1.0589691
128 0.059668582 -0.07139868 0.5487105 -0.5292091 0.0902831 -0.62840223 0.3298642 -0.24614896 0.44211796 0.1407345 0.26322547 0.1477283 0.14123312 0.13770878 0.60341156 1.3417068 -0.546035 0.23744811 0.03733632 -0.018205114 0.44908336 0.05964114 -0.82619137 0.19486602 -0.062491383 -0.030117888 0.13812372 0.27063045 -0.073105164 -0.5152709 -0.4259792 -0.1928238 -0.389862 -0.35836884 0.3255351 0.3704643 0.29332548 -0.08566504 0.1228209 0.4241327 0.42319393 -0.19023561 -0.3531529 -0.040321585 0.2985308 -0.36222103 -0.04713037 -0.39308682 -0.6255722 -0.39330125 -0.106343664 0.39540088 0.16700894 0.2946714 -0.1578599 0.605989 0.592441 -0.028472207 0.07009669 -0.21921274 0.22968212 0.59166735 -0.42535567 0.09555672 0.24451324 -0.014114165 0.11108461 -0.048032533 -0.05423051 0.038835783 -0.4625992 -0.29726875 0.2166809 -0.32292247 0.19753145 -0.0092223 0.6195937 -0.33972925 0.3597497 -0.42341238 0.0728701 0.6012169 -0.32393333 0.33939022 0.21130835 0.4247441 0.37013924 0.14322844 0.52398735 0.13122065 0.26941976 -0.1369053 0.28057155 0.19050942 -0.02801605 0.22724505 -0.22884674 -0.10829308 -0.9372799 0.2574786 -0.033919923 0.30760777 0.31969568 0.0989891 -0.23968399 0.33965632 0.050387014 0.36444396 0.055570368 -0.61207604 -0.04536658 0.2955834 0.10384849 -0.6522207 -0.4882294 -0.5027027 -0.18410324 0.26609263 -0.4658151 -0.06470188 0.02692432 0.32043254 -0.19514833 0.52948105 0.07661906 0.5817616 0.20330215 0.22215839
114 0.70231 -0.5488874 -0.1584475 0.1075023 0.8552992 0.048226237 -0.0032147432 -0.3740664 0.5515654 0.043313958 0.46155977 -0.13641752 0.44650367 0.27338943 -0.056978147 0.9511831 -0.6702554 0.44888005 0.13302176 0.45355755 -0.080055565 -0.3421315 0.40238956 -0.18230148 0.3511961 -0.494545 0.040917736 0.36065337 -0.276977 -0.53946793 0.59100413 0.10201614 -0.12904319 0.72733295 0.13009651 0.4192458 -0.42012757 -0.36143035 -0.7353895 0.32357135 0.36595234 0.8282909 -0.2451784 0.2505959 -0.13034102 0.20549339 0.16033463 -0.26687565 -0.046877764 0.5058653 -0.1754149 0.5567555 -0.8410989 0.019038143 0.11011064 0.13986081 -0.014472459 0.30660757 -0.89453393 0.065086335 -0.4047154 0.10133292 -0.14749633 0.088845916 -0.12803942 0.80046815 -0.7647037 0.014080153 -0.26903728 0.02684405 0.20197628 -0.38877356 -0.3286366 -0.012098183 0.22091784 -0.5480499 0.15611233 -0.4400541 -0.55064255 0.09290552 0.021236489 0.087387756 0.00907474 0.3359799 -0.32309827 0.30435768 0.2777272 -0.20888206 -0.017523002 0.005221955 -0.09944084 0.4004929 0.16893116 -0.120845385 -0.55362797 0.17237303 0.34367082 -0.5767876 -0.06173984 -0.31152722 0.7271851 0.26640692 0.0979994 -0.1183909 -0.6924041 0.25093672 0.39628533 -0.2756834 -0.17546156 -0.5732233 -0.357204 0.3442903 0.1765761 -0.08993436 0.37174055 -0.3660654 -0.5350156 -0.16904715 0.12536243 -1.1419473 0.42903942 -0.056896154 -0.079875045 0.111344434 -0.23382173 -0.0006432822 -0.17275009 0.036986914
420 0.25730523 -0.00070798356 0.3156223 0.2566938 -0.022046296 0.25551674 0.4534499 -0.3206162 -0.1654782 0.06717235 -0.14114517 -0.1560261 0.06653255 0.29846504 0.038785867 0.55143726 -0.110956684 0.22993772 -0.83800274 1.1535949 0.18935013 -0.028352495 0.4189329 0.027613845 -0.20490481 -0.06749133 -0.05164257 0.0783174 0.010463707 0.40154594 0.75217795 -0.4775265 -0.7433504 -0.27688366 -0.2570327 -0.12900585 -0.056486912 0.11678288 -0.2715891 0.023597568 0.25237554 0.2312165 -1.1378967 -0.26330593 -0.09901838 0.15580182 -0.20548701 -0.20022784 0.44200772 -0.32718113 -0.53555304 0.496906 0.069859765 0.313725 -0.37918732 -0.14422512 0.7642721 -0.06337796 -0.109778 0.027067237 -0.5136011 0.05573748 0.23935096 0.08662775 0.9553035 -0.7069175 -0.028832858 0.37512907 -0.49917468 0.62965477 -0.036848493 0.27060404 -0.3490835 -0.24845704 0.34262624 -0.008045377 0.4040426 0.030688176 0.16758291 0.23538452 -0.3912689 -0.29768664 -0.1773189 -0.14881746 0.6195158 -0.53370166 -0.07933167 -0.09047427 -0.27066243 0.25188267 -0.79252213 0.50024676 0.62252736 -0.19451916 -0.28644884 0.19359338 0.25950587 -0.34061748 -0.003428035 0.25295243 -0.24963371 0.19346467 0.027148841 0.022477677 0.468652 0.6141158 0.07171024 -0.2680055 -0.29033872 -0.19908981 0.77757853 0.26421645 -0.5747224 -0.2261249 -0.24090129 -0.069158 -0.17103012 -0.28932545 0.36616233 1.1828893 0.23189431 -0.42256072 0.59267145 0.15899485 -0.29415026 0.16203338 -0.014333609 -0.6628739
301 -0.030912014 -0.006138999 0.07664231 -0.121268325 -0.45715883 -0.7865125 -0.6649104 -0.31175172 0.27845603 0.25850832 0.40811476 0.36686933 -0.25844502 -0.22223693 -0.14870693 -0.074291565 -0.33800974 -0.5528219 -0.18926111 -0.49087203 -0.22145346 -0.15911031 0.17084199 -0.36733446 -0.38054693 -0.0045995424 0.183926 0.66611695 -0.42349267 -0.16726339 -0.32913163 -0.19177057 -0.74754363 -0.48591158 -0.03907255 0.50708 -0.20902312 -0.03619413 -0.8796432 -1.0134779 -0.29882032 0.3327811 -0.0973568 -0.21624382 0.3632521 -0.23867045 -0.24654941 -0.13460715 0.29263633 -0.1629765 0.08167383 0.18353683 0.5564642 0.62562996 -1.3141358 -0.1358907 0.70265204 0.28061563 -0.14008054 0.026958682 -0.23517038 0.81746036 0.52953696 0.11747642 -0.17412625 0.3590756 0.25586054 0.44887853 0.015845334 0.28680554 -0.16868812 -0.0881071 -0.09883176 -0.051721815 0.75242674 -0.2642742 -0.37164354 0.12504576 -0.26386023 0.2893041 -0.34241882 -0.53415567 -0.2610687 -0.0012614916 0.1508729 0.312466 0.24656865 -0.82332265 0.060829513 -0.43274572 0.14427076 -0.014596028 -0.33412346 0.35354507 0.14440149 0.08879512 0.9539636 0.25468785 0.10199714 -0.32555613 -0.22028351 -0.7185559 0.264306 0.16632827 -0.16547212 -0.039075416 -0.18467724 0.33951873 -0.90487224 -0.51990706 0.60132354 0.11410623 0.027184218 -0.053810425 0.2744925 0.68758446 -0.733893 -0.026433399 0.5247261 0.26781553 -0.008290028 0.27330217 -0.49535543 0.7342498 0.14792535 -0.38067 0.10094556 -0.1271865
333 0.3419925 0.121426105 -0.5339843 -0.10103004 0.3755979 -0.022017153 -0.086218886 -0.3459027 -0.7127321 0.21957658 0.7302398 0.3407295 -0.01161623 0.26246238 0.36067045 0.7275859 0.025763417 0.12702157 -0.4965821 0.22752403 0.4448249 0.6441848 -0.70968044 -0.05621106 -0.05275553 -0.022002451 -0.75469863 0.22439776 -0.16259114 -0.2948126 0.10255915 -0.20584284 0.13647583 -0.15077788 0.16541743 0.3811894 0.04041831 -0.9195161 -0.5453151 0.9173955 -0.63095456 0.38948515 0.3306238 -0.009516034 0.014418111 -0.031047858 0.2230255 -0.031397752 -0.16715124 -0.075679004 0.1816016 0.48784938 -0.03221266 -0.0020885651 0.07353468 0.003422373 -0.49816185 0.11165965 -0.27528453 0.37497896 -0.28836516 0.2776893 -0.013311978 0.43119088 -0.17018905 -0.105341665 0.015222255 0.0901963 -0.058124978 0.106690295 0.23703974 0.12206661 0.09197605 -0.17402458 0.36629885 -0.7646369 -0.28697568 0.11256729 -0.10559243 -0.026947174 -0.607211 -0.41858122 0.43756047 -0.10610164 0.31432465 -0.058481492 0.6769966 0.09726413 -0.2686779 -0.19912404 -0.018121649 -0.575809 -0.082809485 0.25702336 -0.12864564 0.18865097 0.33049673 -0.13813761 0.13387619 -0.33274174 -0.460405 0.603396 0.01915713 -0.062392477 -0.5501991 -0.43015897 0.03668102 -0.071152896 -0.18634564 -0.9500073 0.59471995 0.4950149 0.1475773 0.15768869 -0.63843966 -0.14467137 -0.14949626 0.6349365 -0.42155167 0.058955837 -0.38488266 -0.32314217 -0.21593037 -0.28106835 0.28122 -0.8526229 0.11791828 -0.42903987
83 0.08632051 -0.019672114 -0.016897067 0.4113911 0.055756327 0.57841426 -0.12758693 -0.5806793 -0.31963345 0.18446445 0.17422393 -0.4579627 0.13236178 -0.15682907 0.32891163 0.54703915 -0.44070527 -0.765004 0.043034256 1.1079402 -0.28382444 -0.08882567 -0.2702445 -0.17862256 -0.51048106 0.43098405 0.18632647 -0.96805316 0.36612085 -0.4483525 -0.20215999 0.17744216 0.37709644 0.05127099 0.08196302 0.49406272 0.038379062 0.25290674 -0.28108153 -0.085264094 0.22083932 -0.45355552 0.1420054 -0.274737 -0.2787575 -0.40973812 -0.452343 -0.46472698 0.050723255 0.45293555 -0.2146037 0.18936639 0.23269513 -0.20144333 -0.6904385 -0.36824134 -0.5223642 0.12787215 -0.29564995 -0.23999667 0.03146797 0.22213905 -0.031862643 0.46293217 0.11116416 -0.2349332 -0.15666974 -0.41599798 0.52483225 -0.25308207 0.35255474 -0.34237626 -0.40254 -0.39349306 0.31934518 0.11980139 -0.461484 0.23305057 -0.34563178 -0.011061281 -0.53693414 -0.48324743 -0.112619385 0.19587055 0.25039038 -0.2532617 -0.08535551 0.16016506 0.3523674 0.30413505 -0.18036869 -0.7226862 0.12531063 -0.23534246 0.31870818 0.16745853 -0.07972905 0.22691451 -0.22964641 0.62736636 -0.49083728 0.12790671 0.1622025 0.3470232 0.019360144 0.6476758 0.1309606 -0.44594827 -0.7180811 0.04010426 0.49125662 -0.22888243 -0.87862635 0.12871529 -0.08086214 0.4272118 -0.43735018 0.7645183 -0.1283213 0.26905486 -0.078823015 0.10757218 -0.49279076 0.32515785 0.4718277 -0.515757 -0.35374212 0.50651085
87 0.5456612 0.16718015 -0.012218 0.014755779 0.46758616 -0.83542025 -0.20973222 -0.3578805 -0.5289597 -0.285881 -0.07618849 0.23037015 -0.043639287 -0.41313398 0.09818882 0.2634273 -0.44530115 0.34880757 -0.5431264 -0.16586182 -0.22368938 -0.08470224 -0.6376933 -0.28641877 -0.3000502 0.4991146 0.706577 0.5501239 0.22412074 0.4155142 0.3495998 0.40159595 0.1048009 -0.6878294 0.031301327 -0.08614906 0.7000277 -0.04106893 -0.6670663 0.20977221 -0.5011583 0.47717223 -0.29524493 -0.25690612 0.038042262 -0.06345164 -0.3276148 -0.33104154 0.19241044 -0.11480263 0.2334613 0.5386547 -0.13420247 0.617923 -0.174097 0.4920649 0.005274427 -0.40791547 -0.010317806 0.098655626 -0.48165268 -0.1632758 0.20723036 -0.71529853 0.99593043 0.26025516 -0.55665433 -0.38023996 0.08891844 -0.24180226 0.13036937 -0.15055451 -0.830161 -0.24387564 -0.20531385 -0.36437815 0.42648554 0.10913902 0.73008835 0.098333016 -0.3736822 0.4930566 0.22968252 0.18778631 -0.39454043 0.17655331 -0.22983801 -0.23300163 -0.021080906 0.53629935 0.35740966 -0.22491135 -0.70203036 -0.046211112 0.1922355 0.0061785504 0.20371956 -0.039325744 0.028253552 0.06532843 0.17224047 0.23034579 -0.25855136 -0.19951338 0.061919633 0.43377727 -0.038580704 -0.01096222 0.4881969 0.2660998 0.10069835 -0.79784644 -0.6037984 0.37918958 -0.26279813 -0.08623163 -0.13622315 0.32853848 0.6076635 0.4553751 -0.7645744 0.18423378 0.20543799 0.4240072 -0.3767254 0.041086763 -0.3791009 -0.36879218
142 -0.6024448 -0.207965 -0.32858533 0.1354563 0.6575545 0.25072744 0.8385352 -0.29252484 0.25361422 0.10490656 0.47966745 -0.19030592 -0.20304443 -0.18441573 0.33442768 -0.19137609 -0.59436435 -0.044722136 0.10580389 0.3772256 0.30590442 0.4923403 -0.24261364 -0.14983428 -0.45469284 0.6246904 0.25878647 -0.13478191 0.5107456 0.0018451628 0.052195776 0.28871667 0.50929767 -0.019843083 0.0022344445 0.58100545 0.38139945 -0.69670826 -0.17147529 0.035462525 -0.004304009 0.5187228 -0.11566154 -0.62380445 0.3568634 -0.20896202 -0.13815147 0.22313519 0.62031984 -0.13489869 0.28811842 0.5810138 0.10124956 -0.34474614 -0.66274315 -0.19434005 0.33061492 0.057245575 -0.11256715 -0.17238311 0.90456456 0.17131531 0.5598108 0.21157609 0.2735879 0.11424229 0.3111575 -0.5456242 0.27171546 0.39054954 0.3636661 -0.1225847 0.24048808 0.26932427 0.1248957 0.7834592 -0.49725583 -0.23272836 -0.07262425 0.19229825 -0.054770663 -0.20244081 -0.062410884 -0.2444325 0.17545085 0.32244018 0.003944526 0.20023797 0.2261942 0.33872816 -0.4422637 0.2584801 0.61987484 -0.16200088 -0.47892243 0.5431909 0.7515968 -0.18596157 0.01879014 0.45699087 -0.49444544 -0.04729273 0.6127133 -0.054535087 -0.23209493 0.17722821 0.12500884 -0.0011598212 -0.27146545 -0.1633824 -0.2663406 -0.57239974 -0.17351547 -0.56002676 -0.13153827 0.3035351 -0.25756785 0.17251477 -0.5636227 0.26421344 -0.20355842 0.87150496 -0.38848445 0.18600626 -0.48031682 0.12888072 -0.19674367 -0.22834596
820 0.2096502 0.34903723 -0.15061939 0.06431847 0.27264395 -0.28427142 0.3409162 -0.045587573 0.3472337 0.81449604 0.08599911 0.15675934 0.45658928 0.48170313 -0.1460651 0.49991414 -0.2232764 0.010750972 0.086239375 -0.233168 -0.48126954 0.3574936 0.21614073 0.25800338 -0.16244787 0.009911678 0.10578662 -0.21749674 0.31405666 0.29163298 -0.6897452 0.02234654 -0.13231447 -0.2880024 0.52223575 1.0457907 0.34620944 0.57275337 -0.50016004 0.2673925 -0.22512414 0.0425797 -0.44305104 0.30083618 -0.80431193 -0.08973239 -0.20499378 -0.40422538 0.1063206 0.34769782 0.069263205 1.061751 -0.13352355 -0.14938441 -0.18138038 -0.1686037 0.08672851 0.21406977 0.34812593 0.49915653 -0.61705434 -0.28690782 0.2207704 -0.2778109 0.72264093 -0.48332748 -0.38748205 -0.04897806 -0.45935956 -0.24939652 -0.2857176 -0.14677536 0.16874306 -0.5148441 0.4632154 -0.46133238 0.35571614 -0.2890654 0.47178936 0.29607722 0.67301804 0.107981645 0.19404005 -0.50256795 0.06669532 0.2881004 0.39152285 -0.62589186 -0.33972675 0.0848614 0.5354164 0.06915318 0.04850196 -0.36599237 -0.52076536 -0.19720063 0.3317588 0.04417181 0.24744926 0.35511684 0.26263765 0.12791264 0.112911925 0.03865084 0.09083391 -0.052079063 -0.80550116 0.61649925 -0.121200696 -0.2857656 0.32463652 -0.1463891 -0.14842477 -0.5867798 0.18176655 -0.29364467 -0.5074851 0.43539783 -0.4359423 0.5340221 0.050125215 0.43188196 -0.16325212 -0.825289 -0.3659513 -0.304932 -0.5631666 0.1727828
282 0.014093843 0.14721286 -0.09411187 -0.04862449 0.86590135 0.20984538 0.1103232 0.16878325 -0.0101168435 0.8457757 -0.6247767 0.10508059 -0.19765437 -0.9050477 0.21685725 -0.049115047 0.1673068 -0.20404191 -0.47413382 0.081698895 0.30238804 -0.17310593 0.11214758 -0.7175336 -0.8618811 -0.27212912 -0.33796826 -0.0986187 -0.5724928 -0.34403518 0.4151134 0.48468983 -0.1383219 -0.3665339 -0.2215895 -0.23595254 -0.3807026 0.12630504 0.3215721 0.00039108456 0.11251954 0.027881715 -0.052423984 0.04039603 0.2749631 -0.38812357 0.40334702 0.02708866 0.44365004 -0.011011097 0.52511555 0.9008638 -0.07690703 0.4368131 -1.0797905 0.14788803 0.40476808 -0.5791748 -0.09370618 0.10781802 0.3961124 0.42969704 0.37548837 -0.3905218 0.22434461 -0.01802126 -0.26230484 0.33115593 -0.30456585 0.23086895 -0.4504157 -0.8092631 -0.21420741 -0.18864314 0.6788845 0.80534863 -0.097617805 0.27632633 -0.43523574 -0.736535 -0.25850838 -0.4431408 -0.4809015 0.7140425 -0.009351711 0.62055033 0.24524614 -0.8889306 1.1247647 0.14972943 0.14018069 0.5320233 -0.18872605 -0.15344876 -0.3045182 0.07248308 -0.15717642 0.06669918 -0.3992166 0.27793697 -0.50866735 -0.10697258 -0.23603822 -0.09685025 -0.042933706 0.5049224 0.26193273 0.2423995 -0.0030244638 0.70098466 0.5862352 0.42000467 -0.14978555 0.12195791 -0.1671995 -0.088742405 -0.3222648 0.01983279 -0.17353837 -0.15947796 -0.16316904 0.21046203 -0.280407 0.6500019 0.0841723 0.19102329 -0.53609306 0.06432453
424 -0.29213884 0.010193582 0.24159065 -0.4411783 -0.08051629 0.33509943 0.47394222 -0.020846982 -0.3668067 -0.10061226 -0.1359977 0.6367285 0.112324074 -0.92888314 -0.43206385 0.7515536 -0.7145796 -0.3089928 -0.3309412 -0.1887085 -0.0015652349 0.098110974 -0.14723502 0.12027837 -0.3676425 -0.29790294 -0.6451029 -0.5787829 -0.56177354 -0.42079258 0.36555636 0.15144086 0.6628812 -0.20896342 -0.4261077 0.31519222 0.19048327 -1.1193217 -0.5413354 0.20846698 -0.13315822 0.31791863 -1.0792261 -0.006677084 0.31509602 0.51620257 -0.2704936 0.05364625 0.24720529 0.39283493 0.10296677 0.638082 0.29127067 -0.13363479 -0.4415533 -0.07863459 0.64237857 0.098481484 -0.36811447 0.55717313 -0.01396149 -0.15458807 -0.0718294 0.32016322 0.34855112 0.13651717 -0.49897996 -0.1201155 -0.5701782 0.061218902 0.30837688 0.10443189 -0.31319165 -0.06049377 -0.022599377 0.16788039 0.15938205 -0.16839398 -0.9472923 -0.1884365 -0.09505049 0.08722203 0.2906742 0.42903957 0.074341305 0.682213 -0.16018057 -0.12828428 0.07322492 -0.2573783 0.13642305 0.34420496 0.34644276 0.0027513588 0.28049272 -0.12107119 0.06442102 0.57407063 0.044277027 -0.013817937 -0.22049196 -0.01647346 0.4111127 0.51417816 -0.17184938 0.36886007 0.13578174 -0.4070596 0.20332044 -0.19424663 -0.22172374 -0.2149924 -0.47258112 -0.22349344 -0.021970034 0.6648048 -0.66840434 -0.46323326 0.2965651 -0.4225834 -0.5248577 -0.11399676 -0.1685944 0.39763942 0.14382792 -0.46726516 0.11765154 -0.61172104
96 -0.2969727 -0.1143759 -0.2723087 -0.1421713 0.4252409 0.04474637 -0.031774268 0.1583099 0.075471744 0.35561857 0.7295939 -0.34745625 0.22343571 0.37871566 -0.050082922 0.017983433 -0.20530206 0.69629467 -0.86665255 0.23103695 -0.531698 -0.35256284 0.11567705 -0.6612308 -0.120970435 0.14197668 0.14535974 -1.1553453 -0.9461753 0.019314792 0.26143122 0.45447433 -0.1983109 -0.12776542 -0.3364352 0.7542061 -0.06556273 -1.2153524 0.07510125 1.157112 -0.025572207 0.006521431 -0.43591422 0.24482492 -0.573122 0.008475608 0.039512046 0.24314268 -0.8598662 -0.3805287 0.7176085 -0.038375176 0.44964263 0.39521036 -0.7626822 -0.089829184 -0.27139854 -0.20265009 0.5898769 -0.09904371 0.041193854 0.52888095 0.4925614 0.61884415 0.07698115 -0.28724313 0.097993635 -0.4331879 0.06219612 0.23371491 -0.009724386 -0.18744381 -0.19265114 0.02475 0.64027023 -0.60461587 -0.09236076 -0.21339832 -0.2874877 -0.055902272 0.03998563 -0.15047279 0.409862 -0.52372223 -0.32222867 0.3319331 0.87036616 0.098398075 0.08483369 0.25318706 -0.3237203 0.31340376 0.13196388 -0.53988135 -0.42516592 -0.1546965 1.195142 -0.13965085 0.25604993 -0.25975358 -0.060006272 -0.095163345 -0.0006142059 0.30587718 -0.36328542 -0.4393391 -0.43628487 -0.25127718 -0.4459927 -0.156801 0.3176749 0.17166708 -0.12716311 0.13156871 0.45665488 -0.10315607 0.40944472 0.22220223 0.47620922 -0.48992288 0.42396584 -0.40160218 0.41568413 0.41026518 0.009296677 -0.19712168 -0.5946807 0.117582016
115 -0.028291665 -0.27537948 -0.02568725 0.7446633 0.4191409 0.14665738 0.18455611 0.07493886 -0.011352348 0.46662277 1.1070343 -0.030670607 -0.2206249 -0.23557398 0.81085753 0.4329687 -0.88891995 0.6779475 0.056763563 -0.003551505 0.21992902 0.28143305 0.10522476 -0.35466626 -0.63793075 -0.12042684 -1.1798832 -0.6361292 0.22579439 -0.34310085 0.5954906 0.7445466 -0.3385796 -0.1709677 0.16191669 0.13080291 0.47364056 -0.5081222 0.13150923 0.25080478 0.63875055 0.37561527 0.07355474 0.32777014 -0.045213073 -0.33039168 -0.05802478 0.0046116444 -0.44450662 0.17041491 0.13302962 0.07487589 -0.16751394 -0.11722978 0.20431703 -0.42750028 0.32968822 0.05274228 -0.13690518 -0.31750733 0.28246206 0.5885867 0.061334554 -0.41891187 0.27559426 -0.16005395 -0.24182777 0.76013875 -0.23838128 -0.7311876 1.0657434 0.59675515 -0.71021616 -0.26551443 -0.010130904 0.5559817 -0.763513 -0.1305483 0.11605347 0.3441656 0.09387781 -0.041147627 -0.42729804 -0.58505046 -0.11991239 0.2914049 0.38008967 0.26262727 0.4097769 0.31411391 0.27332684 0.09531673 0.21807706 0.13082905 -0.3884182 -0.0089882165 -0.31340045 -0.67642 -0.025815811 -0.121982194 -0.6019852 0.16630207 -0.08265947 -0.111094154 0.6052137 -0.20944187 -0.112599865 0.1333867 -0.06535097 -0.007887387 0.591532 0.07354983 -0.035105214 -0.12775922 0.055819105 0.059361536 -0.45090425 -0.18617949 0.4123207 -0.27473667 -0.23733234 -0.38544324 -0.57087255 0.11879559 0.02223541 -0.87000674 -0.13294809 -0.27669066
256 0.15137404 -0.21596046 0.23713413 -0.5241915 0.93514585 0.27015182 0.17117296 0.39621693 -0.06462271 0.3215563 0.6074067 0.013214879 0.3479782 0.70106316 0.6356697 0.049855504 -0.061386403 -0.22092547 -0.6279954 -0.06550024 0.51969975 0.079870455 0.0056002764 -0.21820176 0.10703589 -0.14054836 0.44325972 -0.09475688 0.07051073 -0.04941612 0.45184508 -0.34558335 0.09976875 -0.6813003 0.20841692 0.69591343 0.77954394 0.056264605 -0.22824885 0.17868316 0.14581373 0.8957581 -0.19967014 -0.10161819 -0.5177468 -0.11842276 -0.17967267 0.037048075 0.03720228 0.2202602 0.1646306 -0.2723787 0.23608236 -0.06149911 -0.31671017 -0.18898128 0.29546523 0.4087809 -0.10497458 0.36285487 -0.03966234 -0.15633827 0.23842114 -0.28236926 0.1713 0.058337238 -0.16677819 0.4488836 -0.93129814 0.041396692 0.21494102 -0.44274086 -0.42447877 0.18526404 -0.34191433 0.4467112 -0.21012557 0.25297374 -0.27894002 0.43570456 -0.08726561 -0.22151811 0.62010413 0.53375804 0.21425445 -0.56341964 0.12500286 -0.63209456 0.40783694 0.47905385 -0.3863653 -0.3172665 0.009205398 0.69251275 -0.24955204 0.336642 -0.08472449 -0.392439 -0.327651 -0.22213963 -0.36868304 0.12434685 -0.10225934 0.4226237 -0.26028964 0.31408596 0.020817416 0.3625285 0.13743345 -1.0309145 -0.28358537 0.16374265 -0.42368415 -0.11330242 0.06064066 -0.4458122 -0.6582789 0.90151125 0.07778635 -0.22089161 0.5614045 -0.58647317 -0.38367584 0.112922326 -0.08578635 0.25815305 0.27509907 0.20200776
411 -0.4221613 0.081030264 -0.7594156 0.031690355 1.0747972 -0.09001176 -0.057603393 -0.030883748 -0.58034205 0.26222667 -0.04634265 -0.16922244 -0.3073376 0.3634115 0.00892281 0.76839674 -0.30228347 0.2681278 -0.28773013 0.7080806 -0.3026944 0.06878807 -0.4198687 -0.8938091 -0.14963697 -0.0625544 0.3172164 -0.3781353 -0.3559402 0.6544283 0.08562128 -0.041441914 0.10964597 -0.8331506 -0.5348366 0.66339993 0.6127981 0.07337867 0.2090441 -0.3049654 0.31643686 0.12504658 -0.14555582 0.1206976 -0.45197952 1.1447299 0.44771755 -0.41263846 -0.55533266 0.028442996 -0.23489916 0.38025412 -0.23792793 0.41825834 -0.38827258 0.28725144 -0.38157982 -0.052619293 -0.20328133 0.17788461 -0.7313859 -0.36992177 0.12871096 -0.50364935 -0.4467928 -0.6852268 -0.5686561 0.07034217 -0.009855047 0.31044048 0.00067002873 -0.6656002 0.527047 0.031182071 -0.1559494 0.41254207 -0.7194695 -0.2608347 -0.69715786 -0.46810615 0.29260108 -0.2386821 0.3561294 -0.18938018 -0.2525615 -0.07276791 0.27182955 0.38150942 -0.40416294 0.23504233 -0.14376801 0.4165646 0.32799852 -0.09899473 0.28255498 0.23260054 0.35867545 -0.22819407 -0.15640017 0.037747514 -0.7026391 0.24937049 0.19999328 0.23077899 0.66149616 -0.31218398 0.41529584 -0.33403915 -0.5842911 -0.5904379 -0.16868407 -0.01837944 -0.46231973 0.5768785 0.015318378 -0.57677215 -0.38826057 0.5938611 0.1353599 0.5042687 0.066668764 -0.46586692 -0.3168534 0.23309995 0.014835917 -1.1706151 -0.10317377 -0.1969207
63 0.054067478 -0.77459526 0.0110622365 0.7077493 0.648381 0.30228084 -0.30930626 -0.28006807 0.1768811 0.79400223 0.29175442 -0.54854643 -0.51375055 -0.03863247 -0.066684775 -0.13266964 -0.6588666 0.085160114 0.57327694 -0.04463833 0.24087386 0.28446516 0.100798726 -0.26810235 0.7270286 0.3145261 0.010148598 0.09030347 0.36902082 0.029654503 0.4824989 -0.25194433 -0.6626618 -0.5331829 -0.096021995 -0.3968541 0.19695477 0.3055579 -0.049288735 -0.45270413 -0.39775485 0.6268944 -0.34209087 -0.5372042 -0.21932569 0.43941495 -0.22986834 0.17142332 -0.13614438 -0.06662038 0.60968596 0.35567808 -0.051910385 -0.48089018 -0.64127034 0.5475434 0.22470981 0.002814414 -0.37574297 0.40226802 0.4163267 0.25110334 -0.16304077 -0.6417771 -1.2220287 -0.16732419 -0.6923828 -0.0027014224 -0.8980062 -0.48405194 -0.27255657 -0.24592412 -0.05472388 -0.49587074 0.31701288 -0.24262834 0.6895776 -0.17494804 -0.6277396 0.5346842 -0.8541425 -0.030068085 -0.09004707 0.494617 0.17761387 0.0539887 0.42312762 -0.02988498 -0.7110037 0.3302749 0.042523958 -0.19444907 0.4397385 0.5212406 -0.32400757 -0.25879955 0.03656352 0.16023193 -0.054127 -0.037178002 -0.50515485 -0.07286172 -0.19339497 -0.46863636 -0.13308674 -0.0756345 0.22950497 -0.6010181 -0.37824515 -0.22218584 0.05026358 0.013376812 -0.18520443 0.34385002 0.031303376 -0.029254695 -0.1185098 1.1691632 0.168274 0.24765323 0.1422854 0.22228166 -0.121339366 0.8218911 -0.36468095 -0.40550122 -0.17508395 -0.38995454
405 0.11521892 0.1945412 -0.09449032 0.1695801 0.5414089 0.4379502 -0.08731257 0.12552035 -0.27848572 0.067092545 0.5718298 0.38298374 0.14102636 0.116108835 0.016142111 0.8489284 -0.16222216 -0.09234699 -0.53114027 0.7060354 0.06641394 -0.23796134 -0.322659 -0.5889275 -0.24875575 0.5785854 0.059527062 0.030328598 0.11500208 -0.37368995 0.172351 -0.03865901 0.15684046 0.040221386 0.18800956 0.8324391 0.4426033 -0.18576176 -0.80752164 -0.04415019 -0.4879532 0.1121637 -0.42392218 0.4353704 -0.19683805 -0.18646938 0.011935795 -0.08044757 -0.2499455 -0.025269547 0.48036784 -0.051122744 0.16571434 0.133337 0.015167186 0.15959816 -0.6783434 -0.7743563 -0.48750654 -0.120142706 0.32458344 -0.6142897 0.59907085 -0.29709715 -0.27204934 -0.03818152 -0.5977468 -0.0585531 -0.6845103 -0.026947774 0.1846454 0.02220311 -0.82821554 -0.27530918 0.37015778 0.36759079 -0.12815352 -0.5536194 0.06954818 0.17144422 -0.56368506 -0.030326558 0.12794808 -0.023098046 0.36656666 0.09922503 -0.20951375 -0.26064256 -0.058995076 -0.28405872 0.24562109 -0.11125609 0.37025276 -0.7473525 0.12992421 -0.195554 0.8280152 -0.26789796 -0.16815266 -0.40990692 0.09152867 0.5033534 0.30823898 0.027788071 -0.2864351 0.7995827 0.55474544 0.6656936 -0.5392766 -0.3660564 -0.2612979 -0.013661523 -0.23844598 -0.9118013 0.037023827 -0.9593451 -0.23681775 -0.4469193 0.7492046 -0.5590822 0.013743669 0.3712383 -0.6200795 -0.14278944 -0.07030693 0.1534528 -0.22684273 0.122478716
58 0.23712775 -0.21026759 -0.11446161 -0.47367185 0.22547062 0.07433507 -0.34942424 -0.49001637 -0.7199796 0.7050355 0.90922755 0.031728946 -0.40511128 -0.1351021 0.30446085 0.073775865 -0.18174846 0.07883933 -0.033638887 0.29763228 -0.021580268 0.5583663 -0.0695351 0.09757805 -0.4037353 0.06518997 0.18109316 -0.48143804 -0.11238025 0.15041494 0.43652678 0.38868862 0.05686502 -0.3395505 0.00896269 0.56678617 0.96693385 0.013411005 -0.53732914 -0.3699654 0.44641694 -0.307463 0.1162111 0.2462198 -0.038110994 0.11040225 -0.47060296 -0.46991822 -0.22013137 -0.011704787 -0.2738943 0.10358969 -0.5132718 -0.5312624 -0.32859695 0.4871193 0.26719457 -0.25541732 0.5708443 0.94795805 -0.22298017 0.6030496 -0.0032790753 -0.16897394 -0.53756493 0.1542869 -0.7238849 -0.59563357 -0.032462943 0.253785 -0.2571688 -0.5930064 0.3211182 -0.28036523 -0.16727899 -0.3749746 0.15273228 -0.004076478 0.41412714 0.03808226 -0.5546749 0.15482612 -0.18107884 -0.10285334 0.47248885 0.09121683 0.32914007 0.43871766 -1.0381771 -0.25045463 -0.7056924 -0.18386872 0.27607712 -0.09016782 -0.18955126 0.12308666 0.19445927 0.0444925 0.15256637 -0.7483056 0.16096866 0.13605015 -0.56699264 0.06751999 0.41647705 0.21660675 0.007470804 0.3411184 0.31122172 0.40128988 0.7686459 -0.22524314 -0.41331545 0.043710552 -0.17553896 0.63795257 -0.20151046 0.52840257 0.15906104 -0.6501068 -0.16584519 0.25830862 -0.66425925 0.19237223 -0.28500125 0.39047667 -0.5923972 -0.43183574
6 -0.15927748 -0.15380229 0.58802587 -0.32397568 -0.2486698 0.4093765 -0.581109 0.38443464 0.2519961 0.42488876 -0.014007423 -0.778383 0.058768064 -0.30393246 -0.39407697 0.27453813 -0.523821 -0.048433088 0.32066518 0.37961292 -0.25732744 0.3024168 -0.7419657 -0.08289694 -0.27191165 -0.44749933 -0.02627084 -0.4809978 -0.48369431 -0.09034002 0.071974814 0.03509445 -0.64491916 -0.7211311 0.24591327 0.72845834 0.5136214 0.22332005 -0.148912 0.6193882 0.32447958 0.5764254 -0.15857705 -0.13073261 0.7206018 -0.022015199 0.82040584 -0.117880784 0.85651875 -0.31276256 0.538717 0.37177098 -1.1079627 -0.03865621 0.17464471 -0.22895819 -0.084130235 0.2940489 -0.29530373 0.20291913 0.16588855 0.92327267 -0.15333073 -0.102078326 0.4583742 0.35800347 -0.44330314 -0.046642173 0.5024967 0.44101015 -0.3057251 -0.024547467 0.38689557 0.03952328 0.13093008 -0.19569431 0.13421832 -0.25556794 -0.40473083 -0.61139494 -0.1411332 0.35954133 0.011822782 -0.34647885 -0.07454059 -0.20370753 -0.35179478 -0.49866986 -0.35474005 0.68240523 -0.30666187 0.56131923 -0.10678893 -0.37390947 -0.55224645 0.027024115 0.5733238 0.43978184 0.1775029 -0.2944899 0.32639125 0.58770776 -0.33079612 -0.2176299 -0.68729013 0.10767682 0.0023804763 -0.8423093 -0.25585592 -0.51310915 0.41185874 -0.12041251 -0.75226545 0.38087657 0.34422746 0.053220436 0.14710188 0.44429326 0.04388872 0.088062 -0.038612176 -0.5512793 -0.31270215 0.5225214 -0.7025571 -0.5886007 -0.32268006 -0.580421
280 0.04348508 -0.07126379 0.20300294 0.31572455 -0.25378036 -0.14030233 -1.2189412e-05 0.116427764 0.5528868 0.33823717 0.6966773 0.76859325 0.5361301 0.006646498 0.3705146 0.1438736 -0.16855617 -0.4594977 -0.30452576 0.58961225 -0.10223363 -0.35486984 -0.3316565 -0.028271638 -0.4234494 -0.19560689 -0.3201735 -0.087692045 -0.027349843 -0.45481625 -0.0040557617 0.09427143 0.013730644 0.052643254 0.04130167 0.5177497 -0.32448456 0.46115366 0.52236086 -0.40106243 0.04013264 0.554227 0.1200671 -0.06923189 -0.56113976 -0.3826695 -0.4063585 -0.4562823 0.33931008 -0.28241298 0.39864007 0.61000705 -0.2410752 0.055116855 -0.1642727 -0.049607717 -0.32028857 -0.03466457 -0.16245924 0.81465703 -0.975021 0.46471342 -0.6185917 0.5681556 -0.3170924 -0.2423223 -0.23079638 -0.05189737 -0.5524593 0.20467363 -0.26768696 -0.11535017 -0.3884825 -0.38462895 -0.37439927 0.6545548 0.52759326 0.20625919 -0.32878542 -0.09678569 -0.1872824 -0.13811333 -0.04652526 -0.22886871 0.47079977 0.021632288 0.048931506 -0.5433257 -0.71872014 -0.22405285 0.413264 0.038215525 -0.030982278 0.53017306 -0.0230379 -0.22078116 0.2755302 -0.5658592 -0.21032406 -0.484917 -0.42261374 0.23783049 0.6153291 -0.3095426 0.1774747 -0.50292313 -0.4419966 0.34277147 0.21636063 -0.21694678 -0.14220123 -0.2310425 0.21497408 0.24984065 0.09591151 0.58260715 -0.1121096 0.043824553 0.22376725 -0.06371145 -0.11009234 -0.0067584827 0.5497047 0.45488334 0.22986762 -0.08480103 -0.058074567 -0.21750249
252 -0.388992 -0.04745492 -0.13889004 0.39063653 0.5660559 0.037487887 0.11430466 0.21546768 -0.27601844 0.41859934 0.31009388 0.32733625 -0.18784222 -0.37875384 -0.45486292 -0.18507482 -0.4297097 -0.12196371 0.2557996 -0.358578 -0.7587954 0.019149771 -0.501263 -0.17389816 -0.23419826 0.99902457 0.19052233 -0.42237374 0.32633317 -0.46529636 -0.29528138 -0.1536675 -0.14840193 -0.29233792 0.9488565 -0.10973118 -0.27910525 -0.058288686 0.31261727 0.18038169 -0.12504628 0.17394555 0.8140587 -0.37761313 -0.74669075 -0.18539166 -0.43148515 0.40739506 -0.24890697 -0.009009247 0.349232 0.542373 -0.14804304 -0.49806827 -0.5428423 0.24371608 0.26657572 -0.34372494 -0.78323483 0.06389705 -0.20415461 -0.11085706 -0.2036148 -0.12857597 -0.11592846 -0.357426 -0.07360831 -0.06727873 0.119522706 0.039763752 -0.22036535 -0.13609052 -0.8788497 0.06862615 0.27085975 -0.55188954 -0.019577624 0.1730423 0.33725488 -0.44391468 -0.39530137 0.542529 -0.00960381 0.15229884 0.06247562 0.19680114 0.42744383 -0.7859612 -0.327719 0.2874801 -0.82620084 -0.02608709 0.4179004 -0.025851827 -0.0336795 0.08001392 0.37148437 -0.08917873 0.090662174 -0.81280905 -1.0586915 0.3277028 -0.51938164 0.02899635 0.2952418 0.382629 0.589848 -0.74208826 0.05079253 -0.41687608 -0.18942264 -0.12484461 -0.3484483 0.18373057 -0.7212539 0.18832022 -0.23965192 0.4548736 -0.17035222 -0.2676265 0.03218528 -0.2751239 -0.388079 0.99129564 0.103822164 -0.62000495 -0.26364818 0.2371627
212 0.28323302 -0.31569633 -0.44875136 -0.08074546 0.05612586 0.16969977 0.45729142 0.1493239 -0.26009017 0.11508867 0.56610304 0.22406872 0.17745832 -0.8492302 0.43940046 0.6369147 -0.4221201 -0.68380284 -0.6642708 0.3849481 0.33541128 0.1931515 -0.54124105 -0.45824152 -0.14063759 0.33398086 -0.27669013 -0.10790429 -0.31613353 -0.54059017 0.10808757 -0.12666683 -0.90657103 0.6902453 0.14743073 0.70121264 0.6818177 0.0064433576 -0.32156092 -0.36735278 -0.6998419 -0.09315372 -0.1255796 0.4401547 -0.13771445 0.31401846 -0.188891 -0.10531836 -0.20707636 0.26828933 0.30778876 0.050758075 0.5219912 -0.1525081 -0.14974758 -0.35993415 -1.0385506 0.046776436 -0.18959205 -0.2556388 -0.14687276 0.5394645 1.1565295 -0.24840671 0.18611816 0.051554527 -0.078964435 0.06345331 -0.59587246 -0.3592632 -0.5853885 -0.18057252 0.22244364 0.08717372 -0.0690521 0.24174929 0.47539422 0.13419716 0.09910012 0.31550664 -0.44250092 -0.09783976 -0.2302596 0.1373318 0.22450306 0.058166187 0.08755924 0.13954923 -0.5078309 0.2468655 -0.6713215 0.48758936 0.7901318 -0.054662667 -0.63816106 0.0015540438 -0.11125057 -0.124791816 -0.21866107 -0.23435831 -0.7739618 0.07167523 -0.37378252 -0.42997918 -0.23359765 0.957213 -0.28757444 -0.16885313 -0.634909 -0.24703035 0.27582964 -0.048030812 0.034012254 0.39593214 0.32762372 -0.3169534 0.26305252 -0.59146744 0.29160738 0.22883156 -0.36061633 0.11022321 0.1697418 0.095948674 -0.3055929 -0.023618963 -0.91394705 -0.22426274
971 -0.40999088 0.7917364 -0.47423396 -0.1543093 0.36013126 -0.52774006 0.5845709 -0.35019144 0.37651396 0.058789942 0.47940034 0.16408066 0.452115 0.24517047 0.10441898 0.41582596 0.19122241 -0.5262756 -1.1892664 -0.31282836 -0.19935033 -0.573192 -0.47102335 -0.38552475 -0.16666152 0.50020546 0.046021245 0.6267982 -0.32824612 -0.29868335 -0.26122305 0.34066302 -0.1768977 -0.70703155 0.58978057 0.13897534 0.3571203 -0.20807487 -0.18560316 -0.23945534 -0.13902563 -0.05600383 -0.11931687 0.4662866 0.68921417 -0.31828907 -0.4383061 -0.43828678 -0.39612713 -0.4465995 0.43725678 0.48137644 -0.19203515 0.09429413 0.57972336 -0.36481476 -0.26958957 -0.3152588 -0.52937204 -0.28182948 0.38367963 0.5263038 -0.46205267 -0.404458 -0.63007903 -0.20536162 -0.7226125 -0.06639968 -0.11780974 -0.06176069 -0.20639423 0.5066818 0.05439338 0.87961715 1.1064322 0.06959389 -0.04114436 0.72459453 0.18179971 0.36693063 -0.2013257 -0.086415604 -0.076072924 -0.3418805 0.3544258 -0.1380372 0.44352737 -0.4067228 -0.83207154 0.6087597 -0.25757563 -0.31948653 -0.35438994 -0.83469313 -1.0128436 -0.23545888 0.36843795 -0.19229111 -0.4159652 0.04334946 -0.11651875 -0.093941405 0.0975391 0.09391557 0.66966534 0.28997037 -0.22965643 -0.5301183 0.43770793 0.3592492 -0.22380577 -0.18324463 0.19002675 0.29301432 0.3853594 0.45186517 -0.7603438 -0.36464325 0.16210808 0.20833062 0.63252044 0.14951521 -0.20072123 0.7296485 0.52271366 -0.18089165 0.14161345 0.026739625
165 -0.25947636 0.30819753 0.16651005 0.7841415 -0.19219212 0.14200346 0.60840726 0.29768258 0.33753553 -0.32790646 0.96273804 0.08248064 0.21696506 0.051392313 0.64446944 0.91015476 0.013843885 0.9185737 -0.045708537 0.0022981686 0.11020323 -0.7514929 0.33626553 0.561629 -0.3698411 0.06768375 0.047350798 0.21469794 -0.04346263 -0.09780047 -0.15942682 0.069178365 -0.03704924 -0.40829828 -0.38182756 0.41523603 0.7527957 0.10060777 -0.8536406 0.09349159 0.79618114 0.31712404 -0.19197185 0.16920424 -0.34126848 0.0995543 -0.22572918 -0.2729069 -0.6719286 0.09844351 0.30284467 0.3701988 -0.009883508 -0.41599813 -0.28359795 0.43530822 -0.3163343 -0.14831701 -0.35450056 0.072264336 0.42168593 0.72647387 -0.23855913 0.41156843 0.46856624 -0.22257295 -0.13486329 -0.6038636 0.10091654 -0.11390265 -0.0623228 -0.27454546 -0.4943107 0.5075762 0.5603689 0.16946857 0.017494325 -0.7294976 0.36689493 -0.12549284 -0.57839954 -0.4154581 -0.27017945 -0.1327063 0.074800044 -0.06706921 0.23786154 -0.47156665 -0.0019440044 0.6155231 0.3639939 -0.41073197 -0.23970136 0.3492953 -0.08106151 0.6628449 0.22694737 0.44023454 -0.12258163 0.15660146 0.037295993 -0.27232465 -0.34343824 -0.6258455 -0.40150556 -0.6959788 -0.7591243 -0.18778798 -0.1607596 -0.46678343 -0.38525084 0.40535673 -0.24267244 0.34615096 -0.56527144 0.58238536 -0.03178073 -0.3681763 -0.44398478 -0.5798579 -0.28799915 -0.28806147 -0.7756174 0.89523387 -0.050797842 -0.648957 -0.13883601 -0.18632391
494 -0.6406197 -0.22234315 -0.19680713 0.071103364 0.6073592 0.3054621 0.4307141 0.42971689 0.58549225 -0.5271201 0.28298154 0.5772638 -0.1776068 -0.6897131 -0.10718686 0.80466163 -0.5023161 -1.0057336 -0.1409055 0.70246404 -0.4709862 -0.104597665 -0.017659081 -0.3947135 -0.0799913 0.028586183 -0.20397083 0.17391597 -0.38826248 -0.24560432 -0.14155893 -0.546689 -0.44858778 0.39330444 0.001153063 0.88649505 0.20183997 -0.42138278 0.5414339 -0.7713329 0.021176696 -0.05923101 0.05261755 0.3667372 -0.17370409 -0.081838064 -0.35697713 0.4262554 0.11364385 -0.05388139 0.27797893 1.0561599 -0.31898487 -0.31806892 0.3556986 -0.12600614 0.46842048 0.14528266 0.42787966 0.6191204 -0.6813229 0.3328942 0.38420618 -0.119642355 0.5504906 0.52478206 0.4437582 -0.8576382 1.0012965 -0.24869907 0.10544531 -0.119463935 -0.1702232 0.4292604 0.07788971 0.21405539 0.7270404 -0.0012110723 -0.26374668 0.5685715 0.21438254 -0.019607794 -0.51622623 0.744117 -0.27891102 -0.68190193 0.07087215 -0.051723573 0.32507804 -0.48516965 0.23657233 0.4079349 0.10984246 -0.13931398 -0.43156013 0.4834016 0.4275249 -0.48439583 0.036351804 0.25322226 -0.41356653 0.21658173 -0.6782823 -0.12659171 -0.2723886 0.42519093 -0.18611728 -0.2611976 0.45635295 0.2748233 0.5144283 -0.044395108 -0.3784352 -0.41239402 -0.4341977 0.7252099 0.4621055 0.7796584 -0.48314357 0.19308142 -0.27257597 -0.58541757 0.22164491 0.22674169 -0.014374361 0.34976238 0.07492426 0.7148871
44 0.23784219 -0.030798191 -0.042173013 0.002502569 0.84140265 -0.3524994 0.055356003 0.016977264 -0.24436843 0.5882773 0.6363913 -0.40059558 0.1789113 0.3674367 0.18938905 0.48199502 0.102715485 0.03663186 -0.66517615 0.5842618 0.00029874584 -0.19416045 -0.16007745 0.03961838 -0.062997356 -0.477749 0.10891933 -0.23810992 -0.10978152 -0.30791017 1.2563393 -0.15692605 0.098723605 -0.11716035 -0.19569072 0.48337048 0.44318625 0.11068266 -0.30877125 -0.059371993 0.034009438 0.7865021 -0.2557652 -0.479194 -0.35938275 -0.7505406 0.12225075 0.23919508 0.027065435 -0.065022334 -0.067009084 1.1908488 0.4692357 -0.11021294 0.566318 -0.3459452 0.40222344 -0.4668001 -0.054428536 -0.215045 -0.42505193 -0.2056642 -0.3778804 -0.1737193 -0.09188614 -0.08223847 0.3612629 0.059874028 -0.17863141 0.040411685 0.041417975 0.31321216 0.50911987 0.0358786 0.04666782 -0.22462247 -0.102960266 -0.40231368 -0.084825344 0.4637155 0.54868394 0.27516344 -0.91171104 0.30782384 0.5727655 0.28223857 -0.3098822 -0.51206607 0.1836549 0.12373928 -0.2698513 0.35998288 -0.09907516 0.118306555 -0.85131896 0.63203645 0.30138788 0.45275834 -0.9810101 -0.13786374 -0.07826213 0.05782741 -0.9658729 0.74268 0.6918095 0.34961444 -0.37054074 0.081685424 -0.106242515 0.23347408 0.10426937 -0.93377405 -1.3221259 -0.7321045 -0.47449785 0.007963012 0.05688515 0.17539223 0.36889204 0.50925654 0.23876491 0.85211134 1.0367398 0.26969576 -0.58497083 -0.10893728 0.71025604 0.23371355
65 -0.5599917 1.1439277 0.16739208 -0.1821081 0.32651463 -0.53279525 0.2721848 -1.1215752 0.16364901 0.3296229 0.4787433 0.687808 0.18155669 0.2585743 -0.6672559 0.5175197 -0.581527 -0.17217334 -0.3779975 0.34671316 0.25476342 -0.52298254 0.34269458 -0.3607111 -0.14306986 -0.6635367 -0.51495004 0.5496988 -0.21590945 -0.7524439 0.024159275 0.16931994 -0.5829936 0.16044246 1.0488349 1.0875303 -0.11348211 0.36574924 -0.19206679 -0.12722187 0.35899785 -0.5482932 0.10589274 0.113020115 -0.36602777 -0.11643192 -0.005698072 -0.20106903 0.46008486 -0.39288434 -0.07191218 0.50557137 0.43428475 0.019240923 -0.41250336 0.3708034 0.22290936 -0.32265726 -0.2546911 -6.203368e-05 -0.06725063 -0.51857454 0.34891385 -0.16573875 0.083320454 -0.5809948 -0.37236765 0.38416424 0.010158874 -0.44638973 0.18372165 -0.43929085 0.6965378 -0.068839625 0.55504394 0.10304182 0.53579205 -0.0910379 -0.045504235 -0.38210535 0.15166341 1.0686628 -0.24470696 -0.20000675 -0.19222616 -0.19475298 -0.2836909 -0.090482034 0.07041343 -0.3956153 0.4868201 -0.5765725 0.28261107 -0.6639596 -0.36731684 0.11668693 -0.22179186 0.0783111 0.22345035 -0.80495733 -0.619093 -0.07059317 -0.37875435 -0.13097765 0.48520142 -0.0057299393 -0.15803689 -0.05189063 0.7291315 -0.22422011 0.14666513 -0.51844364 -0.10577262 0.7667063 -0.036280155 0.121472694 -0.15350632 0.34564105 -0.08336316 0.08275327 -0.3894204 0.55385745 -0.2929431 0.8517546 0.20305541 0.80235034 0.6572045 -0.23796265
81 0.5634239 -0.32015562 0.8133422 0.27669516 0.1598799 0.14643803 0.041042086 -1.2557049 -0.031007938 -0.12881342 0.28670272 -0.6195821 -0.4634865 -0.21313022 -0.25411522 0.873672 -0.23277429 -0.20344116 -0.15548815 -0.004398863 0.8463982 0.29711467 0.06864308 -0.63882107 -0.24947384 0.17947862 -0.6377414 -0.042611517 0.22305098 0.01830035 -0.13531268 -0.39639986 0.2567542 0.18350646 0.15098135 1.399107 0.5926994 0.004092259 0.37512264 0.34775105 -0.40318027 0.5085447 -0.2543542 0.8511711 0.077506796 0.2882611 -0.47618657 -0.34883815 0.095832154 0.05296967 -0.1548828 0.094345205 0.24231514 -0.059493233 0.010846834 0.17704724 1.2790506 -0.6939767 -0.6678985 0.5098898 0.3942763 0.16431288 -0.42824435 -0.3553575 0.24166186 -0.07801104 -0.33440652 -0.45594585 -0.23133852 0.28720993 0.58212733 -0.029571261 0.46388775 -0.18950677 0.50830764 0.22575867 0.2013328 -0.75561076 0.3663974 0.7501007 -0.05418351 -0.27682105 0.3398355 0.47173432 -0.014310706 0.7729409 0.10839678 -0.6287486 0.062509306 -0.44110018 -0.19490704 -0.5167302 0.023821572 -0.13089834 -0.2375514 0.40211657 0.5996673 0.18336985 -0.8255015 0.07331994 0.36976966 -0.18924654 -0.48800066 0.30675596 0.26779017 0.16566266 -0.259313 -0.54688084 -0.03023468 -0.0044789985 0.52491975 -0.17956392 -0.50433415 0.11154838 0.19639288 -0.035732552 0.39180675 -0.21202318 -0.35851794 0.18465917 1.0187823 -0.26467955 0.13262403 0.37358207 -0.10396226 -0.3606115 -0.09366046 0.20234327
169 -0.39627388 -0.23544544 -0.7293775 0.55121326 -0.30272257 -0.38703796 0.18416989 -0.14150804 0.18650226 0.4988503 0.66450876 -0.25576323 0.33503756 0.06826756 0.67510283 0.30134428 -0.6501495 0.13451079 0.34007552 -0.005724821 0.41311428 0.4036944 0.095025845 0.14036946 -0.3611701 0.7462714 0.060367133 -0.037846915 0.25048745 -0.37407723 0.40065232 -0.24120784 0.21454643 -0.6126103 0.0065261954 0.68611664 0.62689066 -0.17259403 0.53012246 -0.5239442 -0.0082143955 0.31966192 0.024033839 0.48139718 0.31646207 0.10231177 -0.081498496 -0.30942005 -0.2769741 0.05845711 0.39874744 0.59379154 -0.5032417 0.40471956 -0.041103028 0.3506675 0.40334213 -0.4183464 0.12200405 0.095274486 -0.20323545 0.13103856 0.6599318 0.3967117 0.31860176 -0.1230009 -0.009143062 -0.4307637 0.008735029 0.056279287 -0.6643968 -0.16437596 -0.843454 -0.666411 -0.19461417 -0.5882166 0.00087344105 -0.55781144 -0.02645697 -0.1409244 0.27826682 -0.4673273 -0.16300935 -0.04124418 -0.19313441 0.5914561 0.6913971 0.010497436 -0.3890037 -0.73129183 0.4183933 -0.00800216 -0.3557627 0.29208133 -0.19011737 0.043748233 -0.6164366 -0.012935465 -0.3430716 -0.2329893 -0.6821069 -0.5141328 0.26592508 0.6808749 0.1861019 -0.24403201 0.1382384 -0.020481136 0.21728888 -0.66873574 0.31621873 0.5322398 -0.28037277 -0.2744558 -0.30023205 -0.606491 -0.016541231 0.12920304 -0.034783322 -0.065710805 0.97934204 -0.5137287 -0.08486239 0.44370943 -0.7749142 -0.12904908 -0.52645886 -0.29101315
17 0.07783811 -0.4747502 0.37331504 0.103750035 0.8737334 -0.23095588 0.9079522 -0.027282886 -0.30548096 0.5916442 0.2283788 -0.33585936 0.114227705 -0.7211448 0.7118682 0.5443353 0.14422862 -0.49396187 -0.2957995 -0.68056166 -0.028441107 -0.4495529 -0.4489451 -0.025939686 -0.39657605 -0.03258937 0.5208706 0.6260397 -0.16335694 0.39189887 0.44944257 0.19467783 0.26297075 0.5453948 0.32213423 0.43544516 -0.3556135 -0.027655836 0.0926922 -0.21468426 -0.17216168 0.5565894 -0.0017751686 -0.02592211 0.17495805 -0.07724184 0.09924446 -0.21875645 -0.3198608 0.4586213 0.38345325 0.9644192 0.20567235 -0.3369681 -0.66319096 0.27983898 0.073279284 -0.011984068 -0.06898253 -1.0928874 -0.835459 -0.008228622 0.22183858 0.5174188 0.138289 0.103660285 0.1973188 -0.33056724 0.5266756 -0.31280178 -0.06726211 -0.6963909 -0.10073097 0.19761346 0.14111792 0.4192556 -0.33081502 -0.5055504 -0.43008274 -0.20667478 -0.58665717 0.18026236 -0.77239966 0.005353495 0.044189923 -0.56312126 0.38328236 -0.67749053 -0.3029459 -0.46136862 0.02164712 0.072732024 -0.24977347 -0.6072082 -0.55785775 0.39570525 -0.15515456 0.12151311 0.022897761 -0.24800424 -0.70090306 -0.80935574 -0.029454835 -0.78796184 -0.6628452 -0.32041958 -0.6739579 -0.2649216 0.38773736 -0.27784234 0.55393875 0.26974785 -0.3970683 -0.24490604 -0.6847021 0.13796727 -0.22794136 0.2292784 0.32209677 0.112849794 -0.15841444 -0.17986624 -0.38150597 0.096643806 -0.37618724 0.13111845 0.36734083 0.21314995
340 0.4290432 -0.004541729 0.8330692 0.40149078 0.23612922 0.1357711 -0.14990632 -0.20555295 0.51416343 0.50156355 -0.15790108 -0.059875846 -0.8497494 -0.43048206 0.60667855 0.7029636 -0.72610676 -0.33946148 -0.3452652 0.040941805 -0.81018245 0.38826245 -0.13011412 -0.20495121 -0.25507405 -0.27977785 0.012557283 0.46482894 0.11413633 -0.5763829 0.17075655 -0.66698974 -0.16912977 -0.81316096 -0.15741512 0.43615332 0.48216698 -0.070128605 -0.3894248 0.60690457 -0.59033024 0.035259634 -0.5541751 0.2762975 -0.61360586 0.12640887 -0.26441634 -0.061176624 0.038639557 0.33427843 -0.43319026 -0.17544916 -0.039136663 -0.07483267 -0.10302939 0.20761204 0.09109063 -0.3796471 -0.33802697 0.12138222 0.018735187 -0.015947992 0.74993813 -0.69492227 0.31126177 0.36292857 -0.8204564 0.029182995 -0.11062733 -1.0437278 0.014046996 -0.14040251 0.5364909 0.6260563 -0.328496 -0.5651523 0.8871887 -0.86941236 -0.27217233 0.37783757 -0.49627033 -0.9788169 -0.29334107 -0.20148022 -0.18703218 0.5304025 0.2826821 0.4457186 0.72397774 -0.04090536 0.00068424706 0.06866895 -0.007159179 0.4587472 0.30641317 0.25078323 0.1776824 -0.3356253 -0.49750274 1.1738148 -0.044904828 0.14516029 -1.0627211 0.16165347 0.0080571985 0.58294344 0.07873451 0.4092793 0.44001955 -0.31350765 -0.2486169 -0.27377415 -0.41565487 -0.14712046 -0.0052893376 0.14166668 -1.2021588 0.68398476 0.28128394 -0.07448385 -0.1420187 0.26631302 0.54904866 -0.12283046 0.40173808 -0.41621426 -0.06336247 -0.3893255
133 -0.040822357 0.020714432 -0.56017303 0.35133132 -0.010789547 0.2328809 -0.18265212 -0.26773927 -0.04896318 0.21928155 0.034084983 0.21329448 0.46847436 0.3345634 0.3536751 0.29827166 -0.9205189 0.026034292 -0.09403686 0.32118586 0.21270657 -0.16631098 -0.1114214 -0.002706532 0.15550102 -0.119089544 -0.83838683 0.44318938 0.6928991 0.15824004 -0.41617584 0.18607722 0.08724252 -0.20054299 0.6613457 0.47963265 0.22553398 -0.4428799 -0.6089207 0.7339705 -0.44077292 0.26886448 -0.6322061 -0.8348252 -0.01649335 -0.86080855 -0.6016202 -0.84481925 0.18842497 0.74176925 -0.15150689 0.07194259 -0.65077835 -0.219604 -0.5673454 0.57426834 -0.51085615 0.041161843 -0.23098072 -0.10514355 -0.036258444 -0.06673449 -0.54331917 0.15770379 0.36763877 0.40134764 -0.4599264 -0.18712358 0.11246475 0.5764865 0.38321337 -0.23688854 0.27452147 -0.3773172 0.5608427 -0.53377616 -0.30147988 0.30462474 -0.28607303 -0.21956326 0.34546906 0.12992713 0.058723923 0.27356288 -0.15658663 -0.3056084 1.0237827 -0.5672642 -0.5424713 -0.1197784 0.35332412 -0.06594039 0.23789808 -0.26682782 0.13019943 -0.13883056 0.14130388 -0.1432477 -0.32569957 -0.085392304 -0.40734223 0.34847704 -0.58707803 0.32324037 0.86999226 -0.19683076 -0.5359979 -0.08169355 0.1579061 -0.61327946 0.2773396 0.16097236 0.29057503 0.23362447 0.577242 0.9973264 -0.27196676 -0.288247 -0.70914775 -0.27706966 0.54275906 -0.16734132 0.41769212 0.07233194 -0.18124509 -0.3131883 0.22878516 -0.10156317
366 -0.39194208 0.15372625 -0.4384514 -1.0551485 0.31270438 0.46782652 0.035128243 0.017338894 0.32391784 -0.22761981 0.014158199 0.44546744 -0.15977886 0.055039335 0.9294563 1.1521266 -0.22823733 0.5524031 -0.30119035 -0.122471884 -0.09134244 -0.45463973 -0.30252355 0.20098469 -1.063024 0.4907424 0.13033685 0.19854796 -0.21041831 -0.4286058 0.41968158 -0.4843976 -0.39096388 -0.96947837 0.1754377 0.44661537 0.3885037 0.28091314 -0.28655413 0.030073823 -0.914463 0.32822016 -0.24745171 0.23800893 0.47048062 0.14763446 -0.03365898 -0.6011388 0.24926633 0.45143017 -0.15528625 0.8529864 0.24592783 -0.18296741 -0.43219367 0.52016133 -0.45498466 -0.21062958 -0.00022139866 -0.33224687 -0.8724701 -0.28871813 -0.22362366 -0.1966342 -0.20170806 -0.124991946 0.25302655 0.758278 0.24717927 0.43251243 -0.04333492 -0.21438937 -0.3195363 -0.25273064 0.17010358 0.5565847 0.123880625 0.5848264 -0.28034362 0.34014517 -0.13194752 0.2116561 0.090429984 0.434981 -0.14874598 0.117346525 0.8856569 0.08505971 -0.12088803 -0.21784931 -0.7397996 0.31430686 -1.2800745 -0.27564788 0.004418547 0.0051622763 0.39460677 -0.5187166 0.17817901 0.14555687 -0.38498417 0.12571767 -0.27315024 -0.66620964 -0.50020415 0.21484193 0.5131074 -0.33117637 -0.47462177 0.4544735 0.4717324 -0.7113068 0.5619431 -0.22994135 -0.25859794 0.46995 0.061104383 0.2412464 -0.048719693 -0.13590883 -0.5814598 -0.0034693808 -0.2753698 0.64466906 0.07842978 0.2538539 -0.6852177 0.20242715
473 0.26676297 0.55858165 0.19213851 0.3418749 0.63895965 0.2618896 0.81752586 -0.18585864 -0.29177067 -0.4196282 -0.25263798 0.22071277 0.009823547 0.21818916 -0.017397568 0.27930436 -0.53050995 -0.26112723 -0.3480342 0.36710533 0.28383067 0.38639346 -0.27999824 -0.83314604 -0.32585546 -0.40096316 -0.10271819 -0.3871522 -0.33700347 -0.011713799 -0.017211417 -0.5183759 -0.49110457 -0.26171988 0.11936006 0.030815927 0.13034645 -0.21186039 -0.5312033 -0.6524243 -0.26009986 0.4479721 -0.22364548 -0.1845177 0.54245675 -0.45097646 -0.041797638 -0.56141096 0.7277953 0.33445936 0.45909005 -0.07147236 0.18212643 -0.27862337 0.4187546 0.06290985 0.035519343 0.617817 -0.29726008 -0.20579717 -0.07904536 0.56116176 0.47528347 -0.29179704 0.08457541 0.07073802 -0.09051925 -0.5941692 -0.011975938 -0.021950645 0.10091184 -0.6471764 -0.016642518 -0.2775523 0.4897942 0.21210988 -0.30892628 0.0340351 0.0023836214 0.055300586 -0.29828015 -0.16580339 0.32812962 -0.37398928 -0.30475172 0.5242592 -0.2153606 -0.0066841315 0.03739514 -0.103830904 -0.15949754 0.4378683 0.19444302 0.4286657 -0.10489671 -0.2410466 0.72173345 -0.5600076 -0.21243511 0.45952502 -0.276471 -0.034457307 -0.3035037 0.63544947 0.7398483 -0.3729545 -0.37157384 0.36449954 0.2081668 0.41127837 0.100636475 -0.16425417 -0.23714581 -0.18508469 -0.26187137 0.05692235 -0.18435024 0.2546895 0.32155204 0.008222886 -0.052646372 -0.7296272 -0.3660526 0.3374294 -0.42897493 -0.36675298 -0.57661015 -0.20445251
546 -0.43569598 -0.22366284 -0.27442938 0.92042476 0.19292137 -1.252111 -0.07403784 -0.21702124 -0.016739037 0.32195553 -0.2518682 -0.11016784 -0.026486015 0.41952497 0.27459803 1.4896922 -0.32868874 0.21977676 -0.016553026 0.18858859 -0.1691875 -0.31333226 -0.20315869 -0.12028796 0.033388108 -0.30994523 0.5015493 -0.6358959 0.31092417 -0.36613345 0.9443894 0.6259243 0.2812148 0.030956132 -0.76724184 0.95543534 -0.44812083 -0.78455263 -0.46261898 0.88337445 0.19729857 0.08345484 -1.1349889 -0.38100967 0.9454488 -0.10220438 0.67041737 -0.77665913 0.2752654 0.44648448 0.21422954 -0.69200003 0.013266493 0.043529894 -0.19565667 -0.38012713 0.027476247 -0.6016212 0.19762686 0.14529444 0.26431462 0.961844 0.6475664 0.0100002475 -0.6466179 -0.26084262 0.08261149 -0.14659989 -0.13512588 0.29184303 -0.16659074 0.15298744 -0.23319453 -0.17156209 0.23527133 -0.22960746 0.21801794 0.29215476 -0.26139396 0.009844974 -0.3164298 0.5783418 0.062509045 -0.50021833 0.34528062 0.73876494 0.026046615 0.27035806 0.09513257 -0.2795327 -0.89796215 0.4120144 0.15137851 0.56719464 -0.23275279 0.27023208 0.27532715 -0.5162792 -0.22492339 -0.23721054 -0.23331894 -0.16874582 -0.1809463 -0.6922697 0.60550535 0.31048885 -0.2030431 0.22803488 0.22922698 -0.84717524 0.3949153 -0.6984517 -0.4207504 -0.3594074 -0.15225676 0.69731027 -0.17288801 0.11299414 0.08151454 0.06940098 -0.2669663 0.53752416 -0.055379562 0.17564008 -0.14027016 -0.23666862 0.1014967 0.12710004
303 -0.22088869 -0.57749325 -0.33843338 0.46589422 0.55382144 0.06577081 -0.25797307 -0.039840024 0.02266207 0.6662423 -0.009010574 0.041770846 -0.09153166 -0.51522315 -0.51686907 0.13228595 0.09925713 -0.3970188 -0.27609813 0.13817728 0.11398428 -0.42739338 -0.06546817 -0.28863263 -0.09167493 0.52487385 -0.16170458 -0.11400628 -0.14955555 -0.17150801 -0.39686164 0.26502958 0.28939894 -0.09066713 -0.0034110437 0.6768262 0.10743404 -0.09620436 0.23724596 -0.38523123 -0.20236191 0.87428516 -0.35812727 -0.47916353 0.33989292 0.2798367 -0.4488564 0.17570433 -0.25977632 0.227702 0.625194 0.43140474 -0.101596095 -0.1379483 -0.42534393 0.45258605 0.7591157 -0.01957966 -0.79541665 -0.29856873 -0.13184868 0.1589544 0.34044525 0.3384108 0.5020958 0.33726314 -0.07354246 0.30918604 -0.4227345 0.48336676 0.27328604 0.7355843 -0.25927457 -0.41982317 0.83381975 0.06785707 0.42259577 0.12889686 0.27775115 0.39404383 -0.4932625 -1.0208788 -0.23888728 -0.6850982 -0.13073044 0.22915082 0.3487419 0.00954749 0.05939811 0.09199096 -0.3700901 -0.6757198 0.048322584 -0.32651046 0.123690635 0.35111624 0.87461364 -0.35958165 -0.59716696 -1.0074588 -0.32828864 0.19502454 0.37760422 -0.25999302 0.75639766 -0.2814986 -0.09020208 -0.12647724 0.7505259 -0.7116055 -0.22541004 -0.14967321 -0.3768143 -0.33641142 0.024729423 -0.011613092 0.21750605 -0.39339676 0.1294284 -0.66087943 0.15792146 -0.030979263 0.29731873 0.6683264 0.40110958 0.0070414445 -0.7594366 -0.45694295
232 -0.2767863 0.14464183 0.07430234 0.23471718 0.20864767 -0.7512601 0.302054 -0.4846276 0.17851904 -0.15983813 -0.5705714 -0.24148408 0.26575863 0.15268598 0.7881881 -0.048000492 -0.26252922 0.043984484 -0.19295302 0.7736498 -0.727526 0.4083195 0.07249657 -1.0342002 -0.5573358 -0.5810714 0.030727569 -0.57060814 0.29750887 -0.59647554 0.81765014 -0.3662449 0.05177011 0.2427963 0.6813497 -0.4770721 0.3695053 0.36150047 -0.40711263 0.4348433 -0.09423929 -0.72414637 0.3964972 -0.08913264 -0.16339351 -1.1091443 -0.06246857 0.3325589 0.32599613 -0.2996362 0.8116532 0.9650819 0.9985138 -0.034910146 -0.9361032 -0.38417453 0.087927885 0.040135328 0.25390038 -0.22922464 -0.6064437 0.8469823 0.040398438 0.5456522 0.427484 -0.25507504 0.32101253 -0.23729353 -0.41473517 0.02104815 0.10627504 0.35592413 0.33687848 -0.12414145 0.59498924 0.028919622 1.0319523 -0.0338125 0.15167034 0.011128437 -0.4035524 1.0879177 0.05285727 -0.6950372 0.060203645 0.091162995 -0.57743263 -0.21658464 -0.69850504 0.24081174 0.35884956 -0.009697776 0.009138336 -0.039939594 0.14784849 -0.4881674 0.5371144 -0.123883955 -0.037722107 0.1473889 -0.6443883 -0.2085219 -0.1635175 -0.54486156 -0.23795795 -0.21274039 -0.14521913 0.34957588 -0.24409707 -0.3191053 -0.43973458 -0.4937663 -0.01692778 0.12953067 -0.27400407 -0.2893294 -0.26915857 0.3598837 -0.5285943 -0.17897493 0.51746804 0.49084145 -0.41884506 0.10230832 -0.03307654 -0.2492656 0.41067392 -0.44572133
419 -0.29653487 0.32390854 0.18108845 0.14545931 -0.15670186 -0.08904073 0.18455894 -0.21837859 0.11889403 0.7326052 -0.46062636 -0.3283144 0.19141321 -0.43275172 0.16755056 0.5464269 -0.5936626 -0.008225616 -0.51392055 0.22396386 -0.11751965 0.0069191745 -0.34061268 -0.12540622 -0.6290178 0.14252354 -0.21600612 -0.09622383 -0.1851768 -0.75278795 -0.33624858 -0.6258445 -0.37691957 0.002226402 0.060650017 0.1818435 0.40344417 0.26024732 -0.69216913 0.47740945 0.8894354 -0.7121763 -0.5722598 -0.73593307 0.08955112 -0.5718265 -0.39887068 0.2448866 0.9486584 0.06510861 0.20801398 0.50573975 -0.28852317 0.44716164 0.053645022 0.6114686 0.4418702 0.5236563 -0.288257 -0.5430111 0.44219986 0.13267516 -0.11574298 0.2721171 -0.977264 -0.4865216 -0.4075084 0.28262934 -0.15897425 -1.0171263 0.34727144 -0.06872528 -0.90197164 0.025814166 0.031515073 -0.5922464 1.0193901 -0.24355881 -0.48789635 0.67644703 0.3977746 -0.41387126 -0.118209414 0.92731476 0.4938817 0.1350154 0.9973372 -0.7465614 -0.90859514 0.28146547 -0.07221088 -0.58950615 -0.30484858 0.11398356 -0.34970796 0.2770266 0.55571175 0.6329006 0.45811364 0.25915414 -0.46970466 0.40166295 -0.08140126 0.05426674 -0.2535104 0.09902662 -0.32790485 -0.18266043 -0.2702703 -1.2508416 -0.000475866 -1.037932 0.08725928 0.60707027 -0.1022178 0.11177295 0.12708212 -0.3868141 0.6801765 -0.2826154 0.07412727 0.29802442 -0.09038032 0.1939268 0.845602 -0.4833608 -0.26645905 0.28697905
4 -0.5565846 0.18246081 0.2506832 -0.163058 0.30175143 0.3991698 -0.19898298 0.13738814 0.22660077 -0.12410566 0.14857359 -0.78320926 -0.5017643 0.13473788 0.08761448 0.57086915 -0.086095385 0.1886683 0.24944313 -0.08714922 0.26771817 -0.13384415 0.050419353 -0.48807392 -0.17454524 0.08098945 -0.43940055 -0.1169274 0.09036377 -0.537454 0.15836965 0.23046537 -0.5223082 -0.3373984 -0.29632193 0.037270594 0.5620807 0.41690138 0.18339643 0.004894469 -0.26374248 0.3196928 0.36804283 0.073204175 -0.6413997 0.24371046 0.21409138 -0.4141183 0.1344185 -0.33854213 0.40771896 -0.1670069 0.20496194 -1.1653278 -0.17236412 0.19826676 0.18828937 -1.2030782 -0.044436354 -0.08121355 -0.006899006 0.6842664 -0.17278224 -0.16754575 -0.061102446 0.17717274 -0.2673889 -0.23602223 -0.2121321 -0.07048176 0.12998334 0.15373152 -0.0109894965 -0.29948178 0.5702693 -0.5975099 -0.022064028 -0.015451332 -0.037847426 -0.29784858 0.03977181 -0.073650524 0.7392224 -0.53827137 -0.018624883 0.02710448 0.40361497 -0.7411092 -0.49807233 -1.1392114 -0.3459397 0.1535173 0.36458632 -0.57414454 -0.20512071 0.21723805 0.5638512 0.56793046 0.14015222 -0.6038206 -0.8270235 0.20669784 -0.20522638 0.65986425 -0.16821164 0.4160466 0.23593022 0.2805082 0.14788772 -0.23451936 0.5104802 -0.6312141 -0.5696537 -0.01870909 -0.04677185 -0.17791343 0.26988754 0.6061978 0.5223802 -0.34461346 0.52614284 0.15382108 -0.56613815 0.17055959 -0.41819137 -0.020774968 -0.24918337 -0.06919005
170 -0.35672954 0.23268397 -0.5557957 0.6260556 0.2951074 0.16715541 0.18558523 0.051684357 0.43601623 0.019323297 0.04611844 0.7077368 -0.24048558 0.3903027 -0.08132853 0.41609558 -1.2504616 0.13592823 -0.21494801 0.67671114 -0.27457085 0.35085842 0.3900297 -0.21093084 0.13386883 0.3921509 -0.14819509 0.287952 0.14587407 0.25900203 0.134281 -0.15978295 -0.17442136 -0.7455536 0.7829956 0.6227716 0.08146944 0.6595065 0.001348044 0.13430907 0.27326125 0.5997776 0.03993461 0.32673594 -0.17329551 -0.25462684 -0.26471245 -0.122796774 -0.50839645 0.21327296 0.5552423 0.08066045 0.65353364 0.16419408 -0.15286006 0.5003242 0.17751248 -0.13797556 -0.21162455 0.59548366 -0.082315326 0.2826971 0.04577205 0.18856737 0.15842251 -0.8638478 -0.1282814 -0.22075132 -0.37003663 -0.39776245 0.5255824 -0.28316274 -0.9114233 0.016934235 0.01839823 0.8504335 -0.2038011 -0.11073934 -0.46374357 0.26406047 -0.5943479 -0.9759901 0.17522113 -0.43435004 -0.14497805 0.12163455 0.37124902 0.05192827 0.19324978 0.06374806 -0.53076285 0.25588742 0.3249209 -0.9466709 -0.4132889 0.25018013 0.13777903 0.20424582 -0.37530684 0.12407345 0.3490343 -1.0383494 -0.24259694 0.088155 -0.5453283 0.5021487 -0.62613714 0.35378486 -0.034270857 -0.54821086 0.20050204 0.17622241 0.44248956 0.050512448 -0.3711421 0.3568187 -0.3327047 -0.010044793 -0.22372627 0.23837645 0.50775605 -0.09668031 -0.10783172 0.49766883 -0.6507286 -0.38327685 0.014358145 0.23768164
932 -0.470661 -0.055263165 0.05887086 -0.48102596 0.381955 -0.0988609 -0.086226545 -0.489607 -0.4101868 -0.31904 0.07145487 0.47936824 0.14926653 -0.5768566 0.5502223 0.89265686 -0.605509 -0.9163902 -0.6216171 0.038873054 -0.7914335 0.35128134 -0.60096925 -0.44381344 0.11456504 -0.2827752 0.30323166 0.030008363 -0.15870844 0.1452454 -0.17065075 -0.18543315 -0.00017960725 -0.34243822 -0.6551268 -0.39837703 -0.040030982 -0.43020886 -0.24037984 -0.27555406 0.5763089 -0.114832915 0.48169118 0.3114799 0.09493618 0.31048352 0.044330932 -0.017472431 -0.43525568 0.18407744 0.688169 0.57799876 -0.32338437 0.3976218 0.049940187 -0.08692761 0.15269665 -0.20749609 -0.3431563 -0.6340734 -0.4510126 0.406238 0.92501485 -0.19604273 0.6496518 -0.20366824 -0.6133472 0.17354243 0.0145876575 -0.21647966 0.2135868 -1.0805942 -0.1982425 0.16972564 -0.6372063 0.541767 -0.34639502 -0.5540516 0.30186802 1.147553 -0.47313944 -0.9352252 -0.19326809 0.2795321 0.20963342 0.16469459 0.2996267 -0.5856345 -0.23573479 -0.017403381 -0.56220984 -0.35045 -0.19805208 -0.17106618 0.50350684 0.24863645 0.03906493 0.027654815 -0.6582578 -0.5036663 -0.7281822 0.5267662 0.20670258 0.46631807 -0.45957518 0.10046447 -0.7206183 -0.23576073 0.1302303 0.11599946 0.048641343 0.4192353 0.1710151 -0.38925123 0.048463657 0.18611959 -0.228666 0.43220437 -0.3483034 0.36429092 0.37429073 0.76672876 -0.13312028 0.080316916 -0.7000138 0.11448073 -0.7216026 -0.15209343
329 -0.4278919 -0.025893588 0.28314915 0.6654552 0.88463104 -0.13093528 1.206343 -0.17695707 0.94881094 0.100631885 -0.04786851 -0.07948234 -0.12381795 0.05146794 0.8693794 -0.13053967 -0.3289298 0.057294063 -0.26040742 0.5763 0.3658493 -0.50005406 0.19374631 -0.022464484 -0.27043357 -0.0024082088 0.082167 0.3986869 0.13631389 -0.61610484 0.15606767 -0.4937436 -0.017855465 0.0582726 -0.41555578 0.57845855 0.3339005 0.6280265 -0.14539799 -0.27813596 0.09473087 0.6917405 -0.46352684 0.072665714 0.2708649 -0.45560765 0.1723926 0.489235 -0.5041018 -0.51019555 -0.4389695 0.2498329 0.0637759 0.16437505 0.2873882 0.02889534 0.21969324 -0.20904082 -0.05377075 -0.57532305 -0.282122 -0.071881905 -0.25177163 -0.3538397 0.14155324 0.39854148 0.11962268 -0.25865898 0.4681205 0.044720024 0.31330162 -0.348253 0.45781013 0.32800788 0.44966635 0.16033776 -0.032539908 -0.0022261888 0.31385994 0.1398839 -0.51620704 -0.65317696 0.76656485 -0.0011228112 -0.40011877 1.1073538 0.35462117 -0.19234118 -0.2434523 0.68804914 0.25394958 -0.19443372 0.072993875 -0.3402016 0.023344312 -0.2707144 0.5960048 -0.19542651 0.093343176 -0.40870425 -0.0228319 0.3178117 0.28155893 0.05965101 -0.5440818 0.18264873 0.16806899 1.0536242 -0.47135165 -0.47783095 0.4506811 -0.43713444 -0.2289714 0.23746729 -0.72433686 -0.1645033 -0.53765744 0.11758079 0.30940333 -0.7076934 0.29680637 0.42908856 0.9423649 0.23894492 0.47342104 -0.63631463 -0.07352125 -0.94608
2 0.6155151 0.10751936 -0.49557808 -0.31471384 0.11243553 0.2935714 0.3553684 -0.28918624 0.12520473 0.3789211 0.90420616 0.20033489 -0.6917209 -0.28488582 0.30691314 0.53148407 -0.654262 0.5935373 0.3719727 0.2610507 -0.11455564 0.32193822 -0.61208457 -0.5179675 0.42667815 -0.4243971 0.18199411 0.12606983 -0.5607409 0.024724118 -0.081389606 0.25223753 0.021627206 -0.65801126 0.11048416 0.59125596 -0.42515454 0.5327144 0.61328334 -0.74290645 0.09972328 -0.17453034 -0.7657209 -0.09736582 -0.13308367 0.25279075 -0.0922479 0.43886536 0.33110395 0.1694931 0.37691483 0.04945069 -0.97175044 -0.16371699 -0.1465259 0.25654078 -0.5640158 -0.43331704 -0.020663152 -0.11195104 0.03305271 0.3649683 -0.2571567 -0.635316 0.28348652 -0.3461953 0.17331563 0.38632005 0.38721713 0.015438063 -0.9056095 0.34083265 -0.07729521 -0.29679042 0.751732 -0.38011307 -0.1523786 -1.1211716 0.083540015 -0.19543722 -1.0085342 0.12460996 0.39922908 0.6499514 -0.61459833 0.33265504 0.39034203 0.22171427 -0.5130884 -0.55400467 -0.6420037 -0.15956727 -0.48881084 0.14933306 -0.4579575 -0.40238225 0.43257397 0.45329508 -0.5818437 -0.6097064 -0.26742095 -0.10205777 -0.036430348 -0.3359047 -0.016635187 0.07210155 0.52576315 -0.08041463 0.02955057 -0.54900384 0.11008399 -0.156943 -0.10228798 0.38846347 -0.17705262 -0.11448969 0.36764452 0.19657968 0.3024618 -0.265252 0.22619253 0.59222835 0.2163246 0.4899165 0.20381685 -0.1353687 -0.5912221 -0.17429839
28 0.27149165 -0.7406304 -0.46690828 0.15610157 0.5998207 -0.18693404 0.017945534 0.047504246 0.5149623 0.07495635 -0.35357854 -0.3729116 0.6133813 0.12353078 0.5686988 0.22554313 -0.19951975 0.1123625 -0.38769567 0.90498924 0.34239498 0.19173841 0.11707616 -0.33640254 -0.4189042 -0.18647213 -0.6312686 0.11853115 0.098541275 -0.36691463 -0.16061595 -0.67763406 0.17382917 -0.733499 0.109213695 1.0906943 0.05028463 0.19254866 -0.0045085163 -0.22264612 0.4554888 -0.574375 -0.20087858 -0.22565824 0.54278773 -0.4143529 -0.059873465 0.36977094 -0.03987297 -0.028648634 0.18005286 0.49796444 -0.100394115 0.13286053 -0.53638685 0.99105424 0.3928666 0.01528584 -0.30300993 0.6059584 -0.27728197 0.66021484 -0.34324422 -0.6970508 0.1422573 0.010928998 -1.2140895 -0.04203932 0.17066668 0.3313625 0.09929054 -0.5971072 0.0074146194 -0.11340824 -0.015240662 0.23481937 -0.0209601 9.401399e-05 -0.3009721 0.22182897 0.460171 -0.46848643 0.48372856 -0.1713998 -0.0020213556 0.48306835 -0.24332282 -0.46011937 0.3251221 0.30721876 -0.40620914 0.10170461 -0.03306595 -0.0058289804 -0.333907 0.9212881 -0.43399483 -1.1568906 -0.11673661 0.13133816 -0.24674709 0.25366464 0.033280674 -0.32859337 0.13991341 0.13551718 -0.8461032 0.040623035 0.79723483 -0.08741527 -0.46988612 0.19196184 -0.115530714 -0.099228814 0.0051073288 0.36144546 0.055200607 0.18611702 -0.14797147 -0.26891124 0.12567587 -0.4905959 -0.6310813 -0.39130253 -0.09826784 0.10662116 0.05066732 -0.24702515
498 -0.5242498 -0.55431473 0.63620484 0.8343695 -0.047468632 -0.59156746 -0.34768844 0.20847501 0.309956 0.47992492 0.3505283 -0.34599477 0.120951995 0.0046073333 -0.49394098 0.55516434 -0.4355601 -0.8232784 -0.37603685 -0.4042228 -0.43519643 -0.31806004 0.044539776 -0.89552814 -0.46499434 -0.10039979 0.1372637 -0.29533133 -0.037076727 -0.37540883 1.0605091 -0.18977925 -0.4890293 -0.083500594 0.49941188 0.6190901 0.32833466 0.32818177 -0.4842829 0.2095719 1.0037296 0.6793321 -0.51944524 -0.5274079 0.3036021 -0.08026001 -0.0023603663 -0.29195893 -0.3469265 0.32511613 0.6859298 -0.1551113 0.19364557 -0.37636587 -0.008521112 0.5169353 -0.57746774 -0.27667847 0.5507203 -0.7723783 -0.18210305 -0.15004224 -0.30612794 0.3548738 0.20503831 -0.2392506 0.54496664 0.08713437 0.1557681 -0.7046457 -0.33447367 -0.13296875 0.30426928 0.13616456 0.1971855 0.48998114 0.10595967 0.041834023 0.3163418 0.57595026 0.01627604 0.47580972 0.21020178 0.07308796 -0.5371349 -0.39224893 0.31386048 -0.25094604 -0.121073775 0.09470566 0.06076174 1.0492599 0.6166599 0.49477497 -0.45545366 0.17486599 0.35812992 0.4636477 0.008858878 -0.33130223 -0.099974446 -0.21277438 0.2412537 -0.051158424 -0.37385616 1.2456397 -0.28018844 0.40479055 0.07110832 -0.07653016 -0.067663185 -0.3963692 -0.033571247 0.17863603 -0.33506337 -0.40768644 0.075323716 -0.48957947 -0.4408692 0.47317058 -0.028621243 -0.3450668 -0.25187334 1.0792269 0.095443115 0.08225885 0.29956508 -0.5254456
285 0.4859123 0.4984105 -0.9070519 -0.9042059 0.22349887 -0.049679954 0.3879257 0.3940212 -0.45288065 0.35334772 -0.054412384 0.054167666 -0.012407797 0.14140818 -0.60924464 0.14624278 -0.30968553 0.47240594 0.71646804 0.3983865 -0.6462336 -0.029051267 -0.101780444 -0.31716132 0.5368224 -0.4021201 0.107231036 -0.10712937 0.35355785 -0.06511263 0.25910193 -0.8547866 -0.3548254 -0.65375614 -0.25469986 0.79072034 -0.114091456 -0.089814104 -0.37389278 0.3985288 0.5020637 0.92791104 -0.031117331 -0.28496087 -0.08503832 0.031375404 -0.196338 -0.58459973 -0.13926391 -0.09519326 -0.047737256 0.070294 -0.21557456 -0.25990033 -0.77761436 0.033696517 0.33954582 -0.34227982 0.50113744 0.37449342 -0.7439614 -0.1784929 -0.38173264 -0.19334953 0.39765367 0.52854985 -0.063159816 0.14679554 0.21149084 0.38266897 0.22515714 -0.20154482 -0.52303267 0.71784294 0.8764909 -0.097379655 -0.06987956 -0.179916 -1.0426314 0.61004025 -0.31464297 -0.10635359 0.028997445 -0.6807054 0.16990404 0.4652071 0.5741726 -0.20165437 -0.39025155 0.5076937 -0.49048817 -0.4147114 0.6955462 -0.5186946 -0.5214166 0.483888 -0.2890614 0.19319357 -0.16580257 -0.9112258 -0.3915522 0.5091006 -0.30951053 0.5785513 -0.002363096 -0.32438883 0.16736843 0.28877184 0.088987656 -0.34757742 0.5414674 -0.38452977 -0.21006635 -0.20565102 -0.24942517 -0.39580828 -0.35605055 0.094047256 0.5954302 0.4194971 0.041600563 0.023601575 -0.007251739 0.41811028 0.27363938 -0.11724703 0.16338114 -0.3027379
