1005 128
160 0.04974364 -0.015123424 0.047102798 0.23661266 0.2497868 0.5116768 0.20998216 -0.21571963 0.052496657 0.007173192 0.13728006 0.2109725 -0.0056998283 0.18464467 0.21929383 -0.25571728 -0.33530048 0.031873252 -0.2548719 0.27310845 0.6300496 0.66421217 -0.27352533 -0.12968679 -0.18749812 -0.016507909 -0.3156511 0.07912227 -0.031421416 0.17036358 -0.21268146 -0.17527567 -0.23778537 -0.330798 0.33136657 -0.15127234 -0.21541017 0.461649 0.305495 0.06964426 -0.0035940004 0.3386348 -0.20829543 -0.025995573 -0.39853287 -0.26920947 0.0628458 -0.21279083 0.24309528 0.17937265 -0.10971886 0.17076047 -0.053910352 0.3694777 -0.27711537 -0.46573284 0.15537508 0.43161914 0.012841708 -0.018233636 0.0013535786 0.2793506 0.098427586 -0.46402636 -0.047905512 0.17189957 0.04951738 -0.10710859 0.44013456 -0.1895119 -0.05420578 -0.3462446 -0.35312673 0.33164582 -0.51654625 0.11529857 -0.017584844 0.10773103 -0.006155888 -0.23163293 -0.047509637 0.39307413 0.06450978 0.05158356 -0.2556783 0.04296507 -0.10784354 -0.5244902 0.28993782 -0.21905385 -0.40800875 -0.37555486 -0.2490476 -0.38902396 0.10292375 0.28774267 0.06476431 -0.4225284 -0.39731103 0.4065967 -0.50055873 0.3383544 0.11123708 0.17000952 0.1862755 -0.14272122 0.48403817 -0.026657252 -0.30483702 -0.16423374 0.12646975 0.34765226 0.11117013 0.07655523 0.19599274 0.13205633 0.35843068 0.48685992 -0.25277993 0.2001299 0.14625855 -0.21563582 0.14565676 0.08054668 0.030924674 0.012715371 -0.40780276 0.011433238
82 0.32134753 -0.3315561 -0.2614298 0.30317655 0.13998887 0.15722075 0.27739313 -0.10721157 0.47362182 0.12761395 0.0373195 -0.27801716 -0.31286514 -0.39560357 0.0021891145 0.08490533 -0.048019987 -0.029099658 -0.15070772 -0.17668824 0.26541576 0.20709383 -0.10027882 -0.40146026 -0.21217479 0.1569077 -0.063109696 0.097921535 -0.17842406 0.24494162 0.007975277 0.2728335 0.27914596 -0.8811038 -0.01683586 0.18276918 0.6297873 -0.24457215 0.3423844 0.031731952 0.021444725 0.18360661 -0.6890278 0.40711185 -0.010049278 -0.25229526 -0.013020094 -0.42133623 0.09793525 0.23905613 0.48311982 0.27015164 -0.38854784 0.25747293 -0.19442217 -0.27092457 0.32136443 0.19230418 -0.16683769 0.016426763 0.06762228 0.12562722 -0.4101023 0.2523786 0.24684948 -0.06966876 -0.024816023 -0.21168219 0.04532324 -0.2038365 0.22719246 -0.20750402 -0.384537 -0.10561885 0.01783097 -0.30821002 -0.15100877 0.24439476 0.40497229 0.5422239 0.17809331 -0.2861449 0.09992254 0.05303404 0.2604523 0.090091564 0.057050142 0.15390384 -0.1285337 0.19558066 -0.17346002 -0.34964037 -0.39160386 -0.25752106 0.4677247 0.06401764 0.39365074 0.1099449 0.3254382 -0.5325307 0.08402543 -0.6477251 0.4096301 0.35332164 0.3515184 -0.37633914 -0.17082432 0.43328083 0.4152803 -0.14643179 0.118706 -0.5181706 -0.15246788 0.40756637 0.24341442 0.23097001 -0.13115978 0.8408598 -0.39179468 -0.41238284 -0.07826038 0.18678735 0.14300781 0.5951342 0.01219707 -0.19499397 -0.2313761 -0.13267861
121 0.5370086 -0.7548838 -0.17634928 -0.03576947 -0.1744845 0.3126954 0.15878423 -0.023081345 0.15606943 0.05284732 0.42320758 -0.36075747 0.50590605 -0.5198105 0.1277582 0.052642103 0.116147 -0.08510431 -0.32426083 0.13789979 0.4012781 0.0931235 -0.14508016 -0.63375145 -0.09568509 -0.052658565 -0.30764034 -0.41256338 -0.29230535 -0.20376979 0.6996984 0.2112788 -0.1408843 -0.117798015 -0.042382944 0.03992457 0.036869373 0.52936816 -0.00047692825 0.09349442 -0.0063889185 -0.03800769 0.25741938 0.21241874 -0.03298194 0.14082047 -0.472798 -0.28910285 0.56025374 0.19476198 -0.0015268924 0.15468903 -0.1292943 0.21970484 0.42027724 -0.05123031 0.5089169 0.05129272 -0.2659516 0.08257041 -0.27964196 0.29298997 -0.18890944 -0.12953691 0.21887505 0.13517372 0.24421346 0.40541908 0.1457445 -0.48581436 0.08790151 -0.4805887 -0.38050067 0.09145904 0.015457676 -0.17659956 -0.19482706 -0.04047065 -0.2591971 0.091837004 -0.28345206 -0.01982256 -0.5891404 0.19020955 -0.20409486 0.26749012 0.020900734 -0.3229584 0.13159999 0.38410476 0.15879117 0.22041973 -0.11178102 -0.22586025 0.16947077 0.23887996 0.6389065 -0.005081049 -0.19963032 0.072312295 -0.10862736 0.4538352 0.06696839 0.37781778 0.39894995 -0.20219323 -0.17751585 0.095824644 0.035942208 -0.19934669 -0.1430943 -0.09948851 0.16861524 0.35708833 -0.32761368 -0.1981993 0.09599224 -0.27452818 -0.36049074 -0.14788581 -0.10824353 0.11555117 0.011562631 0.30809498 -0.019196235 -0.3995281 -0.076182455 -0.19263169
86 -0.11765601 -0.490567 0.50910985 -0.03607992 0.21179333 -0.27201065 0.045447953 -0.35660604 -0.14484708 0.7877536 0.7975299 0.19318621 0.28534377 -0.17779963 0.28263587 -0.034471177 0.12554762 0.57944196 -0.12922573 0.06383962 0.44873932 0.5775819 0.5328734 -0.24629457 -0.15659969 0.44337034 -0.72526747 0.36008158 -0.10993319 -0.12440725 -0.08202678 0.008068539 0.025436357 0.29575315 0.10457227 0.57558817 0.33997083 -0.02830763 -0.2904294 -0.05416845 0.27219996 0.2515076 0.032705333 0.19810203 0.17238753 -0.09419532 -0.15128385 -0.08686037 -0.038715307 0.08292968 -0.05923926 0.11263982 -0.002427889 -0.35252583 0.060623143 -0.34293243 -0.034500543 0.08277274 -0.31135398 -0.10145223 -0.09808265 0.24852929 0.22011511 0.104554296 0.6449186 0.6399012 0.4510015 -0.23034042 0.014227283 -0.068177484 -0.5393755 0.02991323 -0.28569108 -0.29859793 -0.26140773 0.20026624 0.340447 0.28434986 -0.57800275 -0.40371317 0.3659336 0.12170354 -0.16225877 -0.509619 -0.09026738 -0.045386903 0.16941236 -0.38484883 0.026295863 -0.2574495 0.19716597 -0.288317 -0.7659581 -0.0032667513 0.72366726 0.035312787 -0.29152524 -0.37265173 0.08098799 0.09029867 -0.64799696 -0.21351978 -0.034323018 -0.1596495 0.18621759 -0.56403 0.112630926 0.5463985 0.35992727 -0.19690642 -0.57764 0.21481147 -0.21075566 0.026679024 0.10731508 -0.17097053 -0.009205422 0.21026352 -0.20639962 -0.2759169 -0.23297346 -0.35347348 0.045916893 -0.4617368 0.44127578 -0.4799873 -0.56647116 -0.10566162
107 0.47792372 -0.23502919 0.1574987 -0.19179624 -0.10745855 -0.591589 -0.08173156 0.15963805 -0.5319044 0.4672775 0.59977293 -0.3650113 -0.31586266 -0.3359177 -0.17225406 0.15080906 -0.08206952 0.2620943 -0.34881073 0.30632064 0.34706563 0.37012917 0.05958346 -0.11411582 0.14207971 0.0017469327 -0.24586836 -0.37199104 -0.21787897 0.12880032 -0.30525282 0.38709566 -0.21470241 -0.44395056 0.29687363 0.3452896 -0.012770655 0.37028447 0.16125923 0.23436937 0.27236325 0.23596327 -0.017692639 0.3278803 0.22302382 0.060174506 -0.61148435 -0.3639922 0.4813723 0.1444557 0.039748225 0.16551349 -0.119572684 0.028419316 -0.05065326 -0.28088802 0.12890062 -0.12493476 -0.023225393 0.17927408 0.21790384 0.17670114 -0.11700733 -0.15746671 0.19750522 0.21997175 0.4594786 0.32144585 0.19207115 -0.7865887 0.046198323 0.13619943 -0.65591556 -0.20929107 0.07729881 -0.059960123 -0.36138308 0.048250407 0.23921035 0.3218556 -0.22433886 -0.0956741 -0.24918418 -0.2084519 0.05399483 0.009835161 0.19908302 -0.27847183 0.14806232 0.30116868 -0.10531482 0.33427495 -0.07354787 0.11794955 0.24046753 0.39402166 0.04348915 -0.33743992 -0.27129525 -0.21361391 -0.7072337 -0.09587224 0.41139635 0.008466747 -0.21120663 0.37510774 0.0860204 0.15459768 -0.5278413 -0.3560272 -0.3913602 0.041047342 0.104705565 0.068154804 0.44624785 -0.3143182 0.35729843 -0.13643683 -0.22866918 -0.47654065 0.24013746 -0.07541046 -0.2642025 0.165063 0.14821932 -0.20824975 0.22837064 0.2596567
62 -0.12739956 -0.23711035 0.24766321 0.31132662 -0.6056483 -0.095873125 -0.13371 -0.28959444 -0.17091815 0.21917108 -0.071375206 -0.13640967 -0.24495064 0.09767057 -0.15374409 0.4966318 0.14002024 0.24164025 -0.25877032 0.30819935 0.18935513 -0.03374709 -0.93053526 -0.5104012 0.20835471 0.42849013 0.0008260579 -0.09967621 -0.12386855 -0.24967453 -0.39142475 -0.07491464 -0.23022011 -0.214771 -0.1667724 0.32076877 -0.050577845 0.13968885 -0.010216677 0.4938594 -0.10987644 0.5396392 0.40654448 -0.09412804 -0.19720758 -0.21894437 0.078697115 -0.5910764 0.1894661 0.4448885 -0.01368555 -0.12100972 0.095034175 -0.0034790249 -0.07470777 -0.19503827 0.037598968 -0.09916489 -0.4076848 0.07276698 -0.5321776 0.07852235 0.12383291 0.28659862 0.27531677 -0.123091914 0.11666161 0.16632462 -0.14732917 -0.17006788 -0.68018705 0.33611274 -0.32567626 0.13532281 -0.3377761 0.06429906 0.15382262 0.2997963 -0.6546047 0.03358303 -0.03562887 0.010671167 -0.10952415 -0.0490485 -0.0042708255 0.15408683 -0.34484425 -0.25509158 0.42772934 -0.35265985 -0.61370414 0.13590883 0.17866805 0.16743979 -0.07420982 0.23903163 0.30279762 -0.46194676 -0.2321556 -0.07067165 -0.16786167 -0.46379036 0.45766804 0.007114544 -0.77945155 0.1704335 0.17312166 0.20650971 -0.63334775 -0.25741935 -0.3838255 0.2842026 -0.072047554 -0.28064632 0.30914447 0.6742349 0.047166888 0.5970863 -0.6302524 -0.42157784 -0.12855096 0.09963299 -0.098298304 -0.26097777 0.1779757 -0.49820328 -0.06479243 -0.51530606
5 0.16443607 0.1368151 0.4758261 0.05837451 0.118554 -0.18907969 -0.52680457 0.011343656 0.026811814 0.028282067 0.46103474 -0.40164116 0.06447839 -0.32639468 0.14582309 -0.119056754 -0.5460589 0.1291075 -0.30662918 0.5578149 0.19099262 -0.15482989 0.1580042 -0.42219672 0.29024187 0.060892127 -0.6321631 -0.7755123 -0.6584086 0.53115386 -0.69757354 0.19995514 -0.20420319 -0.13852876 0.17192255 0.046365317 0.31113946 -0.002104478 0.1793636 -0.24360944 0.4555478 -0.015062023 -0.4651907 -0.3205453 0.34136197 0.22118312 -0.29459462 -0.07950033 0.24250472 0.02586629 0.6780728 -0.4982204 -0.14790472 -0.043480955 -0.041499645 -0.17639132 -0.13339399 -0.2150976 -0.23159644 -0.20276429 -0.21832873 0.28883222 -0.17996576 0.38638717 -0.119637765 -0.26860696 -0.45329306 0.031741004 -0.15629165 -0.09767926 0.5509227 -0.8637929 0.37752277 -0.003003414 -0.13157147 0.380009 0.5405835 0.15332924 -0.02872 0.31277427 0.11756295 -0.021596849 -0.3673604 -0.25257602 0.17922905 -0.43491372 -0.18343762 -0.41209257 -0.073622406 -0.21202466 -0.1632653 0.75047153 -0.12147594 0.31130397 -0.005902005 0.43980664 -0.057968307 -0.2898201 0.22808708 0.14304887 -0.8317821 0.20202471 -0.01181313 -0.45533103 -0.03725848 -0.0010531663 -0.20865715 -0.0072802715 -0.12978843 -0.33902124 -0.3345694 0.25133982 -0.24319234 -0.541774 0.38187623 -0.2095547 -0.2725653 -0.19816591 0.44605634 0.1781272 0.4794324 -0.40865913 -0.10228437 -0.18943259 -0.49809322 -1.0166564 0.17877 0.12336764
13 0.58754945 -0.300782 -0.030812856 0.25332066 0.012671653 0.15859716 0.06169226 -0.18246962 0.7730271 0.0346228 0.07950454 0.4790061 -0.28585628 -0.36627948 0.32513738 -0.09770126 -0.37442833 -0.24653465 -0.4961499 0.5915859 -0.08902664 0.02152712 -0.45096493 0.34897566 -0.2664666 0.19075534 -0.5301043 -0.8020767 0.23554642 0.18193753 -0.5555281 0.106617376 -0.6673567 0.59226394 -0.04147644 0.28255954 0.4543028 0.69697213 0.4539877 -0.12961066 0.031735 -0.08384875 -0.05550475 0.072956376 -0.36841333 -0.036133535 -0.32535836 0.2535793 -0.12672022 0.23234047 0.45158002 0.39705887 0.4610543 -0.48520797 0.24182576 -0.09195263 0.5739118 0.49364117 0.1569721 -0.10096024 -0.017526504 -0.22031182 -1.1586766 -0.14026871 0.019555323 0.13604158 -0.16642445 -0.2118256 0.25759488 -0.034115385 0.36858428 -0.1947753 -0.061753605 -0.051793426 -0.19207679 0.03962227 0.45494455 -0.0018491009 -0.29657683 0.3196361 -0.12892239 0.11315026 -0.2504411 0.5354676 0.12711301 -0.06254837 0.26919672 -0.2707176 0.0063708643 0.55718863 0.32802263 -0.6229662 0.022701073 0.14760958 0.6130594 -0.26129192 -0.22916344 -0.1664471 0.03035038 0.17228909 -0.11195296 -0.03811371 -0.2103218 0.11576976 0.13637452 -0.23822159 -0.28660557 0.6110176 0.044346396 0.266809 -0.33469167 0.65730184 -0.07583307 -0.23967268 0.15578444 0.7292697 -0.32308602 0.108828865 -0.21937607 -0.14292626 -0.18959759 -0.15218392 -0.7369783 -0.086339414 0.16783251 -0.121784024 0.0857617 -0.44651985
166 -0.55669093 -0.25394475 0.30077854 0.41604552 0.5068818 -0.13646716 -0.004700082 -0.16642572 0.01277293 -0.14524199 -0.34065238 0.1943611 0.23776013 -0.21998712 0.4012906 0.19776264 -0.338782 -0.0013877 -0.62723047 -0.30538207 0.52938205 0.21755268 -0.2065436 -0.05172132 -0.09934973 0.18791331 -0.6227343 -0.28067255 0.8508424 0.00815557 0.20988955 -0.30702013 -0.038761903 0.09420869 -0.23856747 0.29980782 0.10410963 -0.12112246 0.6402567 0.34438765 0.085994 -0.7265298 0.05420021 0.6355983 0.2989202 0.3874596 -0.12127175 0.22326346 1.0271086 -0.009532988 0.02610563 0.6729011 -0.32332742 -0.24997385 -0.26457667 -0.682784 0.21781062 -0.25055125 -0.44253787 -0.33745873 0.05529135 0.05759047 -0.4043437 -0.033691186 0.4417856 0.35439506 0.31197283 -0.10148689 0.52835894 -0.22984801 0.046151675 -0.029376524 -0.278903 -0.3856268 -0.314662 0.18253495 -0.25776967 0.04785401 0.3148243 0.16686639 -0.43677497 -0.4339564 -0.48957437 0.17151347 0.0577329 0.31020206 -0.33591512 0.08120579 -0.060801763 -0.36364916 0.19047211 -0.18803477 0.21979997 -0.02657832 0.2893152 0.15987562 0.030086914 -1.1012362 0.048630573 0.113156475 -0.23939574 -0.6785373 -0.102641314 -0.13872479 0.001486606 0.21253687 0.3831367 0.2798957 0.24120031 -0.13761653 -0.13284908 -0.13333845 -0.7255153 -0.17367081 -0.32294187 0.08444946 -0.60684025 -0.055882193 0.123444475 0.03327811 0.48731193 0.16009012 -0.642848 -0.09041183 -0.15651104 -1.0274506 -0.3642125 -0.12929285
434 0.5230408 -0.09681403 0.70908886 -0.40346268 0.05675327 -0.18888001 -0.10306974 0.5417982 0.022565775 0.33232355 0.19126606 -0.07859899 0.43498355 -0.16370982 0.27903607 -0.04107695 -0.13440086 -0.23312686 -0.5636948 0.27489254 -0.26044264 0.3910913 -0.45601144 -0.12139194 -0.29757866 0.40186355 0.49556118 -0.34893274 0.13966444 0.09321891 0.0933009 0.26609614 -0.09923837 0.45346326 0.12156173 0.40025952 0.20384166 0.08828673 -0.09095381 0.14346893 0.23808967 0.472823 -0.08366021 -0.2901678 0.25962633 -0.35737926 -0.48724097 -0.4085176 0.8073217 -0.10403116 0.7146378 0.6718841 -0.31178686 -0.19412817 0.17781624 0.16610126 0.19857873 -0.0075478912 -0.43346736 -0.44315273 0.49312666 -0.035500597 0.45462883 0.07513151 0.12527126 -0.2039737 0.006675135 -0.48119894 -0.38752073 0.46064 -0.33213055 -0.4016775 -0.3481976 -0.11822331 -0.04107513 -0.44018987 0.051862217 -0.057513177 -0.1946936 -0.11984582 0.4446698 0.15108567 0.042776972 -0.014092859 -0.27361044 -0.24311751 0.32044864 0.28379834 0.9236358 0.8712971 0.12727264 0.19268437 0.2024195 -0.67058724 0.30542943 -0.10334775 -0.41277283 0.36642337 -0.009812074 -0.82943976 -0.0893311 -0.32186884 0.22358268 -0.024930287 0.0034797639 -0.20271714 -0.2502701 0.25775403 -0.10876928 -0.35255876 0.10410713 0.48253122 -0.052096702 0.03753242 -0.074128576 0.48093686 0.050867863 0.17597777 -0.56063014 -0.00954202 -0.11988458 -0.22405306 0.23007533 -0.5312572 -0.284637 -0.41847694 -0.07023826 0.56284
377 0.114400834 -0.4465755 0.34117633 -0.06951826 0.2112422 -0.0059988634 0.17311285 -0.14876825 0.21514708 -0.42945266 -0.05309597 -0.279407 -0.59308773 -0.5374717 0.79206145 -0.25153816 -0.081254035 -0.36667255 -0.2907884 -0.48475263 0.57265455 0.019423908 0.16547476 -0.50338274 -0.5147496 -0.1300007 -0.09885369 -0.18955755 -0.02897381 0.2627981 -0.4890526 -0.013642712 0.14882526 -0.030355928 0.046847474 0.34536192 0.14300786 0.23748651 -0.18402252 0.5904125 -0.42450273 0.056143682 -0.7338299 0.26510593 0.21183074 -0.020018421 -0.011503401 -0.25103557 -0.046411615 -0.20011657 0.37992808 0.30930018 0.44089994 -0.20529862 -0.19887227 0.19270577 -0.117553845 -0.30527377 -0.27676633 -0.28694487 -0.07013356 0.26935732 0.99454653 -0.23173226 0.28181 0.6606658 0.0171429 -0.11650954 -0.07805779 -0.17529006 -0.08819875 -0.22511676 -0.2614702 -0.02112787 -0.61157644 -0.108350515 0.58182514 -0.7026268 0.23970097 -0.57236814 -0.6202176 0.0297231 -0.31033462 0.2393696 1.3646028 0.3073874 -0.044752147 -0.21026069 0.008053012 0.15253866 0.12579335 -0.93215966 -0.6101106 -0.48358554 0.28352013 0.07639473 -0.11255852 0.03317085 -0.23695856 0.017849544 -0.4116838 0.11340456 0.1570416 0.46555397 0.070482634 -0.4721137 -0.19842769 -0.5877594 -0.14178185 -0.63025415 -0.1125819 -0.48383847 0.29456574 0.1976469 -0.26630437 0.7461355 -0.13580213 0.20673957 0.04813196 0.5225687 -0.03356037 0.030533707 0.41014266 -0.21570091 -0.4039163 -0.30064368 0.11759016 0.103836335
64 -0.30045366 -0.47186643 -0.009761394 -0.078214265 0.17540297 -0.008630885 -0.14537044 -0.1915423 0.28095242 -0.05313727 -0.29464027 0.20427085 0.11867588 -0.03472938 0.27579302 0.5566052 0.06688401 -0.03588227 -0.6931098 0.5095936 0.3625544 -0.024465077 -0.3055946 -0.97134304 -0.19001828 -0.03691535 0.08150346 -0.88407016 0.14997216 0.5001115 -0.28290793 -0.039112158 -0.10688148 0.23740955 0.34855923 -0.19542997 0.42776433 0.7576569 0.6971111 0.30804288 0.73207295 0.31253916 0.2870125 -0.024643967 -0.4129575 -0.5088093 -0.108110726 0.32749322 0.3555222 0.037765637 0.058672372 -0.71538174 -0.05206917 0.12595212 0.057734236 -0.4485049 -0.5113251 0.6900958 -0.36418054 -0.574056 0.22709057 0.09680276 0.21631531 -0.14651376 0.53625375 -0.3029985 0.10002187 0.6116093 -0.5899779 -0.25547388 -0.15201154 -0.010385333 -0.1095954 -0.074291125 0.26810086 0.6529018 0.36762196 0.24035734 -0.47071376 -0.33327228 -0.4654568 0.4212347 0.05278373 -0.3080978 -0.21469839 -0.10047613 0.12737341 0.43894637 0.18392618 0.50395316 0.2618844 -0.13174447 0.26533058 -0.17514159 0.6030909 0.0771373 -0.34701437 0.20903319 0.19388095 -0.20627598 -0.063533664 -0.38179305 0.0002850021 -0.3313497 0.097104914 -0.3231011 -0.35281476 0.30175987 0.21562153 0.2584785 0.26746807 -0.14830606 -0.33027968 -0.022636114 -0.52268434 0.2557475 -0.13312069 -0.17053467 0.17896241 0.13415132 0.15863244 -0.24125323 0.09567017 0.22086972 -0.46142557 -0.37459734 -0.39636523 0.13385886
211 0.25241852 0.40962997 0.23150371 0.5848636 -0.034584418 0.24767084 -0.94869214 0.022093238 0.020324763 0.16946004 0.23001148 -0.0015527734 0.24565905 0.08484679 0.495179 0.6276157 0.45427632 -0.0025866968 -0.99179274 0.48881227 -0.356825 0.1522408 -0.7449553 0.13452154 0.023504555 0.5148015 0.066005394 -0.01653274 -0.7775284 -0.39306125 0.03221756 0.28256664 -0.07727886 0.489722 -0.40075722 0.15299265 -0.4602083 0.4912255 -0.49734083 0.31844774 0.1156197 -0.113624424 -0.24713448 -0.52782416 0.25445852 -0.27525693 -0.43930823 -0.2231142 0.14516228 -0.22109935 0.4737598 -0.3613462 -0.09854623 0.14474648 -0.21417531 -0.18783145 0.24536125 0.12196504 -0.042242624 0.52559066 -0.17172113 0.41612795 -0.16680482 -0.08737549 -0.09605373 0.6424897 -0.26978436 0.50915027 0.534486 0.24184528 -0.056014616 -0.35124984 0.24222825 0.44191378 -0.20270135 0.360151 0.17891954 -0.64555186 -0.03166407 0.1665478 -0.2963399 -0.12134388 0.43172872 0.65162134 0.0051467977 0.13035925 0.34596178 -0.21964958 0.3765845 -0.066512935 -0.16707613 -0.28124213 -0.36489847 -0.2666778 -0.18278316 0.07053225 0.3000018 -0.21421883 -0.3317847 -0.3764293 -0.48443964 -0.11073102 0.54879427 -0.26418728 -0.26875624 -0.34175172 -0.09075434 -0.00021063795 0.71292424 -0.32239336 -0.03238317 0.20415114 0.1932123 0.14140604 0.44029891 0.36204192 -0.53103244 -0.015650634 -0.67616713 0.2683392 -0.21308179 -0.29690143 -0.8733515 -0.24148054 -0.2184212 -0.54707533 0.0020136554 -0.10104553
183 0.0043670903 0.10768572 0.085912764 -0.09096361 0.8442718 -0.048853055 -0.78974795 0.24294372 0.2789974 -0.0946727 -0.2058486 0.25424987 0.2016997 -0.080191486 0.73776215 -0.049392458 0.12786756 0.0075121084 -0.068247475 0.24999152 0.46874338 0.1427142 -0.051336583 -0.13484068 -0.4996145 0.49395669 0.3535121 -0.5800592 0.11452565 0.23153856 -0.20747836 0.25305846 0.18233222 0.107582234 -0.7866077 -0.20421076 0.43725458 -0.14514709 -0.11143732 0.08390876 0.3713675 0.80942696 -0.5815463 -0.13601592 -0.55631584 -0.49812496 -1.05751 -0.2030069 0.048676793 -0.18628347 -0.5694021 0.034451094 0.28090942 -0.041690867 0.23933442 -0.32860947 0.48965308 -0.18274128 -0.26984644 -0.26384816 0.083775505 0.014895639 -0.09458076 0.4801697 0.0076604085 0.13317105 -0.138347 0.590151 0.113155596 -0.621029 -0.3261874 -0.3356377 -0.16658795 -0.03826739 0.012397052 -0.4379469 0.20319115 0.029566621 -0.28454903 0.06797326 0.08959642 -0.123476475 -0.2917199 0.0033130697 0.011881461 0.07495343 0.08888391 -0.5629257 0.32582983 0.17658173 -0.06642259 0.22329538 -0.21047567 0.3917518 -0.15614621 0.30693772 -0.006990353 -0.13939013 -0.16772693 -0.4668739 -0.5346775 -0.1043194 0.14662328 0.050249055 0.058055077 -0.10692324 0.5050016 0.20000087 -0.19945167 0.19242875 -0.6274673 -0.34705964 -0.16658561 0.19170395 0.41870123 -0.07838943 0.11993788 0.38762912 0.17500691 0.34146187 0.1752515 0.25554824 -0.11014874 0.13637619 -0.07436727 -0.11186815 0.4871119 0.25604352
129 -0.18185899 -0.3919816 0.3323621 -0.21899796 0.15504308 0.5701943 0.4091822 0.105902046 0.25943896 -0.08868677 0.66299254 0.022179648 0.45696485 -0.026564203 0.3681645 0.03026012 -0.5566946 -0.16086021 -0.09255167 0.0023436835 -0.27849606 0.34786648 -0.38589343 -0.19219367 -0.4811083 0.356286 0.4580909 -0.11501777 -0.76215386 -0.4087003 -0.2337866 0.024789404 -0.092349805 0.299192 -0.032635976 0.2529829 0.048466608 0.3629745 0.42291817 0.091558486 -0.3037275 0.013215128 -0.13457887 -0.28265446 0.35755342 0.47060975 -0.34027743 -0.26839745 0.27529964 0.22866394 -0.08183121 -0.13730969 0.53906006 0.043271665 -0.08578208 0.08264617 0.27338636 -0.0939603 0.02869649 0.32244956 -0.4037069 -0.58366036 -0.19011179 0.064548634 0.010260224 -0.15856394 0.26645574 -0.6077992 -0.6442091 -0.7383387 -0.17275877 -0.43647152 -0.54788226 -0.18465883 -0.09881882 -0.18405516 0.83635587 -0.38025367 -0.41014716 -0.07813767 -0.3367088 0.13793537 0.3154595 0.65650874 -0.4987413 0.4427542 0.36233327 -0.121807255 0.11594215 -0.05309622 -0.42293787 -0.19658835 -0.111169904 -0.39236093 0.19879621 0.21923617 0.14424445 -0.36018282 0.03931589 -0.24404238 -0.31878394 0.032410096 0.3273743 -0.3706861 -0.2576887 -0.39791718 0.4328526 -0.06025503 0.572541 -0.2984724 -0.19562124 -0.5155307 -0.07525323 0.29628333 0.09745152 -0.1423826 -0.5917074 -0.2619201 0.24919382 -0.64625597 -0.22815052 -0.27315673 0.2950929 0.6736029 -0.3172235 -0.56576717 0.4264755 -0.36526364
533 -0.04398517 -0.15818466 -0.07257782 0.7426714 0.569296 0.1002525 -0.8541726 0.0018749136 -0.058565147 0.011472701 0.16018099 0.38003594 -0.20843229 0.012041806 0.06792313 0.2720608 -0.49812257 -0.4796359 -0.78794277 0.19284886 0.12537721 0.4917446 -0.16019917 0.21008217 0.06674746 0.3094886 -0.37668362 0.060792465 0.1455441 0.20282885 -0.28266907 0.28181168 -0.5573569 -0.42093366 0.26457772 -0.0436618 -0.30166918 -0.023445316 -0.82957214 -0.22662848 -0.7485825 0.6350165 0.06383114 -0.5091286 -0.10724241 -0.25863996 -0.7473165 0.2602134 -0.089039706 -0.062893115 -0.090646155 0.3640347 -0.016983079 -0.3391016 0.07206476 -0.15148795 -0.023304584 0.056250405 -0.18762149 -0.5485773 -0.7578041 0.05093228 0.05663207 0.0053423974 0.39897755 0.66596687 0.070664555 -0.6551942 0.17713647 0.07129032 -0.029845867 -0.4870203 -0.2436775 -0.19525838 -0.11682077 -0.056110077 0.10699923 -0.31400728 -0.33607522 -0.33946735 -0.06496846 -0.08843408 0.32859206 0.41032907 -0.0036829833 -0.05005005 0.12039763 -0.19705856 -0.710947 0.39088744 0.18159615 -0.12572607 0.3701273 -0.53501844 -0.108329125 0.6843116 -0.4262835 -0.7472796 -0.006034455 0.20917647 0.38984936 -0.10619719 -0.2621086 -0.00017976074 -0.22709653 0.42177314 0.31382543 0.476571 -0.09662884 -0.4989517 0.049595267 -0.06979532 0.15525658 0.3040991 0.04846709 0.018670855 0.005053149 0.34373048 -0.09393524 -0.28911442 -0.18977232 -0.036248215 -0.019592898 -0.29885766 -0.27790993 0.24134876 -0.23152587 -0.07201978
249 -0.22495756 -0.07011673 0.06632904 -0.21800809 0.53056514 -0.5025004 -0.047460057 0.040178616 0.39766952 0.32357222 -0.18305106 -0.3071396 -0.06880919 -0.06949079 0.31959546 0.5813738 0.55193204 0.11156335 -0.70508367 0.23353454 0.17528899 0.62229544 -0.47742164 -0.4343202 -0.008325933 -0.39881074 -0.51073056 0.31939867 0.1674824 -0.096860155 0.5795964 0.16849089 -0.57133305 -0.25937614 0.48784465 0.60905355 -0.0414772 -0.46064734 0.122647606 -0.7173524 0.49281135 0.39844218 0.32593492 -0.15313186 -0.069920994 -0.06594215 0.3569553 -0.5238557 -0.23011503 -0.2518112 0.16838716 -0.015769545 -0.40934506 -1.0407393 -0.029204948 0.06002525 0.6290894 0.19398616 -0.11315751 0.4971888 -0.13530125 0.059081707 0.39422023 0.15609652 -0.24620089 0.25024125 0.12168495 -0.122128986 0.12439119 -0.38850698 0.4401295 -0.5314272 -0.28967926 0.004219101 0.25400472 0.005804494 0.2398456 -0.16128719 -0.2500242 0.11251188 -0.24308595 -0.22195968 0.37838104 0.30117974 -0.4495634 -0.05618562 -0.06975544 -0.19331768 -0.29716036 0.27372736 -0.35788205 0.49932432 -0.23690297 -0.6351346 0.09282848 -0.3410157 0.56672084 -0.5396737 0.1121103 -0.8025247 -0.82568014 -0.06575016 0.50654405 0.012522593 -0.06997298 -0.15699169 -0.38023764 0.5479386 0.1590472 0.18585292 0.024350077 0.59089464 -0.08192219 0.27612495 -0.24962878 0.733296 -0.21421435 0.52383393 0.3742617 0.4086082 -0.17545015 -0.3205864 -0.135543 0.65231156 -0.26248732 -0.33867532 0.247273 0.6226186
84 0.027021164 -0.43368012 -0.3115431 -0.0288986 0.755714 0.06706827 -0.386701 -0.38903832 0.15049282 0.33633858 -0.45516437 -0.15146977 0.6866323 -1.0238408 0.25212556 0.11321423 -0.035389338 0.76290584 -0.24106349 0.80282795 -0.35695955 -0.20839739 0.04084837 0.044491418 0.48223346 -0.27565727 0.2634267 -0.21766707 -0.19935769 0.4800732 0.14210162 0.19512941 0.14398362 0.24347353 0.60692877 0.8694288 0.07964388 0.36651716 -0.05394962 -0.104600705 -0.074470714 0.40670967 -0.3286023 -0.13835202 0.55218637 1.0179714 -0.21770072 0.17912251 -0.045452956 0.6826941 -0.05170928 -0.17520073 -0.33904564 0.075690664 -0.34086406 -0.95493436 0.5826654 0.3986877 -0.104694046 0.15438464 -0.13106865 -0.011499688 0.0051059444 0.08234939 0.15630674 0.054673992 0.5600601 0.5030909 0.2617402 0.19012526 0.35811883 -0.106521234 0.2902229 -0.108785406 -0.36339334 -0.5067457 -0.3601026 0.6026375 0.06337809 -0.16368298 -0.16198517 -0.123997375 -0.14015938 -0.16290969 0.22512539 0.10983795 0.32550806 -0.5065189 -0.06376371 0.7021447 -0.31060946 -0.015742498 -0.807781 0.16396856 0.111332506 0.4596114 0.5256325 0.05722569 -0.4258371 0.17587365 0.023713205 -0.0047241454 0.502055 -0.25164795 -0.3962402 0.31102553 0.15881102 1.0364449 0.43867028 -0.013276785 0.21315 0.072775476 0.28548834 0.06959092 -0.54552424 0.29175103 -0.60975826 0.5070813 -0.08680959 0.34439197 0.049307585 0.076321006 -0.5572885 0.29606417 -0.02918601 0.050011937 -0.4907428 -0.24538185
21 0.40246773 -0.38563153 0.23378083 -0.21079798 -0.2057033 0.06970361 -0.64735013 -0.3991877 -0.30967113 0.25016034 -0.099187225 -0.070090204 -0.109032 -0.47244972 0.39262938 0.2543894 0.37513277 -0.32931948 -0.11396446 0.33151734 0.5000649 0.5612778 -0.70282483 -0.5504516 0.21317849 -0.31398603 0.04580368 -0.28426766 0.23809296 0.41193563 -0.39521447 -0.04489213 0.039244965 -0.46085683 -0.2636118 -0.07000917 0.45085275 0.2809619 -0.2843383 -0.040512383 -0.6364222 0.97045505 -0.06836325 0.17192185 0.00025989977 0.08074694 0.19947425 -0.35531452 -0.2681216 0.67535436 0.24367903 -0.65220106 0.5551875 0.067024775 -0.18479039 0.04021627 0.25025594 0.109152354 0.24161215 -0.042250477 0.22037482 -0.3280884 0.53592163 0.100829 0.45398533 -0.20928511 0.00555615 -0.23687461 -0.364831 0.16977173 0.043575093 -0.21710818 0.0776975 -0.0427065 0.18706138 -0.2265626 0.06517282 0.09891558 0.024375875 0.5040864 0.21168877 -0.10317944 0.25026515 0.37086347 -0.11114034 0.20025593 0.7201957 0.06904234 -0.015119307 0.25635895 0.35914895 0.4635375 0.17801727 -0.38595518 0.6202431 0.43167138 0.082326606 0.07255487 0.2720408 0.24983877 -0.5445101 -0.30382702 -0.12373542 0.3155008 0.39937034 0.54642093 -0.0048159305 0.45754614 0.39471248 -0.09944481 0.07795527 0.5453385 0.14010823 -0.014578998 -0.33356053 0.19751024 -0.22644407 -0.40226182 -0.14434978 -0.20754279 0.5345799 0.5822087 -0.15306771 -0.11759159 -0.7400375 -1.233889 0.12822291 -0.09700607
106 -0.05260201 0.20077126 -0.11588341 0.033140786 -0.23462258 0.25301516 -0.15968817 -0.43259305 0.34462947 -0.17366007 0.25253174 -0.38931006 -0.038492862 -0.5381201 0.028128384 0.4428416 0.03248929 -0.22007652 -0.3094131 0.036079265 0.2060303 0.18567915 -0.41123298 -0.179096 -0.43586898 -0.067775756 0.20322092 0.13453522 -0.038651392 -0.12327869 -0.4429145 0.034914855 -0.5644762 -0.098621875 -0.6815846 0.2498149 0.23240432 0.0051537966 0.17822114 -0.6977557 -0.249238 0.10081452 0.17499201 0.05218781 0.3832286 0.3501 -0.63444453 -0.25688383 0.16767241 -0.4759091 -0.36074394 -0.14392576 0.4218921 -0.21116644 0.46260923 -0.39327082 0.9855392 -0.19402778 0.329496 0.1840677 -0.58574647 0.6406917 0.018900698 0.4780451 0.23737997 -0.42654788 -0.6285409 -0.41515344 0.5300552 -0.25673497 -0.1427324 -0.29385766 -0.8574367 -0.22925657 -0.7283022 -0.11274179 -0.30228257 -0.13584407 -0.21372458 0.034380384 0.24056119 0.56461185 -0.03332804 0.35767618 0.2856742 -0.011429148 0.2664228 0.26175612 0.9016915 0.03355647 -0.37532216 0.30106378 -0.38313457 -0.44137773 0.11426044 0.509033 -0.6228364 -0.21676095 -0.22623535 -0.020221246 0.06982922 0.22756341 0.05625724 0.4799526 0.21887207 0.10175488 -0.31206158 0.3110854 -0.14861771 0.33522034 -0.40224245 -0.30276772 -0.2081886 0.7495518 -0.30922797 0.4019848 0.4469881 0.19267075 0.5250767 -0.30774269 -0.04393357 0.086469576 -0.07660764 -0.4163199 0.009719349 -1.152822 -0.1463895 0.5590866
105 -0.23558849 -0.19824943 0.31354916 -0.16386722 0.5337979 0.04174899 -0.22464682 0.17313305 -0.43995225 -0.44013333 -0.22118914 -0.7397864 0.054821786 -0.20305721 0.59693146 0.41748628 -0.05189101 0.040448546 -0.12475096 0.22027227 0.5377416 0.2355664 -0.27549863 -0.46332735 -0.29355255 0.2580875 0.13499692 -0.26833555 0.6329586 0.1930041 -0.309179 0.5902724 -0.8955455 -0.32930696 0.14908916 0.2892209 1.0276804 -0.0409466 0.25087997 0.40141925 0.3164553 -0.036872 0.013517007 0.15798211 0.12451067 -0.3867683 -0.60568273 0.6038006 -0.3205992 0.36792877 -0.015233626 0.58001816 -0.38468105 0.020710468 -0.16870466 0.16389401 0.79525536 0.1370129 0.08107797 0.21679483 -0.6249499 0.27371457 -0.28332633 0.32902905 0.07105561 0.25845632 0.66530293 0.026742414 0.07179092 -0.193452 0.108761646 0.037902776 -0.5408363 -0.19912036 -0.18285638 0.12701043 0.19928399 -0.5695761 -0.42656237 0.566216 -0.06572919 -0.11450378 -0.36064452 0.33910444 0.25044316 -0.2075321 -0.13724144 -0.011935037 0.4010383 0.25817394 -0.33621326 0.11300668 -0.38084057 0.064433485 0.20265299 -0.6943342 -0.28172344 -0.19193758 0.009740736 0.23050492 -0.65014756 0.38924193 0.08401883 -0.036974452 -0.3559642 0.21860057 0.39505246 -0.39353332 0.13382035 -0.033369415 0.5902187 -0.32520172 -0.037360303 -0.05508304 0.3421455 0.26446167 0.24332799 0.07910885 -0.3225904 0.060093988 0.11334025 0.46553648 -0.12548286 0.24964403 0.5090855 -0.27898708 0.16525641 0.12838867
283 0.29959163 -0.28198358 0.1970501 0.4981282 -0.08419838 -0.3433949 0.06334497 -0.0629689 0.05453558 0.036423545 0.005077414 -0.13231255 -0.24003798 -0.68152773 -0.110209435 0.11431762 -0.037813105 0.18697576 -0.2690885 -0.13412732 -0.27740574 0.10029823 -0.424179 -0.4733011 0.021485984 -0.24810383 -0.29075357 0.055778373 0.510779 0.15803672 -0.34266832 0.8221399 0.006657075 0.08293047 -0.31182328 0.05898001 0.35926685 -0.7362748 -0.17172897 -0.41441372 -0.30349818 -0.31319377 -0.33383533 -0.119828954 -0.44865608 -0.25286195 -0.23428372 -0.50358045 0.10733309 0.3716046 0.61045307 0.07400133 -1.172905 -0.41449466 0.050494444 0.18163319 0.887657 -0.33976224 -0.15739064 0.20129357 -0.42653617 0.53915644 0.52904344 -0.084882565 0.21418254 0.39454934 0.4466248 0.6265592 0.015138123 -0.18091545 -0.15816502 -0.050627388 -0.25848556 0.14931332 0.39747772 -0.5500449 0.17594656 0.5679966 0.43248662 -0.42646053 0.18860272 -0.26424143 -0.07168922 0.1266087 0.031827908 0.4175858 0.0052872603 -0.34490955 0.5157018 0.7294354 -0.40441662 -0.2646532 0.07133107 -0.14717872 0.059992507 -0.07180836 -0.27043182 0.38207942 0.314035 0.25734448 -0.43550387 -0.08288126 -0.30861777 -0.29491675 0.29084405 0.45081788 -0.006661765 -0.14804068 -0.28921217 -0.78969336 0.27407172 -0.36779293 -0.18612206 0.5204279 -0.36381122 -0.144607 -0.06733826 0.18745634 0.008947227 0.21017238 -0.11955244 -0.29481322 0.03019211 0.07404944 -0.5865178 -0.5045607 -0.23919119 -0.16658948
128 -0.26690352 0.002983627 -0.0865999 0.009507126 -0.28082857 -0.05722546 0.21616632 -0.16629764 0.58424026 0.09614136 0.020704726 0.2624201 0.08567073 -0.2754911 0.392039 -0.23591451 0.060047805 -0.66895175 0.03773141 -0.007746479 0.18041937 -0.2532177 -0.26245147 -0.11243222 -0.48676303 0.3541668 -0.12054293 0.19044003 0.30839288 0.38486585 0.11880503 0.66636205 -0.07266133 -0.35873494 0.18013357 0.4951339 -0.036983937 0.13847293 -0.1476669 0.24727304 -0.6942994 0.12516505 -0.1237565 -0.04858833 0.06251572 -0.396913 0.42434904 -0.26287133 0.37610677 0.1697204 0.2018552 0.6667925 0.07952478 0.47004664 0.5630597 0.10802339 -0.3422333 -0.0728389 -0.3140506 0.09952005 -0.30356187 -0.55462986 0.1496525 0.0649494 0.51750535 -0.21249563 -0.5365244 0.21683098 -0.10306481 -0.12729801 -0.13060962 -0.48971483 -0.216808 -0.4797681 -0.48204306 -0.30351615 0.29108012 0.2719996 -0.7311333 0.15762481 -0.2289631 -0.372534 -0.09890079 0.26756823 -0.30586067 -0.16702722 -0.13894694 -0.35953033 0.71893036 0.30580845 -0.6097992 -0.053888176 -0.017241858 -0.07568672 0.34043375 -0.016891923 -0.07018224 -0.24422085 -0.49045676 -0.5104775 -0.1440225 -0.21346673 -0.3844894 -0.6428763 -0.40496153 0.13996683 -0.16081381 0.48670438 0.17071778 -0.114042625 0.32358545 -0.3580521 0.9428031 -0.25522128 0.04160179 0.013640439 0.08646554 -0.113711275 -0.45140517 0.19600745 0.62268496 0.27888438 -0.91820014 0.11827604 -0.26555043 -0.39854065 -0.6025058 0.60766107
114 0.031422466 0.62837213 -0.020194678 -0.10648068 -0.07570533 -0.09415743 -0.12467677 0.07338992 0.16685846 -0.22944237 -0.41472372 -0.18580791 -0.1591707 -0.636532 0.64929426 -0.0014554509 -0.29157072 -0.34893554 0.047273852 0.6970399 -0.38167444 0.33409595 -0.53811 -0.058679637 0.087779015 0.6521251 -0.3884879 -0.30707526 0.17641936 -0.26334834 0.07438916 -0.6109402 -0.4358587 -0.031172996 -0.32997677 -0.31653753 0.46779773 0.7263945 0.24967504 -0.28665718 -0.11790539 -0.3524093 0.20274729 0.32585645 0.46473125 0.58968234 0.23675254 -0.32511926 0.49039707 0.4015416 0.14033377 -0.16085835 0.33243558 -0.088639885 -0.07952177 0.43278652 0.005405205 -0.12337096 0.2133599 -0.3925635 -0.24845578 0.3411119 0.0767928 -0.5371823 0.67040294 0.11265352 -0.29386914 0.17182232 -0.14886688 -0.472577 -0.03380432 -0.76045376 -0.3093787 -0.3083452 0.32730728 -0.066053614 0.4433491 0.022226388 -0.30982935 -0.20369843 -0.07287759 -0.10743934 -0.40951383 0.1247271 0.036469296 -0.15015416 -0.23146869 -0.15816477 0.58642524 0.611081 -0.36832935 -0.2584882 0.61103094 -0.29038623 -0.1711411 0.62008226 -0.11840957 0.013110949 -0.24674131 -0.5240499 0.021979462 0.1854945 0.3627497 -0.115997635 -0.3738936 -0.30765322 0.22292231 0.34591302 0.23242286 -0.34136415 -0.51723504 0.16862746 -0.6241907 0.6358948 0.08787329 0.42372414 0.0033459342 0.032536436 0.10551593 0.05512425 0.6716059 0.35287327 -0.96229684 0.47351664 -0.074927464 -0.35495937 0.04997505 -0.29283988
420 0.15736593 -0.38244593 -0.03092817 0.9612799 -0.34858578 -0.13362142 0.29224393 0.30246174 -0.067190796 0.04710403 -0.24577174 -0.37088254 0.105381355 -0.025836993 -0.2720439 0.34801573 0.5050881 0.0017235752 -0.581701 0.64002454 0.32804093 -0.59699416 -0.2550495 -0.63316834 -0.44036394 -0.15388854 -0.46034816 0.3439523 0.5226234 0.38699865 0.21124819 0.3462623 0.06436656 -0.10986171 -0.23712486 -0.20055783 0.42961854 -0.024872275 -0.20192955 -0.38826132 -0.24780107 0.12335319 -0.13169204 0.46629867 0.08109326 0.079971336 -0.21183564 0.33795652 0.23085569 0.36998725 0.26548007 -0.21450828 0.3027366 0.12326383 -0.06288506 -0.15164839 0.52517 -0.07421822 -0.43699688 -0.10126251 -0.4656157 -0.42273778 0.080352396 -0.0691755 -0.29365045 0.7082994 0.5893672 -0.4362608 -0.6086368 -0.11620596 -0.44906077 -0.36796796 -0.08301726 -0.3390723 -0.41053087 -0.04461017 -0.05616661 0.4369204 -0.3125393 0.0049279216 0.21392275 -0.5074384 0.14318416 -0.35374713 0.90602213 -0.11450691 0.15663809 -0.12936823 -0.43290684 -0.004666484 -0.11482215 -0.23201928 0.3357911 -0.016407644 0.75483465 0.769225 0.05720948 -0.3526321 -0.56486887 0.06871056 -1.1897923 -0.031452052 -0.016973479 0.90015984 0.767963 0.05067064 -0.115630865 0.079025626 -0.8145433 0.08595339 -0.18969865 -0.33883974 -0.33223277 0.38636497 0.06402811 0.14437263 -0.41367862 -0.22889435 -0.32028124 0.3635566 -0.027035663 -0.16285196 -0.54783356 0.3994882 -0.8855314 -0.095298365 -0.39237437 -0.01707763
301 0.26318118 -0.2749684 -0.15079096 0.121184595 0.17837587 0.13838588 0.04854579 -0.5999803 -0.2667083 -0.08691854 0.025797041 0.13784865 -0.2702607 -1.0621915 -0.3080316 0.02582868 -0.5039167 0.4480571 -0.38152936 0.7317114 0.1016947 0.6325328 -0.23960274 0.025043622 -0.6898685 0.07092347 0.1552742 -0.52759606 -0.04795089 0.1628571 0.15775342 0.2613284 0.13696517 0.26654997 0.2995561 0.3771801 -0.15604927 0.16519967 -0.53340966 0.1925882 0.5306605 -0.23058274 -0.25123942 0.23260319 0.30713665 0.31233916 -0.60113937 -0.23816948 -0.021459622 -0.24824773 0.5511691 -0.28002995 0.33954713 -0.30291966 -0.59010386 0.16371821 0.2796699 0.72049564 -0.26031128 0.37695426 -0.27684838 0.81458056 0.6130552 -0.31277806 -0.5153231 -0.46243182 -0.5026524 -0.0011504015 -0.1595037 -0.18186949 0.7648941 0.16765252 -0.5837222 0.103528075 -0.12230926 0.26744926 0.014895972 0.60667974 0.06557351 0.23212102 0.7305395 -0.026745027 0.38578925 0.27435586 -0.20508593 0.17468154 -0.2705265 -0.5973653 -0.54365146 0.53637755 0.072971165 -0.038328603 -0.14495587 -0.39880353 0.5226296 0.07239153 -0.069474354 -0.26080397 -0.24673212 -0.022275401 -0.39708135 -0.18496102 0.008236425 0.1654227 0.5365559 -0.3087105 -0.15507503 0.54513294 -0.8161259 0.12334273 -0.33221304 -0.76445013 -0.5373113 -0.5705271 0.4994216 -0.5881101 0.07453609 -0.052436613 -0.24801493 0.14316848 -0.20030345 0.22692762 -0.6964944 0.15456645 0.13883816 -0.073956184 -0.3044557 0.06650594
333 0.3973701 -0.3069081 0.16264589 -0.11534328 -0.26314765 0.25510743 0.13455313 0.2748794 -0.088183686 0.13224678 -0.2927193 0.37290192 0.46558788 -0.35233712 -0.14926563 0.48635608 -0.19179374 0.045449372 -0.16609092 0.1411035 0.27177587 0.41055995 0.18546584 -0.076735936 -0.20308185 0.3686225 0.337079 -0.36477783 -0.6634009 -0.85020196 -0.6132941 0.01703936 -0.20801349 -0.19972908 1.0565865 -0.1582565 -0.14501315 0.319646 -0.14564575 -0.24646966 0.12139882 0.37287706 0.29940087 0.1336938 -0.18937404 0.19344924 -0.09561576 -0.39214164 0.25879908 -0.7423087 0.4844258 0.23497397 -0.36084878 0.009843317 -0.41240457 -0.04687645 0.0504512 -0.1357699 -0.3909843 -0.9387754 -0.8321334 -0.12732777 0.32465702 -0.096931644 0.23153234 0.07215522 0.31913218 0.3370099 0.82474416 -0.1270343 -0.14582583 -0.40700698 -0.2689253 0.4360772 0.08396254 -0.3896563 -0.09181015 0.20231633 -0.29239517 0.51908195 0.10672175 0.279525 -0.29180118 0.51626986 -0.09105562 0.67162114 0.48104933 -0.4027396 0.5313995 0.29836404 -0.52545667 0.30823198 -0.28852984 -0.22954637 0.40715474 0.23242971 -0.054431356 -0.3982428 -0.17049488 -0.61672056 -0.4732533 0.0770837 0.14486486 -0.20706494 0.3593039 0.67441887 0.21546689 0.09400185 -0.042274002 0.04437445 -0.03791222 -0.23276456 -0.7193173 0.16167364 -0.434746 0.025228774 0.2940308 -0.56591564 0.570776 0.35470733 0.49123392 0.24676566 -0.57274914 0.3876938 0.40568453 -0.0604374 -0.04136204 0.16475074
83 0.5491583 -0.098271 -0.1500375 0.14203012 0.2947319 -0.6217107 -0.053388514 0.2315653 -0.08162205 -0.023577232 0.27929765 -0.013644066 -0.1981334 0.2139551 0.016718546 0.06344106 -0.4342608 0.16575189 -0.7261852 0.72351855 -0.19561452 0.11288449 -0.5034585 -0.8225254 -0.1137137 -0.028112905 -0.7789979 -0.082066 0.08687241 -0.64626455 0.5287509 -0.2708893 0.25903913 0.803522 -0.267239 0.19618064 0.19372796 -0.2531501 0.33801922 0.16914453 0.14028661 0.4469589 -0.26727697 0.28759953 0.18869045 -0.100285776 -0.019540912 0.04884517 -0.47944087 -0.47291777 0.71742547 0.36656857 -0.34032464 0.089681655 -0.04518008 -0.28658512 -0.12641297 -0.07221849 -0.53321993 0.17945673 0.39276582 0.40199295 -0.5596278 0.41891947 0.40467167 -0.3901341 0.034547426 -0.3168712 -0.16242784 -0.025717456 0.24484815 -0.2231461 -0.7657415 -0.1842389 -0.44190118 0.087816104 -0.19815616 -0.44586128 -0.1553812 0.34143 -0.00021320127 0.17641835 0.2674607 -0.11033667 -0.36216828 0.16385502 -0.16559069 -0.06299398 0.028785633 0.29186326 -0.669715 -0.257405 0.1409401 -0.26082313 -0.41791812 -0.08407946 -0.088250846 0.41884655 -0.21623123 0.27609938 -0.8286961 -0.043762617 -0.19731757 -0.6480343 -0.056500487 -0.13848208 -0.16895409 0.5073828 0.34321022 0.2496908 0.117954426 -0.123925745 0.029393936 0.11629478 -0.21454254 0.08984956 -0.18946165 0.1270268 0.15322034 0.02881554 0.29464325 0.09102447 0.16282159 -0.124545425 -0.11815989 -0.2613521 -0.6397136 0.02918467
87 -0.12515002 -0.5843452 -0.46885723 0.26744518 -0.11234635 -0.4323379 0.29071447 -0.09811657 0.07523086 -0.21508467 -0.13464502 -0.40729517 -0.26553252 0.11221589 -0.33794174 0.6807668 0.0776862 0.10023629 -0.6220358 -0.13253082 0.19855323 -0.046425473 -0.20702165 -0.044465777 -0.0025981404 0.30048534 -0.28446034 -0.015239813 -0.50436187 -0.15005554 0.40085995 -0.112402976 -0.28000128 -0.21264865 -0.088700876 0.47064483 0.29577294 0.20071626 0.27558064 -0.43045452 -0.17071591 0.8730628 -0.16215456 -0.04442714 0.123998284 -0.16485547 -0.7966675 0.17204964 0.5086934 0.37687856 0.115553975 -0.16441928 -0.08417479 -0.031704232 -0.28712416 0.03050901 0.6504987 0.1299725 -0.03282713 0.096946046 0.48445952 0.11929792 -0.17964172 0.7714929 -0.13106288 -0.50748724 -0.028301459 -0.3595299 -0.15432172 -0.63036555 -0.0016458532 -0.61961865 -0.1496079 -0.0038871965 0.5707944 0.15852267 0.6322617 0.40162167 -0.39025092 -0.2579114 -0.697298 -0.30415815 -0.07402067 0.9862743 -0.032843735 -0.0945037 0.18420765 -0.011766092 0.42309126 0.16961876 0.5805614 0.30088142 0.05187718 0.107085206 0.69693977 -0.31057128 -0.15781894 -0.14555323 -0.4606429 -0.73277974 -0.004228317 -0.022946997 -0.26769453 0.08753265 0.5776698 0.44550368 0.028976716 0.5369745 0.24742192 -0.12715438 1.1366712 -0.05464747 -0.0075947447 -0.030965952 -0.15123792 0.31478214 0.27157813 0.1487505 -0.53707707 -0.5292695 0.21059877 -0.46843892 0.042074446 0.22674613 0.30793688 -0.33044124 -0.18838176 0.22576585
142 -0.014925794 0.114330165 -0.32528108 0.30961284 0.11244651 -0.3381986 0.26288602 -0.4412444 0.4374533 0.12255665 0.692335 -0.25107667 -0.34819216 -0.1531901 0.07653185 -0.3949168 0.13765308 -0.30984864 -0.9704636 0.1667341 -0.046161905 0.42702335 -0.51674885 -0.4792885 -0.5148436 0.11518771 -0.36753577 0.0041537257 0.2849757 0.10323192 0.2781039 -0.058148753 0.0047315652 0.19794716 0.24547043 -0.13851911 0.57749087 -0.23963842 -0.3742385 0.61436933 0.21947868 0.0947672 0.20486619 0.05003121 0.24155207 -0.037833378 -0.31513253 -0.30272332 0.53477246 -0.29027164 0.022020739 0.19073512 0.48445493 0.13262376 -0.09025742 -0.51971054 0.25323215 -0.4164662 0.40738553 -0.005627352 0.5905676 -0.12916698 0.12134605 -0.19064537 0.62761444 -0.12719801 0.34390292 0.6701929 -0.23436396 -0.27387193 0.03704369 0.11770912 -0.052755926 0.45062235 0.2343397 -0.6697255 -0.16725664 -0.33762217 -0.022552472 0.29141334 0.5432586 -0.43205035 0.1204157 0.2634309 -0.11003375 -0.059900947 -0.77049893 -0.72197616 0.39331725 0.3257381 -0.3106934 0.28020465 0.017240053 -0.15964212 -0.23759997 0.0033158043 -0.12826248 -0.5565613 0.02477053 -0.25115523 -0.444516 0.10532076 0.27444685 0.015929712 0.1666337 -0.0974926 0.123102166 0.12285021 -0.26873332 -4.403584e-06 -0.09803862 -0.051872272 0.36258942 -0.042823717 -0.6565604 0.09711861 -0.12381481 0.7477625 0.30106136 0.23507713 -0.15033562 -0.9068856 -0.809562 -0.40615696 -0.30342057 -0.19184235 -0.54358727 0.0251917
820 0.039081834 0.059005577 0.14930357 -0.054962743 -0.105056524 -0.012568266 0.43572855 -0.24647164 -0.06381589 0.465101 -0.3182145 0.29246318 0.40277606 -0.36365113 0.2891597 -0.0486968 -0.07629535 0.32703754 -0.06440608 0.30229902 -1.2478304 0.08838389 0.27721664 0.14256406 0.052498687 0.18418762 -0.36498016 0.05460378 -0.16451016 0.031534303 -0.3341957 0.2609283 -0.7592856 -0.5427295 0.49716976 0.19660385 0.2757034 0.8537175 0.7780711 0.27649504 0.79657054 0.4426827 -0.5993209 0.3884716 0.029541928 -0.36530706 -0.44421262 0.15511055 0.01610117 0.6942338 -0.22879182 0.10020366 0.44181925 -0.059489638 -0.43658447 0.25383338 -0.072929464 -0.5120482 -0.41760775 0.6005941 -0.22767903 -0.41400924 0.9302731 -0.15972555 0.68592125 0.2646624 0.1798174 -0.5184427 -0.11206515 -0.4892167 -0.03079702 -0.25018844 -0.10545676 -0.15546724 -0.7790449 -0.15048788 0.108313665 -0.37424397 -0.11304548 -0.15065281 0.08815048 -0.42402676 -0.47072265 0.23738264 -0.22843024 0.37974912 0.27196747 -0.047393687 -0.6921582 0.27239713 -0.2818683 -0.1233596 0.1466497 -0.11859527 0.20256966 0.46059337 0.1719429 -0.6735841 0.118895 0.52297705 -0.1570733 0.3145745 0.21095838 -0.19059257 0.018981963 0.055962894 -0.22567022 0.2155436 0.15377636 -0.3480067 0.22863387 -0.16379978 0.12927578 -0.40655395 0.04186769 0.21165195 -0.22670594 0.15373804 -0.18403998 -0.12018535 -0.12885307 -0.22395098 -0.17231667 -0.45184827 -0.0638634 -0.594969 0.018580837 0.55304265
282 -0.20146447 -0.09332373 0.855362 -0.0027787029 -0.25511017 0.49265212 -0.23800823 -0.25783247 -0.35032693 0.018311445 -0.036460843 0.07912246 0.20224367 -0.3523855 -0.48033935 0.3120184 0.11008259 0.77033806 -0.23587793 1.1230533 0.20942506 0.24212468 -0.2536236 -0.33304337 -0.6235354 0.40528023 -0.58274096 -0.19963935 0.28624853 0.12821077 0.8618784 -0.14211695 -0.550067 -0.030854465 -0.3582635 -0.109992824 -0.53594387 -0.30169353 -0.019451639 0.29221463 -0.10042141 0.521422 -0.28476092 -0.5661808 -0.19688298 0.1926898 0.14261422 -0.08662603 0.1817432 -0.11025547 0.47724804 -0.003164608 0.27536598 0.7563706 0.2668082 -0.50187844 0.58046216 0.30795193 0.0010193889 0.093859114 0.07840453 0.14249885 0.35156366 -0.07912584 -0.10421249 0.3193464 0.10262326 0.35759336 -0.47698882 -0.5553687 0.13132516 0.03939829 -0.81080556 0.044234443 -0.3828436 0.029421326 -0.27287173 -0.2915565 -0.08866163 -0.09887221 0.2530338 -0.15576185 0.30884978 -0.3481387 0.17744711 -0.0804037 -0.23467708 -0.26209563 0.818392 -0.31096613 -0.3874432 -0.51683414 0.3408943 -0.18966891 0.27529332 0.26425964 0.09844603 -0.44824383 -0.6586465 -0.40960473 0.26487476 -0.5112652 0.0650436 0.2722477 0.32033554 0.4859682 0.25097036 0.8724847 0.26059005 0.1043625 -0.061774097 -0.9749736 -0.2842654 0.44125518 0.5293641 -0.14600518 -0.271962 0.14946257 -0.043466263 -0.56644535 0.056896687 0.29536465 -0.310762 -0.19025119 0.16582963 0.11678122 -0.009915657 0.55276054
424 0.77926487 0.28942993 -0.6920592 0.5621572 -0.08670944 0.6203199 0.010683672 -0.53748524 -0.06725708 0.081273735 0.12919307 0.02447227 -0.44127998 -0.07643533 -0.24291793 0.48291346 -0.04622896 0.5668251 -1.0293128 0.6506358 0.09193919 0.18849629 0.3004184 -0.38319516 -0.0199861 0.5348125 0.3799161 -0.15189171 0.46941733 0.25370663 0.0586592 0.2953038 -0.19703466 0.118738435 -0.1632451 0.017140914 0.20739838 -0.0073925178 -0.10691258 0.049273323 -0.17316337 0.09629999 -0.32250986 0.03955201 0.11021165 -0.040429074 -0.37935504 -0.8624785 0.22752814 0.45587426 -0.31240836 0.11576196 0.249008 -0.22088441 -0.13194725 -0.19887233 0.48770395 0.4111315 0.40248838 -0.50501955 -0.30813158 0.38030627 0.55990404 0.43689767 0.10208197 -0.10269262 0.180896 0.31699058 -0.35550967 0.05515166 -0.08021024 -0.4201542 -0.27423114 -0.13229857 0.068112895 -0.3254316 -0.6742835 -0.47203493 -0.0021210145 0.09565059 -0.48826835 0.11598921 -0.30494523 0.14640948 0.08442686 0.2934364 -0.3794291 -0.12941056 -0.13469242 -0.23604117 -0.39858755 -0.688175 0.10369333 -0.12113852 0.30706206 -0.30141675 -0.7288815 0.24355853 -0.3634198 -0.118365206 -0.17850599 0.45253703 -0.019262778 -0.37546444 -0.36487418 0.05548636 0.32435343 0.30639896 -0.27078736 -0.031714804 0.17932813 0.20943588 -0.116927914 -0.1991711 -0.38932908 -0.2659536 0.3051475 0.26539811 -0.4483986 -0.099804096 -0.057614904 -0.033433974 -0.5959025 -0.0107905725 -0.12393074 -0.12646596 0.3617419 0.13565834
96 0.32328415 0.4926288 0.066267155 0.02639603 0.15377085 0.07297438 -0.23429868 -0.58883804 0.3850889 -0.52206844 0.3573157 0.08062458 -0.02816744 0.2517792 -0.42581707 0.28088248 -0.19881563 0.29605106 0.21724637 0.65690875 0.13487963 0.42692748 0.051280923 0.04131914 -0.19955789 -0.058774114 0.08255214 -0.02041615 -0.7229593 -0.33901268 -0.5638155 -0.32225618 -0.30287266 -0.2995067 0.3909883 0.009430347 0.67742777 0.3452951 0.09215019 0.57123727 0.30186942 0.18167277 -0.7589514 -0.038966388 0.496949 -0.0560802 0.23450378 -0.08798982 0.24333197 0.21469925 0.27461272 -0.043918103 0.031317588 0.47561613 -0.07867123 -0.8248375 0.9675818 -0.26434132 -0.16424645 -0.38845572 0.29910624 0.41831237 -0.090531684 -0.9201005 0.25681168 0.15833135 0.15152587 0.3430207 -0.2975955 -0.14685461 0.37723288 -0.1339383 0.0826247 -0.15277845 -0.5521656 0.14998783 0.11757405 0.11117434 -0.04878825 0.12718461 0.047130667 0.49946323 -0.36056796 0.17386349 0.023319924 0.18637127 0.6771562 -0.2588391 -0.1525544 0.04234885 0.25135845 -0.28371206 0.5010695 -0.2423302 0.5101957 0.332642 -0.10412074 0.3742381 -0.24644023 -0.31905666 -0.3526026 0.08916191 -0.13986441 -0.34937406 0.5815538 -0.22886603 0.6127148 0.28884664 0.00093043677 -0.5989929 -0.31160063 -0.20472948 -0.48627448 0.040195268 -0.13070133 0.15425342 0.25905192 0.60889745 0.5909594 0.8418318 0.3028501 0.18732211 -0.14090125 0.240992 -0.4443668 -0.26765928 0.16626363 -0.6039511
411 -0.59954816 -0.3320589 0.094860524 0.28548038 0.25546604 -0.00791422 -0.3925508 -0.3232696 0.3696813 -0.05881625 0.07394623 0.05911244 -0.050477087 0.1818422 0.46910194 0.060209733 -0.32496178 0.22457737 -0.37189093 0.08879653 -0.37480113 0.5168718 -0.5662699 -0.48643535 0.10925534 -0.31058827 -1.0093058 0.052719172 -0.3072754 0.29616642 0.067684695 0.044062644 -0.6242817 0.3668772 0.2722188 -0.31360552 0.09201292 0.008445575 -0.8300059 0.3026395 0.3272673 0.45953885 -0.0946316 0.30352035 -0.48552966 -0.14002559 -0.64049226 -0.42436936 0.26006484 0.34289327 0.84170455 0.098424256 -0.21648383 -0.3440448 0.006350704 -0.5204673 -0.13986173 -0.56010556 -0.43087488 -0.46949655 0.32985562 0.19678411 0.04660423 0.48387957 0.19356303 0.54784983 -0.11132514 -0.5405365 0.13835259 -0.317727 -0.013153107 0.32095647 0.114557974 -0.36107567 -0.53844625 0.035488296 0.4538192 -0.094545156 -0.6026885 -0.036454894 -0.4324056 -0.29600617 0.12791492 -0.4338235 -0.18952139 0.20200974 0.07864071 -0.4176786 -0.43975395 -0.20007074 -0.9999113 0.14718066 0.70667624 0.38098353 1.0692067 0.42378095 -0.3706885 0.4729821 0.14104962 -0.60489935 -0.3616052 -0.3838908 -0.14744315 0.1240208 0.53259397 1.0241654 -0.09539881 -0.5406306 0.11847767 -0.21749261 0.14578769 -0.054794822 -0.9889699 0.25827616 -0.3211654 0.415423 0.10307754 -0.08678082 0.07918067 0.86729604 0.022518843 0.27202612 0.22138989 -0.12002429 0.22752567 -0.56283367 0.39367318 -0.4192686
115 -0.5851058 -0.4992604 -0.12527134 -0.58055717 0.37782264 0.07698582 0.15792398 0.10765223 0.41559312 0.56714106 -0.037676007 0.16152322 -0.17435229 0.35879406 0.04562945 -0.084563375 -0.62195516 0.1629247 -1.1636407 0.23500158 0.53476006 -0.082594864 -0.529443 0.34268612 -0.54680634 0.40937036 0.05679169 0.2770931 0.20876473 -0.30037144 -0.6811498 -0.07705212 -0.41602024 -0.6635135 -0.29166296 0.2108392 0.18151933 0.22850692 -0.07167348 -0.20001353 -0.0017455908 0.028338274 0.42555878 -0.4183328 -0.045988988 -0.10868203 0.06031916 -0.6664099 -0.039063387 0.16009355 0.29001695 0.060428724 0.5480205 0.06623125 0.28524908 -0.112639286 0.7057582 -0.5415089 -0.53104436 -0.01532943 -0.33370277 0.07469785 -0.2872678 -0.30790597 0.39293772 -0.33893508 0.30983028 0.6569803 -0.06567382 -0.40405223 -0.79324555 -0.18804117 -0.31705832 -0.49977544 -0.29260305 0.35008395 -0.6794396 -0.15259361 -0.37783724 0.43792906 0.00881372 0.14499575 0.0029788401 -0.15526365 0.48870066 -0.16895181 0.011473157 -0.1913633 -0.26447558 0.08091557 -0.36974028 -0.18432473 -0.26392543 0.28156036 -0.101525925 0.30137476 -0.045120966 -0.059921354 0.16088818 -0.33900687 0.05703593 -0.4995375 -0.25608668 -0.36901784 0.5022476 -0.19726808 0.14605317 0.18705435 0.1720499 -0.62965876 1.1328897 0.51383984 -0.5853057 0.37110847 0.7878899 0.008799965 0.33155423 0.34399235 0.567722 -0.2353212 0.18107617 0.3305021 -0.54681134 -0.51176596 0.16901396 -0.34945846 -0.5982736 0.21472277
405 0.43072477 -0.031302437 -0.3023474 0.003166962 -0.21424271 -0.44376144 0.05103576 -0.30575594 -0.021889457 0.43319756 0.16886167 -0.21688388 -0.26229924 -0.18962795 0.6126602 0.68385255 -0.59727454 0.29697788 -0.2757329 0.2655147 -0.23108305 0.15013044 -0.2710118 -0.83984935 -0.39731118 0.15149102 -0.034815263 0.106440894 -0.12183492 -0.109936275 0.35217327 -0.31514594 -0.22246824 -0.68784124 -0.80662316 0.18160549 -0.042818766 -0.11441987 0.49056348 -0.444023 -0.5889163 0.4115435 0.08528559 0.21297166 0.29702786 -0.23465404 -0.24638304 -0.9426733 1.0849538 0.21389832 0.4436684 0.42358947 0.3933648 0.35560587 0.47181877 -0.33648026 0.03651476 0.00041762367 -0.2960875 -0.29531732 -0.096157566 -0.19562033 0.43193433 -0.2683535 -0.34226075 -0.28567657 -0.0068131024 0.0331611 0.07040046 0.11005489 0.30619857 -0.12575665 -0.26146084 -0.2590944 0.60799116 -0.3055969 -0.36875132 -0.6559308 0.14380933 0.367951 0.048305195 -0.14680046 0.19042835 0.15826438 -0.4195645 0.19748819 0.43983424 -0.4638603 -0.03022264 0.78103113 -0.4096983 0.45221215 0.49678355 -0.1715204 0.025913814 0.57993996 0.14516358 0.22660933 -0.083942674 -0.61046946 0.034596242 0.32514703 -0.23725557 0.27263963 -0.10493303 0.25677904 0.0991771 0.3106524 -0.0022741007 0.06852245 -0.23470616 0.075197615 -0.8213674 -0.56041384 -0.7475476 0.41924563 -0.016601047 0.3465096 0.2730798 0.11315733 0.1562238 -0.059140764 -0.3338298 0.3276496 0.15921895 -0.8229711 0.033408046 -0.34265104
256 -0.03800373 -0.22698967 -0.15429641 -0.2384423 0.19609602 0.10250687 0.14396572 0.6481615 0.043638393 0.34514475 0.067648925 0.7022163 0.46019724 -0.0656488 0.1606008 0.19682658 -0.04400461 -0.50391114 -0.35051036 0.2971508 -0.027671179 0.3933734 0.1100763 -0.7581287 0.009501703 0.45314074 -0.5923229 0.2807025 0.24463198 0.43332714 -0.19860184 0.4695578 -0.30001393 -0.119656645 -0.45651522 0.51727176 0.93498045 -0.42689094 -0.7255595 0.047730677 -0.28212616 0.20494317 0.15004565 0.024066363 0.57502455 0.58704746 -0.25271165 -0.45479155 0.25395966 0.53277636 0.32960102 0.047692582 -0.14063899 -0.08429938 0.4792481 0.011206036 -0.1424272 0.16861443 -0.13882443 -0.16430071 -0.4655414 0.37623912 0.0024504228 -0.56360435 0.66451657 -0.2356166 0.26921877 -0.062654 0.22048178 -0.121444434 -0.23769893 -0.004499661 0.04017223 0.074367486 0.27945358 -0.26909447 0.044775072 0.12834524 -0.95574933 -0.35458612 0.29893583 -0.32697496 -0.19841228 0.7015838 0.2374146 0.5653837 -0.2874988 0.10132046 0.24159327 0.44935784 -0.8737461 -0.53816164 0.13522123 -0.20484462 0.5546838 0.36935842 -0.24985339 0.4211573 -0.08879102 -0.4211343 0.1336782 -0.25931272 0.47191072 0.608163 0.42642888 0.0595167 0.5187452 0.34517437 0.2595494 -0.26627234 0.18929325 -1.0609568 -0.32307503 -0.24090283 0.31583276 0.1736209 -0.43147582 0.11431255 -0.047807243 0.41290754 -0.22891705 -0.057705116 0.17741698 -0.42969802 0.19110665 -0.15285389 0.05786315 -0.1283243
63 -0.959094 0.28952116 0.6242359 0.043784626 -0.4874448 -0.0066157086 -0.11599897 -0.075674504 0.06391512 0.38083446 0.46024525 -0.1069914 0.18974748 -0.74129087 0.17745122 0.27286717 -0.4004611 -0.21295592 -0.51806855 0.7505189 -0.5038899 0.3531258 -0.73532784 -0.3157543 -0.34112138 0.036316648 -0.5957949 -0.32501793 -0.073548354 0.06122489 -0.6937892 0.4380908 0.12972666 0.23853232 -0.41970393 -0.08407943 0.24668582 -0.19403741 -0.4013078 -0.014323248 0.25913966 -0.19110706 -0.38743934 0.47897646 -0.18752836 -0.25997275 -0.016429055 -0.20094131 0.07320585 -0.5112843 -0.15497847 0.018988874 -0.1635854 -0.048994754 -0.1220824 -0.29679376 -0.29389068 0.5673544 -0.0913708 0.38175195 -0.071335025 0.5740667 0.02370826 -0.15684232 -0.4291076 -0.15876694 0.15348548 -0.29190838 0.11785202 -0.12653302 -0.5106526 -0.8274126 -0.06058125 -0.28696713 -0.08394027 -0.58432025 0.15523845 0.42998222 -0.82587045 -0.41706005 0.18277048 0.39699036 0.0070191845 0.4132749 -0.29536733 -0.12984882 0.08038283 -0.4709172 0.17048389 0.61597025 0.09101275 -0.2383424 -0.0655967 0.039564088 -0.37933058 -0.33066094 0.072302334 0.8447621 0.28900594 -0.09937841 -0.5940678 -0.42585868 -0.13001475 0.10292034 0.39611274 0.80324674 0.6574937 0.36520323 0.88138175 -0.15945815 -0.11062072 -0.19699076 0.25169772 0.2441521 0.85984457 0.40888223 0.31596866 0.03900042 -0.39637998 0.6314284 0.12439113 -0.21468036 -0.47766754 0.14200827 -0.18982947 -0.5548544 0.44721794 0.073014066
6 -0.49132755 -0.073254645 0.103508085 0.05154102 -0.18952282 0.0966773 -0.59296477 0.14794075 0.23155776 -0.18266277 -0.31962588 -0.056710403 -0.123264536 -0.39693922 -0.044277463 -0.31610203 -0.64475745 -0.1188298 -1.0102695 0.7799874 -0.7927879 -0.00034336606 0.04887755 -1.1774613 -0.12219694 -0.33061358 0.12811008 -0.8935713 -0.18323198 -0.09857959 -1.0435007 -0.37652743 0.2599997 0.43805122 0.15058325 -0.4294024 0.5442247 0.37217662 -0.35452887 -0.23301451 0.08566981 0.48217925 0.090957604 0.30722007 -0.19945917 -0.42883086 -0.33227834 -0.57571775 0.566885 -0.08859877 0.29082012 -0.09877452 -0.14887048 -0.088107705 0.40125605 -0.11921502 1.1575618 0.37029502 -0.4630868 -0.115431644 0.08807413 0.58204114 0.2501577 -0.20855163 -0.029759469 0.4965632 -0.42897186 -0.24535233 -0.24699436 -0.18866111 0.6263257 0.13756539 0.06470078 0.19909501 0.30287337 0.020811995 -0.38304317 0.10236811 -0.14075103 -0.19169119 -0.3224396 -0.19580302 -0.46258602 0.25469154 -0.0720555 -0.9541769 0.14215578 -0.08824062 -0.34958377 -0.34543863 0.18520686 -0.34916288 -0.016360067 0.20715456 -0.19835462 0.33724084 -0.2023583 -0.4283846 0.08266887 -0.20049706 -1.0895094 0.10257056 -0.05847918 -0.12065383 -0.594318 0.18167011 0.23211405 0.0011346336 0.31172496 -0.39016494 -0.15511744 -0.47700626 -0.29762632 0.35781473 0.37966245 0.05005172 -0.16393 0.19425103 -0.3077417 -0.021137126 0.18011214 -0.26739764 -0.26974866 0.3629938 0.051152844 0.36892244 -0.53438556 0.7858119
252 -0.020842377 0.15039118 -0.13010623 -0.2277976 0.45803484 -0.40903986 0.114706665 -0.19331211 0.06603198 -0.03718218 0.926572 -0.6112674 0.28244546 -0.15851633 0.48075998 0.34057117 -0.74964416 0.4192555 -0.7723905 0.5952663 0.20386608 0.17939486 -0.17173257 -0.5216366 -0.1885403 -0.47073534 -0.059397735 -0.39235678 -0.28669417 0.023096232 -0.00655138 0.44176826 0.03041675 -0.1546949 -0.18591999 0.4203887 0.025800124 0.842064 -0.10776559 0.11166228 0.4290764 0.44439453 0.2108321 0.09349372 -0.42333487 0.2313133 -0.063597165 0.26167834 -0.05275851 -0.23133492 -0.24971502 0.097891316 -0.37204003 0.49059922 0.32789978 -0.33731487 0.2196654 -0.15247837 -0.19546752 -0.026059233 -0.26018873 0.4110877 0.37866095 -0.3192309 0.34103158 0.63752437 0.1573345 -0.18403746 0.031449333 0.4194736 0.49344182 -0.64220655 -0.34377572 0.017872484 -0.062255595 -0.61964023 -0.2826881 0.27290037 -0.19126396 -0.11142289 0.08188248 0.1893933 -0.32439378 0.82291746 0.03560973 -0.21943787 0.14738786 0.17514448 0.6300808 0.32027107 -0.26917636 0.04294717 0.3118495 0.49326596 -0.39809486 -0.13879266 -0.118942454 0.2812137 0.6014436 -0.27658084 -0.58055365 -0.077993624 -1.0147951 0.09452545 0.03608379 0.16060068 -0.043288294 0.36330554 0.47253853 -0.783341 0.31832987 0.6388869 0.29633993 0.26608098 0.33790016 0.009607331 0.19674332 -0.059992895 -0.5738334 -0.3736045 -0.05792737 0.20165294 0.1613267 0.3035743 -0.33397043 -0.474289 0.097592264 -0.27354094
58 0.117636055 -0.3964279 -0.29683146 0.50576067 0.04818023 0.75962025 -0.1224905 -0.30929163 0.06434882 0.12074841 0.06425946 0.07012597 0.4192208 -0.04017227 -0.0575374 0.75504845 -0.4819973 0.8316911 -0.3322433 0.120007105 0.08237553 0.30215874 0.2120099 -0.41786587 0.2723731 -0.7597106 -0.51351744 -0.35267237 0.03189744 -0.49227417 -0.248048 0.34533042 -0.48106873 -0.069246195 0.030615387 0.20871016 -0.095338665 0.32219526 -0.1425411 0.059928574 0.31206596 -0.24406357 -0.42187467 -0.6208905 0.69341034 0.24751079 -0.35790542 -0.11533938 0.6595395 0.04271228 -0.8275894 0.0072409306 -0.13300024 -0.027814668 -0.13649815 -0.35676035 0.32487682 0.29360786 -0.2860487 0.45070827 0.1551819 0.3774612 0.29679075 0.30615917 0.1054432 0.09556221 -0.027982837 0.038410302 -0.062596954 0.23658243 -0.3902783 0.3002007 0.053532165 0.1682313 0.30015808 -0.055309143 0.6801204 0.323191 -0.2869484 0.19644062 -0.6573545 0.059525803 -0.2773071 0.79905176 0.4795649 0.1713464 0.14843051 -0.60459703 0.5450574 0.8412302 -0.15149191 0.48567125 0.027568152 -0.43497077 0.17784032 -0.21506281 0.15351233 -0.3720605 0.5398519 -0.3346027 -0.37168348 -0.32410222 -0.25143975 -0.49093363 -0.2351635 0.30304098 0.035548575 0.08417988 0.5878819 -0.77298754 -0.012431377 0.29575482 -0.12893774 0.09845689 0.24034224 0.29320556 0.0396039 -0.10467181 0.08205791 -0.12259619 0.2872211 0.32470745 -0.5096866 0.044574376 -0.21773775 -0.18119891 -0.097453594 1.0484502
971 0.6848756 -0.09578471 0.38276002 0.2941502 0.6656132 -0.56072414 -0.33149132 -0.36511827 0.2569179 -0.13341826 -0.52060527 0.59536225 -0.67831606 0.16585957 0.564129 0.25801247 -0.18366592 0.16099991 -0.13920714 0.33956775 0.8669041 0.2810012 -0.054137573 0.15804699 -1.1960982 0.0721142 0.15976517 -0.16423753 -0.7234495 -0.026615273 0.017113354 0.19828622 -0.34536073 -0.30081418 -0.10718604 -0.70811325 -0.32130778 0.5147113 -0.28180587 0.58311254 0.11028235 0.63739526 0.1996013 0.36707875 -0.07915021 0.38986918 0.38446987 0.58096546 0.06583838 0.97432727 0.21825145 -0.39403725 0.7592713 -0.08991107 0.09891734 0.058384467 0.84598094 0.31758633 -0.035541985 -0.36304834 -0.24404481 0.504754 0.37717825 -0.95395166 0.16271389 -0.629237 -0.30443913 -0.1099645 -0.15923746 0.30562252 0.118371844 -0.24564837 -0.56526464 -0.07567891 -0.15424544 0.539976 0.5808749 -0.3300447 -0.58069324 0.075685754 0.03989961 -0.67927665 -0.2942302 0.37377244 -0.27908438 0.23894069 0.28018105 0.056460224 -0.3370812 -0.031009352 -0.13929251 0.58752984 0.10477676 0.6671622 0.08982621 -0.09896554 -0.11314195 -0.13175693 -0.09061706 -0.69684577 -0.07607677 0.6734019 0.28799284 0.104004554 0.5785683 0.5676357 -0.0899237 0.9891474 -0.25606462 -0.43994328 -0.47501782 0.43794745 0.04733311 0.025067868 -0.51532525 -0.079811566 -0.040441692 0.62270355 -0.3021986 -0.14450851 -0.18154454 -0.44841152 0.09562175 -0.34650484 0.27517483 0.09989443 0.34627056 -0.23766237
280 -0.05482998 -0.3197067 0.7699152 0.16702446 0.5512391 0.0019958485 0.10461631 0.62432235 0.30393088 0.25437266 0.06584603 0.32388932 0.03885372 -0.4331051 0.4179495 0.12294708 0.4711246 0.1898806 0.07496715 0.3708036 0.046823334 0.24154656 -0.48282257 -0.17294827 -0.49687985 0.38090593 0.40212595 -0.41930175 0.24371 0.33800814 -0.28405598 0.2074189 -0.72905236 -0.013252076 -0.20407295 0.099288814 -0.32070822 0.111054055 -0.29874057 0.3742647 -0.373661 -0.05487481 -0.3892217 -0.19835311 0.3600232 -0.16533826 0.0847083 -0.009603634 0.011704199 -0.18398494 0.65660924 -0.20437908 -0.35511878 0.5397377 -0.5308331 0.11158383 0.07770649 0.01658511 -0.21599346 0.24586022 -0.41260263 0.18398245 0.26622716 0.035119347 0.5680073 0.10951272 -0.102848254 -0.3919543 -0.6998312 -0.49930978 0.018577546 -0.3708376 -0.7925136 0.17796446 0.06274867 -0.06917207 0.53289735 0.033304993 0.36179414 0.06379441 0.24119344 0.07309931 0.0940532 -0.08629425 0.14131483 0.28277496 -0.24579534 -0.56465995 -0.071671985 0.08271349 0.025569886 -0.5425255 0.36336175 -0.32081148 0.05116939 0.30429262 -0.030866332 -0.57946116 0.16033958 -0.052219875 -0.19939433 0.39811486 -0.36473778 -0.4178674 -0.081866354 -0.035906892 -0.10232099 0.17257988 0.55472016 0.3411136 0.20824166 0.11545821 -0.27548125 0.19530593 -0.16628507 -0.39992845 -0.0862152 -0.33578038 -0.0025015376 0.03414115 -0.3713525 -0.47437665 0.15233041 0.5543865 -0.108162895 0.16315338 0.046472628 0.21591362
212 0.61777264 0.11694728 -0.31358263 -0.07140851 -0.123231016 -0.08081275 0.034195915 0.28960764 -0.0028415485 -0.093180984 -0.4900295 -0.32500607 -0.2529659 0.0965347 0.21579672 0.45249474 -0.75516003 0.29706192 -0.675406 0.33439845 -0.1263974 -0.023354521 -0.04948474 -0.78985614 -0.10239105 -0.10505672 -0.03922113 -0.13713086 0.23397674 -0.23950884 0.35158753 0.4611914 -0.34998795 0.11552897 0.5315787 0.17366377 0.12389499 -0.7750899 -0.14526244 0.2674565 -0.022291351 0.48824665 0.07745568 -0.09014595 0.36967814 -0.38469952 -0.1968547 -0.50601834 0.10270646 0.1908735 0.23000021 0.3880124 0.19677168 -0.04076145 -0.1363114 -0.21672046 0.6157416 0.23720866 -0.69744354 0.20753045 -0.58453757 -0.2805701 0.4836048 0.59611744 -0.08870597 -0.517128 0.37946802 0.05820615 -0.55268365 -0.13309744 -0.13134924 -0.3816332 -0.93290627 0.08913798 -0.029872578 -0.48612383 0.6225417 -0.23429479 -0.52148724 0.78498983 -0.042867575 -0.24603227 -0.23422466 -0.32038152 0.8287814 -0.19065315 0.4966378 0.1416418 -0.03391687 0.14068408 -0.09351075 0.040338818 0.1754912 -0.13468312 0.19124204 0.5216916 -0.4009972 -0.3605411 0.18787909 -0.033939242 0.008368822 0.213179 0.040171348 0.24724826 0.0039204736 -0.029679533 0.2502016 -0.21878234 0.68482286 -0.44724795 -0.09042725 -0.080117136 0.25817803 -0.24882108 0.040121827 0.32846054 0.5633662 -0.2894429 0.25121334 0.50750977 0.01420177 -0.14537263 -0.26511332 0.865534 0.39110446 -0.2842072 -0.27683744 -0.22807525
165 0.09742727 0.4121694 0.41753688 0.2649991 0.05124657 -0.047221255 0.295879 0.0075883046 -0.18133864 0.59174883 0.09679373 0.5683311 -0.20969635 -0.99804926 1.04779 0.19670822 -0.19424453 0.030305475 -0.5196475 0.041977815 -0.18223876 -0.6979546 -0.6816445 0.6196036 -0.34569097 0.21085393 0.43961585 0.33835238 -0.14470261 -0.37144977 0.1511582 0.19633111 0.30185032 -0.06613417 0.3997468 0.5480056 1.1293579 0.42560467 -0.03116678 -0.43484265 0.5752652 -0.6358343 0.17718269 0.6959742 0.20117304 0.663857 0.16807504 -0.6000373 0.07264948 0.096760534 0.5010472 0.40809467 -0.5027338 0.51892024 0.41710502 -0.52388597 0.84728277 0.12888071 -0.018472603 -0.16104235 -0.1058482 0.07385513 0.30870572 -0.404985 0.683149 -0.020353625 0.14577022 0.21555364 -0.3567458 -0.5948696 0.07014005 0.04211485 -0.24774453 -0.8693238 -0.7887178 -0.14225084 0.74434143 -0.2271329 -0.42877483 0.58916473 -0.74117684 0.20201072 0.12601802 -0.07669588 0.24723864 0.15150373 -0.06706333 -0.26541743 0.114551485 0.482754 -0.064219326 0.15256275 0.24778603 -0.056238603 0.63453025 -0.22996418 -0.008685916 0.59866303 -0.093831085 -0.25337675 -0.4108236 0.782159 -0.0944155 -0.6247839 0.026129182 0.25536492 0.05853261 0.19901422 0.17163648 0.030191945 0.19433911 0.52020514 -0.22164886 0.4315467 0.123691574 0.83011407 -0.4626235 0.23696142 -0.04940306 -0.23339601 0.031084998 0.016316043 -0.016116288 -0.014143814 0.06904158 0.13216877 -0.004129049 -0.031171415
494 0.74996495 -0.3473173 0.14863506 0.047198374 0.36979145 -0.07538166 -0.02684804 -0.28465378 0.47449243 0.146986 -0.2481476 -0.59844595 -0.48889324 -1.6611229 -0.029280331 0.21218878 0.03761889 0.56371754 -1.2882833 0.5176812 0.03760149 0.3047907 1.0298207 -0.15715368 0.0071234726 -0.25509587 -0.86201054 -0.38179785 0.20578814 0.79357237 -0.14740793 0.5436305 0.3158281 -0.044802237 -0.11061849 0.3435909 -0.02751118 -0.11684049 0.62612 0.110421844 0.6768213 0.078885265 0.33079264 -0.17788328 0.028379245 -0.3586845 0.18738896 0.91031396 -0.5800092 0.0610513 0.57915384 0.014276387 0.5841142 0.33851823 0.5586772 -0.3675697 0.32746246 -0.20614219 -0.13059777 -0.76351064 0.93272835 -0.44433933 0.22219644 0.17060952 0.74070346 0.37194276 0.2586427 0.01689025 0.23087549 -0.2799357 0.15609577 -0.22504315 -0.45987293 -0.25940698 0.15154502 -0.028496005 0.5561162 0.26039246 -0.68251497 0.09818736 -0.19333535 -0.14855956 -0.50214463 -0.2646127 0.014996841 0.27569005 -0.106856376 0.48514003 0.46875092 -0.0024614178 -0.14158982 -0.02655526 -0.17650855 -0.2749698 -0.002241651 0.26070312 -0.16151044 -0.93376464 0.008700948 0.020103196 0.2421467 -0.118317544 -0.017211378 -0.4288288 -0.46018815 0.12357235 -0.0783467 -0.20388477 -0.23569663 0.008350314 -0.84669656 -0.121230155 0.20004807 0.8529989 -0.53728527 -0.220234 0.40604717 0.39456376 -0.32008982 0.11487615 0.13960783 -0.07473418 -0.21065591 0.011304079 0.3989255 0.0727343 -0.38154352 -0.27615976
65 -0.48891902 -0.44199577 -0.22726426 -0.039133213 0.9238395 0.49277318 -0.16901086 -0.59441245 0.018528445 -0.024052288 -0.72967786 -0.17646278 -0.5349089 -0.050359502 0.049978644 -0.41931286 0.21661049 0.021551758 0.028839357 0.17509246 0.433727 0.3759298 -0.092643596 0.43738005 -0.06750627 0.026702719 -0.23360096 -0.53397155 0.45706692 0.2129235 -0.8784829 -0.3919305 -0.33492374 0.34182772 0.09032363 0.2156971 -0.37734604 -0.48230952 0.40648553 0.11348195 0.071589686 0.3079041 -0.20837751 0.34650016 -0.7863637 0.050364267 -0.7026425 -0.12892477 -0.5500745 -0.00046498526 0.78112024 -0.48633966 -0.003547763 0.045804854 0.71181095 0.31518525 0.23459397 0.08114773 0.79556406 -0.36997178 0.14489284 0.011288912 0.7998718 0.053590868 0.23161262 0.20197086 -0.18002923 -0.5873643 0.089745246 0.34503064 0.2454472 -0.45795345 -1.0200745 -0.4095966 -0.22955336 -0.0064774067 0.3025229 -0.27567792 -0.05626803 -0.10530631 -0.28771582 -0.24623147 -0.46315292 0.24526209 0.5328994 0.14499764 0.38985458 0.10345049 0.17064781 0.4378942 -0.42033702 -0.69657475 -0.00058962987 0.19476835 -0.05399146 -0.37579092 0.6856038 -0.11564141 0.15045275 0.09335811 -0.12181728 0.46909034 -0.08161658 0.011769044 -0.48713034 0.3522475 -0.221467 0.6962729 -0.0823281 -0.53283024 -0.6161909 -0.5400096 -0.35793927 -0.21432354 0.34906477 0.32886177 -0.007321587 0.61251116 0.2684343 -0.6200396 -0.17025283 -0.47503603 -0.4436274 0.83072096 -0.2997462 -0.34067282 -0.010954622 0.36414194
44 0.4200365 -0.28281355 0.3345819 0.07017129 0.18598855 -0.43722573 0.13199 0.53583205 0.23498192 0.1938242 0.05821252 -0.83963776 0.1633506 0.7721984 0.2782601 0.16574056 0.667165 0.11862925 -0.357927 0.5359351 0.021535894 0.40948728 -0.16731505 -0.90341204 -0.42022884 0.5291493 -0.045051385 0.7127379 -0.15113986 0.48512527 -0.42597952 0.029487994 -0.24162966 -0.4688307 -0.4338631 0.30912042 -0.07093082 -0.28695083 -0.0043589505 0.02059204 -0.04501464 0.032610346 -0.19340639 0.0025724522 -0.028514529 -0.22769871 0.27675897 0.19519192 -0.23238471 0.05408557 0.2848253 -0.006881488 -0.03806662 0.2233839 0.49454147 -0.10163678 0.77953684 0.26087758 0.09035712 0.63166374 -0.09518342 -0.289421 0.22762549 -0.048854247 -0.4035039 0.29160243 0.1930151 -0.12138527 -0.17139012 0.14377686 0.08442574 0.11300084 0.09687918 -0.23514275 -0.4524602 -0.3220377 0.3391425 0.2780358 -0.40128887 -0.58209497 -0.9349412 -0.7445826 -0.39588812 0.1391163 0.318331 0.51885986 -0.41543958 -0.5286622 0.14569892 0.9632825 -0.6378304 0.23003455 -0.68401504 0.16189146 0.61010677 0.5683914 0.17885938 -0.655903 0.060007684 -0.33560455 -0.8130194 -0.023051245 -0.19050539 0.33572996 0.57387745 -0.20586845 0.34346464 0.35895708 0.19553228 0.20007473 -0.3705938 -1.1408571 0.21854508 -0.040587977 0.5567182 0.07094154 0.5831304 -0.29008028 -0.3303786 -0.6001893 -0.36348075 -0.2952053 -0.2166894 0.042044718 -0.0677414 -0.1356573 -0.2633112 0.17497665
81 -0.046156064 -0.10009569 0.11908816 0.34879714 -0.25852567 0.2591721 -0.05342914 0.06688245 -0.3034363 0.06490899 -0.5655972 -0.28960973 -0.37585887 -0.22615369 -0.47096103 0.43337864 -0.73966116 0.1910421 0.31107268 -0.099640705 -0.5212572 0.45484972 -0.9223618 -0.69988614 -0.45612055 -0.17727852 0.17189614 0.17543617 -0.3568195 -0.100617014 -1.1083623 0.82976687 -0.35091028 -0.10169962 -0.12823789 -0.51569206 -0.20460111 -0.025794707 0.37365115 -0.03573524 0.1117711 0.45517012 -0.44101393 -0.05685417 0.045258164 -0.64701825 -0.6906487 0.402401 0.037879366 0.77014744 0.3608924 0.15439479 -0.16617481 0.35192046 0.75111604 0.4060139 0.36547998 0.7448878 0.36188647 0.26360747 0.40922803 0.061315686 0.021554774 -0.66686916 0.22490631 0.1474091 -0.09401915 0.45346865 -0.006680057 -0.6733116 0.05347693 -0.21696946 -0.18436338 -0.33735248 0.117598526 -0.83616036 0.03670519 -0.22195928 -0.5713269 0.13579498 -0.30475757 -0.22575642 0.023737403 -0.11614268 -0.09741746 0.073057875 -0.22101562 0.43418622 0.24576785 0.25289986 -0.37076822 -0.063014545 -0.56734127 0.10141444 0.1975156 0.25665814 -0.14306079 -0.33439502 0.21331224 -0.3188024 -0.30422032 0.38029933 0.21620367 -0.15995117 0.031006299 0.254131 0.5812879 0.41296223 -1.149485 -0.19010194 0.29053643 0.28899765 -0.85796744 0.058835536 0.20232488 -0.25568387 -0.24336329 -0.2121502 0.008158069 0.35522026 -0.23948932 0.13059224 -0.1899317 0.23310316 -0.6859566 -0.5090802 -0.9868817 0.040527992
340 0.30903494 -0.12939633 0.16587515 -0.15239699 -0.80643433 -0.289814 0.04696639 -0.22931577 0.14170381 -0.10571011 -0.46490347 0.04167568 -1.3105422 -0.038660817 0.04894588 0.589291 -0.867039 -0.09335216 -0.5388974 0.14704752 -0.0077400715 0.14522915 -0.17087065 0.21551323 -0.5165785 -0.2577501 0.055199165 -0.023035152 0.3787002 -0.011866829 0.28387323 0.45656323 -0.5865644 0.6204832 0.0010365364 0.7474795 0.6728698 -0.09155735 -0.5073074 -0.123198055 0.60236603 0.18020041 -0.47215042 -0.07503334 0.014291973 -0.059819657 0.2595164 0.42650607 0.1621032 0.050706506 0.6063081 0.31872806 0.028495232 -0.44668978 0.39686406 0.23846541 0.041317366 0.057818092 0.3681127 0.13658161 -0.06317037 0.01032081 0.053077832 0.08491442 0.023677176 -0.15694048 1.0216248 0.3340674 0.2974107 -0.13380474 -0.15328352 -0.9522101 -0.36614183 -0.03213354 0.32526073 0.16269222 -0.0042458745 -0.22265105 0.41315982 -0.007079708 -0.8374477 0.4937694 0.39673808 0.4216055 -0.6448043 0.32410893 -0.66808224 0.22148784 0.0105630355 0.16967869 -0.18594968 -0.41596866 -0.510231 0.057096794 0.25863856 0.7881389 0.18945476 0.4095438 -0.021614086 -0.39676064 0.06479302 0.1280166 -0.45486474 -0.06537209 0.39009467 0.17530991 0.08851863 1.174278 -0.10785658 0.057665493 0.55406344 -0.6571926 0.03999235 -0.3888885 0.38021958 0.2979685 -0.115619406 -0.2588927 -0.34313947 0.0142757585 0.8183619 -0.7049189 -1.0250348 -0.009088392 0.27124712 -0.36828905 -0.030228654 -0.27224103
169 0.10242892 -0.4643788 0.064112805 0.60560256 -0.6388072 0.72105587 0.079837546 0.43317944 0.37884992 0.25565535 0.3370353 -0.12979998 0.030777114 -0.44486094 0.30283493 -0.2653243 -0.21092516 -0.048836257 -0.08444835 0.34637547 0.15975511 -0.088346384 -0.139218 0.3847765 -0.2755607 -0.12439711 -0.4697176 0.15276466 -0.9932734 0.06775335 -0.5230137 0.4475912 -0.3015237 -0.21552484 -0.14080621 0.34163424 0.109419845 0.3561598 0.26244977 0.59997034 0.16049804 0.41665253 -0.12490714 -0.82409036 0.13456273 0.44439086 0.5301083 -0.15018447 0.3775227 0.024900107 0.50204533 0.45310977 -0.30496696 0.31669477 0.34181908 -0.1898158 0.32069755 0.7675025 -0.18386233 0.42578614 -0.25593325 -0.20537281 0.28419408 0.32560837 0.8396288 -0.4087227 0.015185567 0.36998653 -0.33458245 -1.0512239 0.1506332 -0.4679581 -0.20134231 -0.45479456 0.18535072 -0.01497606 -0.1464265 -0.1836022 -0.061296716 0.06150755 0.16919707 -0.27639055 -0.22769259 -0.120064504 0.13305274 -0.78632414 -0.2218525 -0.5947213 0.14746632 0.7586312 0.07442683 0.29877484 0.08600893 0.091213994 0.4212929 -0.034003906 -0.26948103 -0.48617992 -0.08183078 0.16000874 -0.25260708 -0.52643454 -0.65430766 -0.109899275 0.06657106 0.40324238 0.25801137 -0.5252417 -0.078016534 -0.35743672 0.49489164 -0.30408174 -0.32143655 0.10103854 0.22706737 -0.0018939131 0.4890556 -0.20382954 0.43479127 -0.010992043 -0.20711538 -0.30136546 -0.7412816 -0.12261978 -0.60322154 -0.042986404 0.18576495 -0.11270259
17 0.9527807 -0.11888685 0.17837466 -0.024415642 -0.24191843 0.24408351 -0.053527307 -0.3220415 -0.1526266 -0.08039166 -0.4028686 -0.060737517 -0.092641406 -0.06792619 0.36284587 0.15593545 -0.6620155 0.13234304 -0.68186706 0.5747059 -0.38319796 0.45611537 -0.29786706 -0.24207354 -0.07427729 0.71094614 -0.028968118 0.29973984 0.16090357 0.22816187 0.22581467 0.053833153 0.6503435 -1.1216656 0.1496927 0.21668975 0.9604159 -0.22765964 0.39073557 0.85412806 -0.15602918 0.33263874 0.11116508 -0.16861667 0.38483128 0.41770914 -0.6959764 0.17707439 -0.32744256 -0.6046016 0.7993363 0.43950093 0.27034158 0.22558919 0.29666334 -0.50892705 -0.5485225 0.40965235 0.65742105 -0.53532964 -0.04670527 0.25535983 0.09138457 -0.12609696 0.69904894 0.0111755505 0.42483333 0.22525409 0.13967341 -0.49147382 0.09166119 -0.018875439 -0.24477328 0.038356263 -0.5431474 0.03128389 0.01738795 -0.0018843705 0.03426582 0.5908622 -0.34973678 -0.48671925 0.0278705 0.90765226 0.3992745 -0.77646667 0.12570247 -0.5332355 0.67552966 0.23301452 -0.60775554 0.10454723 -0.3058099 -0.22374696 -0.076037906 -0.29410186 -0.049419325 -0.76880956 0.60673904 0.24207284 0.07197912 -0.10293038 0.21445417 -0.009680234 0.13725351 0.7436688 0.04171252 0.083998166 0.77866536 0.3865906 0.23463176 -0.20145702 -0.035417616 0.53873736 -0.43122545 -0.42411342 -0.16449788 0.246176 0.50305367 0.121734224 -0.351362 -0.41043648 -0.0089502195 0.047253624 -0.324428 0.003888594 -0.44431219 0.25809908
366 0.025470845 0.0017779261 0.66370875 0.23297057 -0.5938 -0.28144616 0.24805336 -0.49259907 -0.08059865 -0.24500658 0.16483922 0.67322713 0.10397275 -0.25641894 0.04135568 -0.48450202 -0.73041654 0.6680475 -0.117513776 0.074902624 0.022362204 -0.14481142 -0.20069695 -0.5107448 -0.44462115 0.2537175 0.030014003 -0.22530057 0.4718392 -0.30723593 -0.5077122 -0.20881808 -0.0585837 -0.04083845 0.68400556 0.28528446 0.13932052 0.2582613 -0.2801824 0.7339485 0.648617 0.45759413 0.04768686 -0.0026343022 -0.07502609 0.293078 -0.36323375 0.58315027 0.51199454 -0.46382385 0.29766935 0.4246661 0.70395315 1.0005277 -0.09006682 0.0767695 0.24756546 0.16504559 0.3253406 -0.69956034 -0.05610481 0.80143976 -0.10611261 0.012002181 -0.546369 -0.18839462 0.24224353 -0.5393566 -0.29821578 0.13445053 -0.7365995 -0.2222173 -0.18677112 -0.20381065 0.17220129 0.2972522 0.8539571 -0.5299863 0.07000608 0.13115907 0.13835752 -0.2849334 0.2964862 0.47064126 0.26363513 0.38245708 0.6408825 -0.6041766 -0.047368385 0.8650553 -0.16936523 0.49404004 0.7431109 0.046723805 0.15494984 0.077617936 -0.5424685 -0.92949843 -0.8964089 -0.016049251 -0.087798655 -0.41421786 -0.33599347 0.3147736 0.0036919126 0.18881771 -0.28850746 0.4123286 0.14803195 -0.549663 0.1418287 -0.41818994 -0.010772172 -0.08707686 -0.1551021 -0.00023279784 0.17107047 0.27270675 -0.3659217 0.4678553 0.16654392 -0.22949304 -0.23978604 -0.020815553 0.5821648 -0.3086217 -0.5014677 0.117550336
133 0.091898516 0.350476 -0.27373448 -0.44844443 0.51764244 -0.4099223 0.8108045 -0.14904456 -0.3181622 0.17700905 -0.44655043 0.9100762 0.15760268 -0.038352016 0.12952925 0.09946762 0.29213172 -0.16653067 -0.35989028 0.14487508 0.33098042 0.26959527 -0.28061467 -0.19626598 0.027730001 0.1413103 0.19526772 -0.5514646 -0.42764273 0.32487816 -0.18407084 0.4033225 0.024818758 0.64993674 0.08255729 -0.20593016 -0.048329644 0.05693623 0.12043528 0.39296037 0.36217803 -0.14570186 -0.7513669 -0.061964203 0.21417351 0.25429472 -0.28040972 -0.022883229 0.147031 0.5900352 0.57201535 -0.7154229 0.14454742 -0.07134593 -0.22805661 0.07091914 -0.09940026 -0.19230832 -0.2795811 0.13037768 -0.9022395 -0.41023248 -0.21130763 0.38816246 0.50011915 -0.02673899 -0.18396842 -0.06335412 -0.1892269 -0.19210726 -0.54546547 -0.44630805 0.045696717 -0.030201705 -0.8616667 -0.5793225 0.095188394 -0.02700222 0.15986928 -0.13527255 -0.22574699 -0.14186533 -0.8431706 0.17660886 0.0750142 0.41414058 0.18724948 -0.75656104 0.28744176 0.37681615 0.1324839 0.124373645 0.47409195 0.30174547 0.40813687 0.0086802 -0.052594006 -0.3177413 -0.33743125 -0.43476078 -0.67996144 0.47582787 -0.43499994 -1.077913 -0.16605896 0.17452058 0.09054088 -0.012477998 -0.63909525 0.10222597 -0.026967749 -0.052386038 -0.25884524 0.5922302 -0.4899948 -0.17930919 0.42040348 -0.14814667 -0.04233493 -0.18097797 0.19352393 0.58362037 -0.34890765 -0.27358142 -0.13088043 -0.22696957 0.114588425 -0.31575337
473 -0.11897282 -0.50913376 0.3208551 0.10889847 -0.04443686 -0.30562815 -0.20728172 -0.33108723 0.3828372 0.61393327 0.027610516 -0.25870416 -0.48960137 -0.3663351 -0.1428654 -0.80642277 -0.058711175 0.044024546 -0.50027925 0.33362946 -0.5338193 0.004480664 -0.4568861 -0.13350277 -0.6899243 0.11582041 -0.32690367 0.055261333 -0.026162285 0.42116085 0.33047506 -0.42251548 -0.09468074 0.35116747 0.08771533 -0.29276043 -0.22519395 0.14586611 -0.21138813 -0.02893827 -0.12559366 0.049465094 0.18446794 -0.7534123 0.5734943 0.17409264 -0.52239966 -0.0034613302 -0.013624937 0.012519722 0.2327395 0.46488538 0.08749556 -0.367587 -0.5584318 -0.11392184 0.7091026 -0.2913473 -0.47772622 -0.05216408 0.06271831 -0.43182802 0.59772813 -0.12745863 0.17950921 -0.030520117 -0.26711455 0.3833473 0.47235474 -0.09766958 0.16197874 -0.6119718 -0.5093659 -0.040640686 0.08447016 0.08047141 -0.14808856 -0.42569265 -0.07512843 0.30078295 0.16076685 -0.217118 0.17330511 0.61814034 -0.38978517 0.6618544 0.49063334 0.060143553 0.21264337 -0.37597036 0.059397455 0.8204487 -0.21126328 0.14698671 -0.015351596 0.27876765 -0.3897727 0.23132761 0.061086297 -0.5526729 -0.51591486 0.2667745 0.62224644 0.35228977 0.37452754 -0.19662727 0.6471029 0.0036049676 0.23574135 -0.29279438 0.66045624 -0.4824051 -0.3453679 0.1583282 -0.18831809 0.2706899 -0.030395798 0.3363435 0.16892354 -0.24820158 -0.046729125 -0.07135403 -0.14424334 -0.04619413 -0.36500108 -0.049155924 -0.060238216 -0.25103134
546 -0.53784066 0.24759398 0.3284884 -0.039558526 0.2995371 -0.5825385 -0.25889248 0.104026094 -0.14704297 -0.5311706 0.40336856 -0.13561323 -0.98622227 0.2352997 -0.4463157 -0.2563451 -0.21730122 -0.4890034 -0.35600984 0.09160172 0.5022928 1.0603135 -1.1009988 0.18135619 0.011768477 0.21851031 0.009173842 0.36473134 -0.11681985 -0.25635317 -0.6179855 -0.44425514 -0.03824883 -0.38029388 0.13778949 0.8977334 -0.17784326 0.05628447 -0.18835875 0.6038977 0.42101482 -0.14543568 -0.40617925 0.112327285 0.6254195 -0.2950626 -0.019686732 -0.25774932 0.14362791 0.010318837 -0.14301385 0.3681749 -0.20849271 0.40272617 -0.21023156 -0.23379648 -0.013343072 0.03854133 -0.31540942 0.08080089 0.24643257 0.23209007 0.51475626 0.42514357 0.04407482 -0.32622388 -0.16151091 -0.08093243 0.34904537 -0.069512166 -0.32583335 -0.46926343 -0.37852758 -0.49105275 0.15838283 0.5590103 -0.1656295 0.053636063 -0.43556023 0.3470651 -0.6601856 -0.38426727 0.602939 0.34837604 -0.26933777 0.6504058 0.33407348 -0.77574277 -0.14037512 0.6341361 0.089411125 -0.2918109 -0.75721246 0.71978337 0.7201936 0.5689788 -0.45448443 0.07707935 -0.20940086 0.384646 -0.35202095 0.06593926 0.248126 -0.17459676 -0.23572642 -0.055132683 0.65128267 0.019389058 -0.037060745 -0.034354668 0.4944807 -0.22980721 0.4729693 0.69514304 -0.04459468 -0.32817954 0.061239608 0.139446 -0.14703996 0.1513151 -0.1350819 -0.60462314 -0.42260605 1.1199694 -0.6536315 -0.368636 0.15751286 -0.29859972
303 0.007556698 -0.40588507 -0.30804107 0.23920707 0.4416739 0.0667497 0.5956594 -0.16625342 -0.17127524 0.1735668 0.18043724 0.19201127 -0.5234499 -0.773092 0.089992225 0.078935124 -0.51603484 0.07039607 0.36785892 0.534415 -0.18369526 0.7602037 -0.2486055 -0.6448417 -0.47620082 -0.09508498 0.38320094 0.4924418 -0.6640281 0.26132894 -0.054165598 0.104677364 0.020183552 -0.7178781 -0.14864653 -0.47279862 0.38940826 -0.14301021 -0.3745647 0.85330844 0.4794837 0.11342757 0.42418346 -0.3762243 -0.0481762 0.05394651 -0.20903842 0.09747611 0.41639385 0.10042685 -0.007495834 -0.45912012 -0.268906 -0.01932217 -0.21439973 -0.35528478 0.69384015 0.22755362 -0.12241445 -0.5365229 0.0890947 0.26106024 -0.032831233 -0.45848402 0.24073812 -0.2643638 0.13312964 -0.003672133 -0.20009285 -0.65250623 0.44779557 -0.6616461 0.022230938 0.033984836 0.6158849 -0.24147934 -0.43631357 -0.14808032 -0.5458445 0.107993744 0.26897374 0.20188783 0.78509325 0.6550592 0.67594194 0.21098779 0.2841818 -0.3817058 -0.21914905 -0.2491618 -0.08507222 -0.004704119 0.22667465 -0.38789773 -0.17680182 0.30162868 0.5456968 0.049250282 -0.3436963 -0.28712985 -0.8119329 -0.19318552 -0.35412955 -0.4136187 -0.52712005 -0.14363024 -0.117147885 0.350105 -0.06488026 -0.055347517 0.05399296 0.38158563 -0.28431377 -0.36363766 -0.33829004 -0.028974293 0.3804122 -0.06049964 -0.46312928 0.14129071 -0.9962642 0.25294197 -0.5459179 0.18123023 -0.623065 -0.73039937 0.18718806 -0.30986768
232 -0.19534285 0.1975145 -0.44160393 0.021708831 0.5065569 -0.42354992 -0.25606096 -0.24428639 -0.20900682 -0.12400314 0.24863753 -0.3115929 -0.033639528 0.09019889 0.095808424 -0.82496595 0.26185012 0.13165466 -0.326733 0.22525854 0.5195915 0.09926948 0.13657397 0.084869236 -1.1962645 0.33468038 -0.06646192 -0.4244821 0.7303759 -0.39150104 -0.19490132 -0.12079161 0.7886934 -0.005091624 0.0884555 0.21841796 -0.80739415 -0.09257219 0.024276149 0.2163896 0.2928333 -0.7980784 0.024694003 0.55000407 0.44063246 -0.45799524 -0.6591729 0.13893715 0.24117309 0.28037378 0.61308926 -0.4493104 -0.17138624 0.492025 0.5431723 0.00580038 0.2704708 -0.43583646 0.06410654 0.18374932 -0.56478715 -0.21488094 0.8263357 -0.083404824 0.6880407 0.029760187 -0.21209598 -0.5853892 -0.059024483 -0.09090425 0.18033834 -0.15471436 -0.93416137 -0.31365004 -0.5010118 -0.56033385 0.5541969 -0.13531104 0.147217 0.5816514 0.09244376 -0.23494034 -0.32369095 -0.21473166 -0.031462125 0.13383286 0.1043041 -0.5460962 -0.08575902 0.21332727 0.38830525 -0.25240982 -0.14806734 -0.7330511 0.206011 0.06398523 0.3526339 -0.048150867 0.32261667 0.3680459 -0.1679545 -0.28697717 -0.107572384 0.27549085 0.10254007 -0.37110686 -0.21398354 0.6182369 0.24395229 -0.27794313 0.7337703 -1.1469228 0.04263128 -0.31601775 -0.08223244 0.43204707 0.16905457 0.30117032 0.21950798 0.16472487 0.52442336 -0.6305317 0.82394 0.5197213 -0.8731106 -0.020113215 -0.15895635 -0.26284468
419 -0.1328711 -0.31188813 -0.2436359 -0.1907937 0.18745226 0.56968886 0.113532215 0.31334692 -0.31630757 0.4179053 0.4356014 -0.1674008 -0.3982493 -0.37840363 0.9131121 0.4051101 0.22020034 0.74926406 -0.88163936 0.48626167 -0.66965413 0.38615668 0.33491945 -0.27176654 0.14950092 -0.8458483 0.9328374 -0.06058435 -0.6656951 -0.2083058 -0.69637483 -0.24958043 -0.046772305 0.28891766 -0.13507338 0.24921185 0.36091796 -0.8312089 -0.14426412 0.30977878 -0.40749902 0.99696904 0.14930488 0.7205868 -0.30392358 -0.5251485 -0.24835242 0.15290162 0.13475156 0.26249033 -0.31580675 -0.42962682 0.39119595 -0.7327726 -0.16703007 0.4405118 0.062489197 0.44899994 -0.0040471093 -0.0938233 -0.58524054 0.74020654 -0.23524842 0.023789082 0.11765367 -0.6982695 -0.21947885 0.18330328 0.0881222 -0.39243504 -0.53022367 -0.49433085 -0.9149959 -0.7447545 0.017079256 -0.5499387 0.24082944 -0.1939309 -0.24831267 0.39298618 -0.18660598 0.46973452 -0.22292757 0.10273757 -0.2706086 0.50361234 -0.08006511 -0.40857524 0.09052801 -0.23490155 -0.6346908 -0.12163472 -0.5271241 -0.2190785 0.51924425 -0.001062483 0.49334776 -0.17445776 -0.63424957 0.5615812 -0.40191603 -0.4298457 -0.027408218 -0.0733229 -0.26929465 -0.20635845 -0.021909295 0.94621015 0.2894335 0.27580434 -0.49184906 -0.17974967 -0.5174923 -0.40659916 -0.2710697 -0.08706258 -0.2529894 -0.102011845 0.26793602 -0.297521 0.9001507 0.19083856 -0.24799743 0.14659329 -0.6271036 -0.29648817 -0.61242974 -0.10805388
170 -0.37698877 0.04484804 -0.047066763 -0.22098206 -0.042631954 0.6562331 -0.005462839 0.02278031 -0.6322287 0.96244556 0.43100885 0.21621723 -0.46950853 -0.17032099 0.312477 0.11030366 -0.013047994 0.2166904 0.20046213 0.62411654 -0.35961118 0.27732962 -0.1796275 0.043196656 -0.78239024 0.005480576 -0.38032928 0.40049443 -0.73548925 0.22805546 0.015820652 -0.014496069 -0.010364092 0.5496743 0.32278916 0.30341977 0.6628111 0.31178167 0.16215833 -0.07970286 0.47119325 -0.19663973 0.33875215 -0.23187613 0.32677138 0.10603758 -0.28242886 -0.18602471 -0.71990037 0.18284243 0.74312085 -0.023136903 -0.049773768 0.69850403 0.024810074 -0.48461804 0.52633005 -0.1800304 -0.15101139 -0.43303862 -0.61290646 -0.35017908 0.044582076 0.07342066 0.7303524 0.102205016 0.1945138 -0.39624232 -0.16786103 -0.2527857 0.16091618 -0.43194774 -0.06956651 -0.75733954 -0.16382997 0.4366375 -0.083458796 -0.54869795 -0.053038426 0.18327282 -0.24890728 -0.481486 -0.4504981 0.713099 -0.47979915 0.03537179 -0.16475962 -0.15983273 0.0639522 -0.15548672 -0.3980885 -0.02792012 -0.07556347 0.26941818 -0.16680147 0.35597512 -0.19246992 -0.13304062 -0.0013723141 -0.22746728 0.37085685 -0.013031189 -0.1816248 -0.5556146 0.28741893 0.52737474 -0.15318859 0.10276733 -0.5983789 0.08294365 0.055297486 0.13301812 -0.2739821 -0.78948444 0.59301376 0.35263997 -0.25532958 -0.11934634 -0.35227674 0.50959104 -0.11232114 -0.5411111 -0.73381704 -0.32868627 -0.28692073 -0.14165029 -0.25215843 -0.3973863
4 -0.10272515 0.43031436 0.53730804 0.15190107 0.117059074 0.23715344 -0.14616808 -0.9104387 0.46564716 0.6276013 0.27788076 -0.7813589 -0.49770087 0.27019548 0.002825997 -0.021770068 -1.150197 0.31800026 -0.32387093 -0.40567148 -0.11913756 0.009511383 0.01980172 -0.7263318 -0.17180574 -0.43846825 0.07399901 0.09017184 -0.35680723 0.110445574 -0.63459355 0.5645049 -0.09903618 0.5123433 -0.34452114 -0.037208114 -0.16752101 0.48356992 -0.21144007 -0.3994993 0.61781317 -0.010236113 0.45317906 -0.6740478 -0.05429324 0.060206875 -0.6329608 0.56564224 0.57276064 0.56277806 0.23191138 0.46800333 0.31645855 0.49860692 -0.014162033 -0.3051835 0.013810038 0.12406995 -0.1625535 0.3792117 -0.6133466 0.11555071 -0.21196604 -0.73831624 -0.25703788 0.40156442 0.0023473294 -0.109125815 -0.03499284 -0.23827115 0.08724309 -0.4070934 0.19908626 0.06741434 -0.304991 0.16076736 0.003888496 -0.4411006 -0.33938366 0.5948667 0.10361167 0.11299787 -0.20953299 0.3141339 -0.5552798 0.28364244 -0.18927372 0.20405477 0.19380318 0.61252826 0.23695087 -0.6717716 0.32487628 -0.1073356 -0.14086792 -0.026512519 0.7444019 -0.34152594 0.34101284 -0.24047457 -0.59125715 0.37330806 -0.26671627 0.39280194 0.27170444 -0.13875961 -0.4257791 0.27353242 0.15152635 -0.50497776 0.004917964 -0.5526228 -0.06274408 0.549556 -0.33604085 0.2743339 0.4737949 -0.0030684157 -0.15987614 0.1649961 0.13224636 0.39995763 -0.4114905 0.3991383 -0.52754813 -0.13847193 0.20188709 -0.037034906
2 -0.6987587 -0.33652508 0.76519537 0.528682 -0.27130762 -0.14813878 -0.18298411 -0.114181854 -0.06966355 0.018829282 -0.6218735 -0.4648597 -0.17807291 0.4273728 0.85400534 0.0506757 -0.4871114 0.17966351 0.24600337 0.13296022 -0.35685548 0.15064558 -0.17209448 -0.56034195 -0.78853846 -0.627161 -0.16147676 0.19189712 -0.16554943 0.3784813 -0.9292367 -0.13767388 0.110365525 0.69193035 0.2779845 0.5063078 -0.22177124 0.7187677 -0.4988898 -0.3029484 0.17798547 0.46371275 0.29419932 -0.24457021 -0.0006719413 0.023439085 -0.586038 0.05066392 0.038999666 -0.0039317217 -0.08650249 0.31820145 -0.1496304 0.32680845 0.08337487 -0.787257 0.20316455 -0.06135336 0.34212697 0.64878565 0.32484356 1.3435822 0.21521854 0.020206653 -0.24981414 -0.17095266 -0.18510498 0.42416075 0.011002166 -0.54604053 -0.40318912 -0.66529906 0.17424606 -0.2338591 0.68695194 0.016615476 0.28598315 -0.53566915 -0.10961721 0.40865266 -0.04076537 0.23036703 -0.09536517 0.55265903 0.18105578 -0.0034365542 0.3630382 0.11324212 -0.08303156 0.5902105 0.05945242 0.008222869 0.43534452 -0.08134601 0.15082717 0.70562977 0.082040876 0.21967088 -0.6459844 0.5708014 -0.2464369 -0.09590738 -0.5908606 0.042436525 -0.028922196 0.5224457 -0.4908644 -0.04140773 0.6350559 -0.22102572 -0.47681844 0.333924 -0.44340336 0.30783892 -0.09990624 -0.1017608 0.083735265 0.07548704 -0.22407402 -0.0064305197 0.3851468 -0.11200539 -0.46023837 0.47341546 0.11943923 -0.33127144 0.24144818 0.0010839826
932 0.505325 0.31809428 -0.23292193 0.041518606 -0.6220356 -0.036745243 0.6197046 -0.07649131 -0.5547141 0.20622274 -0.032660425 -0.23333003 -0.18708365 -0.5581159 0.85459197 -0.14793758 -0.40420356 -0.16666321 -0.07390332 -0.014754794 0.29380065 0.471397 -0.48382935 -0.33105507 -0.38106257 -0.09737727 -0.22019309 -0.013691512 -0.7206712 -0.006837571 0.1496834 0.4258814 -0.47952938 -0.15616661 0.44586807 0.63380736 0.109360956 -0.42249247 -0.1282472 0.39935458 0.48415744 0.02626492 -0.24478765 -0.31911665 0.1113347 -0.544647 -0.72310734 -0.0566785 0.12177015 -0.58672905 0.2640165 1.3108296 0.5186561 0.5767593 0.26361212 -0.89090633 0.817428 -0.069802195 -0.36969492 0.9034407 0.17165837 0.26851162 0.48379293 -0.14839566 0.3539141 0.6659355 0.82777876 0.30492887 0.4399916 -0.07964193 0.31576106 -0.24752575 -0.8041633 -0.464914 0.1515216 -0.048686657 0.2869839 0.370168 -0.20191218 0.40900332 0.18785983 0.16672061 0.27036542 -0.28138885 0.13367473 0.43077022 -0.044299096 0.25547102 -0.3228603 0.03652901 -0.37508538 -0.18306054 0.1309913 -0.07438732 0.064737074 0.093038276 -0.6498679 -0.3619645 0.18189642 -0.40427104 0.008947304 -0.11533697 1.5309471 0.058845643 -0.2440539 0.32079628 -0.26729006 0.2183074 0.45420858 0.3933393 0.038267314 -0.15078503 -0.39183947 -0.36202502 -0.09682682 0.24906893 -0.14810386 0.3232403 -0.14761403 -0.07285769 0.5977512 -0.09219478 -0.058079094 -0.087985 0.35475162 -0.3386682 0.19286221 -0.032433834
498 -0.15629281 0.58292896 0.5279477 -0.08020522 0.1817989 0.0011329162 -0.13242993 -0.47202048 0.2971427 0.9203081 -0.5780165 -0.28632155 0.23558031 -0.26201493 -0.040222947 0.59088004 -0.21155964 -0.0032640006 0.13906161 0.64011425 0.26053908 0.541406 -0.3505577 -0.49091303 0.17916827 0.16939965 -0.060635645 -0.1956802 0.1876577 0.6317611 0.14692457 -0.5554296 0.6827633 -0.18679218 0.5785243 0.088569306 -0.3060962 -0.36946636 -0.18578915 0.17104533 0.021822028 -0.2650315 0.14353696 -0.37116584 -0.42833635 0.4361011 -0.054452665 -0.8538629 0.8676624 0.019324768 -0.195669 -0.38516518 0.25120077 0.17086062 -0.13598308 -0.066894256 0.78006005 0.24655077 -0.22681244 0.69853145 0.09664105 0.21603891 -0.3979603 0.38770613 0.42380744 0.22429332 0.3063432 0.06304784 0.24998313 -0.4130164 0.04335197 -0.114841774 0.012374785 -1.0573684 -0.4867039 0.31826016 0.87182236 -0.38780025 -0.29462075 -0.06659862 0.017796284 -0.6744892 -0.5865512 -0.036858976 -0.76056933 -0.29240423 -0.35174656 -0.83879894 0.34488475 0.0014079125 -0.38259208 -0.292099 -0.055733267 0.1173122 0.34777877 0.34140003 0.48143402 -0.0169621 0.30019608 0.3896271 -0.4841733 0.2685454 0.30017507 0.06943442 0.066375725 -0.0023743813 0.06988463 0.31430298 0.121791504 0.16021205 0.24218506 -0.21306612 0.6855807 0.0017564816 -0.27087218 -0.1968596 0.55062693 0.39932597 -0.085590735 -0.1558227 -0.3219019 -1.2261496 -0.11196564 0.2118073 -0.17296875 0.04393025 -0.5237387 -0.056504026
329 -0.21834067 -0.3078709 0.24041085 -0.12000212 0.6867103 -0.2938983 0.069580495 -0.4427608 -0.033164397 0.81869674 -0.17243113 0.08104123 -0.09658444 -0.20572346 0.5841858 0.34709832 -0.4978416 0.22860445 0.3654167 0.18592508 -0.001209739 -0.28652292 -0.1720985 0.025901813 -0.53434646 0.67681867 -0.06927134 -0.33015186 -0.0982835 0.5831486 -0.33149186 0.11633375 -0.0022068159 0.023197943 -0.31319764 0.17694023 1.042288 0.4300556 0.07550452 0.14800014 -0.10977957 -0.31248322 0.3688435 0.25693735 -0.715274 -0.2388587 0.34221247 0.1546737 0.8629066 0.2415892 0.054530244 0.18558478 0.07805626 -0.47269854 0.57979935 0.43811807 0.37699968 -0.25676405 -0.23431084 -0.15364979 0.26463142 -0.2275244 0.3998367 -0.0012102607 -0.10162523 -0.27678818 0.32503 0.41489545 -0.347201 -0.37908912 -0.45707738 0.13867356 -0.18713777 0.5538082 0.12026869 -0.6331456 0.92572695 0.018252775 0.2788984 1.0265504 -0.433257 0.233193 -0.3335972 0.7084394 -0.19706927 0.09195781 0.15259321 0.29277274 0.4667265 0.10199729 -0.401186 -0.43677127 0.10663966 -0.23909456 0.27097186 0.72971255 -0.25914484 0.013854202 -0.5240304 0.08473482 -0.6789221 0.35214937 -0.1766626 0.28365 0.5191917 -0.4022539 0.0679452 0.45659867 -0.16162446 1.0202975 -0.49362388 0.27146167 -0.08789834 0.030958071 -0.4030063 0.6153516 0.0074224416 -0.017671917 0.10169772 0.15138452 0.029099988 -0.7464209 -0.23713419 -0.17951488 -0.80188495 -0.856148 0.38168868 -0.0848269
28 -0.11733277 -0.6807777 0.33556554 0.021291316 0.39897978 -0.29847565 0.0064503187 -0.25941524 -0.04660591 0.35157898 0.21709079 0.19699258 0.051180325 -0.8382945 0.104329035 -0.28044882 0.09879351 0.1984794 -0.45426217 0.3667846 0.06234849 0.23985097 -0.71185935 0.03321601 -0.11912074 0.08427924 -0.4877097 -0.5004528 -0.109169625 0.63582224 -0.45256102 0.083765194 -0.662601 -0.051642857 -0.18592104 -0.15768485 0.90654373 0.025705514 0.11472049 -0.2342022 0.1278685 -0.12449675 0.53637946 -0.13274509 0.84190613 -0.40497416 0.22445038 -0.5872425 0.016640387 0.6809621 0.19154656 0.030583879 -0.03604876 0.6575769 1.2262595 -0.17459266 0.51397014 -0.40625727 -0.010552674 0.19386481 -0.52705425 -0.12049654 -0.58383447 0.6251699 0.46621618 0.109387696 -0.20615698 -0.009342715 -0.122161575 -0.045131993 0.24327499 -0.30541795 -0.43923542 0.19786221 -0.0025512394 -0.33271793 0.35192093 -0.26833397 -0.114661574 -0.0016929817 -0.6077398 0.12960106 0.8296583 0.1775151 0.20413344 0.34599686 0.042526986 -0.5516706 -0.15394263 -0.028720116 -0.12202284 -0.4578236 0.56542027 -0.21522252 -0.33006448 0.50484556 0.22687744 -0.506256 -0.079279795 -0.088969246 0.28453973 -0.10472946 0.24819967 -0.072862394 0.56934464 0.1665063 0.49652174 0.5211255 -0.10066961 0.34925646 -0.11370062 -0.24142507 -0.23982328 0.20195358 0.028739728 0.1885189 -0.29922977 -0.31254375 0.25992656 0.38585728 0.22557485 -0.05112563 0.09701573 -0.4312785 -0.58607495 -0.09445066 -0.014776509 0.17629796
285 0.33903798 -0.77569515 0.13669844 0.44156706 -0.44227397 -0.032922212 -0.11995717 0.02493444 -0.38039735 -0.25067133 0.5900049 -0.13660605 0.50138295 0.092026524 0.17762424 0.09288793 -0.29601067 0.2362623 -0.26892886 0.7384123 -0.11535111 0.2666281 0.1230477 -0.49419835 -0.29883352 -0.1768333 -0.0512271 -0.12062119 -0.4698499 0.24167873 -0.21985707 0.05117312 0.39143685 -0.24138191 0.08529637 0.32466117 0.253777 0.33334273 -0.11444699 -0.33142793 -0.21953675 -0.4004773 0.5174485 -0.812815 -0.16299736 -0.5174062 0.17718333 -0.040662266 0.19003597 0.046920743 -0.108898364 -0.6618479 0.18818787 -0.16902873 -0.08541074 -0.390023 0.36060238 -0.5481073 0.07677529 0.06574281 -1.0355538 0.06519704 0.17349944 -0.27188894 -0.7663453 0.37342224 -0.118363895 0.10633371 -0.5520116 -0.52141815 0.34556365 -0.17854124 0.1693661 0.05054829 -0.36310962 -0.54241663 -0.43150258 0.3529446 -1.4049145 -0.33328843 -0.31202614 -0.060876384 -0.8386979 1.0482247 0.9359965 0.532157 0.4048665 -0.1307635 0.014161524 0.19087368 0.12738305 -0.1701207 0.2014625 -0.28144243 0.21166903 0.0085145105 -0.9032714 -0.10521544 0.1921584 0.14688392 -0.36222786 -0.027586069 -0.1320872 0.15762977 -0.1495073 -0.14570622 -0.2776115 1.0013961 -0.41660452 -0.3546174 -0.323995 -0.11289813 -0.6866441 0.03732452 0.054889396 0.9273658 -0.11205111 0.37197992 0.34254774 0.46556115 -0.38019082 0.03935919 -0.02565023 -0.01908548 0.13303933 -0.5955178 0.33512235 -0.3138544
