34 128
33 -0.021695394 0.0028485851 -0.02504763 0.09623763 -0.023491455 -0.07890185 0.07587731 0.07432026 -0.086793736 0.08514911 0.017915599 -0.09630644 -0.034767266 0.077296875 -0.03651608 0.049052503 0.1328948 0.08349395 -0.0665805 0.16570167 0.18582967 0.0793205 -0.033886593 0.081996135 -0.10159894 -0.07059333 -0.11931305 0.015953127 0.033512395 -0.1142645 -0.16431719 0.019010494 -0.033088226 0.0008078587 -0.009553886 0.12668423 0.08736859 -0.040682465 0.048041176 0.069563314 -0.20764904 0.03287633 0.020796897 -0.070679404 -0.0023687894 0.056777224 -0.074181885 -0.002464719 -0.034072425 0.059343304 -0.14925048 0.00083718234 0.21333426 0.12258251 0.102209434 0.03046146 -0.06457271 0.017241841 -0.10408414 -0.03753826 0.08595232 0.003370278 0.018226199 0.0024829253 0.12038166 -0.0013750701 -0.029948767 0.08077921 -0.03803968 -0.044293463 0.074319735 0.013494455 -0.15360627 -0.04647131 0.12386968 -0.12338931 -0.12420535 -0.10259177 -0.010760739 0.0980439 0.008076191 -0.13814287 0.04721244 0.1253242 0.1493367 0.046045944 0.06602613 -0.07181332 0.13223554 0.0062900065 0.12648015 -0.1292734 0.00869476 0.16465822 0.20958075 0.1305857 -0.15232876 -0.13655996 -0.012555846 -0.016323544 -0.12811379 -0.022923535 -0.08558895 -0.02722729 0.005513672 0.028891644 0.008785519 -0.008267448 -0.028397953 -0.11600031 -0.06015689 -0.06753352 0.121626295 0.022836834 0.1003294 -0.069622 0.13436985 0.058338087 -0.010797741 -0.05912821 0.022565693 0.009620079 -0.048224878 0.017296521 0.0313732 0.00071544515 0.15739094 0.060745385
0 0.08743592 -0.023087395 -0.08023717 -0.12452413 0.04801412 -0.016916288 -0.09283326 0.06573897 0.16567643 0.050270557 -0.015971962 -0.060088478 0.05382208 -0.07597284 0.054117333 -0.115722604 0.07669961 0.17549773 -0.021248553 -0.030700985 0.07067832 -0.028259112 0.08629065 -0.009746218 -0.056817837 0.052229144 -0.041750424 -0.054434013 0.23321927 0.013568127 -0.11994418 0.12929861 -0.09012 0.013838925 -0.086543515 0.027665112 -0.011144654 0.09838938 0.030913081 -0.016071087 -0.007351194 0.075634494 -0.042662844 -0.10258369 0.016735079 -0.03272922 -0.0830041 -0.13226607 -0.020926997 0.062275868 -0.0073941206 -0.0762203 0.107240304 0.09365007 -0.024064 0.11446656 -0.044000622 0.06333708 -0.04130526 -0.069167025 0.029546663 0.06255039 -0.004225819 0.013081239 0.16132681 -0.08098702 0.050479144 -0.08395295 0.045365665 -0.09171987 -0.07271606 0.03575791 -0.032023594 0.04062796 -0.049945388 -0.09124327 -0.029103054 0.20581876 -0.08065144 0.20111804 -0.01359613 -0.08390806 -0.0818961 -0.058695924 0.22690734 -0.050223567 0.14597169 -0.07922374 0.09054481 0.06001607 -0.0777546 -0.09849609 -0.18391834 -0.054777123 0.08090062 -0.0563422 0.023027338 -0.111109726 -0.08987102 -0.06981249 -0.025010522 -0.13493243 -0.0035590746 -0.02564238 0.03183197 -0.120851606 -0.13663757 -0.19051267 0.02800636 0.056644853 0.017075982 -0.028474653 0.10326896 0.1806934 -0.16262545 0.03430796 -0.15661095 -0.01246193 0.16748728 0.17091627 -0.071083605 -0.058882575 -0.013538615 0.07835664 0.024987498 -0.10559329 -0.0036687737 -0.07809647
32 -0.032226685 0.0366078 -0.0038708078 0.121553436 -0.013660783 -0.12954684 0.18868989 0.13130242 -0.112329684 0.032679014 0.09476385 -0.09772498 -0.0055503813 0.050343983 0.04198941 -0.04282094 0.21539882 0.010275524 -0.16738942 0.007079444 0.19730313 0.020294249 0.0054701976 0.020378297 -0.051075704 -0.026100842 -0.03253258 0.1494131 0.20374055 -0.15449858 -0.1897629 0.0357997 -0.049396563 -0.040699102 -0.12145146 0.14700161 0.059392437 -0.07774147 0.08243762 0.077612706 -0.16383256 0.057663042 -0.060239896 -0.098563 0.0034932573 0.095130645 -0.061504938 0.0064027254 0.001479978 0.038411863 -0.15235311 0.021735078 0.15160932 0.07137264 0.12223619 -0.020888954 0.021032806 -0.04138152 -0.07913156 -0.02491019 0.100494415 0.0025804816 -0.018172305 0.052919038 0.06120287 -0.008413572 0.0038552573 0.10653856 -0.07493922 -0.027262706 0.08199051 0.04909677 -0.103758164 -0.081716165 0.14022718 -0.05200887 -0.05882558 -0.111519895 0.04311027 -0.0055037895 0.002131856 -0.109453335 0.03301445 0.14039187 0.048912723 0.054762196 0.028167594 -0.061525613 0.1384416 -0.018513773 0.10807445 -0.118773825 0.092005566 0.15307824 0.075907074 0.11042482 -0.18889679 -0.219381 -0.026459616 0.0049166526 -0.16642016 0.04750387 -0.045941386 0.04850221 0.032533195 -0.033625998 0.049278624 -0.08194347 0.007818105 -0.06761827 -0.07671936 -0.08351986 0.143244 0.03983304 0.11348492 0.04001325 0.16027837 0.20057335 0.03192233 -0.06402306 0.055702444 -0.006384617 0.022414835 0.09850208 -0.0098548625 -0.041351106 0.10629423 0.042778827
2 0.13319284 -0.054513615 0.032510296 -0.06376696 -0.07972846 -0.027269388 -0.07805133 -0.002690878 -0.034227163 0.037971344 0.015426393 -0.16094667 -0.06857378 -0.0047769146 -0.021004336 -0.0778856 -0.026410436 0.11891069 -0.11117086 -0.06922272 0.15823755 0.0888805 0.060030233 0.13113907 -0.08796166 -0.018779315 -0.098531604 -0.06577895 0.050901502 -0.0010574774 -0.21380958 0.06772643 -0.016727038 -0.052437678 -0.04557329 -0.013813947 0.102216035 0.058568537 0.07403081 0.011110863 -0.046270125 -0.046471983 -0.021249311 -0.0038896848 -0.056519944 0.028657354 -0.04124885 -0.083772376 -0.061939765 0.040254313 -0.123884596 -0.05131364 0.15140364 0.12898177 0.05357683 0.052621182 -0.025644414 -0.030842965 -0.17727561 0.022777105 0.0971457 0.014050878 0.02195519 0.01685922 0.11101521 -0.14984174 -0.05955294 -0.040096216 0.029499076 -0.10371322 0.0007685548 0.0907727 -0.15888865 0.10975439 -0.082810305 -0.1194773 -0.22428171 0.07263005 -0.04634316 0.18913524 0.050398856 -0.05602019 0.045036294 0.062930025 0.12282357 0.09493271 -0.01063283 -0.025729068 0.08133802 -0.010033997 0.04213886 -0.045101758 -0.024547843 0.11697869 0.14285855 0.030739691 -0.04007687 0.0015179013 -0.099040255 -0.038459085 0.006491824 -0.012427445 -0.05774963 -0.010868346 -0.0902536 -0.07246266 0.056468546 -0.0033126378 -0.021008775 -0.073559135 -0.040227212 -0.107472576 0.06775994 0.102829285 -0.014521674 -0.033002175 -0.044261813 0.053185124 0.031709556 0.041055538 0.011168304 -0.030514134 -0.068130806 0.039911173 0.036532823 -0.04082683 0.0007236437 0.023139676
1 0.13981442 -0.124869816 -5.5879646e-05 -0.092685685 0.0389561 -0.042705316 -0.08907949 0.110204175 0.102091774 -0.023461692 -0.016164767 -0.13076171 0.004368688 -0.06763388 0.048108894 -0.18335846 0.016422454 0.22378866 0.0140657285 0.025981214 0.15835992 -0.015014525 0.08863183 0.0753389 -0.05883034 0.07772978 -0.038910966 -0.04590557 0.24431604 -0.0041849413 -0.21581087 0.1888134 0.037702132 -0.004965969 -0.026237305 0.007769262 0.09238446 0.15352407 0.01951644 -0.06142237 -0.036685634 0.14602356 -0.11263071 -0.04075567 0.094231226 -0.034517325 -0.10817036 -0.15853013 0.004388771 0.0800544 -0.031321418 0.026237749 0.10460294 0.123349935 -0.0047824853 0.05475951 -0.042566758 0.06965568 -0.025129614 -0.10248676 0.042635158 -0.049091354 0.11655681 -0.022485096 0.08455222 -0.013238585 -0.013309513 0.026804341 0.065424204 -0.11662166 0.039530467 0.0049878866 -0.07189238 0.011961517 -0.049857207 -0.008424674 -0.10183883 0.07488221 -0.045708176 0.17453323 -0.04295158 -0.13503942 0.03649702 0.035436213 0.16992672 -0.058613468 0.22414003 -0.14848225 0.13767609 0.13520956 -0.073496625 -0.01461171 -0.09510805 0.024328513 0.16926156 0.061564934 -0.047223598 -0.07900464 0.026298864 -0.09195904 -0.09505132 -0.054598615 -0.052743886 -0.08376861 -0.01984278 -0.00906232 -0.09445892 -0.07955951 -0.06635709 -0.00582029 0.044611283 -0.04411088 0.041181155 0.12190414 -0.06511705 -0.04229884 0.037910737 0.00073848723 0.11442341 0.19437233 -0.02847438 -0.07087483 -0.014691505 0.007868427 0.013138637 -0.13134871 0.020287607 -0.0035539058
3 0.09371728 -0.03799525 -0.08638744 -0.04199402 0.062459312 0.08713448 -0.08326488 -0.020017263 0.07135744 -0.040149085 -0.0120654255 -0.17596562 0.033355337 -0.151965 0.038892932 -0.20570523 0.004136475 0.13250726 -0.099711485 -0.17370047 0.05825772 0.007823431 0.1554917 0.047836848 -0.025083303 0.03062568 0.001408017 -0.085892536 0.15250249 0.078488596 -0.17883061 0.09983583 -0.01289572 -0.08593481 -0.11718285 -0.0899444 0.003701033 0.11126957 0.0725927 -0.06488382 0.10493594 0.030424478 -0.20315927 -0.019209847 -0.042864136 -0.0053645326 -0.059847604 -0.13973223 0.023656512 0.13777152 -0.0143259615 -0.060885213 0.19974656 0.1880634 0.039607614 0.15302894 0.013846561 -0.03262425 -0.17516726 0.14918286 0.06776478 0.09264702 0.10891116 0.07828755 0.005896009 -0.15362898 0.050619848 -0.048400886 0.07419772 -0.11977177 0.0058046626 0.10831528 -0.06273053 0.027481228 -0.17788923 -0.04736464 -0.048363317 0.22855206 -0.12381361 0.23115446 0.029774038 0.001091374 0.11469529 0.12183326 0.014557847 0.03612082 0.18487258 -0.08911228 0.058585025 0.13420723 -0.14303055 -0.004760784 -0.12155121 -0.015768379 0.17047557 -0.04200493 -0.15111832 -0.07439973 -0.025167026 -0.09442087 -0.041483987 -0.0677442 0.06643688 0.08037058 0.04549296 -0.12596957 0.046572417 -0.07417758 0.04944376 -0.08055699 0.093832195 -0.068333454 0.03206822 0.21148121 -0.18375768 0.037518878 -0.0661736 0.10806489 0.08324302 0.3496436 0.011181131 -0.13104564 0.07243129 0.08566337 0.06605094 -0.15738907 -0.18480322 0.02361797
31 0.07736009 -0.0005285798 -0.001670087 -0.048683867 0.013243372 -0.0784137 -0.052207272 0.065501496 0.03834512 0.07739382 -0.06062174 -0.124076694 0.021446904 0.04762035 -0.054819617 0.058577523 0.021166105 -0.021815825 -0.029710582 0.13232556 0.17570211 0.07960459 -0.013193102 0.048486274 -0.088414244 -0.027427806 -0.054585174 -0.0151726315 0.022778774 -0.05796081 -0.10468451 -0.038303945 -0.065859266 0.04920019 0.045559317 0.13484138 0.015386946 0.012159534 0.027215078 0.050410993 -0.22775683 -0.10094961 0.016884195 0.0035178305 0.03824155 0.09583071 0.010465567 0.030129455 -0.14188972 0.044573374 -0.18619037 0.16657554 0.026008828 -0.094857 -0.0357329 -0.079698846 0.05668671 0.11414269 0.02402946 -0.13559394 -0.05354382 -0.048362736 0.050920174 -0.07943763 0.2550028 -0.03876806 -0.0028136023 0.0072176754 -0.016140841 -0.075954 0.0009412571 0.024518134 -0.13080452 0.06468553 0.027835306 -0.14934993 -0.18709357 -0.020045679 0.013330489 0.12217226 0.015228115 -0.14720944 -0.04294448 0.08666248 0.161865 0.019086001 -0.014872518 -0.08177329 0.10673813 -0.075569965 0.1087224 -0.10607185 0.04350143 0.11983987 0.034487844 0.046009436 -0.102530934 -0.12970532 -0.08736638 -0.06708688 -0.15280542 -0.00076102134 -0.133108 0.008796507 -0.10320249 -0.055228088 0.0002237555 -0.09467071 -0.08719208 -0.023880674 -0.16627075 -0.14915709 0.078853935 -0.018892657 -0.014522154 -0.051637363 0.15067054 0.17931287 0.03663511 -0.1220794 0.00404868 0.0076233433 -0.09104655 0.058941144 -0.04862521 -0.0034194854 0.080878094 0.103019856
8 0.09696587 -0.039364096 -0.045789383 -0.051075347 -0.058112703 -0.15000014 0.049266677 0.20833611 -0.059076462 0.005517608 0.11694112 -0.0077308537 -0.036220543 -0.0102097085 0.09392033 -0.07727337 0.15456367 0.10470776 -0.16623285 -0.023680361 0.10578677 -0.0824097 0.0042274278 0.098705806 0.004419743 0.009371318 -0.089370504 0.057941943 0.21789771 -0.04383399 -0.22499186 0.09639585 0.0066003515 -0.06194904 -0.0457088 0.08936919 0.05033237 -0.0867869 0.016380059 0.091321416 -0.09627965 0.041947063 -0.05632813 -0.037530124 -0.020929214 -0.012447531 -0.123692915 -0.034532346 -0.011372751 -0.033126254 -0.03430643 -0.078111544 0.15666094 0.06277361 0.07417862 0.045780066 0.05365979 -0.011381154 -0.054263707 -0.059741817 0.0707026 0.01717314 -0.06430086 0.048507273 0.12238645 -0.105345845 0.053178605 -8.5795764e-05 -0.04107583 -0.1520128 -0.00963301 0.02276137 -0.10702344 -0.04255214 0.014588141 -0.15304811 -0.12922883 0.011667087 -0.03105532 0.10189025 -0.021829983 -0.16296834 0.009721906 0.050021373 0.22302453 0.058390893 0.025807083 -0.0095611615 0.16224559 0.0692685 0.010145094 -0.10320963 -0.012055015 0.13810892 0.029410655 0.05321867 -0.03244467 -0.10559041 0.020985313 -0.06516017 -0.06748601 0.013288467 -0.11711549 -0.032614548 -0.018107885 -0.068106614 0.04321665 -0.06663294 -0.07858366 -0.050747875 -0.018989978 -0.06808479 0.040370055 -0.0010702088 0.06472641 -0.017803239 0.111652166 0.10779187 0.047319535 -0.04645861 0.031960152 -0.07090667 -0.042207163 0.0061022863 -0.06882018 -0.025324011 0.0034969768 -0.0053016916
23 -0.14765584 0.13349934 -0.13645643 0.104764216 0.026398607 -0.059682406 0.07814691 0.062053308 -0.008939767 0.24018438 -0.040150143 -0.05304843 0.07282633 0.01761281 -0.069943585 0.14373843 0.26952344 0.04186046 -0.043965142 0.21833971 0.08141734 0.0973735 -0.07902526 -0.013621544 -0.10977574 -0.17923886 -0.121846385 0.04220907 -0.046267543 -0.14916764 -0.049292233 -0.08954026 -0.16605656 0.0049011707 -0.01083202 0.24205065 -0.021481127 -0.17959744 0.058829244 0.09886776 -0.25395817 -0.046767015 0.021942094 -0.110317096 0.025445804 0.14167126 -0.026253134 0.11537581 -0.12399038 0.15842654 -0.17519347 0.13289604 0.2152296 -0.07338666 0.108500086 0.02378116 -0.047442075 0.082186796 -0.007794408 0.10378478 -0.049281355 0.12855732 -0.024153035 0.06391702 0.21965823 -0.021329554 -0.009379986 0.032653116 -0.03677434 0.03377458 0.02847066 0.075403795 -0.102805495 0.014623104 0.099120855 -0.23583806 -0.10131574 -0.041734718 0.035412725 0.18317305 0.026964173 -0.04490387 -0.033322655 0.18894237 0.013381324 -0.0031043596 0.03921701 -0.00049646135 0.09138737 -0.14332624 0.20052536 -0.22532609 0.056306038 0.067899816 0.04828532 0.07094775 -0.14334293 -0.16448341 -0.06441116 -0.013304594 -0.13861686 -0.014722107 -0.11066709 0.102259375 -0.00870204 0.00094316865 0.01332933 -0.0625404 -0.0533809 -0.042046692 -0.14875044 -0.08482636 0.13372527 0.07865046 -0.099045455 -0.05740621 0.1407509 0.13190572 0.011854933 -0.030844785 -0.033049636 0.007177567 -0.059915036 0.073093385 0.04753804 -0.0077586635 0.12881683 0.072827786
13 0.06703995 -0.060154464 0.004501504 -0.026812343 0.0128077855 -0.017007645 -0.01861817 0.077026375 -0.017879209 0.048590384 0.040243875 -0.07373398 -0.051504083 0.021637429 0.026688756 -0.07981844 0.0063577187 0.067729294 -0.07188642 0.0346787 0.09915101 0.018233623 0.032019556 0.08844754 -0.09026071 0.009087886 -0.072121724 -0.009417074 -0.008714032 -0.03004351 -0.13789278 0.020844797 -0.00019957442 0.018540569 -0.037778385 -0.012541909 0.03582225 0.041322235 0.05083971 0.016532071 -0.05072447 -0.0063473945 -0.038356666 -0.039420664 -0.022641193 -0.023793943 0.0029152725 -0.037123777 -0.05535542 0.047646746 -0.07827234 -0.02853046 0.13201986 0.13218606 -0.037546836 0.09298502 0.0018289795 0.03989209 -0.07094686 0.020048888 0.05990659 0.0057564047 0.056822542 0.0289031 0.11970169 -0.101271495 -0.020668311 -0.044555582 0.007851718 -0.1487093 0.008696905 0.040340714 -0.0513029 0.037196394 -0.080212936 -0.14900804 -0.17563559 0.0832126 -0.09407628 0.23549113 0.019221688 -0.12720932 0.01912793 0.0098937 0.16393672 0.05579609 0.13406062 -0.054694075 0.07763081 0.12943362 -0.09490387 -0.015012614 -0.11047091 0.01092338 0.1099622 -0.024208434 -0.1219193 -0.12732296 -0.020025346 -0.1548705 -0.122449614 -0.104832135 -0.05571032 -0.058165167 -0.08147783 -0.11000954 -0.05906897 -0.06337021 -0.00084272766 -0.07127792 -0.0024009235 -0.07337585 0.102574006 0.22771685 -0.13958132 -0.040253717 -0.113729835 0.062939085 0.19312961 0.25970146 -0.08862453 -0.20804335 -0.018983565 0.073927194 0.007766483 -0.14635833 -0.028169831 -0.02462433
29 -0.07534696 0.053273402 -0.07532896 0.17371076 -0.013503847 -0.07796665 0.18429513 0.03376367 -0.051634762 0.17910403 0.06433799 -0.163196 0.08362338 0.05610494 -0.00208164 0.015991893 0.2597817 0.111363865 -0.036659367 0.17216004 0.1668265 0.13653298 -0.07640844 -0.010823563 -0.10296066 -0.1637391 -0.16690913 0.08546835 -0.036783416 -0.12854575 -0.13428612 0.021757951 -0.00812578 -0.0671253 -0.009179619 0.09544183 0.059356514 -0.08350035 0.0206147 0.01920652 -0.20823793 0.05720071 -0.08594513 -0.093498565 0.06107769 0.1402312 -0.097864605 0.054146167 -0.006489265 0.28991258 -0.15642607 0.21846965 0.1390304 -0.06781921 0.14802033 0.04370793 -0.08939702 0.0456878 -0.047037236 0.18561396 -0.06204171 0.05282798 0.010870693 0.07813137 0.15723817 -0.015245063 0.06353563 0.018430872 -0.016248832 0.02261322 0.05632484 0.14500119 -0.18258509 -0.0867868 0.24935819 -0.18212713 0.107836686 0.017156115 -0.042103887 0.15530856 0.056690343 -0.002661718 0.014865284 0.24452071 0.06706909 0.02952064 0.16350287 -0.13363062 0.12432318 -0.058110885 0.101530075 -0.27024904 -0.061991256 0.109740615 0.30726212 0.18234356 -0.18986942 -0.21127386 -0.116511896 0.0955569 -0.1301538 -0.07651801 0.102138154 0.11393452 0.1443455 0.025958331 0.020895608 -0.07720677 0.080179155 -0.063162714 -0.029501442 -0.014319983 0.06776941 0.023303725 -0.038446676 0.052130487 0.12833148 -0.0200464 -0.15047246 0.022031108 0.070767775 0.12260785 0.07333759 0.024188822 0.15034574 0.08772872 0.10440781 0.08226496
7 0.11536753 -0.079609446 -0.09976352 -0.09976537 -0.009087552 0.02212358 -0.14621173 0.057898846 0.10585869 0.037804928 -0.02890821 0.018057568 0.015598464 -0.010202223 -0.03744751 0.02843171 -0.040181287 0.1376571 -0.02694028 0.026873564 0.07449924 -0.009590351 0.10257118 0.06002633 -0.045758028 0.0013510422 -0.12896061 -0.11602944 0.05022053 0.02645231 -0.14413822 0.06718169 0.06922854 -0.0006914983 0.042432625 -0.0326567 0.064541705 0.051033985 0.011608187 -0.0025409735 -0.0025489707 0.016324459 -0.050372694 -0.056209292 0.024206316 -0.106089495 -0.044439517 -0.1036754 -0.015815174 0.06480293 0.02521045 -0.06674801 0.09180702 0.10682852 -0.008585595 0.13074894 0.023111347 0.043856747 -0.05374633 0.006117139 0.004395678 0.005393139 0.045846846 0.025473652 0.12731797 -0.03336653 0.091505595 -0.03974421 0.001390405 -0.18947998 0.002889785 0.0019017587 -0.023753071 0.0015095257 -0.06887646 -0.1343104 -0.037427787 0.123753496 -0.072535165 0.19298816 -0.011694076 -0.110740855 0.00047695407 0.044361893 0.16395399 0.046248097 0.15225743 -0.073703356 0.10881171 0.16102636 -0.09854856 -0.04632903 -0.06943395 -0.006711592 0.14650492 0.046059124 -0.09066011 -0.1650398 0.041266143 -0.09140757 -0.1125657 -0.09291201 -0.018213568 -0.068137206 -0.0051293485 -0.09847344 -0.086900026 -0.06511818 -0.038836382 -0.060010757 0.007500207 -0.017342791 0.06890227 0.21949618 -0.10952939 -0.026496543 -0.014639543 0.059948627 0.16347504 0.23092213 -0.04303352 -0.16450982 -0.05618274 0.017203517 0.044969417 -0.11277251 -0.05383805 -0.02257722
5 0.11181759 0.03720668 -0.40224007 -0.0245047 0.2631296 0.15434682 -0.12093457 0.14237808 0.33913645 -0.010750238 -0.37932643 -0.20249484 0.21575604 -0.24944355 0.02831654 -0.024699518 0.16386591 0.06542383 0.025624145 -0.0139851365 -0.017128084 -0.11988981 0.10323367 -0.10954911 0.05636195 -0.09578118 0.088228226 -0.15919648 0.35398966 0.06659736 0.18178 0.12621823 -0.21481907 0.048040632 -0.20931323 0.021033539 -0.27083877 0.04966547 -0.08252576 0.054268487 0.22250457 -0.09610441 0.16164139 -0.06199909 -0.16380656 -0.016777998 0.0030971577 -0.11861417 -0.0039592553 -0.104663014 -0.0439756 -0.21794742 0.12070138 0.11087877 -0.027066851 0.042459764 -0.09125201 0.08780991 -0.021718439 -0.22191611 0.04836893 0.18535295 -0.023301037 0.019970909 0.16512723 -0.18513905 0.07418127 -0.10202593 0.050362013 -0.078043945 -0.08892687 0.06504875 -0.08854392 0.13456316 -0.05998531 -0.18545647 -0.12001738 0.23403597 -0.14027803 0.2658478 0.045357436 -0.07192487 -0.13124877 -0.15362091 0.45338702 0.10220765 0.04298232 0.007557528 0.081925936 0.0131331105 0.045001253 -0.17461568 -0.15139633 0.018510465 0.02504422 -0.06426472 0.20612685 0.014028347 -0.19893783 0.017015917 0.23708211 -0.15464988 -0.10069501 -0.08969955 0.11773617 -0.19582894 -0.22635518 -0.14090635 0.16908282 0.07629574 -0.00992802 -0.0050424947 0.13711853 0.14199953 -0.040874023 0.03487474 -0.12925735 -0.112464525 0.12624808 0.022040775 -0.075660355 0.037506547 -0.042847533 0.07139902 0.107754976 0.039091293 0.16149044 -0.10246527
6 0.11895749 -0.028871072 -0.35582575 -0.09781838 0.22553727 0.10517618 -0.17750281 0.13224089 0.3535755 -0.014601993 -0.25496957 -0.17477909 0.16412637 -0.22323921 0.051303443 -0.066491805 0.07617918 0.05439262 0.052998636 -0.0101977745 -0.04184181 -0.070562206 0.08131538 -0.07099958 0.009841803 0.040003844 0.11466836 -0.092153415 0.30222902 0.08667733 0.09050908 0.072071575 -0.21311685 0.099840365 -0.12086585 0.123807244 -0.17842618 0.08469717 -0.0012536594 0.033873312 0.048656527 -0.06578002 0.116537966 -0.065012224 -0.021917384 -0.007744285 0.015561027 -0.044650026 -0.05474724 -0.052991048 -0.099060304 -0.13176985 0.14292827 0.095265485 0.018373957 0.010510523 -0.039594024 0.116582274 -0.015264506 -0.27157968 -0.0058244537 0.08028112 0.026821341 -0.05480471 0.30372584 -0.08605745 0.07938703 -0.14488705 -0.0037668422 -0.058490146 -0.15201738 -0.051822037 -0.03195283 0.22459804 -0.0652242 -0.17658536 -0.044590537 0.26950058 -0.10143943 0.22151625 0.013824141 -0.0695196 -0.29382038 -0.19353001 0.37493435 -0.01048772 0.046779886 0.03792263 0.085420564 -0.06403207 0.11985987 -0.1517849 -0.11347629 -0.05142002 -0.048104994 -0.09414115 0.09711135 -0.06624799 -0.19305494 -0.01166039 0.08115909 -0.20689791 -0.08829377 -0.02949166 0.06615951 -0.17906079 -0.2523752 -0.22362292 0.0435125 0.11849829 -0.071313456 -0.044133637 0.15086251 0.10731438 -0.079675406 0.06716386 -0.08374518 -0.016394272 0.12289051 -0.06330714 -0.09361804 0.072982244 -0.05696344 0.12153218 0.049988545 -0.049644884 0.2192592 -0.047398493
30 0.14704773 -0.104307644 -0.015776351 -0.051209163 -0.053076264 -0.17149107 0.03808881 0.19380954 0.014629609 0.023263574 0.08892348 -0.044057902 0.021246439 0.026288066 0.03849057 -0.0023887986 0.10974306 0.0035184317 -0.119037956 -0.037784547 0.17424291 -0.075856015 0.019592281 0.055428408 0.012928732 -0.032676086 -0.0635598 0.08868043 0.16922545 -0.06905034 -0.118307084 0.037053652 0.12709911 -0.01636722 -0.07287409 0.071771264 0.1068563 -0.09793639 0.05368292 0.081951395 -0.050953507 0.02144212 -0.07393373 -0.06839347 -0.030857008 -0.019441655 0.009805904 -0.030187134 0.00633724 -0.05585231 -0.052608784 -0.024900222 -0.067564346 -0.024456777 0.08676195 -0.04395238 0.08657428 -0.06416159 -0.047501788 -0.009242238 0.02075556 -0.026187845 -0.06762181 0.053046357 0.13137545 -0.050590888 0.08720132 -0.022713967 -0.07506285 -0.16966164 0.03480179 -0.005578018 -0.10831034 -0.013641892 0.057728898 -0.124941565 -0.033413388 -0.018567689 -0.007847072 0.033385217 -0.002614772 -0.12290189 0.003406556 0.039382033 0.17817076 0.16271105 -0.07003335 -0.09940754 0.103077605 0.03396545 -0.008782196 -0.048553303 0.10306791 0.14354758 0.048101086 0.07719205 -0.15765914 -0.29843304 -0.021153543 -0.0021028344 -0.14720213 0.022738434 -0.03270473 -0.062057212 0.055856165 -0.16302678 -0.080039755 -0.16037117 0.094222896 -0.049059335 -0.09811838 -0.065999165 0.084344015 0.061649956 0.12232367 0.054955326 0.09160056 0.13305862 0.034152336 -0.08769673 0.046577923 -0.08184312 -0.04838824 0.06266485 -0.051639598 0.017906273 0.044905525 -0.015706232
27 -0.040626988 0.1312136 -0.09206557 0.04098017 -0.018374072 0.04943903 -0.06666893 -0.076297246 0.0552509 0.16322619 -0.16781095 -0.01940812 0.062616274 0.062946506 -0.20005813 0.2435293 0.01577126 -0.018044477 -0.020204492 0.08267339 0.12161285 0.16177046 0.09924219 -0.03839304 -0.08320097 -0.11513453 -0.10267501 -0.11413213 -0.0040839496 -0.099876076 -0.06421383 -0.051180385 -0.14078005 -0.0014722514 0.047798403 0.11476912 0.017291976 -0.01549238 0.041082438 0.027838953 -0.17227466 -0.15831296 0.0580738 -0.08245309 0.06291041 0.088698454 -0.0009057974 -0.004850174 -0.15376873 0.15216859 -0.13452648 0.15254965 0.045543738 -0.122698575 -0.053992677 -0.014131046 0.048336703 0.10425231 0.030633088 -0.027433032 -0.06599557 0.044537555 0.033382628 -0.011168976 0.20950146 -0.02070108 0.037058946 0.07866152 -0.021833139 -0.073776245 0.08432904 0.15097755 -0.11098335 0.01317301 0.04225131 -0.1894417 -0.15557526 0.0037740308 0.06924818 0.213986 0.037271727 -0.07921157 -0.013645304 0.22306205 0.01963255 0.042889386 0.05954048 -0.063952535 0.13514161 -0.068461254 0.14096011 -0.1964802 0.11781874 0.0577042 0.07413686 0.12321942 -0.079146154 -0.15934995 -0.0977405 -0.0033490895 -0.10010864 0.053412758 -0.10381952 0.091079354 -0.07505037 -0.07473991 0.042964265 -0.02589273 -0.10277225 -0.012912539 -0.18282802 -0.11927567 0.11170912 0.14205886 -0.114957236 -0.025573354 0.1293845 0.24114612 0.116608426 0.030578364 0.002664072 -0.0042495145 -0.09740078 0.062668286 0.086918615 -0.03177834 -0.0035225067 0.07808782
10 0.058568154 -0.048117094 -0.23767467 -0.06899707 0.2412576 0.08880927 -0.104261726 0.1161583 0.26670122 -0.03961081 -0.15698747 -0.20954938 0.14691591 -0.25976777 0.14830367 -0.20392916 0.14869615 0.11033237 0.05555245 0.028168185 -0.055464618 -0.07869945 -0.022764305 -0.030339397 -0.031578586 0.012867271 0.12966123 -0.017812245 0.18610646 0.100386456 0.09406216 0.053894743 -0.18170269 0.08456279 -0.14711754 0.104972266 -0.17278947 0.06653169 0.009904075 -0.0100952815 0.042667348 0.008398112 0.033882078 -0.021229861 -0.0548688 0.04758232 0.029673394 0.0075954935 -0.028213784 -0.010313049 -0.12660211 -0.07573497 0.2384911 0.1674525 0.07840374 0.047042936 -0.10971003 0.12637118 -0.07618562 -0.11664521 0.00390779 0.10877497 0.061894234 -0.046422914 0.25297624 -0.11007169 -0.015060185 -0.20356001 0.06167984 0.032329805 -0.19173887 -0.08220147 0.0027510675 0.27172837 -0.13109973 -0.12602334 -0.031239694 0.26188862 -0.16059862 0.21609284 0.03718645 -0.022781279 -0.24035007 -0.2263478 0.34601507 -0.035883345 0.0844172 0.023294806 0.0011629765 -0.080258735 0.049545564 -0.07543732 -0.21383835 -0.059190188 -0.013039044 -0.16609934 0.0032383797 -0.016772099 -0.14916907 -0.09174183 -0.0050537563 -0.2601616 -0.037199862 -0.010822634 0.04671579 -0.11853388 -0.23183669 -0.206679 0.0675112 0.055333905 -0.005410074 -0.046830457 0.12778051 0.13580565 -0.13592236 0.021349937 -0.14700566 -0.11112024 0.06924351 0.069581285 -0.13542683 0.005704095 0.030449517 0.095614806 0.033906166 -0.10237083 0.22922276 -0.040669583
28 0.009698588 0.08945511 0.009125654 -0.06635929 -0.028269606 -0.12696983 -0.033461183 0.07064404 -0.017207693 0.14305678 0.059197 -0.09812803 -0.064728975 0.030675638 -0.024622817 -0.057668716 0.019424764 0.070722535 -0.10983754 -0.005050159 0.11638535 0.0911192 0.075755715 0.081835486 -0.08744518 0.055504687 -0.05598046 -0.0021040384 0.099062175 -0.08509463 -0.24849436 0.037771147 -0.12590759 -0.025542283 -0.054941043 0.070656754 0.06850694 0.040514063 0.092227906 0.019618 -0.15460642 0.0039791916 -0.0024942225 -0.0851381 0.012802376 0.033517793 -0.111706845 -0.050576944 -0.055773348 0.06427967 -0.052045297 -0.0050224233 0.11331088 0.030413613 -0.053558223 0.03539273 0.02299422 -0.010424278 -0.019462412 -0.04859055 0.07615175 0.022171512 -0.03954168 -0.0128701255 0.08513133 -0.052706283 -0.003498521 0.03446076 -0.032077968 -0.054587595 0.041609176 0.0720482 -0.086646274 -0.100700475 0.042926796 -0.09603864 -0.12722827 0.00070498144 0.022520186 0.12444927 -0.018383633 -0.12024342 -0.0042221504 0.10127714 0.041142374 -0.056554053 0.03725106 -0.020379094 0.10694253 -0.04684447 0.071448 -0.15688397 -0.012517766 0.047016934 -0.018460205 0.0031028527 -0.023222629 -0.09858891 -0.06786215 -0.020796357 -0.06139285 0.042155895 -0.09758354 0.08306966 -0.030917153 -0.033291407 0.09638236 -0.074692905 -0.093047895 0.009988103 -0.05819035 -0.08097756 0.083705105 0.0050373506 -0.052888528 -0.03953604 0.0070346957 0.16867766 0.112699255 -0.05029554 -0.005914031 0.0076409616 -0.0592784 0.067988135 -0.021946196 -0.046453085 -0.019568022 0.016495584
19 0.03666687 -0.019282706 0.032115832 -0.051045083 0.053913977 -0.056301318 -0.05321233 0.053691592 0.08408798 0.076757595 -0.019533202 -0.13983704 0.046070755 -0.019632457 0.012712308 -0.09025045 0.11703015 0.13877632 -0.034650505 0.03984115 0.1774749 -0.01412669 0.046979453 0.015796475 -0.0982406 -0.05061695 -0.05252526 -0.043788932 0.115380704 -0.058647893 -0.06837739 0.08159296 -0.031802934 0.035155006 -0.115726195 0.04481843 0.03695198 0.050416134 0.036132503 -0.0027233723 -0.03480955 0.06300178 -0.019237366 -0.10297308 -0.09865553 0.024583528 0.013297815 -0.09708013 -0.011265949 0.04938638 -0.083526105 -0.0068048974 0.08221815 0.123056285 -0.01247504 0.081417516 -0.095407926 0.06580465 -0.09386939 0.03226911 0.060325492 0.084072456 0.009520746 -0.028240215 0.09703108 -0.043746393 -0.035204705 -0.048063677 0.053446148 -0.014034518 -0.0040712506 0.021522028 -0.05543405 0.024454825 -0.0029899345 -0.06805696 -0.08654513 0.02693997 -0.07351258 0.13583504 0.03913063 -0.05713557 0.0368818 -0.03193995 0.15450676 0.048430797 0.035841614 -0.11800432 -0.03387241 -0.0051010707 -0.0690596 -0.018149443 -0.09700853 0.029772248 0.10420793 -0.025465522 -0.087967016 -0.11436184 -0.061777383 -0.07013205 -0.09784711 -0.066062465 0.02054668 -0.034291115 0.021367202 -0.06724808 -0.093753114 -0.089356706 0.10822813 -0.04553376 -0.033698212 -0.032247126 0.10934417 0.15123609 -0.06634952 -0.028985042 -0.15542816 -0.0591481 0.07705826 0.1410828 -0.07448888 -0.09876716 0.017795412 0.024342135 0.030417362 -0.026414968 0.05184545 -0.037695654
4 0.063109025 0.0081221005 -0.26053366 -0.035611138 0.17992534 0.04964128 -0.030761153 0.16319993 0.20018296 0.03242957 -0.17785233 -0.11487939 0.14017431 -0.22455892 0.09681419 -0.09071701 0.22316596 0.124037504 0.014122445 0.02530742 -0.033405796 -0.118110016 0.016207673 -0.02887119 0.029372985 -0.095292 0.040117417 -0.048418894 0.26527387 0.042074375 0.09379233 0.08875719 -0.15235299 0.01658309 -0.18207519 0.05978596 -0.1735702 -0.050321035 -0.019109769 0.052189376 0.114170164 -0.023998184 0.05419227 -0.06377034 -0.08851122 0.00927751 -0.017019419 -0.042421453 -0.06591029 -0.04781845 -0.04301746 -0.13024448 0.1404399 0.044744916 -0.0043812986 0.046878166 -0.069654875 0.08070231 0.008095306 -0.08737922 0.0031551921 0.19485874 -0.03463662 0.054806497 0.14975269 -0.21504834 0.002664163 -0.1580796 0.082389854 -0.013493072 -0.122665145 0.069480725 -0.025038391 0.18931915 -0.13787624 -0.19472028 -0.14143348 0.24175775 -0.12865953 0.28308246 0.010451287 -0.048387554 -0.1382582 -0.13521472 0.34482563 0.03880425 0.046032723 0.02769069 0.06640288 -0.010732744 0.009911576 -0.16105658 -0.15520267 -0.029457113 -0.090947166 -0.11465622 0.15122364 -0.00031074096 -0.118446864 -0.058550578 0.121116415 -0.12582335 -0.15521996 -0.06421148 0.016253795 -0.14894605 -0.17662877 -0.13898996 0.057708137 0.079090126 -0.01102392 -0.03963377 0.07967664 0.15415601 -0.16487776 -0.018762434 -0.12033551 -0.099442385 0.12922323 0.10853129 -0.1255333 -0.05859875 -0.051439118 0.06435535 0.03601052 -0.04377595 0.08448556 -0.094014324
25 0.026294459 0.13776451 -0.06047199 0.011756188 0.058974255 -0.036936656 0.063470095 0.043830577 0.0614442 0.17439045 -0.13330775 -0.16321288 0.10969122 0.036952164 -0.07682077 0.07707398 0.087782815 -0.08388528 -0.004762476 0.13179177 0.17335273 0.17973411 0.013731383 -0.063340314 -0.076717764 -0.095723145 -0.046563588 -0.0013342313 0.07278126 -0.11761788 -0.091118544 -0.036877707 -0.19042563 -0.0060479296 0.0040429607 0.10775115 -0.094928965 0.008606742 -0.01291768 -0.0020891188 -0.20487443 -0.18630797 0.0082040215 -0.008808735 0.13503894 0.17688116 -0.04815763 0.03484295 -0.1826595 0.17121711 -0.2052409 0.36910275 -0.05695384 -0.33364752 -0.13083974 -0.14603709 0.093112566 0.1927764 0.19781962 -0.12965778 -0.1775367 -0.011620642 0.039241493 -0.01945224 0.26309288 -0.091661096 0.04644924 0.073052116 0.0028685993 -0.07963291 0.092171155 0.2502665 -0.20243108 -0.032879524 0.10808086 -0.22320776 -0.18107766 0.026269251 0.06486137 0.28101376 0.038751446 -0.168585 -0.015391224 0.34729567 0.09312992 -0.038312856 0.14128584 -0.15979195 0.24662802 -0.11162669 0.1357814 -0.32239947 0.046664573 0.106749915 0.061330162 0.123560466 -0.026254099 -0.12999067 -0.19390318 -0.009032609 -0.09819567 0.08010357 -0.1329652 0.15309046 -0.10124147 -0.054283656 0.113196686 -0.11903705 -0.12792324 0.071724795 -0.16182065 -0.16883855 0.0051515223 -0.010539271 -0.2090342 -0.0094024185 0.22811523 0.26877803 0.073887 -0.03456863 0.03175761 0.09006016 -0.043106932 0.089777805 0.021820694 0.020638114 -0.059108537 0.13492982
24 -0.043388203 0.19123681 0.00789237 -0.13337278 -0.05474874 -0.12924428 -0.05597027 0.013355379 0.060380634 0.30522168 -0.0010228138 0.0020399473 0.061167896 0.07649684 -0.10633793 0.15826033 0.11170261 -0.0173323 -0.033136237 0.12006672 0.12687878 0.15363497 0.0002886239 -0.030058539 -0.117688395 -0.107799135 -0.12447469 -0.043873224 -0.021800026 -0.11654944 -0.12437347 -0.09414571 -0.21275222 0.009938205 0.016028682 0.21260025 0.011684888 -0.09977288 0.05380677 0.024911193 -0.31191367 -0.1564773 0.0024513435 -0.09439684 0.07441594 0.13310327 -0.04957845 0.043934915 -0.21935222 0.1820598 -0.15261278 0.30714822 -0.001031639 -0.33251604 -0.06947311 -0.046128202 0.08604932 0.18600549 0.13317503 0.03485154 -0.19459732 0.094365336 -0.10331757 -0.03627675 0.36195934 -0.07850266 0.046426345 -0.025518384 -0.011049088 -0.078918114 0.03559325 0.18096265 -0.16942129 -0.00969623 0.029677596 -0.3062808 -0.1970409 0.024589006 0.07188392 0.29954338 0.039846756 -0.14372177 -0.045952488 0.28383362 0.053001568 -0.05373567 0.0092346305 -0.117243 0.12978356 -0.22613618 0.1209691 -0.31796968 0.047738492 0.061248675 -0.040785782 0.027162164 -0.055985548 -0.17959647 -0.17229716 -0.06038315 -0.16279699 0.085989654 -0.14962499 0.1945331 -0.117876604 -0.089398935 0.11371782 -0.16810822 -0.16799772 0.055384338 -0.23777692 -0.17375046 0.022449657 0.04297648 -0.285765 -0.053479623 0.069384895 0.25062278 0.11101456 -0.061678603 -0.04295814 -0.010207728 -0.11331324 0.06308288 -0.021331822 0.017135473 -0.101432115 0.09216479
15 0.0013809741 0.0006536937 -0.015615323 -0.0002336467 -0.02573704 -0.1567796 0.09556492 0.15510462 -0.0065312884 0.07093565 0.060744904 -0.048535798 0.007489553 -0.0036232243 0.033481825 -0.008290729 0.22772205 0.027745958 -0.074662164 0.060217395 0.13985293 -0.0018822976 -0.04451699 0.027118593 -0.022158587 -0.06876689 -0.041328 0.06865024 0.17935248 -0.12723987 -0.09004993 0.021785844 -0.029849527 -0.0002509832 -0.098614365 0.18066996 0.07735232 -0.13015966 0.06432259 0.051221076 -0.09972651 0.049550455 0.0090095885 -0.08513472 -0.0142196845 0.033146992 -0.05204002 -0.0092706485 0.0047335653 -0.029020455 -0.082119316 -0.019544637 0.07800291 0.0025492408 0.15320216 -0.050714456 -0.03779326 -0.024125233 -0.049290806 -0.030777471 0.033247955 0.03517663 -0.09718318 0.046898827 0.15246207 -0.01643698 0.019976886 0.07306682 -0.06253057 -0.09353626 0.10957906 0.023802526 -0.21077707 -0.05927349 0.13353878 -0.121838756 -0.0827604 -0.09428639 0.053433012 0.10282731 -0.020407736 -0.13543926 0.07437709 0.13769752 0.089330934 0.039548863 -0.013152128 -0.13006733 0.13194859 -0.041472334 0.0966409 -0.102656305 0.094738655 0.1540308 0.16063163 0.09988521 -0.15355834 -0.21500368 0.034969807 0.0370212 -0.10578124 0.097472034 -0.0398297 -0.024501976 0.115479946 -0.012912406 -0.01996556 -0.10971744 0.077527605 -0.061807994 -0.02951441 -0.02637725 0.03127706 -0.05097362 0.1736008 -0.019876994 0.13408469 0.036405552 -0.066476956 -0.19726565 0.0642885 0.042736046 -0.03365078 -0.0047891806 -0.060720086 0.06540341 0.10960474 -0.0050799516
26 -0.17083848 0.06649601 -0.08956298 0.23329699 0.034230545 -0.022406032 0.1456494 0.055374306 -0.08277652 0.1532525 0.047125813 -0.050718248 0.04012132 0.10037495 -0.035329234 0.058496855 0.20309584 0.09129953 -0.0786528 0.19984828 0.104301445 0.06611265 -0.036129937 -0.018989267 -0.13309422 -0.084649466 -0.14752527 0.106999435 -0.06658002 -0.1528934 -0.13424687 -0.0046253717 -0.029380552 -0.014559743 0.029136093 0.1233272 0.026023382 -0.081954 0.033317626 0.08069043 -0.22958969 0.10645849 -0.065228924 -0.13287653 0.074976645 0.08061553 -0.051477708 0.09500641 0.01567074 0.24381323 -0.1280067 0.10122055 0.27777812 0.11156978 0.12273641 0.13202357 -0.072678864 0.0384229 -0.06506506 0.14229159 0.0493232 0.033143684 0.07190853 0.091089435 0.06553682 0.10879816 0.0416907 0.08886927 -0.08260977 0.023035042 0.043886192 -0.000786158 0.01925217 -0.13553931 0.2375623 -0.09792242 0.14085208 -0.0833659 -0.007098552 0.019709736 0.0106767 -0.024978278 -0.010564349 0.14341055 -0.064751476 -0.0046702283 0.19424693 -0.004042929 0.08812153 0.04988562 0.07937872 -0.1298615 0.009658517 0.024485206 0.16091901 0.15373412 -0.27252808 -0.27167007 0.042107105 0.00062293233 -0.24940667 -0.104831226 0.08554751 0.06548683 0.074256204 0.054277252 -0.006279682 -0.009932717 0.01292143 -0.096666954 -0.029081926 0.025236359 0.20770833 0.146249 -0.012907999 0.030942697 0.12205829 0.119307145 0.04298313 0.16071223 0.008580509 -0.045812044 0.0756291 0.08241373 0.10774702 -0.07173425 0.1300447 0.040662486
21 0.098693505 -0.073552 0.045413665 -0.11541477 0.07380789 -0.051172554 -0.10738223 0.061436467 0.14436126 0.0016670383 -0.013309087 -0.14519195 0.06104151 -0.086726084 0.04407484 -0.16856417 0.039892778 0.15061945 -0.009218208 -0.05805781 0.14021054 -0.039353643 0.11099364 0.008543662 -0.045201465 0.02983633 0.020680508 -0.056653976 0.18110716 -0.0016283509 -0.07997844 0.11838321 -0.010260372 0.03165388 -0.12749746 -0.004425483 0.03716962 0.13424169 0.03501577 -0.072843045 0.041101668 0.072881065 -0.070192896 -0.07888067 -0.067724496 -0.006234239 0.0031061615 -0.1593341 0.01076556 0.037825987 -0.03223892 0.016990239 0.013004001 0.10418758 -0.04911881 0.04481592 -0.04412214 0.06354224 -0.058428187 -0.017549416 0.035340372 0.040821828 0.05109648 -0.065373234 0.07307196 -0.035381183 -0.0022979327 -0.030760756 0.06416018 -0.05972491 0.02139274 0.02525459 -0.05389939 0.0010452287 -0.03786949 -0.01763636 -0.057331417 0.053929567 -0.0688501 0.1324146 0.025512135 -0.06565771 0.042321287 -0.016955202 0.15058722 0.030659469 0.08166847 -0.15978138 -0.01578137 0.035378147 -0.12079017 0.012507916 -0.09527264 0.010381951 0.11188432 -0.027422674 -0.06733863 -0.120344155 -0.06348112 -0.08035921 -0.09495213 -0.06268064 0.04599015 -0.024607226 0.03135813 -0.10758028 -0.10513205 -0.12996544 0.09233472 -0.011017872 -0.004703908 -0.040370908 0.082275495 0.18522033 -0.087812014 0.009892605 -0.15319388 -0.022019265 0.1192347 0.19549398 -0.06509355 -0.10338567 0.045576904 0.027713943 0.030812664 -0.079633154 -0.005496901 -0.04681543
12 0.17638266 -0.1738692 -0.11396267 -0.025989072 0.09913604 0.103410065 -0.05254883 0.10517992 0.09102637 -0.054257747 -0.07031425 -0.16313218 -0.00789159 -0.1106448 0.07675243 -0.19048464 -0.08769941 0.082882084 0.021120934 0.0099029485 0.029891955 0.016588556 0.039381824 0.099235676 -0.040095244 0.032815974 -0.014226889 -0.033851065 -0.0010123501 0.061136644 -0.08792284 0.07268534 0.09767928 0.0024648008 -0.020703353 -0.15918842 0.009815942 0.14035681 0.012572214 -0.07615117 0.14400253 0.013552901 -0.06785075 0.046942934 0.055995222 -0.09216481 0.001400079 -0.07966597 0.016974393 0.042600103 -0.020561425 -0.042600833 0.08401262 0.16234252 -0.015870884 0.06514021 -0.027667487 0.01799282 -0.047041405 6.683791e-05 0.031767435 -0.0720238 0.14862388 0.078414336 0.07312255 -0.11546307 -0.0129502695 -0.057199124 0.044572223 -0.20145951 0.0342826 0.0473919 -0.061636828 0.09481027 -0.13361865 -0.09735033 -0.11921871 0.17756212 -0.122971885 0.3058182 0.013635861 -0.10745301 0.026183479 0.03321372 0.17099288 0.036190785 0.26544052 -0.095724665 0.1413703 0.2142146 -0.14009319 0.01397237 -0.1484733 -0.028123485 0.2199961 0.0064896196 -0.08038454 -0.057876766 0.0015042177 -0.12119932 -0.047648095 -0.13588226 -0.00844382 -0.10778359 -0.049332257 -0.080344036 -0.11615714 -0.046361372 0.025687454 -0.044423025 0.11251858 -0.024875294 0.0064291554 0.24104702 -0.17097059 -0.03538781 -0.07745009 -0.031582065 0.17150739 0.36168566 -0.07402369 -0.16071351 0.00459534 0.050703455 0.056878813 -0.17421414 -0.04305262 -0.033054426
9 -0.026601486 0.06789703 -0.075979084 0.011626497 -0.00020319002 0.013871489 -0.0727033 0.022279175 0.02759371 0.06693665 -0.07428076 -0.021364858 -0.04017095 0.00033037487 -0.09304669 0.041614946 -0.0038888108 0.07218594 -0.064064614 0.015950067 0.082514785 0.07941538 0.13426167 0.04168527 -0.07556011 0.043357357 -0.051074285 -0.075581305 0.1306515 -0.09489667 -0.18335198 0.05631171 -0.13854885 -0.008379719 -0.021296654 0.09053057 0.06682891 0.062137343 0.08130698 0.017242137 -0.10735147 0.0108447885 0.029028608 -0.104988925 0.057094224 -0.008358265 -0.08310571 -0.08716246 -0.039213184 0.06627965 -0.022220714 -0.08056241 0.16613321 0.11504489 -0.0072540585 0.0643607 0.0028204832 -0.014326183 -0.05066636 -0.08363388 0.11097889 0.0061628507 0.025358664 0.021527983 0.0662404 0.021441737 0.010052243 0.12837605 -0.049746476 -0.109976105 0.10154556 0.030483706 -0.06971509 -0.08449166 0.04437698 -0.03991854 -0.10877631 -0.030670688 0.057955433 0.1144737 -0.042899463 -0.10250366 0.02688572 0.058997817 -0.0009888064 -0.0361001 0.10428304 -0.0039435257 0.11995697 0.06730319 0.059838783 -0.052471638 0.050147228 0.005391927 0.05698676 0.05682133 -0.06358 -0.111843996 0.04333762 -0.010360402 -0.057839725 0.052230045 -0.08027384 0.005127722 -0.0025821002 -0.008221803 0.021597754 -0.00071591046 -0.08221878 -0.025321005 -0.0233759 -0.040189732 0.11047825 0.084904864 0.0073565575 -0.04355523 0.06645826 0.1824689 0.15436888 0.036893748 0.008534482 -0.02649584 -0.0726478 0.04483402 0.017260354 -0.10476438 0.0057756472 0.0019303258
20 0.02351473 -0.035159066 -0.015155243 -0.03636705 -0.023686295 -0.11980686 0.06701042 0.15608832 0.034338553 0.030301165 0.0830333 -0.035450816 0.016958151 -0.01655826 0.08759114 -0.08507793 0.1950104 0.056704048 -0.072933406 0.047026213 0.13511057 -0.03617464 -0.058572378 0.011195082 -0.054156978 -0.013499594 -0.06656471 0.09879523 0.20590964 -0.09715092 -0.11969906 0.05954422 -0.0029660398 -0.004787756 -0.056369994 0.16745825 0.0906344 -0.10291048 0.052305643 0.060698807 -0.1275067 0.11811459 -0.039737187 -0.08806808 0.0462966 0.016600052 -0.05906016 -0.0076242266 0.036873594 0.015967213 -0.06489475 -0.024668545 0.1005254 0.037905242 0.18942176 0.022203304 -0.05638007 -0.013131584 -0.07758583 0.0025932288 0.034395263 -0.012012066 -0.093089096 0.0847389 0.21871834 0.024364661 0.04516194 0.049909648 -0.08155091 -0.119723916 0.05688049 -0.011218395 -0.18093625 -0.04985454 0.17219701 -0.12221942 -0.021048263 -0.08061531 0.07728705 0.07373043 -0.020299533 -0.12765467 0.028178012 0.11799556 0.06408863 -0.0059362226 0.015320392 -0.12293472 0.14687489 -0.051209394 0.06102286 -0.10018005 0.06933925 0.120993234 0.14122878 0.096071124 -0.18893099 -0.24068034 0.042977646 0.028891949 -0.1842645 0.0872953 0.011229353 -0.008751066 0.075571194 0.019193817 -0.0039037608 -0.1382718 0.04261468 -0.048797827 -0.037412126 -0.023694873 0.036089905 -0.05378028 0.12259653 0.007291885 0.13755023 0.074127376 -0.03898688 -0.16138233 0.06666548 0.031089477 -0.029243674 0.024067223 -0.09155022 0.028789546 0.07496845 -0.008254921
18 -0.03538612 -0.023250256 0.019438835 0.006898084 -0.07485724 -0.13748524 0.09471283 0.112133056 -0.054634646 0.048966307 0.14564165 0.038490072 -0.052713353 0.055524737 0.042519365 -0.022777153 0.17108314 0.07236868 -0.07855216 0.06421818 0.10511247 0.014882999 -0.039274048 0.030556073 -0.046193533 0.0072471653 -0.08073501 0.08493305 0.14912839 -0.116346076 -0.16932689 0.036887515 -0.037279356 -0.0022596603 -0.028880397 0.17623599 0.106913775 -0.093992636 0.0654508 0.053247456 -0.17027734 0.10303642 -0.00070617674 -0.10658208 0.052504744 0.0022159354 -0.10517458 -0.01566894 0.022959704 0.012972882 -0.05082314 -0.051124636 0.16154225 0.088466726 0.16158156 0.03060695 -0.051005334 -0.02461557 -0.07548342 -0.035856348 0.06971921 -0.013970642 -0.07309008 0.047254425 0.13237196 0.053929556 0.024374777 0.11738184 -0.08582103 -0.09091236 0.10245847 -0.0046319314 -0.16257173 -0.11234606 0.17511225 -0.09035894 -0.035768986 -0.109115124 0.06908409 0.0613879 -0.03582988 -0.1485517 0.04622778 0.15255468 0.04818772 -0.038138334 0.08460114 -0.1041186 0.17025332 0.011898627 0.092860535 -0.10617761 0.045218933 0.11583063 0.21296586 0.13056515 -0.15623258 -0.19620405 0.06317343 0.0095063 -0.14375609 0.049900882 -0.015335978 -0.016049333 0.0681148 0.04509044 0.003558862 -0.08252033 -0.019127114 -0.06136155 0.0013543532 -0.008179515 0.056187186 -0.009891956 0.135923 -0.009019106 0.11875265 0.05193428 -0.010064306 -0.112798214 0.051594462 0.032115284 -0.021169145 0.00837421 -0.040788338 -0.012428044 0.09349557 -0.0073996307
14 -0.029293533 0.00020715769 -0.06547222 0.014056186 -0.016228367 -0.078193136 0.029728156 0.11620857 0.007872094 0.047588233 0.038512833 0.006596891 0.020294199 0.01883649 -0.00017373834 0.029242514 0.14703028 0.052561007 -0.10422071 0.030536033 0.12257315 -0.030849185 0.023287326 0.0032277931 -0.038847674 -0.027162615 -0.06366888 0.02860179 0.1830318 -0.08597948 -0.12149796 0.02329126 -0.067670316 0.005727735 -0.047399286 0.16728526 0.0257187 -0.0873615 0.045896396 0.08343069 -0.12570049 0.025179999 0.0064010452 -0.114986256 -0.018679516 0.0136908 -0.044052884 -0.040025648 -0.0018605462 -0.015072035 -0.06946865 -0.05412006 0.14638552 0.08893743 0.1086824 0.039822195 -0.008468547 0.011144423 -0.07783084 -0.040372528 0.06032331 0.026201522 -0.044916097 0.034343384 0.12184694 0.04235147 0.048015524 0.09471469 -0.07870209 -0.08378524 0.06595719 -0.01749511 -0.10512495 -0.0778866 0.12514696 -0.11632615 -0.05118428 -0.11296616 0.0656944 0.036362097 -0.0024136738 -0.10503675 0.03445392 0.13438989 0.03650391 0.03088698 -0.0010128906 -0.04207101 0.10356231 -0.023027694 0.08961553 -0.07627205 0.101711445 0.109696425 0.08373975 0.09231697 -0.10569955 -0.14592423 0.030364728 -0.0067174747 -0.11376997 0.05728554 -0.0447834 0.009302822 0.0137158595 -0.0036415593 0.021547899 -0.049286112 -0.030242726 -0.057007704 -0.06338058 -0.03148783 0.0827838 0.03179358 0.09114155 0.0023817793 0.13066608 0.12622015 0.034652833 -0.0871996 0.024000185 -0.009971261 -0.031197507 0.039199978 -0.02828063 -0.011771874 0.061913855 0.0040134722
22 -0.044598088 0.026000984 -0.02649762 0.034706965 -0.056219425 -0.11250432 0.081323855 0.12018037 -0.011911379 0.115679696 0.03701049 -0.016263451 0.008550169 0.051303778 -0.010615726 0.04925113 0.2236954 0.06770684 -0.093956746 0.09852696 0.1734183 0.027360156 -0.036738392 0.0020885197 -0.085951425 -0.093127474 -0.12087275 0.068089664 0.14365906 -0.16629744 -0.11654309 0.021266356 -0.042817846 -0.0045532747 -0.049885858 0.19265072 0.10628973 -0.1427161 0.06500038 0.08573714 -0.16294314 0.06484154 0.039291646 -0.1371896 0.01272262 0.042813208 -0.03967774 -0.00023172399 -0.003072969 0.031396754 -0.10579825 -0.01642555 0.11579026 0.043297786 0.16409177 0.024833772 -0.07929972 -0.009526972 -0.07943889 0.02848538 0.056105472 0.025054837 -0.1014799 0.08316568 0.17365766 0.050321177 -0.005287969 0.10772484 -0.08871426 -0.045445032 0.099405356 0.026033508 -0.15995897 -0.057789523 0.20364387 -0.13273886 -0.07375532 -0.16461776 0.11864929 0.05993047 0.00070677104 -0.090846926 0.042132124 0.15660518 0.0015047137 0.028115068 -0.026746243 -0.0732346 0.11557281 -0.09280006 0.13737084 -0.11860461 0.12860581 0.12720583 0.1305904 0.13779733 -0.14996046 -0.1979341 0.023642454 0.05346768 -0.15416034 0.1118432 -0.025351379 -0.0022218218 0.035205606 0.04710055 0.012730446 -0.05592777 0.019767465 -0.06479999 -0.09055429 -0.01666787 0.09011553 0.013917312 0.13224085 -0.021014687 0.12885734 0.07222536 -0.013198507 -0.1579599 0.033471547 0.029263958 -0.0554787 0.020581055 -0.028280862 0.03785773 0.13309427 -0.008694901
17 0.12235786 -0.045843296 0.009893769 -0.18701048 0.08729966 -0.0831483 -0.1764932 0.07844072 0.15597628 0.021398274 -0.037290074 -0.20193167 0.057852544 -0.16786818 0.050793752 -0.19799986 0.033952057 0.17182787 -0.016188297 -0.08660423 0.0948178 -0.0431451 0.09434867 0.07004673 -0.031132 0.03824138 0.06618182 -0.060045652 0.16781019 0.04128342 -0.10537368 0.10351069 -0.027982658 0.0051783365 -0.1296057 0.027170103 0.045105945 0.11627073 0.06024662 -0.083197154 0.01841567 0.059050675 -0.10731991 -0.022806956 -0.08228411 0.027944718 -0.015436311 -0.123644665 -0.027058853 0.036868397 -0.049987312 0.05808846 0.052051 0.053679295 -0.021936437 0.0032607412 -0.011239058 0.05498476 -0.053071022 0.011326874 0.01091501 0.07135557 0.048390444 -0.09524227 0.12239383 -0.10319547 -0.03275392 -0.09124813 0.087641284 -0.037139054 -0.022109425 0.02006219 -0.07601246 0.06527638 -0.13111743 -0.06738431 -0.13400783 0.09041165 -0.08582601 0.1722847 0.028933216 -0.050719365 0.0021307901 -0.035195928 0.18756287 0.022843575 0.003918197 -0.10125269 -0.03497787 -0.07494589 -0.033608574 -0.037290625 -0.079381816 0.0465852 -0.0005977687 -0.076732725 -0.026053693 -0.059244417 -0.11214654 -0.08228708 -0.057932463 -0.05641388 -0.05059088 0.031082181 0.0038735059 -0.116221406 -0.06403595 -0.13781072 0.021474963 0.0035380046 -0.06014269 -0.09946659 0.0791517 0.1303395 -0.116065845 -0.036207296 -0.09884979 0.02000247 0.08483092 0.09611196 -0.0747681 -0.071812645 -0.0071540806 0.03212094 0.014235595 -0.072944194 0.036608115 0.0023496435
16 0.085376196 0.0144901965 -0.3985976 0.027070675 0.26037705 0.18698445 -0.023423161 0.1279668 0.29613858 -0.095635206 -0.32110125 -0.20643634 0.17161682 -0.24596475 0.12570567 -0.118586734 0.2389079 0.073353514 -0.0012801059 -0.046061344 -0.021195918 -0.112617955 0.047836293 -0.1323844 0.022496136 -0.010200831 0.1313091 -0.059443675 0.4851434 0.055468395 0.14503725 0.16771688 -0.31301647 0.06682166 -0.25184572 0.10867008 -0.28559616 0.06900147 -0.056146905 0.093200095 0.15325505 -0.03757251 0.20804149 -0.07919242 -0.11274642 0.021294717 -0.024561144 -0.07512743 0.0041395146 -0.14336567 -0.1401528 -0.32398212 0.294005 0.26389864 0.101210944 0.055350102 -0.15611362 0.07820333 -0.113698654 -0.3547601 0.1443521 0.14373268 -0.031053495 0.01885794 0.2170041 -0.16288587 0.019607693 -0.124537 0.009032408 0.00717115 -0.19264437 -0.01342031 -0.05412572 0.2605403 -0.022343565 -0.13000953 -0.08561254 0.26751 -0.13337897 0.1731222 0.03727359 -0.04857026 -0.29715323 -0.31374708 0.513531 0.038674112 0.04248548 0.10906731 0.11127633 -0.021824157 0.14151068 -0.15147528 -0.2036639 -0.007081266 0.003543718 -0.09561585 0.2285621 0.06967084 -0.23612905 0.035206273 0.2683 -0.2468568 -0.07388187 -0.10694674 0.12030644 -0.16041675 -0.2795539 -0.1731429 0.15576491 0.11692429 0.018814482 0.009328784 0.20491686 0.10612822 0.047869004 0.116126716 -0.17879038 -0.17821118 0.08921957 -0.08881515 -0.07881556 0.13829751 -0.0048045004 0.12413687 0.086834766 -0.0043846252 0.341978 -0.13511758
11 0.12775308 -0.073572464 -0.089251 -0.14636728 0.11771479 -0.027479 -0.125494 0.11881048 0.12792496 -0.001403225 -0.035428517 -0.22744866 0.054843504 -0.21522523 0.09456598 -0.23082915 0.054178473 0.16063522 -0.0023011018 -0.015990233 0.040917847 -0.0326703 0.025286552 0.11146654 -0.012334212 -0.0049261414 0.060921412 -0.060938224 0.112636045 0.10851219 -0.105099685 0.045895547 -0.00445766 -0.017737117 -0.098552205 0.00047564646 -0.0131154 0.055742245 0.049224462 -0.08022318 0.0515592 0.023299782 -0.14378707 0.042858444 -0.05160716 0.016599081 -0.04234239 -0.077299796 -0.025128782 0.036672585 -0.035991848 0.029660664 0.15051192 0.09579426 0.031224396 0.04042118 -0.00973845 0.05659092 -0.070944965 0.0713125 -0.03395237 0.08277821 0.10339661 -0.025129974 0.08154874 -0.15735342 -0.03449274 -0.11901147 0.124177165 -0.044229504 -0.03420139 0.01922698 -0.0768025 0.13300067 -0.25025904 -0.0920357 -0.15246266 0.1757748 -0.13473839 0.26053342 0.016407175 -0.05235004 0.056778528 0.06882684 0.1457717 -0.019375242 0.10890332 -0.09175498 0.023527281 0.0017946493 -0.060686003 -0.027893526 -0.12949845 0.028598258 0.06353416 -0.098329775 -0.049563788 0.05432005 -0.021604476 -0.14456537 -0.034025364 -0.06543026 -0.09803581 0.03360342 -0.03692153 -0.052769676 -0.003998939 -0.07659466 -0.058397446 -0.04478214 0.046609238 -0.09880633 -0.06000549 0.08672664 -0.18695824 -0.09289878 0.0067866915 -0.015298959 0.021007335 0.19046052 -0.0762178 -0.0972169 0.0067502325 0.01337988 -0.0028851163 -0.120152175 -0.048302148 0.055965573
