77 128
10 -0.06648735 -0.1730371 0.070640124 0.3799006 0.012958676 0.28753027 -0.05063097 -0.03994336 -0.1998021 -0.0039018802 0.121375516 -0.17387116 -0.076136395 -0.08150873 -0.07775282 -0.13533391 0.12294369 0.0006217994 0.24929728 -0.0016902388 -0.14028345 -0.05635843 -0.020307498 -0.0050558373 -0.040539604 -0.006627322 0.06087515 0.062312905 -0.05249946 -0.065487295 0.031137329 -0.102207266 -0.014344623 -0.0018888377 0.309946 -0.03625436 -0.034821495 -0.11779433 0.0947421 0.17762615 -0.17138033 0.15236054 0.0686355 0.2579374 0.17943457 -0.078767456 -0.059970375 0.10639825 0.008494813 -0.17530398 0.02327607 0.24519917 -0.06496433 -0.11510467 0.058803987 -0.090008795 0.012681333 -0.114828214 -0.10343598 -0.17998669 -0.081631936 0.124338835 -0.43750164 -0.12714557 -0.05960475 0.13641424 -0.19115674 -0.058081545 -0.144738 -0.3722067 -0.024344016 0.11768108 -0.13723756 0.27950388 0.17864262 0.08739864 -0.021657687 -0.15590216 0.18759654 -0.03357073 0.04232022 -0.1370593 0.021135803 -0.26203278 -0.083997846 0.21258558 -0.13627145 0.13066424 0.05956522 -0.18155989 0.28679097 -0.051786732 -0.18097714 0.043702155 -0.30618566 0.2713157 -0.07557767 -0.14962739 -0.006584824 0.16939822 -0.11368959 0.07386809 0.07581412 -0.08799088 0.07594658 0.15435053 -0.2192089 -0.2239002 0.004268699 -0.3077151 0.007399685 0.29305056 -0.328883 -0.28024378 -0.2818586 -0.3517481 -0.3254469 -0.042395916 0.0019986995 -0.07471816 0.039943926 0.26226196 0.21648961 -0.022955755 -0.007680395 0.047027607 0.27369106 0.15964063
73 0.2103146 0.039753247 0.14601268 -0.09483828 -0.13575737 0.054728042 0.047384135 0.1371554 0.22183724 0.13096781 -0.015958373 -0.018782385 0.061137594 -0.01027492 -0.11372327 0.06608426 0.3149401 -0.3819181 0.02073056 0.00755368 0.14029089 -0.016529212 -0.07290722 -0.26121375 0.11459452 -0.23384795 -0.1523506 -0.11853977 -0.17511387 0.09674622 0.18274952 0.07985734 0.03349339 -0.12860876 -0.019070959 -0.17493191 -0.10746469 0.076940306 -0.116241075 -0.27450424 -0.120385475 0.011337539 0.1885571 0.023628255 0.13100387 0.027660266 -0.067432866 -0.12581949 0.26724198 -0.25551033 -0.051130038 -0.031551406 -0.16863517 0.0864868 0.035217512 0.04262231 0.17118466 -0.0385831 -0.10281605 -0.017086184 0.066210225 0.24306087 -0.26561227 -0.12937509 0.05520406 0.02488954 0.0037439843 0.12105533 -0.32606244 0.10105671 0.063581675 -0.18888788 -0.41183546 0.23664175 0.060074367 0.205046 0.057736643 -0.20051551 0.1132552 -0.047912497 0.013024302 0.07674599 -0.012931564 -0.05573304 -0.10907579 0.16602291 0.14503832 0.31597474 0.10300335 -0.021113118 -0.04496616 0.05088991 -0.030295392 0.018809596 -0.12854853 -0.07062762 -0.016478838 -0.14047855 -0.18792617 0.012896869 0.061438672 0.111564696 0.032437187 0.017201109 0.20226938 -0.0859682 -0.026657816 0.014284916 -0.16678928 -0.23986784 -0.000313004 0.02688192 -0.112548895 0.054527193 -0.17861025 0.043646134 -0.16089354 -0.16862363 0.10009439 -0.107083485 -0.24443123 -0.037314594 0.037831344 0.012100152 0.0825805 0.10624114 -0.1856278 -0.040443692
49 0.15077257 -0.06931462 -0.06679063 0.081826694 -0.1173043 0.1349115 -0.23675983 0.05814311 -0.067508504 0.17477381 0.08287869 0.08144312 -0.018197155 -0.098389186 0.027807461 -0.1799291 0.20942225 -0.075297594 0.06333647 0.0019452649 -0.019965999 0.02869233 -0.1434655 -0.20326613 0.06792434 -0.083220035 -0.08171553 -0.13446 -0.23213631 0.077015236 0.010300197 0.008960126 -0.039535444 -0.07863739 0.034123465 -0.072664484 0.04424197 -0.035035852 0.14349337 -0.123456195 0.043497194 0.106436685 0.07488116 -0.15732825 0.14039169 0.06815812 0.07568464 -0.16723807 0.14876513 -0.19961931 -0.040242363 -0.16197857 -0.080642276 -0.1391317 -0.110241234 -0.034911513 -0.12186707 -0.04625668 -0.056603353 -0.006892899 0.15056059 0.119374655 -0.028651586 -0.060029037 -0.1357507 0.05944084 -0.0070978855 0.12833413 -0.08978942 -0.25463456 -0.06418432 -0.031285435 -0.22330916 0.09985367 0.17424564 0.1030959 0.116106406 -0.004503765 -0.05430056 0.17387348 -0.021907479 0.11110529 -0.041098587 -0.071448095 -0.15798533 0.04751376 0.07681628 0.11516692 0.024002453 -0.15418589 0.16927911 0.030608842 -0.02611321 -0.021553058 -0.112184055 0.06857095 -0.15172338 0.040756874 -0.056458578 0.08489427 0.09363601 -0.0139641585 0.0988385 0.040871933 0.011568688 0.09288086 -0.027006064 -0.26941314 -0.2012236 -0.17432529 -0.15129685 0.039748546 -0.15431727 -0.0050274786 -0.13712585 -0.14937884 -0.26560816 -0.061331984 -0.12705375 -0.1548383 -0.20515166 0.28225106 0.075821154 0.20283592 0.08336587 0.13120273 0.028112499 -0.011745471
24 -0.02353954 -0.22584532 -0.19370697 0.1957852 0.08824344 0.32304716 -0.317007 -0.03917973 -0.06924662 0.12873659 0.16474257 -0.05990645 0.07610649 -0.092508756 -0.26017272 -0.014273419 0.12841618 0.094216324 0.09819253 -0.05567179 -0.04264868 -0.08349066 -0.13171867 -0.1258232 -0.18132459 -0.05993983 -0.023428725 -0.06365161 -0.26980096 -0.12008168 -0.06845284 0.02690615 -0.058653913 -0.03510522 0.101682186 -0.12151884 -0.06456892 -0.1389822 0.06030098 0.11149029 -0.22194912 0.016686004 0.0567776 0.08296117 0.13246137 0.072592914 0.02125204 -0.009058333 0.037554227 -0.26559848 -0.021525985 -0.061458625 -0.008469097 -0.05011169 0.044712108 0.07365112 -0.08571999 0.018162793 -0.038375486 -0.09908805 0.08177829 0.22482887 -0.10003653 -0.06639949 -0.015060745 0.114103705 -0.02275683 -0.13337602 -0.093436934 -0.11749204 -0.076992825 0.21583973 -0.13133644 0.014649447 0.16089691 0.07114405 0.10377698 -0.16765486 -0.010463379 0.017886672 -0.043088984 0.011585474 -0.04571755 -0.19118597 0.024574813 0.09282882 -0.028285926 0.12845816 0.11962296 -0.11463765 -0.08155525 -0.007594683 -0.051815048 -0.115782104 0.155472 0.038773 -0.25165647 0.024861759 0.06577737 0.029638588 -0.020858424 -0.12329104 -0.016230943 -0.18238421 0.036780544 -0.06149862 -0.14232174 -0.17295077 -0.21406749 -0.061324004 -0.058857795 0.06387762 -0.038615517 0.049006294 -0.1194782 -0.2829522 -0.101289555 -0.028407186 -0.07168343 0.0016273918 -0.41833997 0.19891983 -0.024649147 0.33197853 0.09035966 0.0066934787 0.12726027 0.028392034
58 -0.055168062 -0.11570951 -0.028530868 0.30700207 0.15601037 0.15288173 -0.069573045 0.0048482562 -0.19775105 -0.19489391 -0.026921691 -0.09160243 -0.22196694 -0.4541431 -0.024126532 -0.25202608 0.11912336 -0.10846919 0.082418896 0.08878463 -0.080222934 0.20454162 -0.23240754 0.19746256 -0.013929126 -0.18666106 -0.0820729 0.15829031 -0.19573781 0.02191162 0.2317855 0.18314137 0.07142693 -0.06722038 -0.064171776 0.09547845 0.080888405 0.045953345 0.119410336 -0.17738211 0.123757005 -0.0365206 -0.04573561 -0.0039957287 0.22848098 0.1922398 -0.06615218 -0.060812194 0.24166365 -0.2068525 0.0024048742 -0.029533565 -0.031024594 2.6607166e-05 -0.09894407 0.06072063 -0.07338677 -0.092913434 -0.16264996 -0.08943854 -0.12926638 0.20170234 -0.4602355 -0.07585871 0.06500286 0.21777254 -0.10112994 0.107886404 -0.28418985 -0.26455143 -0.21157545 -0.10415055 -0.28655702 0.18280353 0.18773328 0.10268627 0.2639136 0.14915694 -0.058484215 0.05837444 -0.09878891 0.21608602 -0.047606394 -0.15238722 -0.02674205 0.13680199 -0.17420995 0.027031712 -0.08542278 -0.15740344 0.033839054 -0.09892343 -0.09589647 0.0918582 -0.3464784 0.3245797 -0.048902914 -0.15265393 0.041645523 0.031543475 -0.057709366 0.11793589 0.039739735 0.10371514 0.22947896 -0.12690005 -0.28892496 0.11911051 -0.16413817 0.016925598 -0.031196076 0.14383352 -0.16050313 0.054082543 -0.15612976 -0.09334356 -0.5055387 -0.2898182 -0.122174606 -0.111927606 -0.19051531 0.40623656 0.14163578 0.12267351 0.111716054 0.13728747 0.35337478 0.024652032
62 -0.03186608 -0.024296235 -0.15827087 0.24573687 0.15860364 0.04683365 0.07098294 0.24036554 -0.33742958 -0.05606289 0.020004401 -0.01466002 -0.17171149 -0.456296 0.15385272 -0.240948 0.26518866 -0.07193981 -0.069967054 -0.10776627 -0.047364112 0.09161028 -0.14972031 -0.025076382 -0.12546784 -0.23090453 -0.067288734 0.0019948843 -0.42660525 0.14690512 0.22569062 0.065470494 -0.07356696 -0.23224603 -0.06056922 0.00016209642 0.15265714 -0.031459406 0.10370498 -0.1952788 0.100789726 -0.00067028106 0.08087237 -0.23906562 0.16745472 0.13508402 -0.004218319 -0.08931108 0.112983294 -0.21946023 0.15057789 0.14902145 -0.14535788 0.04486297 0.056616884 0.09722654 0.0994471 -0.04815013 -0.118293725 -0.120417446 -0.009637464 0.31375635 -0.39314803 -0.14188495 0.06055012 0.2991874 -0.040741503 0.02823698 -0.31841663 -0.5000562 -0.23609084 -0.06385343 -0.090768024 0.18445489 0.31133994 0.15887278 0.13887261 0.0697812 -0.10427065 -0.22443748 -0.002825527 0.08101677 -0.18219429 -0.20838961 -0.16139182 0.10518132 -0.19423743 0.047812816 -0.18068449 -0.29645678 -0.12618408 -0.01658526 -0.13129477 0.034434613 -0.17331643 0.25857893 -0.27698624 -0.22154263 0.21370907 -0.055167228 -0.16559853 -0.01724533 -0.032282606 0.07896365 0.088894725 -0.10317473 -0.094872095 0.05482531 -0.092362635 -0.10468958 -0.14413828 0.10038509 -0.29768664 0.16265617 -0.17909516 -0.22491783 -0.74386585 -0.31207883 -0.23868963 -0.38670376 -0.4138738 0.25360358 0.18054952 0.098463304 0.042062216 0.16567063 0.2535048 -0.036603883
21 -0.085810855 -0.32892102 -0.10065198 -0.12883484 -0.07156943 0.41795632 -0.1402717 0.38485315 -0.008108298 0.08635075 0.21975483 0.20045033 0.056325413 -0.022603266 -0.11858518 -0.18738228 0.16950242 -0.07679717 0.120917484 -0.10019064 0.1754513 -0.3082509 -0.26912522 -0.26409712 -0.1224616 0.04666024 -0.048288446 -0.0048267506 0.12214287 -0.0149632245 -0.0042684614 -0.06639521 -0.09251565 0.323448 -0.12633248 0.16514571 -0.04187692 0.17918989 0.14362366 -0.008888543 -0.49168697 -0.0005712752 -0.099393696 0.1431282 0.11400315 -0.003950821 -0.1711872 0.14722294 -0.12769443 -0.1028636 -0.14526562 0.09895155 0.16810966 0.015220661 -0.15347107 0.15430143 -0.053375855 0.09202483 -0.0370234 0.10566309 0.023856014 0.21069312 -0.112843215 -0.17986311 0.031758536 0.08611194 0.12149133 0.00803879 0.060524926 -0.06297861 0.015915949 0.044836067 -0.18862684 -0.115319245 -0.031700585 -0.028591948 0.26779634 -0.27717295 -0.072755784 0.017652621 -0.01629385 0.091993846 0.08705417 0.07946398 -0.444544 0.23071252 -0.21580327 0.169492 0.111181535 -0.16677837 -0.08089757 0.04771469 0.36358288 0.08923987 0.105408244 -0.080576316 -0.19186221 0.03681271 -0.017809777 0.15961893 -0.013315945 0.010076447 -0.12826209 -0.13867976 0.2717022 -0.24528031 -0.10828461 -0.12932527 -0.18418735 -0.36564642 -0.05959093 0.2248283 -0.2381501 -0.098920465 -0.17338628 -0.35138553 -0.3052047 -0.040914617 -0.054318365 0.036539804 -0.18987128 0.3099708 -0.22357184 0.5455806 0.068205915 -0.008287496 0.24555115 -0.42624643
55 0.18854947 -0.10401833 -0.01665679 0.3398159 0.018095301 0.3004497 -0.11456305 0.067501776 -0.1791338 0.037980925 0.269252 -0.1493607 0.037242703 -0.2545984 -0.1093768 -0.17203188 0.004561837 0.016750546 0.2757843 0.14232875 -0.07570805 -0.08350115 -0.07845175 -0.1365319 0.040011916 -0.056451946 0.12383369 0.11392134 -0.12944804 -0.055533517 -0.017356487 0.12014494 0.037510175 -0.14543909 0.15099087 -0.15452711 0.10584001 -0.06338125 0.18963113 0.06803165 0.1477046 0.069592 0.1634284 0.017481266 0.13286623 0.076614775 -0.12406701 -0.12689787 0.14993855 -0.29202247 -0.02280238 0.14476928 -0.120971344 -0.004688514 -0.01214513 0.00862217 -0.04311429 -0.18369953 -0.06245349 -0.15121402 0.17629328 0.14640434 -0.2717307 -0.15911031 -0.06650021 0.19464435 -0.15955974 -0.12918805 -0.026489893 -0.3373776 -0.07376116 0.04035472 -0.10640788 0.14874724 0.23641208 -0.0032701371 0.16491863 -0.11955739 -0.084233195 0.088659525 -0.036948513 -0.0661634 0.025365967 -0.14827256 -0.059277616 0.13465248 -0.11029644 -0.040675823 -0.005097711 -0.2753842 0.053199057 -0.15018506 -0.13811801 -0.0063487426 -0.25812048 0.33356774 -0.184384 -0.0955081 0.24400213 0.08955417 -0.055098824 -0.014532505 -0.045306142 -0.25032565 0.029790899 0.09890415 -0.2921174 -0.10307166 -0.32888067 -0.16335095 -0.24220785 0.35833418 -0.12219559 -0.044869907 -0.19083644 -0.39523637 -0.49233314 -0.12461108 -0.08158713 -0.11733205 -0.26363826 0.24222259 0.17811413 0.02864182 0.14090429 -0.07766578 0.3981927 0.03973042
26 0.17795263 0.034363467 -0.012122429 0.41863564 -0.028773542 0.26834315 -0.14017294 0.067113005 -0.17938946 0.033808645 0.0030781778 -0.22752075 -0.16938157 -0.1567253 0.099219084 0.003193565 0.24536674 0.027808255 0.25211066 0.06392131 -0.2465475 0.053917233 0.012460164 0.046826173 0.13018443 0.086843684 -0.075324126 0.08664227 -0.23047897 -0.09257412 -0.04857549 -0.08411262 -0.14113095 0.037380904 0.23378552 -0.11753756 0.12168316 -0.21220799 0.13491999 0.40417537 0.021838425 0.28033885 0.13479638 0.094684206 0.21599385 -0.08017565 -0.12633844 0.046723988 0.07896294 -0.15840733 0.18205824 0.15334125 0.0479661 -0.2014467 -0.013546811 -0.025454795 -0.016939372 -0.1549883 0.09412403 -0.15132748 0.12926807 0.17624167 -0.42139468 -0.06028003 -0.06981745 0.25984377 0.07669912 -0.07342669 0.015396909 -0.14984971 -0.26269585 -0.0037486497 -0.0077198166 0.005544362 0.15272246 -0.06094567 -0.06618927 -0.051094558 -0.0026541997 -0.00097055314 -0.087411955 0.1153984 0.03995204 -0.08569894 -0.18351643 0.09316439 -0.010229914 0.04578078 -0.1978049 -0.0492591 0.29099664 -0.17558092 -0.08121339 0.11035486 -0.27545393 0.17021336 -0.040855628 -0.052467722 0.099462435 0.19315079 0.032962315 0.020376315 -0.10553655 -0.13987884 0.19684859 -0.2600961 -0.17947054 -0.14584714 -0.11761518 -0.27247667 -0.18631145 0.20162122 -0.29492244 -0.15291506 -0.2819496 -0.27690315 -0.4932331 0.0069391048 -0.012686013 -0.056489665 -0.2919826 0.3215355 0.13858935 -0.007483303 0.09500215 0.049312048 0.31239733 0.1304074
18 0.077415854 0.11341772 -0.06991084 -0.22782004 -0.1542534 0.18592884 0.016446337 0.35508078 0.2082663 0.28822678 0.1837448 0.08677529 0.074362524 -0.023991423 -0.07175616 -0.06934089 0.15496582 -0.15966024 -0.041863255 -0.13303588 0.06274766 -0.088573955 -0.33086392 -0.2589716 -0.1515454 0.09972729 -0.037955225 -0.003664885 -0.0070064315 0.15221141 -0.030118449 -0.16501035 0.030461183 0.3385452 -0.084512815 0.30219406 0.058284402 0.34304985 0.106150076 0.0074496446 -0.22651033 0.005491156 -0.010513398 -0.051303554 0.06529718 0.026571449 -0.22728176 0.09665937 -0.10518038 -0.18557158 0.03379689 -0.068903975 0.12561665 0.05389323 -0.13019112 0.178422 -0.06300193 0.18471944 0.047010712 -0.06476108 -0.046388317 0.25724182 -0.26260608 -0.22957958 0.012387934 0.053624626 -0.14138333 0.1954801 0.03583419 -0.067894496 0.018737607 -0.09328907 -0.26521462 0.020215064 -0.04666604 0.042416614 0.2555431 -0.29310837 0.094257265 -0.11503596 -0.019756462 -0.005851369 0.20394197 -0.07151564 -0.37133256 0.23705156 -0.19014214 0.13863234 0.100350805 -0.02606042 0.24591343 0.14869295 0.2998869 0.09570443 -0.04872046 -0.14827572 -0.05052681 0.019171368 -0.1899174 0.10134371 0.12082703 0.08571746 -0.070530996 -0.11794689 0.31264123 -0.27732548 -0.04511697 -0.046496034 -0.21819444 -0.44741175 -0.12984352 0.07311334 -0.3190657 -0.1948263 -0.14671466 -0.38980314 -0.22254553 -0.20913689 0.12180682 -0.15478429 -0.23981224 0.23303472 -0.014222052 0.23522645 0.15692519 -0.04373931 -0.0545705 -0.329001
17 -0.15436487 -0.3053776 -0.14482881 -0.05053069 -0.06559049 0.45295 -0.06540985 0.38820386 -0.080355674 0.16045521 0.300996 0.14125806 0.13276044 0.012732368 -0.16990744 -0.19870384 0.13491362 -0.07227585 0.14569451 -0.031626537 0.19782619 -0.30367112 -0.23595123 -0.30845076 -0.12435567 -0.021686288 0.048372652 0.0869459 0.107519045 -0.00035650376 -0.038143232 0.037201412 -0.085311316 0.27457014 -0.12589364 0.071412295 -0.04125907 0.2592035 0.20675912 0.003133968 -0.507247 -0.039127156 -0.12193738 0.07262208 0.1648817 0.040803555 -0.12898366 0.16406913 -0.25779483 -0.16407858 -0.1859356 0.044782657 0.18500684 0.043060333 -0.0625439 0.20868132 -0.0752589 0.07811521 -0.027683929 0.050013084 0.07800279 0.25140908 -0.058650594 -0.14583081 -0.0150188655 0.15784048 0.03844139 -0.015866278 0.106073245 -0.0630975 0.019302635 0.08263045 -0.16174088 -0.1572068 0.01120786 0.03705293 0.31866762 -0.27607337 0.0289652 0.084483616 -0.033365805 0.01951034 0.052186064 0.042134404 -0.37032673 0.17830597 -0.23538345 0.1839938 0.17907402 -0.121752486 -0.045789637 0.044873245 0.37151247 0.12434307 -0.0029433437 -0.06509959 -0.23900111 0.107359216 -0.0061543435 0.17280143 0.034046043 -0.016227009 -0.13788393 -0.14012982 0.2769799 -0.2532795 -0.06267188 -0.14047152 -0.18224338 -0.3965864 -0.07937503 0.22346792 -0.25075027 -0.0997319 -0.14877439 -0.32454854 -0.23055616 -0.11740755 -0.0024813113 0.0689414 -0.2624501 0.2823812 -0.1433317 0.41252083 0.1063294 -0.07721051 0.25231683 -0.33513552
27 -0.10567297 -0.08209998 -0.14502345 0.2255037 -0.07783298 0.16128825 -0.18801132 0.0015637454 -0.27023497 -0.09179725 -0.008076939 -0.12176948 -0.24899283 -0.09290099 -0.046333183 -0.011122657 0.2647232 -0.15431075 0.15205126 -0.043334525 -0.12062795 0.051602393 0.030062985 -0.047101595 -0.18749903 -0.045984235 -0.05098435 0.11325678 -0.24249493 -0.09887542 -0.050776966 -0.16328661 -0.029528078 0.06667841 0.1517397 -0.11263522 0.10908959 0.004272437 -0.09539701 0.20115493 -0.042588957 0.14918214 0.0026334524 0.07068467 0.089362144 0.015768686 -0.1310905 0.028923871 -0.020460987 -0.1669021 0.25898647 0.07736003 -0.00024571142 -0.029829295 0.014178647 0.055331524 -0.07966552 -0.010020558 -0.0134600075 -0.2188737 0.09713886 0.24513867 -0.32326043 -0.089489914 -0.110282 0.1939643 -0.08765678 -0.035471894 -0.042278368 -0.00711073 -0.14996178 0.020153536 -0.16428554 0.09497401 0.09736417 0.08653464 0.1344482 -0.04115051 0.07666797 -0.10574643 -0.13932301 0.04687411 0.01871478 -0.09968475 -0.12063122 0.19262257 0.027925264 0.119174875 -0.049429815 0.05426206 0.18706731 -0.14843476 -0.218984 0.08852227 -0.101944566 0.05951469 -0.06981403 -0.015232531 0.024516774 0.09740649 -0.16329135 0.12503737 -0.053278364 -0.17893185 0.10555751 -0.27220157 -0.08371894 0.0056350227 -0.02004135 -0.22802506 -0.059377663 0.085021004 -0.25377867 0.010126875 -0.16157757 -0.20608848 -0.2947113 -0.070038415 0.067419335 -0.10928741 -0.3030243 0.19468091 0.17211218 0.07613959 0.27421117 0.004329252 0.24006428 0.018742109
70 -0.08603727 -0.09228298 -0.060781676 0.30533138 0.1706889 0.18467289 -0.13441291 -0.21585153 0.1230995 0.1698494 -0.045061693 -0.09985707 -0.03152998 -0.101269804 -0.13369837 -0.009559009 0.19127713 0.024101494 0.06464778 -0.07282142 -0.040294982 0.016197871 -0.04841068 -0.13333543 -0.147232 -0.24419601 -0.15964553 -0.03480808 -0.23719223 0.037241776 -0.059723627 0.092904754 0.095810145 -0.013102322 0.057792507 0.045581657 0.14606805 0.010222377 0.08071287 0.0504228 -0.018268734 -0.09592427 0.024887288 -0.08250052 0.09708764 0.08800433 0.0322136 -0.18126477 0.055618826 -0.15364854 0.0093856035 -0.15356633 -0.096324086 -0.02880627 0.07245841 0.01651208 -0.17197654 0.04805281 -0.037720166 -0.2719609 -0.06780221 0.1526882 -0.11459407 -0.025283858 0.27650225 0.014856881 -0.1704336 0.0552233 -0.3767498 -0.09564317 -0.13989016 0.07485906 -0.123391494 -0.06490884 0.038537703 0.023768391 -0.13092959 -0.24276772 0.098724544 -0.14607161 0.037714098 0.21990873 -0.029910212 -0.07650644 -0.07505195 0.28572407 -0.08996875 0.18793148 -0.06293323 0.029101644 -0.0102427965 -0.105191335 -0.16472536 -0.0816873 -0.009294635 0.10402381 0.046133336 -0.055684716 -0.20412016 -0.06263361 -0.14049235 0.036621276 0.020656979 -0.0019109672 0.23496827 -0.18188748 -0.06059822 -0.0021899263 -0.121751085 -0.037679113 0.08794703 0.03822694 -0.30969295 -0.08897152 -0.16444068 -0.23407051 -0.09501425 -0.15921658 -0.0123131415 -0.1969876 -0.18588549 0.22200038 0.040041387 -0.09386204 0.12629364 0.060944416 0.13972132 0.04440563
25 -0.06165907 -0.24336696 -0.13355216 0.51372755 0.083860315 0.23586258 -0.073756784 -0.059730727 -0.14153332 -0.08325288 0.18935819 -0.10453265 -0.22719155 -0.08938856 -0.11299389 -0.00949069 0.038211726 0.11397113 0.19705863 0.12600282 -0.123308286 -0.028970376 -0.14092253 0.034822345 -0.15321763 -0.15043022 -0.06579375 -0.044724822 -0.11612969 -0.05689419 -0.03855914 0.12953235 0.17382641 -0.07142648 0.009859441 -0.07412694 0.0018444314 0.024388464 0.2797623 0.17933583 -0.052907642 -0.05937424 0.10945689 0.04382134 0.19018804 0.081818245 -0.060917523 0.0072387536 0.04589181 -0.32198793 0.09847523 0.105379514 -0.22409144 -0.18023045 0.100134246 -0.18667005 -0.14961652 0.034504615 -0.18934943 -0.34900042 -0.050614987 0.21446419 -0.32512078 -0.1061918 0.17068207 0.13276212 -0.267898 0.16152705 -0.3130195 -0.11490025 -0.23274525 0.13756306 0.009922801 0.0041145785 0.04104278 0.039429493 0.04915535 -0.26120374 0.059116963 -0.14472897 -0.118623585 0.005177542 -0.077458896 -0.10913016 -0.13760039 0.25530463 -0.07868119 0.07736858 -0.050703585 -0.08794011 0.2647047 0.050403822 -0.002454869 -0.20485099 -0.024922041 0.20945737 -0.06281885 0.053132374 -0.03138644 -0.020820038 -0.15259826 -0.09166323 0.03756124 -0.11283013 0.15800194 -0.14024383 -0.19963166 -0.1968227 -0.13695927 -0.08559196 0.10475565 0.14575066 -0.027678102 -0.25414127 -0.17659806 -0.29065424 -0.22328934 -0.06348542 -0.037493262 -0.07155261 -0.16013445 0.4059437 -0.019501658 0.035598107 0.2573378 -0.021821747 0.32876307 -0.016314186
59 -0.17899783 -0.16394325 0.042132013 0.19503544 0.042014938 0.17168666 0.007983804 -0.015487395 -0.15177786 -0.20097359 0.26710975 -0.14194876 -0.092780694 -0.4293554 -0.07517203 -0.19208106 0.04541736 -0.218513 0.24158 0.07282896 -0.07780466 0.01629169 -0.2348937 0.21797512 0.097686015 -0.19625945 -0.049582873 0.14396857 -0.26742014 0.0044005834 0.14633836 0.2521629 0.092785254 -0.112417236 -0.030223185 0.11083543 0.14818233 -0.11142075 0.06821886 -0.072003484 0.27889705 -0.1093155 -0.1075163 -0.0369203 0.20002988 0.2768149 -0.02256951 0.027448406 0.396964 -0.13317777 0.0702606 0.0087741325 -0.09457913 0.00016716176 0.0030895048 -0.009086761 -0.091241784 -0.048292685 -0.24262236 -0.17386349 -0.1971518 0.11542266 -0.43625748 -0.14646588 0.15291607 0.25267848 -0.12559687 0.068547554 -0.10722797 -0.3057766 -0.15971991 -0.014914575 -0.16232872 0.12998559 0.14362332 -0.005134374 0.21010238 0.17923035 -0.032120086 0.05183366 0.068925954 0.22915749 -0.08139605 -0.09860165 -0.0055249394 0.24677175 -0.342607 0.015873464 -0.09742123 -0.20129372 -0.022031123 -0.105486 -0.14011438 0.023276405 -0.34330413 0.3937873 0.044871293 -0.1155422 0.058168467 0.011730328 -0.08234592 0.15783076 0.055997062 0.14306204 0.35784772 -0.13249111 -0.2768736 0.14395784 -0.26736152 0.06370301 -0.16905497 0.15103073 -0.1611548 0.15899041 -0.09412972 -0.2313863 -0.46448213 -0.2773755 -0.21002714 -0.16222203 -0.3018678 0.45028967 0.21011354 0.070220634 0.2790188 0.039828047 0.5255668 -0.0060989913
23 -0.18084325 0.018857488 -0.29376966 0.17722067 -0.20299304 0.43225336 -0.17463304 0.34527326 -0.14238045 0.15890186 0.13125895 0.0817684 -0.19499105 -0.09683927 -0.12600398 0.08030929 0.18243952 -0.02187529 0.3358875 -0.13384077 -0.22568066 0.07614614 0.05160343 -0.23347418 -0.11849237 -0.058613982 0.016213259 0.2370486 -0.11884486 -0.07926867 -0.06682769 -0.09853302 -0.04911546 0.27313668 0.17597452 -0.0871358 0.1566089 0.22549658 0.04917395 0.17446534 -0.2590206 0.17465211 -0.003910258 0.021587579 0.17495245 -0.15197596 -0.18513048 0.33738413 -0.12750679 -0.074779496 0.33200604 0.010894735 0.10886374 -0.060853593 -0.1755204 0.19394301 0.0008484417 0.13433728 -0.11077619 -0.07175958 -0.08836135 0.15392014 -0.45015365 -0.19459994 -0.051601015 0.20825268 -0.0153896175 -0.054866333 0.07881486 0.06754286 -0.048477788 0.28781798 -0.14045572 -0.0039404267 0.06879724 0.035865907 0.21923475 -0.2103123 -0.030338045 -0.124305956 -0.078978226 0.1764102 -0.03559858 -0.030017775 -0.3283488 0.1525509 -0.20147644 0.04683757 -0.035681672 0.096201 0.22094883 -0.15275483 0.068739206 0.19303711 -0.0014405228 -0.09791579 0.0649273 0.09131357 0.056354895 0.4248848 0.03930845 0.470981 0.06342002 -0.10082554 0.22241487 -0.4004371 -0.15018451 0.029136015 -0.0523227 -0.26162493 -0.14910778 0.23822217 -0.36958525 -0.16059639 -0.30925474 -0.17774335 -0.37718183 -0.22209115 0.16261563 0.059875008 -0.1335283 0.0402394 0.106177345 0.3070892 0.2767263 -0.030348994 0.32799244 -0.03272603
6 0.06921555 -0.29974285 -0.041110385 0.06793737 0.05035923 0.34283683 -0.23979858 0.165056 0.052884687 0.18478344 0.11963886 0.13199727 0.0043873494 -0.025907774 -0.117939316 -0.18666732 0.33262837 -0.22262548 0.12093024 -0.13872023 0.26754135 -0.25158736 -0.24254127 -0.11124937 0.17568709 -0.016093446 -0.10082355 0.001678708 -0.31292295 -0.04679642 0.084077656 0.17185012 -0.21979004 0.0242991 0.14677194 -0.14491753 -0.063355274 -0.10094843 0.08762052 -0.031516824 -0.24248268 -0.0008158575 0.04930777 0.090955086 0.18154648 0.06252171 0.074391186 -0.0069154752 0.18837127 -0.17747036 -0.28881767 -0.028808923 0.0005956171 0.0002555403 -0.052922226 0.0922788 0.19286163 -0.08344857 -0.045335017 0.18030167 0.19009112 0.21678478 0.10353416 -0.11589145 0.0523347 0.04508393 0.13143554 -0.19660935 -0.09904938 0.1108154 0.22158429 0.075264655 -0.21919361 -0.123515636 0.32175788 -0.070983045 0.20277627 -0.12369999 -0.13454415 0.018191215 0.16325633 0.112836935 -0.06121916 -0.21408693 -0.22145203 -0.08292294 0.10445563 0.28440955 0.20898512 -0.19723469 -0.24532586 0.12164781 0.024188457 -0.11204253 -0.063329466 0.013060863 -0.20114315 -0.035802267 -0.21331742 -0.08769795 0.3740221 -0.058241166 -0.00085593865 0.17139982 0.059513897 -0.23883595 -0.05733365 -0.19642116 -0.1427442 -0.09980316 0.033718627 0.05966373 -0.059751514 0.09077592 -0.09145774 -0.087410435 0.089480884 0.009879506 0.07035489 0.09973853 -0.42952746 0.26561847 0.017188061 0.4989743 -0.07126136 0.116600245 -0.18828474 0.0016416254
64 -0.0642947 -0.049045548 -0.0915599 0.32621163 0.21741319 0.21513651 0.052617695 0.1736519 -0.33287165 -0.037507772 0.02302538 -0.18255085 -0.12768392 -0.32361108 0.04509766 -0.23717017 0.17051502 -0.082405545 0.1410551 0.083592415 -0.031792615 0.12809426 -0.1894218 0.08184941 0.098173685 -0.1842952 0.10556593 0.08841043 -0.24801151 0.03175559 0.068822205 0.09350066 0.050395425 -0.114277795 0.15111798 0.059793286 0.13638312 -0.06845454 0.112837985 -0.13047308 0.2443109 0.019605657 -0.011533531 -0.07924737 0.21758531 0.18560988 -0.17612624 -0.13760142 0.18510303 -0.257981 -0.031787444 0.2164699 -0.030575104 0.06092174 0.0018366383 0.14346282 -0.075747676 -0.10992397 -0.045729645 -0.14383112 -0.056286752 0.2390652 -0.5070099 -0.15113343 -0.048755225 0.26687104 -0.1864433 -0.036202174 -0.27613363 -0.31703773 -0.25405198 -0.082253836 -0.18869059 0.20378846 0.32054487 0.12316546 0.21937284 0.2254197 0.0029826446 0.035093587 -0.0010131815 0.16661844 -0.056278944 -0.18063843 -0.07860502 0.112862445 -0.23549542 0.036465026 -0.043334417 -0.27331606 -0.03197858 -0.1945188 -0.11357815 0.13217846 -0.311636 0.46224198 -0.2787879 -0.21736376 0.16440429 -0.0070413393 -0.0714255 0.1024021 -0.1454113 -0.0037499554 0.085226946 -0.04018832 -0.28354195 0.123324536 -0.21274683 -0.08247632 -0.10131081 0.25338346 -0.3264224 0.108570196 -0.14788668 -0.29581445 -0.5351445 -0.23275396 -0.2517683 -0.2965051 -0.35669816 0.359974 0.22152331 0.13904807 0.25008917 0.13800281 0.52302134 -0.016980331
31 -0.0076424456 -0.28708804 0.017036565 -0.009940311 -0.0055582565 0.33432332 -0.16054419 0.11915219 -0.06344718 0.17257535 0.15850194 0.060891204 0.06826558 0.053726535 -0.21633622 -0.054499842 0.17336316 -0.15736394 0.04131589 -0.15874252 0.30405593 -0.30309966 -0.24268128 -0.0507146 -0.07789972 -0.056624193 -0.048782676 -0.040364068 -0.16645949 0.1279344 0.03067355 0.13593234 -0.24052031 0.045369413 -0.062211644 -0.045764994 -0.08371008 0.010915498 0.0060872776 0.020109521 -0.28875512 0.011628083 0.03556643 -0.0017420389 0.12379008 -0.039010983 -0.04279897 0.052526567 0.003612495 -0.14823294 -0.23475346 -0.028181413 0.066253275 0.03347149 -0.022900749 0.118370794 -0.037917446 -0.03853341 0.033555865 0.033012763 0.093292095 0.1744523 -0.048136327 -0.08876529 0.17367458 0.07061536 0.03840396 -0.19055402 -0.116406396 -0.0035329415 0.004302552 0.07203251 -0.0982931 -0.15879165 0.13181144 -0.09170194 0.1369419 -0.22556113 -0.05981107 -0.041907918 0.09472285 0.11341454 -0.007054399 -0.027665937 -0.22945078 0.037385978 -0.043541614 0.10614672 0.006131737 -0.09611311 -0.115176655 -0.028981175 0.036787275 -0.024591874 0.048071463 -0.01270148 -0.16285154 0.05448788 -0.08277819 -0.05786251 0.19367677 -0.18775712 -0.027172 0.00094912003 0.08855522 -0.06868751 -0.08891529 -0.09541586 -0.11711685 -0.309176 -0.03441985 0.12852073 -0.06566666 0.033542525 0.0060036113 -0.20887877 -0.083644725 -0.110849015 0.0047341306 0.06250864 -0.25822356 0.25463468 -0.078022055 0.4599438 -0.14586292 0.004153241 0.2990216 -0.13796912
48 0.11338392 0.03697025 0.00799245 0.2642597 0.16356874 0.26061574 -0.17551802 0.06691974 -0.1975397 -0.048468176 -0.039619103 -0.021283556 -0.2651097 -0.33365878 -0.1082434 -0.093423605 0.16879351 -0.25915706 0.071952865 0.18620427 -0.15916541 0.14537987 -0.05145548 -0.0033042375 -0.07587529 -0.21824898 0.091982745 0.15827556 -0.21800889 -0.14198267 0.028711608 -0.033378366 0.06949758 -0.026928192 0.24481204 0.02036488 0.18518549 -0.10593427 0.14366746 -0.15549517 0.3315345 -0.01792295 -0.020568915 -0.08745427 0.1426976 0.09776155 -0.2458906 -0.05757283 0.15294749 -0.15132032 0.040641304 0.24623185 -0.0046935547 0.043910824 -0.13019139 0.16538301 -0.20923734 -0.07161404 0.026708107 -0.27709 -0.11643247 0.10539637 -0.62710756 -0.08378685 -0.09343609 0.28904402 -0.20032041 0.032717742 -0.21741377 -0.264863 -0.3480538 -0.08121147 -0.27349177 0.14612827 0.16804004 0.13568944 0.38211986 0.26349145 0.006885499 0.0064885938 0.03566774 0.37551415 0.025291763 -0.22961186 -0.044478223 0.13242647 -0.10354055 0.08690501 -0.00017903648 -0.12444876 -0.16759828 -0.13988237 -0.111929454 0.11824394 -0.20683521 0.20825371 -0.3236407 -0.2143491 0.14886916 0.055713635 0.05186126 0.13966107 -0.17946382 -0.00616133 0.20179075 -0.07664366 -0.35196063 0.15445155 -0.26162687 -0.1839205 -0.10515073 0.3141477 -0.28855836 0.1651592 -0.17756791 -0.29916206 -0.2375833 -0.06106571 -0.21293186 -0.27521098 -0.26065275 0.36690956 0.22536 0.19060063 0.14585073 0.11265982 0.41303557 0.17131701
2 0.31660348 -0.59687406 -0.091324314 0.24365352 0.07071197 0.39510188 -0.2056992 0.10373364 -0.051491246 0.1381727 0.24909443 0.019659793 -0.084659204 0.23457348 -0.035678845 -0.064756274 0.33197403 -0.0112113245 0.09483005 0.09573487 0.04302531 -0.26961085 0.0438131 0.14697285 -0.1374867 0.11435664 0.08377875 0.12563644 -0.21299447 -0.3123207 -0.0127802715 -0.005906664 -0.092799276 0.058781836 0.124708824 -0.16242163 0.09506833 -0.015387236 0.15021609 0.05202244 0.010786443 -0.06007361 0.121797785 0.16142587 -0.07722851 -0.08229701 -0.030499829 -0.001905329 0.022408107 -0.07167607 -0.052914243 0.22822101 0.059896957 0.03318125 -0.071409725 0.08318238 0.1329568 -0.10328189 -0.17753696 0.07695475 -0.034754917 0.20101026 -0.13170534 -0.09118438 0.20325929 -0.043812983 -0.0019172851 -0.16847223 0.0032769982 -0.17849971 0.057276066 0.24418086 -0.05183963 -0.19810647 0.0073063727 -0.027882082 0.16737802 -0.12450404 -0.06184608 0.055226326 0.0064769047 -0.1198387 -0.30370986 -0.15163283 -0.07550646 -0.039698415 -0.16854584 0.13586228 0.16780137 -0.3360272 -0.10757961 0.18177515 -0.11021631 0.03396887 -0.0280127 0.21324088 -0.25914344 0.088585936 0.038715508 -0.082416005 0.16844898 -0.057185065 0.089968026 0.054680288 0.0523701 -0.17147207 -0.063033216 -0.15976435 -0.23815162 -0.11444909 0.068427436 0.22226804 -0.09185388 0.047272626 -0.07277412 -0.07894822 -0.19530836 0.024966618 -0.08071798 0.07801587 -0.2192592 0.07525856 0.19577208 0.27145827 -0.078554496 0.03783634 -0.047370672 -0.050764605
1 0.3804536 -0.47797665 0.01826186 0.72438604 0.017503057 0.08821126 0.032823294 -0.08787467 0.053661436 0.042820062 0.4387548 -0.1772514 -0.011487351 0.09414558 -0.0377314 0.12988447 0.055464964 -0.07668425 0.27329484 0.2206865 -0.0026882784 -0.17853501 0.019958215 0.2906465 -0.17415106 0.07302783 -0.14320706 -0.0634802 -0.02652981 -0.19222607 -0.05948439 -0.06473812 -0.17281146 0.22231328 -0.05079823 0.08627941 0.27355677 0.18427783 0.06860619 -0.11927309 -0.084762655 -0.023036666 0.05168609 -0.027334226 0.050660424 -0.00881463 0.0013602293 0.08759809 -0.040610164 0.102813035 0.086455055 0.2597758 -0.035930224 0.08102757 -0.024783472 -0.027994243 0.21564312 -0.06720732 -0.26249474 -0.11336031 -0.18453269 -0.025096873 -0.32162026 -0.049245685 0.21037622 0.0066170166 -0.0038007586 -0.118097164 -0.14992212 -0.40591773 -0.09478557 -0.025940023 -0.023346445 -0.09106491 -0.03330967 -0.09603499 0.0050465874 -0.12749127 0.054148804 -0.008056962 -0.025587708 -0.07531929 -0.17160638 0.015612222 -0.18776132 0.08382636 -0.19455554 0.12483455 0.16563839 -0.11561521 0.22904381 0.015457204 -0.35214978 0.1506159 -0.21467505 0.09598663 -0.09922151 -0.21061641 0.0025733563 -0.033040985 -0.11822415 -0.054391354 0.17702302 0.24869484 0.194158 -0.18828356 0.0005683766 -0.010401761 0.0941309 -0.066090934 -0.042925686 0.13288729 -0.23298703 0.09152842 0.0054167574 -0.13798878 -0.26065165 -0.12826097 -0.030349737 0.0018709142 0.024724219 0.17876698 0.1181151 0.0061902814 0.13232389 -0.09523752 0.29331133 -0.09419068
39 0.22300498 0.0050974456 0.1092948 0.03815841 -0.06850996 0.14740713 -0.061913166 0.11769117 0.2583612 0.1483481 -0.032597996 0.13762245 0.14506812 -0.052666113 -0.22673194 -0.086789206 0.2919968 -0.2684289 0.0678419 0.27104628 0.048676133 0.03857225 -0.08696505 -0.0468526 -0.12516014 -0.21018632 -0.13199961 -0.09451305 -0.24721776 -0.0021363108 0.043940526 0.09198912 -0.028847482 -0.0510904 0.050435487 0.020605136 -0.061230425 -0.12584102 -0.08756298 -0.22343467 -0.048566595 0.010034321 0.19663504 0.06200112 0.15999317 0.07941748 -0.02943019 -0.084325865 0.30567813 -0.26530564 0.01871368 -0.19135155 0.08083208 -0.02318818 -0.0044679814 0.08179204 0.085475735 0.17070903 -0.07658577 -0.051323928 -0.005116938 0.13880286 -0.1696732 -0.1684885 -0.10867795 -0.039467294 0.006743452 -0.0027052755 -0.3461616 0.035995685 0.013785722 -0.20748322 -0.20803823 0.065167926 0.042614482 0.045850575 0.0420468 -0.3314135 0.01820593 -0.16739163 -0.05801616 0.09200786 -0.022105005 -0.089793235 -0.18397178 0.11271271 0.025079312 0.30958477 0.031054579 -0.1780345 0.022201115 0.09480963 -0.07777653 -0.10401728 -0.19678183 -0.0062682494 -0.062385727 0.017960982 -0.21502468 -0.05810682 0.23052485 0.03388722 -0.08774935 0.08513515 0.24338962 -0.17698452 0.0067226817 0.023332974 0.03344642 -0.13464934 0.17225882 -0.06848877 -0.1954336 -0.007875517 -0.114193365 -0.032132544 0.026929874 -0.19652745 -0.099967025 -0.07978231 -0.1009909 0.08071022 -0.045228686 0.05671333 0.12147164 0.04342013 -0.09159611 0.00636883
51 0.35283092 0.1284448 -0.09210543 0.019059613 -0.050273 0.25541708 -0.18414772 0.09243295 -0.1233971 0.256037 0.1586895 -0.15830757 0.08764685 -0.10266621 0.10699077 -0.26817074 0.14375708 -0.1558918 0.11258357 0.11391221 -0.16681913 0.17764673 -0.22340809 -0.09140781 -0.031220928 0.08455986 -0.12160006 -0.029507147 -0.2727198 0.08194661 0.16570488 0.049359296 -0.109701864 -0.09275288 0.09132961 -0.011933026 0.16571943 0.017013075 0.23683868 -0.055954322 0.21469061 0.05871194 0.0813994 -0.1342256 0.14585833 -0.021720696 0.03406786 -0.25706437 0.08394438 -0.1144265 0.16444646 -0.17666042 -0.10059503 -0.10575057 -0.056812823 0.0329106 -0.113494895 -0.08202845 0.029086836 -0.11475151 0.07758561 0.09101823 -0.2223498 -0.02951214 -0.03670177 0.16622698 -0.06013634 0.1826948 -0.09407053 -0.38309097 -0.11568389 0.14607187 -0.085318446 0.06664762 0.11044352 0.16613908 0.11009694 -0.009200081 -0.038470775 0.17871678 0.03394178 0.12233836 0.06761313 0.054151535 -0.077502884 0.07744317 -0.109916314 0.050695382 0.00904979 -0.2689767 0.2612143 0.05366574 -0.030776141 -0.08743502 -0.22832884 0.04602881 -0.17917524 0.1455082 -0.15209892 0.118045434 0.02223394 -0.093479745 -0.044000562 -0.01114599 0.06928669 0.206689 -0.029372692 -0.40839875 -0.14277732 -0.27765912 -0.20270266 0.19735488 -0.13530238 -0.14751488 -0.17095873 -0.21446997 -0.32101735 -0.145583 -0.17246693 -0.041112904 -0.18130854 0.28272948 0.05239096 0.077286385 -0.20792371 0.07850693 0.12612475 0.016815417
65 -0.005776049 -0.07142285 -0.1466379 0.25123113 0.07611583 0.25707033 0.004759533 0.21332681 -0.3502702 -0.09411336 -0.03578604 -0.20039831 -0.27462327 -0.4408781 -0.09307561 -0.14250652 0.24953578 -0.15225947 0.08748893 0.12331919 -0.17677605 0.175973 -0.107179426 0.11605288 0.007954045 -0.25272122 0.067594126 0.122077115 -0.2427351 -0.08653586 0.10108309 0.081511445 -0.033685096 -0.07162236 0.16773479 0.065182306 0.20450272 -0.10932956 0.00064915704 -0.07568332 0.24958774 -0.0044902796 0.020638693 -0.13361803 0.2409471 0.24270116 -0.15159294 -0.013966238 0.26550817 -0.25408718 0.06928193 0.06160406 0.021567926 0.030826358 -0.096911505 0.14412975 -0.12484866 -0.18574639 0.012978293 -0.14790583 -0.06845165 0.24039806 -0.43020266 -0.06016581 0.01128563 0.3361258 -0.17877622 -0.00021591854 -0.12020823 -0.21647303 -0.23154013 -0.08310317 -0.24028142 0.21776442 0.2899438 0.032820392 0.2109714 0.2542959 -0.00616639 0.053070683 0.012734672 0.27409467 -0.014518425 -0.13190104 -0.07041463 0.12615426 -0.19449416 0.100390084 -0.07623957 -0.13274908 -0.18132944 -0.1656188 -0.139719 0.19719782 -0.33542755 0.2840358 -0.13057476 -0.14955449 0.049861595 0.023575867 -0.05901756 0.13676761 -0.12270772 0.050772153 0.15857121 -0.20350051 -0.33899322 0.2269388 -0.2585675 -0.119978905 -0.115593106 0.24381907 -0.274817 0.21297888 -0.16068874 -0.22731028 -0.53678715 -0.23667823 -0.14966293 -0.12273675 -0.25838158 0.37675735 0.27644098 0.10258885 -0.0034535986 0.089026436 0.5832086 0.1392933
40 -0.00927539 -0.3136506 -0.1423263 0.12695211 0.13390663 0.3226074 -0.31255254 0.17170012 0.08652038 0.3144847 0.1763227 0.124514215 0.0053338893 -0.08698646 -0.2192239 -0.057995737 0.27143547 -0.12494448 0.095553175 -0.05535661 0.14541642 -0.19049783 -0.26775777 -0.17009819 0.09550648 -0.17710704 -0.0723566 -0.090438105 -0.24254054 -0.020940771 -0.04683376 0.13396847 -0.23209926 0.028956486 0.1231995 -0.09987738 -0.06272866 -0.13729395 -0.0146972835 -0.07322338 -0.43673095 0.0050569857 -0.023058053 -0.015311401 0.25362587 0.13241154 0.09586759 0.046564564 0.19197877 -0.23048785 -0.3313778 -0.0570382 -0.0061464454 -0.026775876 -0.042726003 0.040456522 0.06710948 -0.10095135 -0.0036447723 0.07669243 0.22132024 0.15195033 0.21447301 -0.055155 0.07102935 0.10762208 0.14002441 -0.1914591 -0.1247019 0.047782224 0.077563316 0.19924447 -0.21722572 -0.14405118 0.2747088 -0.045904778 0.1314599 -0.10361369 -0.06926983 0.06596968 0.13976048 0.18049362 -0.039697718 -0.1456457 -0.12349106 -0.15292072 0.05171328 0.2445821 0.284535 -0.08506626 -0.26063842 0.058551066 -0.038760103 -0.00023268601 0.037058182 -0.10022449 -0.1974416 0.029928263 -0.15834679 -0.10805369 0.17595263 -0.10275767 0.048685916 0.13978457 0.06760373 -0.17936453 -0.17580727 -0.2292666 -0.18012992 -0.16503896 0.0008386247 0.08822524 -0.08608421 0.14025572 -0.021947552 -0.19708408 0.049466766 0.09344946 0.065237865 0.077753864 -0.4885196 0.3285883 -0.07225891 0.4998208 -0.03621798 0.022018874 -0.15010107 -0.0075765885
63 -0.07465493 -0.10007218 -0.1471154 0.28218505 0.23998548 0.20279002 0.038305197 0.2681636 -0.3582743 -0.09231711 0.07129839 -0.14033113 -0.24772671 -0.46600464 0.012039084 -0.17166542 0.19099534 -0.017135575 -0.017371614 0.098852284 0.01690178 0.121226564 -0.17878038 0.0002548983 -0.014627278 -0.2342985 0.059790075 0.027080363 -0.2580404 0.020954942 0.020271737 0.13909014 -0.014015447 -0.17447916 0.22808109 0.0065705613 0.21024857 0.022288509 0.07834655 -0.13970259 0.18297537 0.015062382 0.12183631 -0.07253436 0.19158138 0.17185569 -0.13511576 -0.17971312 0.21116388 -0.3279272 -0.0151099535 0.22616492 -0.02515699 0.07788653 -0.04426463 0.1671627 0.0035036427 -0.1471226 -0.050793666 -0.10055134 -0.035268847 0.26252285 -0.44793037 -0.10147842 0.026825905 0.31662914 -0.15348804 -0.017389076 -0.2033279 -0.27530003 -0.23787877 -0.057850163 -0.20486972 0.2789352 0.37242383 0.14139186 0.27942443 0.16592833 -0.06457533 0.021748215 -0.07701859 0.18931255 -0.14402081 -0.16449074 -0.1710363 0.08906718 -0.20648627 0.1548504 -0.1083958 -0.3112213 -0.07780589 -0.145899 -0.17241633 0.14057142 -0.27310863 0.4299108 -0.26096797 -0.21899362 0.12457364 0.044738825 -0.0964473 0.12244344 -0.12864944 -0.010976416 0.08123133 -0.09299136 -0.29443496 0.22687821 -0.25536075 -0.027645944 -0.1323693 0.24201867 -0.34244815 0.10397744 -0.21700965 -0.25342613 -0.6095362 -0.26669383 -0.20561185 -0.26412585 -0.27994886 0.32633594 0.17278695 0.05486895 0.11359074 0.1267586 0.45665047 -0.015763855
34 0.47261125 -0.03755864 -0.073947124 0.034687918 -0.06654447 0.055288844 -0.50312567 0.12138074 -0.1144837 0.086160384 -0.08942004 -0.11394458 0.1793114 0.17368554 0.08100671 -0.18584612 0.1149677 -0.30216274 -0.15868053 0.097716205 -0.12939517 0.1312427 -0.15883207 -0.05210665 0.12223049 -0.051748008 -0.1329494 0.025293035 -0.43308637 0.120467186 0.30410856 -0.17770441 0.15274712 0.24920924 0.0793864 0.0043156752 -0.014755143 0.19756083 0.19429706 0.17688057 -0.09346514 -0.07937185 -0.025787624 -0.079753324 0.08708084 -0.029191239 -0.09768324 0.059849337 0.22206506 -0.23710968 -0.15117814 -0.0076512853 -0.25067955 -0.059713677 -0.1823912 -0.01533652 0.06624869 -0.025176628 -0.08172019 -0.147264 -0.16292565 0.07057969 -0.12573053 0.08823649 0.0024074954 -0.11490813 -0.2467676 0.13797745 -0.07475381 -0.15848497 0.03458169 0.08222272 -0.2754157 0.20109333 0.2832237 0.087082945 0.07071273 -0.1496291 0.008368901 0.051963996 -0.049021754 0.14837207 -0.1797499 0.18525408 -0.22671856 0.18483733 0.09591653 0.19659421 0.28332636 -0.02776753 0.14143215 0.09404023 0.18417491 -0.03361538 -0.03650435 -0.00031513776 -0.21535952 -0.16852824 -0.1601447 0.06676542 0.080138005 0.09843096 0.10930055 0.005909218 -0.008858899 0.19967185 -0.065795 -0.025985235 -0.13571526 -0.07719234 -0.0896349 -0.11363578 -0.28957853 -0.24019742 -0.077323265 -0.16762584 -0.24946661 0.12812316 -0.019345991 -0.06124317 -0.34912542 0.15632777 -0.054588404 0.05188329 -0.040293083 -0.3249142 0.0868877 0.049777813
61 0.0009866134 -0.16843201 -0.2059345 0.20064232 0.03702937 0.2627961 -0.067957625 0.2389006 -0.34856787 -0.06950448 0.14653274 -0.1912909 -0.21941538 -0.3325717 -0.18070544 -0.17651002 0.19491416 -0.058745824 0.12337569 0.1781475 -0.02257045 -0.009724836 0.0039605545 -0.044408586 0.10113758 -0.2297271 0.23504896 0.15581875 -0.083639614 -0.09175509 -0.042286396 0.23682183 0.09726333 -0.15598029 0.1311833 -0.018823544 0.0604209 0.006259475 0.1595833 -0.21516104 0.1618025 0.0011473715 0.015281038 -0.07356738 0.19534327 0.26667124 -0.13855387 -0.17705958 0.18423343 -0.2542054 -0.07518001 0.2925071 -0.08097372 0.057542622 -0.0024765725 0.19869421 -0.12996396 -0.24513604 -0.07749243 -0.17179811 0.061815225 0.29758656 -0.53838646 -0.1937063 -0.0006849161 0.1850065 -0.27753484 -0.026397841 -0.16301881 -0.23412167 -0.2387808 -0.03253619 -0.2723478 0.03665275 0.23763499 0.15337227 0.5223368 0.072209924 -0.060532182 0.10722492 0.03534175 0.2429473 -0.11428116 -0.21035387 -0.035490368 -0.035243135 -0.39828384 -0.08661988 0.0063208584 -0.27518728 -0.33242893 -0.17361285 -0.11990948 0.18212262 -0.31256256 0.2565035 -0.3455177 -0.11898612 0.24544494 -0.002858238 0.024011357 0.026615694 -0.14066018 -0.089729324 0.05784169 0.06812457 -0.4693607 0.12855494 -0.45773017 -0.07559912 -0.2153141 0.34576657 -0.2078343 0.16633198 -0.27767274 -0.2969802 -0.29133752 -0.11218433 -0.2789409 -0.102933206 -0.29315963 0.39264733 0.31023142 0.20128305 0.22054124 0.0842233 0.35646158 0.10189693
30 0.116468556 -0.29227856 -0.11171071 -0.059804685 -0.08111316 0.40645143 -0.25240165 0.12455504 0.053494908 0.22663341 0.2542137 0.09209092 0.14864673 0.06735592 -0.16036876 -0.115293115 0.18120983 -0.14207496 0.15627824 -0.041212812 0.21150766 -0.3563561 -0.31876838 -0.11883209 0.041092407 -0.032765713 -0.038663562 -0.03925669 -0.10832113 -0.045514762 -0.065545425 0.09882793 -0.13776189 0.12419258 -0.03331607 -0.047818307 -0.16930886 -0.07108692 0.0995629 -0.020399263 -0.34739375 -0.059033733 -0.036959823 0.059309464 0.113906994 0.11077662 -0.029414376 0.02564639 0.017696938 -0.20494533 -0.26536462 0.0038141143 0.020279832 -0.008970656 -0.09444513 0.0799423 -0.019104443 -0.043509267 -0.0672878 0.1409876 0.18530123 0.26019832 0.07968957 -0.15365677 0.0073587066 0.038397487 0.06616293 -0.023700502 -0.0043927524 0.031400736 0.017105399 0.10904059 -0.20910333 -0.21274546 0.17959596 -0.033503495 0.19761118 -0.28936735 -0.056925584 0.04607329 0.12437733 0.08718412 -0.028399298 -0.0737392 -0.25306246 0.038389962 -0.03382662 0.20627493 0.2757696 -0.10541119 -0.20253506 0.10118827 0.14171137 -0.003725522 0.01864248 -0.10473309 -0.22732979 -0.0013006434 -0.06817039 -0.06403533 0.26611167 -0.15095823 -0.050286487 0.062417455 0.107305355 -0.18122512 -0.1104896 -0.18214719 -0.18900928 -0.18661907 -0.044331536 0.022424176 -0.049839605 0.10890627 -0.11352323 -0.30914742 0.033985272 0.06387645 -0.1249454 0.07788864 -0.3911814 0.34098643 -0.19086316 0.4538377 0.026473723 -0.043300126 0.038227685 -0.12536953
71 -0.06900611 0.046340346 -0.27252907 0.36599094 -0.03609315 0.2467341 -0.47069013 -0.053259857 -0.17244989 -0.11153256 -0.1080137 0.053450733 -0.15576969 0.050962478 -0.26245552 -0.018052252 0.2996836 -0.11065211 0.30680695 0.1854789 -0.24381596 0.29563636 0.07745971 -0.16962327 -0.1715118 -0.08075013 -0.04486752 -0.04165152 -0.25062102 -0.059747685 -0.09699535 0.031070359 0.062373213 0.033044335 0.35109767 -0.05792009 0.06226063 0.045805797 0.1265034 0.105367705 0.072182536 0.08447986 0.13195162 0.14425243 0.19257376 -0.07336907 -0.024756499 0.11855486 0.042427283 -0.23519418 0.40423083 -0.09629233 -0.051928636 -0.0048071262 0.006775186 0.091029234 -0.10617783 0.029745223 0.13540204 -0.24837908 0.04846996 -0.10067037 -0.15451457 0.017671647 0.006761893 0.25623557 -0.05216839 -0.24295549 -0.26984432 0.001156879 -0.40938008 -0.19648507 -0.03971218 0.072810255 0.06520559 0.11239596 0.032673426 -0.055897426 -0.0019009854 -0.18170989 -0.21536678 0.227324 -0.061799716 -0.013786278 -0.1768955 0.40949857 -0.05154856 0.1383226 -0.23093797 0.17769201 0.12661532 -0.21632156 -0.017084813 0.031044068 0.018228756 -0.06514243 0.03952546 0.09989369 0.130834 0.07944235 -0.30375051 0.03342495 -0.23629174 -0.20949456 0.04449658 -0.45009494 -0.103815064 -0.08804075 -0.10768434 -0.013919228 0.024566827 0.25957268 -0.16209538 0.15141168 -0.05531999 -0.15371461 -0.1211495 -0.09033637 0.2288454 -0.18055296 -0.47211704 0.20752618 0.049481343 0.23404542 0.318629 -0.011555939 0.08617536 0.12238274
29 -0.026548056 -0.12852485 -0.30802906 0.19778384 -0.32516426 0.16995142 -0.002162787 -0.103575945 -0.4994346 -0.10556338 -0.21064289 -0.13358948 -0.19353038 0.053808052 -0.11827145 -0.1271538 0.29199174 -0.13629562 0.39434195 0.12610817 -0.12584488 0.03413534 -0.07458101 0.120529294 -0.18325515 0.18535645 -0.14925635 0.32169682 -0.25335634 0.04389853 0.18719177 -0.19546422 0.1065492 0.17097475 0.29772538 0.08535159 0.011164238 0.19155832 -0.053723373 0.09597577 -0.05957746 0.18768166 0.03182837 -0.09515402 0.1932455 -0.17715722 -0.32746094 0.25898257 0.0006563838 -0.13973407 0.3525509 0.23799814 -0.048094086 -0.052522387 -0.23845987 0.0789652 -0.04137362 -0.020797074 -0.06887969 0.15748948 -0.069626674 -0.092138685 -0.24194674 -0.0677462 -0.1060384 -0.017186085 -0.08150264 -0.20069051 -0.069668524 0.2749814 -0.15518041 0.0796981 -0.103467315 0.19380651 0.31925267 0.0008433027 -0.012322306 -0.1279105 -0.052290704 -0.2601563 -0.04490308 0.34316882 -0.017205996 0.1413704 -0.23652576 0.31071174 -0.13161892 0.0991537 -0.06451373 0.20309165 0.13542658 -0.096158095 0.046754476 0.17524907 0.0949136 -0.358437 0.04556982 -0.13170202 -0.0029650682 0.31008077 0.35206887 0.0054564984 -0.15642108 -0.06403867 -0.014206029 -0.19347467 0.10215353 -0.14157444 -0.057293788 -0.119628325 -0.08790501 0.13233645 -0.22448502 -0.06032237 -0.20794499 -0.14057814 -0.43616113 -0.19388069 0.08941929 -0.062366754 -0.5888093 -0.032509618 0.09142501 0.011110959 0.2794688 -0.10334488 0.38160455 0.14935623
16 -0.12020624 0.1338506 0.03867077 0.0075639146 -0.25279498 0.50320804 -0.1795764 0.32277963 -0.06633963 0.2531628 0.2821056 0.25109658 -0.1919268 -0.2134485 -0.24097422 -0.17938778 -0.04653038 0.18458885 0.16808975 -0.040490482 -0.29905176 0.042970996 0.020315956 -0.29216945 -0.27703834 0.11111974 0.12205862 -0.050778218 -0.11731082 -0.09939489 0.16495359 -0.24979886 -0.379052 0.3385964 -0.06557579 0.14901789 0.038475327 0.4158597 -0.03860193 -0.18983203 -0.33290714 -0.021491379 -0.26513988 0.060874507 0.18830353 -0.22072308 -0.15926056 0.15830845 -0.10980142 -0.051199492 0.25035495 0.15445173 0.11615796 0.07247386 -0.18529111 0.2425878 -0.056763854 0.12670264 -0.28163666 -0.03316228 -0.11773092 0.22544152 -0.35307056 -0.4217688 0.12553191 0.10937171 -0.15819219 0.21072982 -0.06862521 -0.5131732 0.090686224 -0.006707277 -0.30399254 0.10822807 -0.18099497 0.07197634 0.27042386 -0.40533713 0.012512839 -0.049611952 -0.11538802 -0.1781759 0.21660931 -0.13897687 -0.30341575 0.5060309 -0.3738556 0.3162346 0.15113455 -0.09133281 0.3091299 0.18255228 0.30376616 0.1431459 -0.065307945 -0.09296539 -0.18840209 0.0535864 -0.25393626 0.11874907 -0.19149892 0.36080453 0.4071943 -0.18816543 0.27414718 -0.27662256 -0.17908782 0.065485775 -0.1967924 -0.2343516 0.014759314 0.12825918 -0.13223234 -0.20334467 -0.35466635 -0.034502868 -0.08634645 -0.2321356 0.2802941 -0.032189842 -0.33391094 0.22393797 0.107205346 0.45362636 -0.006044615 0.07665227 0.26695046 -0.16313758
69 -0.08774892 -0.054873306 -0.21555232 0.5738923 0.20822535 0.20492102 -0.20651697 -0.1000787 0.019060036 -0.22455278 -0.010163892 -0.09658833 -0.30232468 -0.044329975 -0.1440162 0.033719942 0.11172461 -0.14037833 0.028479699 -0.15402389 -0.22381242 0.048089232 -0.09669134 -0.11284558 -0.24629898 -0.037393894 -0.04979584 -0.114218965 -0.10895502 0.019760128 -0.09892957 -0.04341462 0.10916132 -0.024303555 0.21528037 -0.03014109 0.14590362 -0.016556613 0.2815913 0.14799002 0.013976887 0.04049388 0.1762439 0.11361814 0.16859372 -0.006081833 -0.018921433 -0.045294166 0.03776158 -0.23170474 0.29838362 -0.09749097 -0.15744679 -0.013630562 0.18520959 0.0043913876 -0.07062189 0.10593478 -0.020283071 -0.34273466 -0.004807754 0.10913606 -0.43521044 -0.12361248 0.08647372 0.25472546 -0.111851595 -0.03756951 -0.25329015 -0.03491799 -0.36364713 0.1017988 -0.113302864 0.057595536 0.062779695 0.14977352 0.12933156 -0.09215939 0.019321542 -0.157798 -0.11375718 0.106253825 -0.058151927 -0.21106365 -0.084055744 0.4195159 0.06703505 0.16354424 -0.12103406 0.03187063 0.19622853 -0.103265576 -0.062298156 -0.1121725 0.11646224 0.09823384 -0.17877904 -0.17247595 0.0405235 0.053702235 -0.1677763 0.019297905 -0.010184876 -0.19056901 0.2553069 -0.26349223 -0.21424086 -0.080930054 -0.1396159 -0.13959014 0.045538634 0.20277634 -0.13112575 -0.056195803 -0.17870468 -0.23243356 -0.028483206 -0.06278861 0.0271093 0.01759019 -0.32402673 0.33524013 0.12472288 0.20501064 0.1946427 0.15697373 0.21875513 0.009551543
37 0.08963777 -0.39326698 0.039922327 0.16974679 0.09653833 0.21724123 -0.25064734 -0.09680129 -0.029991994 0.025730371 0.089507185 0.043526176 -0.0862876 -0.062144358 0.013845706 -0.08745677 0.016818248 -0.33105552 0.284886 0.06618856 -0.029910846 0.053001735 -0.30477276 0.14087483 -0.09921101 -0.12349448 -0.16329475 0.21080008 -0.2928131 0.23921737 0.22496149 -0.16107297 0.114970714 0.10832042 0.00846259 -0.050105132 -0.18205968 0.15677223 -0.18753575 -0.007962861 -0.16531897 -0.022124382 -0.09289029 0.036453016 -0.0071074413 -0.13896479 0.054761812 0.047806796 0.07126233 -0.050914604 -0.10409775 -0.016633056 -0.18390971 -0.017327929 -0.15367432 -0.09268919 0.042347237 0.09602427 -0.22387984 -0.13638815 -0.20255502 -0.015213435 -0.21006498 0.025484432 0.101907454 -0.031961236 -0.18372947 0.09009894 -0.21880402 0.15200333 0.029356109 0.03472557 -0.03576178 0.043100003 0.03667483 0.19438872 -0.090495765 -0.27764714 0.13309252 -0.30452564 0.15223259 0.23573232 -0.10062049 -0.0108126495 -0.11722031 0.084897034 -0.11976521 0.041528817 0.056404755 -0.0014555872 0.022256924 0.20318605 0.0017823791 -0.08127976 -0.10398002 0.0065887864 0.04683104 -0.48297644 -0.020900669 -0.15765037 0.049785513 0.10878739 -0.044459894 0.060801283 0.2114842 0.040798772 -0.011789717 0.09884919 -0.0862309 -0.14806166 -0.09396155 -0.13151121 -0.20062377 -0.2491699 -0.3204057 -0.072390065 -0.23935486 0.061934393 -0.024225304 0.08427431 -0.24565087 0.04646782 0.071857 -0.016319808 0.04519465 -0.30254012 0.48466104 0.07851198
76 -0.09239126 0.0036062372 -0.2014815 0.13725533 -0.19351985 -0.033772543 -0.2597344 0.24015899 -0.43686366 -0.049341597 -0.19214557 0.1096956 -0.21730924 -0.08464454 -0.16003323 -0.24140377 0.2813502 -0.3373036 0.24990377 0.12361038 -0.21524504 0.21810041 0.07334968 0.019012334 -0.122770734 -0.42227277 -0.0011673539 0.14139004 -0.02718608 -0.061797567 0.07475991 0.15132672 0.053264026 -0.03778119 0.118655056 0.1789063 0.108363435 -0.22720212 -0.010767799 -0.0056078024 0.04721204 -0.008004392 0.020993913 0.06988882 0.27082056 0.17598629 -0.19196604 0.14567962 0.281816 -0.113195084 0.3354713 -0.021937285 0.0046683867 -0.05340448 -0.091647804 0.089026935 -0.084582075 -0.018744018 -0.11529133 -0.019418782 -0.079157524 0.01703194 -0.29598662 -0.1457226 -0.14515796 0.37128067 0.07085943 -0.2079416 -0.30133024 -0.06904914 -0.17652836 -0.42188495 -0.23098473 0.1522869 0.3279228 -0.22314538 0.10826282 0.20010918 -0.015001795 -0.1457242 0.057139307 0.28026998 0.0043510674 -0.06593955 -0.036127463 0.31686592 -0.24746929 -0.118712686 -0.2084753 0.01923516 -0.053593352 -0.03375965 0.064331956 0.422512 -0.2253967 -0.12297031 0.24457093 0.086417295 0.15355183 0.18473558 -0.1818875 0.13917007 -0.22120513 -0.006125183 0.0060426113 -0.3979858 0.049230814 -0.059037957 -0.057869833 -0.0032349417 0.021568475 0.28734064 0.0142900245 0.4643372 -0.10473129 0.09162455 -0.41093788 -0.26097775 0.09331027 -0.33365706 -0.53351164 0.33625478 0.10795312 0.044704545 0.00887074 0.28896627 0.15121713 0.34013495
44 -0.039809346 0.14269634 -0.30043522 0.041517545 -0.012575961 -0.024849033 -0.22689517 -0.27989972 -0.3318772 -0.16334109 -0.03838389 -0.031643413 -0.024891406 0.21489269 -0.09079691 -0.17116119 0.3628949 -0.24099939 0.35316348 0.1262193 -0.0745483 0.07793334 0.088538095 -0.08002521 -0.3000371 -0.19760258 0.018248798 0.15114798 -0.11251176 -0.074150376 0.015766107 -0.030760102 0.026856408 -0.16176687 0.22285438 -0.10933071 -0.029166035 0.04835632 -0.22355035 0.002029645 0.016173571 0.19579065 0.073665366 0.07019289 0.13544019 -0.047690023 -0.2377325 0.17460883 0.14065436 -0.24788757 0.51159173 0.26043138 -0.0102975555 -0.017121755 -0.09446058 -0.03287415 -0.079056315 -0.05859416 -0.14501669 -0.028615624 0.102971315 -0.023654163 -0.22939825 -0.13656558 -0.19960624 0.32570946 0.047564283 -0.27509996 -0.24585553 0.14892213 -0.15167384 -0.24932976 -0.11565553 0.10152465 0.35453045 -0.12741269 0.034753058 -0.12635829 -0.13288096 -0.18271731 -0.19620208 0.107021205 -0.009654664 0.12547731 -0.34114134 0.20751874 -0.053556807 0.080386534 -0.21995334 0.09460021 0.35159516 -0.2837406 -0.062768914 0.4815795 -0.045997065 -0.14303349 0.10058243 0.2649671 0.03860639 0.33609128 0.1705469 0.15511467 -0.123663634 -0.18132596 0.06204283 -0.5035287 0.11670831 -0.17474382 -0.034801193 -0.19297771 0.053276747 0.25579032 -0.24190971 0.20539366 -0.061148137 -0.11944993 -0.2126519 -0.06353668 0.12685937 -0.1374933 -0.53077966 0.095641024 -0.10454173 0.18566814 0.047991816 -0.09874543 0.053482752 0.09656476
20 -0.24788654 -0.11268143 -0.06952358 0.10966343 -0.14525664 0.49860707 -0.16457394 0.4066657 -0.27374256 0.4463369 0.38735023 0.03181588 0.06603807 -0.11195069 -0.04217611 -0.33711445 -0.0473682 0.25719288 0.12994735 -0.17242363 -0.13395499 0.007902938 0.14591478 -0.19529894 -0.29552573 -0.25841776 0.11038954 -0.0430377 0.14896363 0.058614388 -0.03632058 -0.011389705 -0.08507211 0.118051045 -0.20545316 0.17443314 0.12689902 0.55913013 0.16437699 0.15131494 -0.60685784 0.08067846 0.027028933 0.27331996 0.17608503 -0.23745994 -0.04391773 0.08637952 -0.047696415 -0.14399697 0.09651316 -0.043762654 0.026996294 -0.08097859 -0.23761415 0.18045889 0.10134151 0.12634286 -0.238725 0.0021812273 0.05707254 0.38026363 -0.1896578 -0.26010537 0.12362345 0.076866865 0.20080489 -0.08176764 -0.08664107 -0.3058279 0.34216428 0.11124316 -0.3773755 0.13343914 -0.16879207 0.0070462627 0.45542964 -0.13549991 0.0076670256 0.007905964 -0.2006612 -0.011049514 0.023965348 -0.14642057 -0.34864864 0.4223722 -0.3723378 0.07025313 -0.0030508759 -0.16230644 0.28792262 0.032054186 0.2823239 -0.055557862 3.351215e-05 0.16030438 -0.10183493 0.013301333 -0.32505444 0.3859654 0.049178313 0.39694682 0.12594005 -0.0665706 0.33604273 -0.30331147 -0.17944019 -0.019590493 -0.18681958 -0.3312802 -0.032223225 0.18331344 -0.2762031 -0.33942425 -0.5607193 -0.18886381 -0.32104418 -0.27306092 0.051651165 -0.07629673 -0.41115558 0.14766234 0.11089068 0.35079446 0.27010798 0.0038391338 0.4718247 -0.11180774
5 -0.023818418 -0.008710191 -0.36821032 0.20764454 -0.056377657 -0.051905844 -0.05703519 0.14932382 -0.33262512 -0.034512606 -0.007156394 0.02955688 0.032066617 0.33049458 -0.16838571 -0.27746546 0.36046302 -0.43734276 0.44620422 0.2231351 -0.0637989 0.1547904 0.060753252 -0.054740656 -0.25622165 -0.10238704 0.07754939 0.16644908 0.06931846 -0.047373813 -0.11514856 4.4816723e-05 0.12790956 -0.055142194 0.36101365 0.05899961 0.1464616 0.10694195 -0.30717346 -0.14977714 0.08041604 0.19822377 0.21386644 0.08054808 0.21213986 -0.011055799 -0.2019887 0.10809903 0.21515307 -0.23489872 0.425709 0.06638857 0.114903264 0.065390915 -0.19074644 0.13936362 0.029331127 0.048768792 -0.14837486 0.17478666 0.078748375 -0.07211058 -0.21895137 -0.24084719 -0.15783092 0.14647858 -0.022355678 -0.33279017 -0.40246585 0.03989649 -0.15812597 -0.47299317 -0.29688275 -0.07482198 0.24650882 -0.056051824 0.024024878 -0.23840016 -0.06413558 -0.10626033 -0.15632698 0.27947336 -0.016572066 0.07216492 -0.19084528 0.34258613 -0.2185581 0.053544205 -0.06594524 -0.04688815 0.34174436 0.04366366 -0.062013753 0.4312102 -0.08837747 -0.20927891 0.13049565 0.24917635 0.109909564 0.29552016 0.011121192 0.073929116 -0.34871033 -0.13281853 -0.045830667 -0.47847554 0.26724347 -0.21903865 0.010006121 0.021017484 0.08266645 0.37564367 -0.08684075 0.17179263 -0.17437312 0.060229827 -0.20491222 -0.3605971 0.2925349 -0.2189693 -0.6082557 -0.009964056 -0.07661196 0.18461801 0.24915263 0.04193369 -0.02368957 0.13610376
3 0.23226668 -0.4579642 0.043744553 0.8035697 -0.10892197 0.10525169 -0.08562785 0.02324322 -0.0495382 0.17202495 0.2803265 -0.15288593 -0.025002727 0.1854899 0.08779832 0.21651322 0.21177293 -0.0031149918 -0.020921694 0.29543254 -0.1768086 -0.116033226 -0.02342539 0.042214334 -0.16832371 -0.04401293 0.051261097 -0.032736022 -0.117694 -0.10473231 -0.1117643 -0.15122335 -0.17397659 0.19595295 0.08913825 -0.09630854 0.378555 0.11766084 0.071422584 -0.04056844 -0.028236305 0.03511684 -0.053444434 0.1329252 0.040422205 -0.21180575 -0.21564554 0.049022 -0.16140111 0.02266821 0.015988749 0.34211895 0.04093251 0.032923814 0.18017106 0.045167685 0.20191634 -0.035747074 -0.24480432 0.059101805 -0.17277145 0.15621734 -0.45752704 -0.08393815 -0.1633234 0.14147665 0.036360316 0.0034049342 -0.12653609 -0.61674887 -0.19135426 -0.031563666 -0.059437122 0.2579606 -0.09792697 0.1675599 -0.35781464 -0.06861745 0.3350735 0.0010815724 -0.025571028 -0.21348645 -0.24556617 -0.14133216 0.13784388 0.21206044 -0.07858038 0.17812818 0.121116385 -0.06378266 0.1790887 0.09776325 -0.16502035 0.3364258 -0.25579512 0.21212138 -0.07119564 -0.12180567 0.06824518 0.07637882 0.026487691 0.06152329 0.14341848 0.15987901 0.14287685 -0.1144028 -0.052337285 -0.11690883 0.04529182 -0.11423183 0.08331921 0.1513667 -0.22219162 0.06144949 -0.37110654 -0.25144178 -0.2388667 -0.21041955 0.07497272 0.09977537 0.032886844 0.048023194 -0.091291286 0.25579447 -0.12057017 0.057774447 -0.01999871 -0.14389768
19 -0.17505515 -0.12878433 -0.089579485 0.012144827 -0.22307828 0.38625512 -0.16705613 0.36020738 -0.23234254 0.4350174 0.28298852 0.21450008 0.07609993 -0.16411746 -0.037695646 -0.3886676 -0.029225603 0.20526446 0.25224862 -0.20312542 -0.105896324 -0.021283196 0.12210073 -0.14234585 -0.44891098 -0.219177 0.08844526 -0.09386301 0.12781434 0.07261395 0.018320587 -0.11516719 -0.12069572 0.14209035 -0.22615607 0.1318006 0.1865529 0.5188703 0.15539388 0.0772783 -0.54559916 0.07880224 -0.014536817 0.19892444 0.13195539 -0.2053269 -0.08784077 0.10505855 -0.052640084 -0.13911024 0.07531007 -0.02444057 -0.029572394 -0.046424113 -0.15657867 0.16593632 0.18495615 0.12964332 -0.22133005 -0.04988248 0.09997111 0.3702191 -0.251508 -0.23735684 -0.018763557 0.12688938 0.20782165 0.012942763 -0.09238141 -0.37756774 0.290353 0.056101438 -0.40173894 0.1367026 -0.11210661 -0.09887025 0.41156656 -0.13266893 -0.037142817 0.080858745 -0.21658722 -0.03872852 -0.0007078748 -0.26319683 -0.30012485 0.39543048 -0.34684968 0.05554707 -0.09360016 -0.1478446 0.26231155 -0.069772415 0.30471775 -0.09170651 0.022175044 0.18603106 -0.15592359 0.009698762 -0.30358088 0.3892553 -0.010528214 0.34305874 0.20209187 -0.06979023 0.3578263 -0.2973509 -0.13838485 -0.014792781 -0.17618568 -0.3637512 -0.103277296 0.07197797 -0.3695089 -0.35403162 -0.48380715 -0.1975928 -0.29675025 -0.24370185 -0.034096617 -0.029745137 -0.51007384 0.14240101 0.13094616 0.41814974 0.30922392 0.03443654 0.44917703 -0.11528523
35 0.07275012 -0.5629412 -0.23354192 0.12369467 -0.22532581 0.3552144 -0.5147852 0.05918232 -0.34140778 -0.0026258274 0.20195119 -0.043026708 -0.025934616 0.13585904 -0.055141784 0.054069113 -0.044662002 -0.13617674 0.2227016 -0.005935014 0.15472454 0.18833822 -0.022196326 -0.07814418 -0.02807096 0.0132748755 -0.17737614 0.16383097 -0.3351097 0.19894698 0.15217349 -0.059065014 0.10979806 0.061505713 -0.040540922 -0.31140852 -0.13492127 0.041466497 -0.012578329 0.13313012 -0.12091499 0.013088993 -0.04744472 0.13341592 -0.033659156 -0.09681601 -0.0931983 -0.24092197 0.23563877 -0.17322391 -0.14899044 0.25058728 -0.07704527 -0.016279627 -0.0662662 -0.1555864 0.16643164 -0.06568994 -0.0533096 -0.109672554 0.0028770913 0.14028513 -0.08144305 0.07699604 0.1435188 -0.169465 -0.11984282 -0.22812687 -0.07461785 0.1129732 0.04361938 0.19950399 -0.042459883 -0.064320795 0.3173396 0.03238857 0.2453009 -0.035504784 0.01467898 -0.050349135 0.04688547 0.15844241 -0.25145036 -0.1334063 -0.09075432 0.14605439 -0.16673838 0.25307792 0.27000347 -0.09032161 -0.14205247 0.2972676 0.029071024 0.08146201 0.07140167 -0.17181642 -0.30314952 -0.022727454 0.23925151 0.1542374 0.29729268 0.008745202 0.11371864 -0.014452185 -0.004652551 0.09627609 -0.12910199 -0.06729691 -0.24323583 -0.18752597 -0.27949905 -0.13831066 -0.04763243 -0.20688266 -0.101232484 -0.27473757 -0.28983876 0.16668037 -0.08821632 0.17065737 -0.36460677 0.3849195 -0.128941 0.12397285 0.0031425168 -0.16814406 0.3228784 0.2896627
22 -0.13846318 -0.13467574 -0.016469792 0.060844664 -0.26367956 0.5777702 -0.19685516 0.35620913 -0.20320004 0.37440437 0.34352756 0.1233465 -0.0019819068 -0.2666966 -0.035069954 -0.28848606 -0.03691163 0.20809233 0.2848458 -0.17792483 -0.083022885 0.03177645 0.11600794 -0.27130044 -0.33206195 -0.19672254 0.08823777 0.008998748 0.10286114 -0.04739859 -0.051684096 -0.06530521 -0.12124094 0.21909764 -0.18883641 0.12087149 0.08807433 0.43528786 0.16490573 0.048256665 -0.5692856 0.037307527 -0.09055922 0.2471285 0.1711219 -0.17206869 -0.06188191 0.02459282 -0.10273252 -0.106011055 0.08295471 -0.028380923 0.038334865 -0.08002014 -0.19631158 0.18341099 0.068447426 0.14859648 -0.2375855 -0.048188034 0.07532329 0.34932178 -0.16833027 -0.2126137 0.013654044 0.13217485 0.10314277 -0.034453973 -0.08934122 -0.2692023 0.2603258 0.12362132 -0.3026728 0.10415997 -0.0844824 -0.003681129 0.44248077 -0.12246194 0.029274112 0.049524244 -0.21952504 -0.030250626 -0.058861777 -0.15056379 -0.29710323 0.38658825 -0.35498974 0.10316247 -0.045446545 -0.13523614 0.23898226 0.016385682 0.35029623 -0.055835053 -0.001806479 0.22774899 -0.13927127 0.082283564 -0.23839267 0.31808597 -0.09451017 0.4181982 0.16752717 -0.1031659 0.3461504 -0.32847145 -0.109374434 -0.027564744 -0.17392746 -0.39504927 -0.05758544 0.08524223 -0.3351965 -0.32071218 -0.43513387 -0.14004603 -0.3303986 -0.24090591 0.093402885 -0.12607528 -0.46247098 0.20051165 0.19344759 0.43442798 0.3968567 -0.03895387 0.4340999 -0.0755688
68 -0.008662909 -0.11315314 -0.10139172 0.5097623 0.20662452 0.17843035 -0.022619944 -0.07368212 -0.09189661 -0.23812021 0.022097634 -0.21973982 -0.478315 -0.15090276 -0.20159292 -0.08705598 0.058909256 -0.13614695 0.030454492 -0.10520275 -0.20040175 -0.006486689 0.034736782 -0.1258951 -0.2539811 -0.10291483 -0.004294252 -0.058251914 0.08657831 -0.03377777 0.020502381 -0.02147098 0.074936114 -0.010056557 0.0973558 -0.056227922 0.09440523 -0.0780938 0.37875047 0.28537038 0.010733179 0.024553668 0.2758142 0.10968114 0.25424752 0.12212393 -0.065984905 -0.1141909 0.09183435 -0.3919754 0.1263691 -0.107999004 -0.35275742 -0.08926085 0.13277356 -0.079495125 -0.047391247 -0.0059925043 -0.08082102 -0.42417103 0.09270829 0.22403915 -0.4414107 -0.15179199 -0.066899195 0.28367022 -0.33178464 -0.011763355 -0.30754524 -0.023380708 -0.16255805 0.11018835 -0.09266345 0.09390611 0.14907926 0.0023024837 0.16987254 -0.18829706 -0.01117804 -0.16371605 -0.106726855 0.00020830336 -0.03757678 -0.27962032 -0.088489704 0.43862504 0.12867361 0.13361858 0.035842348 -0.13186865 0.29869047 0.08362494 -0.15546715 -0.20183064 0.05022769 0.23168635 -0.1567904 -0.24024834 0.027015837 -0.024525484 -0.14649183 -0.072741844 -0.06926237 -0.26970106 0.09051359 -0.1186355 -0.21431054 -0.25800142 -0.108946025 -0.26827085 0.1675674 0.28013778 -0.13930081 -0.23534404 -0.22986217 -0.34300202 0.06582939 -0.034553844 -0.045705996 0.030308591 -0.18603715 0.30545178 0.26126006 0.19636777 0.27235097 0.065215714 0.4904944 0.14574096
28 -0.1926876 -0.08142277 -0.054790564 0.23392701 0.15651472 0.2794267 -0.17365688 -0.012424201 -0.003748322 -0.13256857 0.0032163386 -0.18837395 0.16361396 0.123723805 0.07935366 -0.17446713 0.11962157 -0.1563322 -0.12353416 -0.11253016 -0.27359813 0.19009104 -0.092143856 0.0594027 -0.32138652 0.11941136 -0.2313998 0.07355377 -0.2967823 -0.1078304 0.29476443 -0.049194317 0.14548953 0.00036003528 -0.009658881 -0.17613563 0.057028066 0.14207478 -0.24271777 -0.26369587 -0.022302508 0.026223693 0.11889276 -0.117410846 0.22023873 0.06099759 0.21605748 -0.0134331165 0.061927233 -0.4172448 0.07638931 0.18597011 0.02131283 0.048548795 0.02804001 -0.19078459 0.058446757 0.035920303 -0.17306454 -0.36132267 -0.069011584 0.35550314 -0.34183627 0.15092961 -0.086313814 0.20544994 0.09430685 -0.029380424 0.033696298 -0.24938817 -0.069194496 0.18112634 -0.22045812 0.25084153 0.08536049 0.13012423 0.05201584 0.0219338 0.011670287 -0.29973596 -0.06635812 -0.06926522 0.07943746 -0.017329937 -0.12529649 0.28375188 -0.081164174 0.17903937 0.02600622 -0.049257956 -0.0030357053 -0.108139165 -0.10283895 0.09137485 -0.14183597 -0.055810872 0.047157455 -0.04174797 -0.32561943 0.11121759 0.251602 0.047882136 0.0030756874 -0.17582747 0.21092007 -0.08000638 -0.10604519 -0.22868541 -0.13591416 -0.45475742 -0.104454584 0.14522438 -0.037762057 0.07361862 -0.14099738 -0.13924083 -0.3670623 0.28476375 -0.08796757 0.3065972 -0.0019528582 0.18629278 0.33875334 -0.02278832 0.18634549 0.034880877 -0.02176801 -0.02356607
60 -0.055162158 -0.106770106 -0.07188046 0.20399909 0.10224708 0.21873687 -0.16008537 -0.054036256 -0.22632915 -0.115109436 0.12904099 -0.15502892 -0.30083615 -0.49712554 -0.17382899 -0.24884634 0.07694875 -0.12800227 0.1085642 0.101669714 -0.033017866 0.13694967 -0.18875967 0.037190024 -0.15512794 -0.3519704 0.099047676 0.14363563 -0.21130532 -0.008349652 0.002384473 0.11353165 -0.020726683 -0.066134535 -0.02823661 0.08171958 0.1827264 0.049510356 0.021918783 -0.46635208 0.20553485 -0.032029975 -0.06125278 -0.10208506 0.20352742 0.16784148 -0.16349177 -0.32791287 0.37883002 -0.29836568 0.244071 0.17880522 -0.061122477 0.0978634 -0.039375972 0.09254727 -0.09948168 -0.0530778 -0.206064 -0.19286658 -0.031533156 0.22834946 -0.45672 -0.25376192 -0.113397524 0.43121535 -0.07879485 0.033356626 -0.095410936 -0.25178722 -0.15445454 0.08336784 -0.16543351 0.43233377 0.28426597 0.11684575 0.19820058 0.28004405 -0.10740065 -0.11587212 0.012667524 0.120007664 -0.020107467 -0.24575354 -0.15979905 0.22698228 -0.11806588 0.14029709 0.002862999 -0.14456978 -0.25887814 -0.1983855 0.0008914665 0.34481937 -0.332345 0.20647693 -0.035309717 -0.20490657 -0.084160954 -0.012669784 0.10423594 0.18033792 0.025793172 -0.0016463579 0.22312187 -0.03692865 -0.32738173 0.22658393 -0.18108895 -0.06671787 -0.043734137 0.024941957 -0.2090186 0.20495255 -0.15573914 -0.27582738 -0.421674 -0.04214336 -0.27672184 -0.05965403 -0.21261647 0.4038832 0.10520117 -0.040593557 -0.15928805 -0.008302165 0.20940149 -0.045837715
56 0.020798594 0.037101466 -0.034319803 0.012498785 0.14814118 -0.16914307 0.041088965 0.33117214 0.036774408 -0.1274426 0.15828408 0.1318133 0.052095883 -0.20411865 0.091449544 0.00636228 0.1234584 -0.13857038 0.25801674 -0.030678896 -0.045345586 -0.18509685 0.1171387 -0.047806703 -0.3304035 -0.0028376526 -0.26746264 -0.030343112 -0.44175458 0.41021523 0.3460114 -0.12203171 0.03921222 -0.175058 -0.44224644 -0.17016627 0.12066763 0.006844196 0.28402063 -0.1880883 -0.0962341 0.050801873 0.14678963 -0.19116464 0.11870689 0.16216347 -0.07474577 0.051997866 0.016026106 -0.11002041 0.21497658 -0.15134303 0.012965366 0.15974632 -0.092310406 0.14301291 0.37679452 -0.08133098 -0.04240659 0.039707866 0.25882757 0.17736168 -0.058412753 -0.113430016 0.01882901 0.08619239 0.058796067 0.13168743 -0.28001773 -0.33029148 -0.12876573 -0.13329642 -0.06930165 0.12927566 -0.13495322 0.12587655 0.14513615 -0.15713754 0.21247463 -0.12424833 0.0024004001 -0.0025431039 0.12211375 -0.36195683 -0.07424777 -0.06965442 -0.099580094 0.25522655 0.0946191 -0.035330173 0.02108294 0.05341797 0.019880623 0.12049388 0.03957787 -0.18036358 -0.14304401 -0.333582 -0.4025341 0.14710127 -0.08555464 -0.0020753646 0.058748897 0.18730706 0.5031884 -0.28743914 0.037458066 -0.14917518 -0.02116677 -0.10944187 -0.027346497 0.087715745 -0.30211273 -0.0007176467 -0.31418237 -0.22028397 -0.58373123 -0.26373136 -0.10081713 -0.3081378 -0.52170384 0.13876434 0.06537982 0.01109041 -0.03749899 -0.0012307566 -0.20444907 -0.079646915
67 0.10385683 -0.20540814 -0.1735735 0.07255245 -0.058155563 0.2734802 -0.49059713 0.33000395 -0.01429932 -0.06015546 0.21068497 0.19811773 0.12915081 -0.2204594 -0.23028244 -0.35986346 0.3076366 -0.2971815 -0.20289075 -0.2297039 0.15204605 -0.25416285 -0.15705007 -0.011266902 0.0057822466 -0.31891897 0.21376029 0.020775035 -0.22299236 0.068047665 0.30035335 0.33107972 -0.29518646 0.036056526 -0.011762546 0.017257813 -0.010951677 -0.1198746 0.11862988 -0.2300029 -0.21863957 -0.054966275 -0.014705315 0.22882982 0.2158624 0.14362893 0.121649235 -0.02751281 0.24887435 -0.2548591 -0.24203846 0.20190403 -0.13596721 -0.09689767 0.18366535 0.11428055 0.037108086 -0.26093265 -0.065218255 0.2884877 0.06556275 0.21132892 0.047991704 0.050335016 -0.064594716 0.19657132 0.05952917 -0.08632692 0.105808616 0.048453942 0.33843604 0.22612777 -0.17643999 0.07488235 0.2659877 -0.063329875 0.404408 0.045899715 -0.18369605 -0.082740515 0.21302179 0.2216888 -0.18982475 -0.04832363 -0.031766154 -0.08579771 0.2610386 0.13457017 0.015022756 -0.11311681 -0.1879641 0.03117356 -0.049869116 -0.010243841 -0.07751399 0.21602689 0.009309728 0.13288565 0.16997734 -0.29639217 0.22497508 -0.21070597 0.080289446 0.38097173 0.02799054 -0.25318208 -0.23493975 -0.049024478 -0.21511687 0.13078982 -0.19290887 0.12081557 -0.10835831 0.43865138 -0.13527226 -0.23679207 0.017367786 -0.3429005 0.07859884 0.16494197 -0.28595582 0.60427415 -0.06858537 0.23550895 0.034072254 0.14319222 -0.06572145 0.2321333
15 0.21753885 -0.19603488 0.22246052 0.053218246 0.2198684 0.0641684 -0.078404196 0.0685261 0.03459075 0.041002575 0.14088775 -0.0119490065 -0.013864659 -0.16414405 -0.06950997 -0.0958368 0.09804292 -0.24041893 0.15096238 0.063458964 0.23969616 -0.07222806 -0.2037508 -0.063041665 -0.12702738 -0.21247435 -0.22042449 0.13871266 -0.13231093 0.14484037 0.09326683 0.11036171 -0.06517736 -0.05494439 0.025936173 0.011006698 -0.03899613 0.12571968 -0.1686207 -0.20227624 -0.24692605 -0.0701334 -0.033895195 -0.009350503 -0.061639316 0.06957288 0.020827875 -0.20786974 0.07958977 0.07882413 -0.15261698 -0.08040926 -0.00020945066 0.090782754 -0.053853236 0.0103800455 0.01943474 -0.019719768 -0.088643566 -0.22334243 0.020992393 0.009274393 -0.1667048 -0.08149822 0.11032348 -0.025808848 -0.0072571374 -0.07554927 -0.40172586 -0.0076460326 -0.07751847 -0.18077177 -0.049380932 -0.18569545 0.1634799 -0.07171284 -0.043378472 -0.40788537 -0.0014539227 -0.1355096 0.0011647814 0.08576015 0.043716036 -0.08266039 -0.15234074 0.10622099 -0.101277985 0.0006883692 -0.0008881481 -0.021695768 -0.015919019 -0.07411154 -0.37608886 -0.15752058 -0.005019843 -0.14302766 0.031670112 -0.23900105 -0.42911738 -0.14428051 -0.014021183 0.14073771 -0.009598518 -0.029777527 0.4328352 -0.24411067 0.018992415 0.15876177 0.06684553 -0.12359342 0.08785909 -0.07073018 -0.14643215 -0.11683058 -0.3879482 -0.08290224 -0.013577183 -0.17990401 0.032152757 -0.039456718 -0.112807214 0.1603908 0.015583788 -0.0025404335 0.19317788 -0.05278588 0.20374396 -0.09210489
50 0.06950548 -0.0033646945 -0.14369011 0.115002476 0.0941603 -0.1645296 0.12168823 0.28013384 0.102889866 -0.09977934 0.10717928 0.18733163 0.06442673 0.020190647 0.16122468 -0.10672942 0.2373125 -0.15577598 0.28043672 -0.029596027 -0.06939617 -0.16946271 0.1399813 -0.0014918667 -0.2776 0.016508836 -0.18047534 -0.06146942 -0.44460824 0.43478158 0.24614538 -0.052789394 0.19136725 -0.2030324 -0.40428716 -0.22383714 -0.047051124 0.15276146 0.26618356 -0.23492686 -0.11359697 0.026588988 0.06022335 -0.27599192 0.13221452 0.16217132 -0.1235606 0.13148414 -0.06720012 -0.16495237 0.17663652 0.006521468 0.0011573979 0.19109668 0.012743951 0.13550776 0.38913897 -0.11148311 -0.10509269 0.057329822 0.29689088 0.25244355 -0.037093647 -0.13606128 0.08173283 -0.0166885 -0.009163539 0.07603797 -0.3489336 -0.36405012 -0.06203356 -0.17074393 -0.05415624 0.1648532 -0.068387225 0.2015487 0.09430489 -0.14041248 0.36504713 -0.28363425 0.12471216 -0.09506321 0.20454477 -0.28698948 -0.09787419 -0.0986666 -0.07150538 0.19497041 0.07774179 0.096135944 -0.0814016 -0.031367723 0.13354981 -0.11494347 0.15120818 -0.1336318 -0.32305586 -0.28690007 -0.3458087 0.09109518 -0.1541783 0.07995678 0.064626284 0.16659573 0.50014526 -0.33107996 -0.036023233 -0.11898297 -0.08334631 -0.18518887 0.017994251 0.08352546 -0.3134635 -0.009011329 -0.24359308 -0.25695133 -0.3839176 -0.24286278 0.04683367 -0.2854254 -0.50656366 0.16909796 0.17468522 0.11137047 -0.061667368 -0.13031803 -0.1323432 -0.10393522
46 -0.042950016 -0.40590894 -0.13390732 0.08212004 -0.08104776 0.14316195 -0.31119975 0.09125192 -0.12708431 0.13676628 0.21124935 0.13030496 -0.11136139 -0.40185273 0.0031953938 -0.2634127 0.26277152 -0.52161604 0.18114974 -0.26301357 0.15885384 -0.19806275 -0.19949149 -0.16567177 0.2695263 -0.26923877 -0.00747162 0.13847013 -0.067528166 -0.096942 0.21647608 0.32497877 -0.19468516 0.010367536 -0.043482132 -0.009702548 0.054239206 -0.08643092 0.20821825 -0.02332061 -0.18144166 -0.07913759 -0.1100753 0.023458453 0.21641798 0.18835361 -0.09260012 -0.010268099 0.3354173 -0.13073097 -0.2032983 0.015833495 -0.05584242 0.0900731 -0.062098272 0.14341578 0.2098329 -0.027082402 0.023092808 -0.051886342 0.20774682 0.27767 -0.119218975 0.014471943 0.09451053 0.12040344 -0.18080744 0.019033313 0.0137337465 -0.1707536 -0.18250616 0.4177721 -0.39073318 -0.19577077 0.0403483 0.079475746 0.29565468 0.02737563 -0.24194571 0.13822643 -0.040159605 0.2893598 -0.1758523 -0.07662279 0.06940396 0.22233489 0.16509853 0.25190392 0.19304846 -0.047356624 -0.36106357 -0.0970468 -0.16203989 -0.07346819 -0.35444203 0.094902255 -0.0847311 0.10732216 -0.07845731 -0.2149958 -0.0023045586 -0.09288715 0.035598926 0.30004075 -0.0021550073 0.1690477 -0.22163369 -0.02809126 0.09330651 0.051091615 0.025697012 0.04663761 0.20826128 0.1972644 0.16322595 -0.086546786 -0.00022384556 -0.14385499 0.048808496 0.15378667 -0.45120284 0.34025964 -0.07280405 0.66447955 -0.15163034 0.058556236 -0.069583446 0.09308828
41 -0.05903523 -0.0055739824 -0.17612928 0.16502984 0.095264204 0.21441793 -0.01584597 -0.033395514 -0.084464565 -0.21675667 0.025266947 -0.15713072 -0.21053429 -0.12838344 -0.34100705 -0.107994616 0.1813106 0.04286821 0.22413176 0.041206766 -0.025822503 -0.04256197 -0.10279162 0.10508549 -0.12865657 -0.058183886 0.018165784 0.25799942 -0.15523621 0.25117737 0.11580415 0.16327643 -0.074988574 -0.0970387 0.24187453 -0.110739306 0.104904234 -0.009028014 0.3677853 0.35895145 -0.027554577 0.12875679 0.19670905 0.11520873 0.22794251 0.10170501 -0.10473409 -0.20256017 0.083930045 -0.36829403 -0.01668946 -0.17593277 -0.17597458 0.020132909 0.18372889 0.060034737 -0.04657524 -0.22429436 -0.00581928 -0.42070037 0.06188333 0.24629954 -0.47483662 -0.15195498 -0.019468376 0.29813045 -0.42122477 -0.1422694 -0.20043154 -0.33332488 -0.16675094 -0.016262503 -0.13068889 0.06374006 0.2950375 0.077403575 0.030648442 -0.27899438 0.105189785 -0.031551402 0.020652339 -0.04763837 -0.01845591 -0.26508647 0.02757119 0.19526975 -0.013266405 0.34364486 0.07222156 0.054309364 0.30105552 -0.06924159 -0.19633965 0.0010670425 -0.043605704 0.20519345 -0.110634476 0.19812544 0.2065761 -0.11339674 -0.19816323 -0.07844547 -0.025861038 -0.27923584 -0.18535855 -0.15198575 -0.38498124 -0.294008 -0.39330363 -0.028027337 -0.06975359 0.45047945 -0.14755917 -0.14915451 -0.30023983 -0.49300924 0.053804275 -0.066243336 -0.13024767 0.34135327 -0.08037491 0.47902328 0.003338162 0.26321468 -0.055560328 0.15423186 0.6444057 0.033020783
66 0.030470636 -0.12090155 -0.21696398 0.18545781 0.07220266 0.30188885 -0.015762093 0.2700772 -0.19424416 -0.10556455 0.059938293 -0.21321352 -0.27385548 -0.4686569 -0.08920968 -0.31524888 0.11670728 -0.17379224 0.03196753 0.15829235 -0.1438887 0.17633133 -0.31878352 0.08919413 0.0354393 -0.16307458 0.011433597 0.06659417 -0.17762412 0.07453455 0.019712685 0.1927886 0.06990593 -0.064829126 0.1947992 0.14792109 0.15526733 0.09733597 0.00043977072 -0.21834962 0.32541296 -0.111348614 -0.0778769 -0.19217557 0.16141519 0.31826288 -0.020489873 -0.08412869 0.2944815 -0.26337695 0.043001093 -0.0023845835 -0.14374973 0.03465611 -0.12935303 0.14135727 -0.13857408 -0.24145123 -0.10061547 -0.022997541 -0.08754874 0.16048972 -0.448534 -0.16907457 0.10043125 0.2561091 -0.23639517 0.25886896 -0.164553 -0.16868627 -0.24275452 -0.004612347 -0.17250858 0.3182453 0.18822049 0.081929035 0.34956744 0.22315091 0.059302807 0.1404505 0.0345259 0.21398017 0.021658625 -0.13071974 -0.084973715 0.0011177522 -0.31270266 -0.10601804 -0.12568758 -0.14542887 -0.0542046 -0.30449128 -0.09902217 0.05093688 -0.31525916 0.3061731 -0.037606135 -0.08037607 -0.011776302 0.067028806 -0.11116599 0.071776636 0.009713985 0.14980538 0.18186714 -0.01966186 -0.37495315 0.15962453 -0.17994711 0.04532536 -0.13249284 0.19390959 -0.23023908 0.09756846 -0.09490144 -0.22979592 -0.3989189 -0.18256995 -0.06990267 -0.04212609 -0.29456145 0.5593355 0.0941333 0.239412 0.16760777 0.11642278 0.2829233 -0.03483052
75 -0.09940891 -0.24069473 -0.22914432 0.35131717 0.17058998 0.056410834 -0.20795424 -0.23279575 0.09931394 -0.06733154 -0.091146596 -0.111694545 -0.25140843 -0.0495771 -0.22045116 -0.06848857 0.2187303 -0.16270293 -0.08933046 -0.0094118565 -0.25931945 0.09052846 0.07186664 -0.13628909 -0.36815643 -0.19626686 -0.055862766 -0.14798908 -0.07503362 0.017176872 -0.016825153 0.046727143 0.0011282269 -0.0037362184 0.12359012 -0.043835834 0.29029146 0.12747267 0.28165716 0.03517933 0.02065302 -0.06429342 0.10967268 -0.13814063 0.1961176 0.14197049 -0.017721148 -0.117041275 0.0369557 -0.28683186 0.086206414 -0.10760207 -0.27813947 0.0042131 0.21970634 -0.009619453 -0.21492897 0.073236555 -0.12876356 -0.36618844 0.014291601 0.06735816 -0.19914417 -0.15699574 0.049402818 0.28503725 -0.108483225 0.077369705 -0.2603545 -0.06608185 -0.24000368 0.2637788 -0.13422066 0.05177422 0.1328549 0.1574056 0.06401568 -0.06890999 -0.014603144 0.0020376255 -0.015835464 0.0985085 -0.008678745 -0.21630023 -0.06209479 0.48242128 0.13448279 0.22187623 0.06096248 -0.01205993 0.007997487 -0.046523325 -0.027182246 -0.2554552 0.12770204 0.106614605 -0.17301293 -0.061556682 -0.036061417 -0.00044688614 -0.31760815 0.0348203 0.07276441 -0.17532845 0.28790867 -0.19665496 -0.15474191 -0.14697514 -0.18614878 -0.10008044 0.13013566 0.08664489 -0.22014177 -0.1656795 -0.09268607 -0.24054983 -0.05270104 -0.114154354 -0.009701119 -0.026223077 -0.4007777 0.26578474 0.091330394 0.100311495 -0.011894694 -0.013836099 0.3380909 0.029224863
57 0.0432693 -0.15346524 -0.2578935 0.022499736 0.3646161 0.056400586 -0.053767547 0.029687153 -0.26508263 0.12409411 0.04796211 0.0069980696 -0.077570625 -0.090317644 -0.19408682 -0.35580128 0.28287134 -0.102278 0.12931484 0.06917758 -0.10608891 0.32102448 -0.39338636 0.26504064 0.050443593 -0.16287853 0.37897176 -0.16593178 -0.1211763 0.0004895638 0.11392884 0.21393873 0.07189509 -0.08864605 0.13023314 0.13928439 0.12889281 -0.07028261 0.20580485 -0.24623676 0.3520186 -0.06873031 0.038382437 0.027880996 0.1237569 0.23473015 -0.15572463 -0.12615123 0.114659265 -0.35383123 0.0904228 0.05114068 0.1506533 0.16299652 -0.0056876675 0.07711278 -0.18267025 -0.11434975 0.030257052 -0.10566062 -0.21354449 0.15192913 -0.41145712 0.07531102 0.016256215 0.2999927 -0.41418585 0.14531003 -0.046897322 -0.3021676 -0.42947516 0.15740271 -0.26602322 0.19921623 0.4986468 0.06014716 0.13677393 0.3173268 -0.15054145 0.3081933 -0.09533387 -0.10413942 0.038437735 -0.14228708 -0.025603585 0.12385264 -0.14481889 0.16374329 0.13131183 -0.17436862 -0.045090817 -0.07824983 -0.050168294 0.23043448 -0.18970157 0.17862412 -0.1654051 0.033264555 -0.07234187 -0.103648394 -0.14527202 0.09117033 0.106802575 -0.09086895 0.089560136 0.039965592 -0.32850704 0.24849606 -0.3968642 -0.13047475 -0.07080709 0.30014583 -0.30069587 0.23607686 -0.1868024 -0.32194385 -0.56379396 -0.3413439 -0.15291251 0.13706802 -0.35943195 0.5521092 0.3567285 -0.053508505 0.051681004 0.19812125 0.49799016 0.025448587
42 0.068794094 -0.084274635 0.12444081 0.4082789 0.2718756 0.11946921 -0.35428408 0.04792844 -0.0062400973 0.14638409 -0.026718045 0.023613306 -0.35544395 -0.15664838 -0.13678536 -0.10687492 0.592425 -0.035971534 0.13907833 0.18306324 -0.28024104 0.08482891 0.16709016 -0.5857 -0.34828484 -0.060959138 -0.027618336 -0.26993373 -0.15901805 0.117258154 0.30906063 -0.051355902 -0.13095187 0.10035065 0.031602457 0.069151275 0.06515248 -0.06878573 0.08378848 -0.022900756 -0.14428397 -0.043989196 -0.04229885 -0.14292243 0.33398807 -0.063954145 -0.13146514 0.035465695 -0.069924325 -0.31370068 0.11075515 -0.0015548472 0.003027022 0.053713333 0.34510946 0.061949823 -0.12859447 0.14004306 -0.09687645 -0.20099565 -0.14465657 0.086089805 -0.2291344 -0.25723007 0.009401123 0.040445253 -0.07412363 -0.030374484 -0.21031152 -0.35820258 -0.13039501 0.128371 0.011167911 0.422723 -0.06381831 0.13815488 -0.21731132 -0.11865471 0.23748648 -0.021907508 0.06380626 -0.27393818 0.012719848 -0.051479142 0.14313863 0.35292464 -0.037095517 0.34819418 0.111016616 -0.11032017 0.19288914 -0.058494713 -0.30338213 -0.05956326 0.10045297 0.14089185 -0.25844905 0.04644126 -0.042042226 -0.030963974 -0.039181434 0.075153984 0.4837365 -0.12954429 0.277354 -0.052440833 -0.15688166 0.008518584 -0.31251204 -0.07127775 0.026617715 -0.01387225 -0.20882809 -0.016004091 0.062478147 -0.039538022 -0.0054138694 -0.040225394 0.08992962 0.10425819 -0.20017202 0.05773454 -0.0045489636 0.06952129 0.05308915 0.34809765 0.108466655 -0.15863927
12 0.15602496 -0.044611387 0.20587862 0.12261578 -0.03356701 0.22529608 -0.14251213 0.1901062 -0.110262595 -0.0024815255 0.05970852 -0.02478881 -0.20444341 -0.08340042 -0.01222532 -0.02814914 0.23922239 -0.081673056 0.11077469 0.29079008 -0.039871827 -0.14996187 0.06055769 -0.47801048 -0.279246 0.18176237 -0.12363259 -0.17210294 -0.21613777 0.12328101 0.28488398 -0.26900837 -0.20383386 0.15575787 -0.15885103 -0.012387134 -0.07601235 0.1984745 -0.22508076 -0.15452729 -0.1646204 -0.002411307 -0.14903705 -0.084490664 0.09847173 -0.11128735 -0.21667261 -0.029720936 -0.16285326 -0.13693435 0.03503853 0.29277176 0.016427904 0.12597182 0.11446237 0.10505458 -0.09722818 0.0686271 -0.25821725 -0.05942449 -0.22770277 0.16833223 -0.37061542 -0.26343527 -0.007171595 -0.0957803 -0.22060691 0.18551758 -0.024530929 -0.23052432 -0.07187348 -0.019608967 -0.15706035 0.29248393 -0.1646794 0.1609052 -0.0022352985 -0.2728332 0.32744738 0.092088476 -0.026943559 -0.3790907 0.03857779 -0.0364633 -0.020145979 0.37290436 -0.09340093 0.48805252 0.2187554 0.005815477 0.22668701 0.100341454 0.022774896 0.27397135 -0.01395546 -0.023415131 -0.15793386 -0.052259512 -0.24172588 -0.052080527 0.03376947 0.13442215 0.32006145 -0.21759056 0.21056361 -0.1627918 -0.035405062 0.051008474 -0.31288603 -0.16086014 -0.033545665 0.007982958 -0.034668535 0.02318416 -0.08163556 0.003742346 -0.12502198 -0.037890017 0.20382385 0.0038116807 -0.3167379 0.05463883 -0.0831199 0.22680962 0.056867763 0.21642265 0.22191155 -0.1988339
9 0.43436635 -0.36056766 0.17868894 0.16207203 0.31559014 0.078374684 0.012752003 0.10200703 0.26005197 0.11874123 0.23366971 -0.048457284 0.10053679 -0.16480494 -0.08418011 -0.114667 0.19945629 -0.28401366 0.22502226 -0.09506874 0.21771878 -0.060703922 -0.09151238 0.05604022 -0.067659065 -0.18305033 -0.24617077 0.16863573 -0.17045754 0.114867084 0.030505447 0.03296708 -0.05419756 -0.024511663 0.06822301 0.08508533 0.047787793 -0.0188696 -0.04302244 -0.18668447 -0.19209823 -0.03732958 0.007864356 -0.010861504 0.009252867 0.090600155 0.058416024 -0.16812432 0.06888675 0.1206305 -0.14336303 -0.13972558 0.036408644 0.055616383 -0.13707 0.12291669 0.038080875 -0.053541224 -0.07944897 -0.03598063 -0.06352891 -0.046647623 -0.098894775 -0.06184113 0.17733032 -0.012434725 -0.019169692 -0.24284226 -0.32282555 -0.06793606 0.11324358 -0.12282301 -0.03343312 -0.22840989 0.17406194 -0.08548468 0.049756028 -0.3328531 -0.05098994 -0.113494575 0.11386309 0.08433321 0.013677566 -0.037503943 -0.18978658 -0.021226995 -0.1740165 0.03605673 0.099343896 -0.09558455 0.11854933 -0.010863774 -0.4908057 -0.15809755 0.034615237 -0.038087614 0.06629995 -0.26732117 -0.23558556 -0.12255837 -0.054954797 0.24073276 -0.00094093796 0.06977558 0.3645988 -0.2885562 0.1307701 0.07764661 0.052158862 -0.047740296 -0.007227235 0.02678262 -0.17164244 0.049636777 -0.39021838 -0.055881366 0.037442785 -0.20484206 0.034117978 -0.11309341 -0.005612662 0.115509756 0.044908293 0.03397434 0.21559547 -0.009459719 0.19053997 -0.18624055
36 -0.09036506 -0.48198414 -0.07868459 0.22655825 -0.1844153 0.14767157 -0.16709839 -0.23921892 -0.29835314 -0.1101008 -0.014032064 -0.26374188 0.12123837 -0.18880302 -0.119250976 -0.17828019 0.059373163 -0.106540635 0.1349052 -0.0102500515 -0.10109216 0.39971474 0.06925075 -0.13980652 -0.10613904 0.018140508 -0.16495943 0.20827225 -0.21802188 0.12394213 0.31772742 -0.37674832 0.18875475 0.20772329 0.069339074 -0.13043186 -0.12217156 0.24953257 0.06508001 0.0017256933 -0.0664939 0.2216774 -0.0981735 0.21562798 0.22481194 -0.085493706 -0.1264821 -0.018190606 0.075960495 -0.1453211 0.15097025 0.3383678 -0.0693786 -0.09109778 -0.03191492 -0.12048727 0.050235514 -0.07341985 -0.1462646 0.018385304 -0.041901432 -0.029157422 -0.39419803 -0.010199177 0.17642187 -0.12224545 -0.1937673 -0.28713572 -0.13111535 -0.14508209 0.34208006 0.19995633 -0.17647427 0.16590682 0.54088384 0.13313183 -0.17391881 -0.04431549 0.16729853 -0.31197053 0.09968628 0.093427934 -0.11333239 -0.14440052 -0.17734489 0.29570818 -0.09993609 0.095523976 0.2522054 -0.08753307 0.13026965 0.114839785 -0.1955594 -0.029851718 -0.21052447 0.083088726 -0.26462066 -0.29600865 -0.07311724 0.34007072 0.14811775 -0.19979587 -0.024649782 -0.010769175 0.3135553 0.18656269 -0.13398917 -0.19163238 -0.16445692 -0.35232902 -0.10851913 -0.2709624 -0.41790527 -0.36049053 0.0070326077 -0.40269545 -0.2795199 0.08656448 -0.16096926 0.04961997 -0.10035044 0.39950672 0.21166013 -0.13628273 -0.19236568 -0.5950543 0.3218574 0.22053994
8 0.34823707 -0.15933794 0.23328122 0.4063521 0.11979571 0.13998762 -0.13826217 0.22562332 -0.055096604 0.16379009 0.2394236 -0.16525902 -0.12322809 -0.066588365 0.18651123 0.06043583 0.48925218 -0.18583995 0.02456759 0.41741627 -0.09905335 -0.031342246 0.11674926 -0.617273 -0.090785496 -0.09287617 -0.08775005 -0.25321513 -0.17863165 0.18378972 0.21508992 -0.04931109 -0.062202938 0.022184806 -0.109253615 -0.16189244 0.14464316 0.32559296 -0.08580043 -0.16564313 -0.0060225385 0.04336919 0.019743806 -0.030800505 0.10693083 -0.14625855 -0.21621276 0.046997476 -0.17662515 -0.036526427 0.0850021 0.060209434 0.11810964 0.12293404 0.10082598 0.08646409 0.006668027 0.02178333 -0.33030996 0.13609049 -0.2409096 0.07156946 -0.41293156 -0.08999351 0.03750048 -0.17936118 -0.14979179 -0.064365484 -0.09910522 -0.41011426 -0.09019043 -0.034855258 -0.2166724 0.22300078 -0.050082162 0.15968174 -0.27881908 -0.1484422 0.34950843 0.17710155 -0.018320706 -0.3635692 -0.20381345 -0.061321333 0.20977029 0.38305172 0.0085933795 0.3109068 0.24621712 0.07761167 0.23066641 0.09417941 -0.30235127 0.18666089 -0.0013889605 0.108561315 -0.0035820138 -0.0013498494 -0.283951 0.030994965 0.2958768 0.27291533 0.20560525 -0.03998212 0.332766 -0.30980426 0.0113661885 -0.048313573 -0.38530818 -0.023733968 0.036886655 0.062404886 0.08871958 0.31015602 -0.14282298 -0.052747186 -0.06905401 -0.13997304 0.13929994 0.15143669 -0.052416254 -0.09887568 -0.06750052 0.30906186 -0.005708639 0.15622751 0.06893175 -0.16881049
38 -0.083792865 -0.55532247 -0.037464544 0.39518005 -0.27797815 0.21805139 -0.19816469 0.033939313 -0.44552535 -0.17127031 0.034240134 -0.20989354 0.026442287 -0.33129233 -0.08803779 -0.12220512 -0.16004243 -0.18691474 0.15432756 0.040162914 -0.07513736 0.29786375 0.052507587 -0.06694662 -0.08464884 0.0036978407 -0.15899329 0.14207798 -0.3316637 0.1904206 0.33764023 -0.4946516 0.10835743 0.24781905 0.16438577 -0.034817785 -0.020956209 0.046407446 0.112411745 0.046748746 -0.053362995 0.17904404 -0.03932707 0.289909 0.24478473 -0.16778487 -0.06995511 -0.14962979 0.018676477 -0.13169189 0.13119386 0.15451409 -0.11375826 -0.20802657 -0.16080298 -0.04964636 -0.05487367 -0.088168465 7.0672526e-05 0.03907299 -0.16517237 -0.05774689 -0.22483154 0.2690409 0.18255356 -0.21046092 -0.23427662 -0.2883556 -0.12983483 -0.015446467 0.15039586 0.20275083 -0.11394346 0.23464665 0.32080165 0.1904183 0.07171825 0.064701386 0.17196773 -0.19660507 -0.0066892835 0.24339083 -0.19330058 0.05632401 -0.11042144 0.22176813 -0.12777932 0.18171689 0.2062156 -0.11564613 0.2406528 0.29104096 -0.14748876 -0.075884916 -0.059712797 0.03427194 -0.116352014 -0.47034597 -0.22195464 0.14423971 0.07958007 -0.20817043 -0.0645066 0.038441025 0.24375567 0.17704342 -0.13353091 -0.17759363 -0.15596586 -0.35180503 -0.15955761 -0.07850407 -0.34707916 -0.36015826 -0.13345127 -0.30450588 -0.378175 0.0019481009 -0.14803047 -0.17211448 -0.22300845 0.3200639 0.055481654 -0.16599724 0.02806627 -0.39102662 0.3571809 0.15287511
72 -0.04337956 0.005526631 -0.066108055 0.16231595 -0.09201849 0.14222579 -0.25257537 -0.19504371 -0.04538507 -0.06122587 0.12844132 -0.10708483 0.0145702595 -0.07201698 0.032595396 -0.07532055 0.14278877 -0.17979008 0.050326582 0.15528311 -0.17185962 0.017010259 -0.03164267 -0.007977917 -0.23484464 0.029504992 -0.05932403 -0.10100451 -0.13836046 0.027514534 0.16486143 -0.083338186 -0.02427811 -0.09051661 0.12964635 -0.021466281 0.16053553 0.07916244 -0.11611029 -0.1641792 -0.14090525 0.059237532 0.100106925 -0.011357287 0.20792852 0.06028362 0.047396798 -0.14696503 0.020110074 -0.2610388 0.15480934 -0.06821459 -0.079591595 -0.1277432 0.046927813 -0.25194892 -0.2824146 -0.07807497 -0.1811588 -0.2607902 -0.026520384 0.20311813 -0.025734393 0.031608365 0.06204166 -0.067011364 -0.054206338 0.25792167 -0.11918054 -0.17720103 -0.047142904 0.15739189 -0.20057714 0.029656827 0.17237814 0.1212001 0.16071486 0.010967755 -0.14692701 0.10368633 -0.09300458 0.005537578 0.16281573 -0.08622185 0.090879634 0.2619865 0.0055538043 0.07336554 0.07808851 -0.03027234 -0.045859322 -0.024627542 0.07700906 0.020862127 -0.10299127 -0.051814333 -0.29629362 -0.13360004 -0.11564647 0.09524275 0.08756247 -0.00013991015 0.1914748 -0.04858034 0.23865904 -0.17054586 -0.05410044 -0.11264243 -0.15383603 -0.145587 -0.018706772 0.15037015 -0.12820278 -0.11776776 -0.12420896 -0.14474781 -0.33485705 -0.27788487 0.07689015 -0.16928099 -0.15248887 0.048428565 0.032448754 0.14248087 -0.03199384 -0.06888332 0.13357244 -0.1655477
45 0.43164843 -0.07534491 0.048642375 -0.28589907 -0.028744265 0.22865133 -0.26955014 -0.092909 0.20872936 0.20174196 -0.04192639 -0.03281554 0.3739376 0.16375075 0.20736413 -0.068142526 0.20992085 -0.0940016 -0.027955351 -0.23334606 -0.08495301 0.18890265 -0.12661089 -0.08061777 0.05183691 -0.14961486 -0.033258926 -0.122836396 -0.08908934 0.101277456 0.33153972 0.017529713 0.057417702 0.011092282 -0.16305526 -0.12093307 -0.035928763 0.040614534 0.24884938 -0.27657777 0.029725134 0.0734789 0.34551898 -0.13947019 0.16834953 0.054273836 -0.03434952 -0.11086986 0.017364241 -0.43913487 -0.050110985 0.048714705 -0.1458655 0.108942986 -0.13397685 0.0062966426 -0.06476404 0.0102883205 -0.12703569 -0.13914225 -0.03379112 0.20872454 -0.17775545 -0.14348003 -0.14700776 0.03245206 -0.13981345 0.2425576 0.14139447 -0.13752212 0.054037772 0.21373811 -0.13597324 0.28336418 0.2746452 0.18092325 0.03586892 0.058561873 -0.088066675 -0.10989902 0.030315237 -0.07896015 0.035157908 0.14315882 -0.51236767 0.03038522 0.24336447 -0.0036200606 0.1284089 -0.0006475791 0.19958302 -0.15773967 0.007248409 0.043693326 -0.13165314 -0.0029507813 0.07805135 -0.02966984 -0.3494199 -0.048478495 -0.123946324 0.08465583 0.19887365 0.08699441 0.05798766 -0.01797382 -0.12779169 -0.22172719 -0.21732117 -0.29983032 -0.019693956 0.07445923 -0.16965277 0.14452648 -0.120440245 -0.2568833 -0.10918005 0.03678882 -0.017811922 -0.28273886 -0.16887026 0.370244 0.03307931 0.22657202 -0.045087196 -0.15700375 -0.22653356 -0.050657928
54 0.29686585 0.18005614 0.060656626 0.44355533 0.09318615 0.28270257 -0.25471726 0.08079522 -0.029525785 -0.011629863 0.29166728 -0.2519881 2.5770165e-05 -0.20775738 0.23887275 -0.2954209 0.18925543 -0.09656729 0.20742187 0.066135794 -0.19286397 -0.13805032 -0.16578537 0.06449558 -0.06982561 0.1438545 -0.05172544 0.049931534 -0.08046762 -0.011527743 -0.12655053 0.08318246 0.082363665 -0.09288908 0.009560971 0.047034264 0.3187778 0.11462064 0.14376847 0.03499005 0.1961248 0.18134044 0.22788663 -0.18420655 0.12534398 -0.030067245 -0.02755857 -0.24377275 0.13075504 -0.11630581 0.07805317 -0.08656942 -0.00980393 -0.1785674 -0.0046743318 -0.19283397 -0.20484968 -0.076931916 -0.185944 -0.1963524 0.1703602 0.10568039 -0.12114814 -0.19614404 -0.044526186 0.23837084 0.16225176 0.054016903 -0.11664654 -0.5628011 -0.056448884 -0.037663694 -0.13707076 0.09890766 0.122258775 -0.0012349855 -0.11184582 -0.0523636 -0.030629048 0.176979 0.10760577 0.10981562 0.13596441 -0.14137734 -0.14595091 0.26379713 0.15117875 -0.020083534 0.010018325 -0.31304052 0.18269283 0.10472576 0.013788313 0.066410825 -0.2470019 0.2662725 -0.29066312 -0.07987834 0.041373737 0.14548753 0.02711495 0.002329565 -0.042909127 -0.1676388 0.22644857 0.10193847 0.06281727 -0.3270458 -0.41537875 -0.014206051 -0.2567104 0.114303835 -0.121561475 -0.2683276 -0.14258248 -0.09009554 -0.5489064 -0.045536306 0.015675133 -0.19850732 -0.295833 0.2736002 0.15215382 0.03489717 -0.35591355 -0.089086 0.21920882 0.052455
74 -0.059696704 -0.022292804 0.37925032 0.07107741 0.16597345 0.17607443 0.05349094 0.03297025 -0.0077867378 -0.07747913 0.040726103 -0.038061492 -0.10135531 -0.5873134 -0.055317845 -0.21021959 0.1292723 -0.55498487 -0.2842113 -0.035294462 -0.057153605 0.075476624 -0.23135781 -0.012808463 -0.13337828 -0.24313462 0.04290666 0.16673782 -0.026943674 0.012820376 0.33693695 0.33564752 -0.12164917 0.15979232 0.089849904 -0.23385592 0.5598434 -0.083126925 -0.26796654 -0.5359741 0.24418887 -0.13121139 0.1402995 -0.16777018 0.39849246 -0.05570352 -0.35623023 -0.17602465 0.12636532 -0.18432786 0.061546564 -0.12017579 -0.1444099 0.00914068 0.025257796 0.020164115 -0.15096872 -0.061160862 -0.2335336 0.080676906 0.012743448 0.00042907207 -0.253146 -0.13372146 0.20848784 0.14342561 -0.0071934895 0.1959769 -0.33949772 -0.21251951 -0.40590006 0.15815964 -0.331934 0.3667329 0.09512624 0.03732859 0.285026 0.28907374 0.1517536 0.104519375 0.0024877698 0.18936358 0.07120376 -0.24478112 0.18778147 0.35780063 0.03386304 -0.08564053 0.22645593 -0.06068833 -0.114176415 0.061620627 -0.12192772 0.11664886 0.016088476 0.13802455 -0.1513091 0.027462833 0.0076977345 -0.0060612326 -0.035818264 0.17073792 0.21529105 0.11159271 0.3539443 -0.06933382 -0.17695686 0.18884997 0.011449683 -0.16911253 0.10340638 0.12397315 -0.02404945 0.21158393 0.0034908075 0.07251877 -0.3333828 0.112724766 -0.11422553 -0.21556135 -0.71797943 0.39052302 -0.040133175 0.10810536 0.3012627 0.014724466 -0.07892663 0.07613167
43 0.016371518 -0.09907349 0.0467965 0.37067366 -0.032713536 0.22357056 -0.11850468 -0.055569798 -0.23933385 -0.078398995 0.15416498 -0.15630393 0.051362377 -0.108247824 0.20342985 -0.10592605 -0.02212418 -0.11205752 0.0741648 0.096045606 -0.21186642 -0.053066514 -0.023182388 0.058502413 -0.19679998 -0.032702442 0.018076686 0.07963469 -0.056430094 -0.04004106 0.07969686 -0.20226265 0.0631905 -0.074923284 0.11147225 -0.03087311 0.0027252093 -0.06538191 -0.11985348 0.05982028 -0.10376501 0.12166494 0.11680562 0.08392733 0.199802 -0.02982098 -0.1637834 0.056082178 -0.012225099 -0.25122312 0.14447308 0.21852715 -0.0051039224 -0.10332978 -0.054894608 -0.13700226 -0.13078865 -0.041169032 -0.22221328 -0.2118403 -0.061889123 0.20548558 -0.34199667 -0.083514884 -0.013254185 -0.05965555 -0.10002232 0.034171753 -0.10816048 -0.39555103 -0.09769632 0.11249722 -0.15029997 0.11769586 0.09278365 0.028362965 0.15459934 0.027527828 0.10245381 -0.09627608 -0.046993576 -0.01803373 0.062808745 -0.055756006 0.0014664012 0.22757365 -0.091983534 -0.037973903 0.06863439 -0.07740668 0.20360073 -0.0058164443 -0.122804694 0.029434381 -0.12999858 0.13885112 -0.30268794 -0.16218644 -0.07863613 0.062712565 0.037188597 -0.0064324434 0.05986895 0.00543175 0.1991647 -0.07367233 -0.17678213 -0.19189894 -0.007057457 -0.32255068 0.07736998 0.23362966 -0.110213995 -0.12540247 -0.11911487 -0.28161764 -0.20792824 -0.04504761 -0.033718586 -0.30470654 -0.13941953 0.23718509 0.0030878047 0.15317251 0.002701942 -0.18366966 0.22938997 0.06838091
