2708 128
1 -0.42371544 0.40225697 -0.24183618 -0.07416685 0.3734117 -0.030217301 0.333715 0.36455572 0.17636122 0.4751249 -0.07734228 0.5494878 -0.14476913 -0.42477375 0.381448 -0.06722145 0.036687627 0.109618664 0.48609725 0.24103314 -0.08223158 0.43971413 0.38371086 -0.036045633 0.15482782 -0.17015135 0.45222536 -0.40437162 -0.0065945606 0.54544634 0.43747348 -0.34352154 0.0819656 0.05253648 -0.10049644 0.30244184 0.025519425 -0.28084543 -0.09420773 -0.18909454 -0.2704916 0.27985555 -0.047915082 0.09045715 0.061626915 -0.32621765 0.19081327 0.0043605533 -0.12881592 0.23474 -0.12459895 0.32989696 -0.18485256 -0.19119766 0.017748257 0.06326827 -0.37000477 0.2340693 0.15870662 0.22479963 -0.17674407 0.28901002 -0.25324976 -0.4891491 -0.38023844 0.15026692 0.12725882 -0.375876 -0.25029713 0.020658236 -0.26142612 -0.0811687 0.22639728 -0.20296025 0.16376404 -0.07500233 0.10470102 0.049601037 0.17523116 -0.30309057 0.050482284 -0.10836586 0.21418937 0.0105753075 0.035488605 -0.13342053 0.21262825 -0.09309258 -0.099235274 0.04771565 0.13696913 0.15104392 -0.4321047 -0.26692542 0.08535576 0.21296644 0.09575413 0.30253792 -0.31294453 0.053927135 -0.17559674 -0.16212781 -0.1465802 0.38691843 0.28357396 -0.16305463 0.33622754 0.020945836 0.13148597 0.2787433 -0.7009107 -0.014965852 -0.24736261 -0.0817909 0.24568138 -0.1636783 0.3137099 -0.011937735 -0.0563526 0.059518155 -0.09714199 0.053011872 -0.3620136 0.030938076 0.15378928 0.36417094 -0.001015131 0.05569777
378 -0.10021369 -0.2426978 0.0675818 0.24232846 -0.39388976 -0.048812356 0.23038448 0.13182497 -0.13891852 0.371959 -0.1687785 0.049713664 0.022552872 -0.2990895 0.4788693 -0.2456246 -0.3233931 0.67378676 0.5944534 -0.12130168 0.22511317 0.10236419 0.067597166 0.37295872 0.32292998 -0.16862579 -0.35046336 -0.36615008 0.044413656 0.59308165 0.3293048 -0.41751757 0.34149513 0.15239218 0.26780748 -0.10644251 0.09628042 -0.09493313 -0.1305573 -0.65828776 -0.07262123 0.068681516 -0.218721 -0.03951316 -0.06076882 0.04728455 -0.2583118 0.1640819 0.015534071 -0.14108394 0.338725 0.3920968 -0.29876754 -0.065099984 -0.047709998 -0.17054595 -0.23404227 0.28016344 0.44741234 -0.2906482 0.6283755 0.09464233 0.047300365 0.150884 -0.022153568 -0.04272188 0.11122848 -0.35903484 0.1903468 0.049666587 -0.02275984 0.11790634 0.530916 -0.24465978 0.5318356 -0.006983372 -0.42588672 0.24724619 0.25267932 0.21485113 -0.16632637 -0.22329055 -0.56974024 0.16514206 0.15412812 -0.26145947 0.17988418 -0.43062815 -0.18890758 0.18896815 -0.08931675 0.4531377 0.06403524 -0.39169684 0.15065454 0.11557443 0.07325411 -0.4425772 0.24219218 -0.042480607 -0.17718212 -0.027429653 -0.2886559 -0.24860935 -0.49590296 -0.17287485 0.31190294 0.34225857 0.11472357 0.2617255 -0.17130624 0.20082776 -0.27378163 0.011135698 -0.08561957 -0.252976 0.40613806 -0.07565641 0.19827567 -0.29100657 0.056351557 0.04376954 -0.37290064 -0.34783763 0.3515472 -0.3120523 0.13932195 0.016945487
261 0.18129614 -0.4940935 -0.0990931 0.29760855 -0.24627033 0.12736517 0.026139474 0.2507626 0.07286543 0.28961322 0.18125278 0.22360833 0.05473329 -0.27071947 0.25427702 -0.27433595 -0.0042242985 -0.0032398116 0.58349556 0.028063556 -0.26306936 0.48294708 -0.11313145 0.00828547 0.31682056 -0.22962326 -0.036151655 -0.32855025 0.16964269 0.17019117 0.2520652 0.22488262 -0.15882741 -0.043715805 -0.12912218 -0.1234596 0.038128495 0.26449105 -0.19203146 -0.21863212 0.20052554 -0.27639085 0.24644661 -0.15088156 0.20273441 -0.09255546 -0.056023818 0.18061946 -0.28344458 0.25013947 0.19165955 0.19784401 -0.18537539 0.10227293 -0.038415555 0.12315161 -0.10340244 -0.16930883 0.24437279 -0.5596012 0.5574489 0.2904251 -0.33398733 -0.14898306 -0.5817661 0.090401895 -0.0329071 -0.10064856 0.30393323 -0.09910209 -0.4206119 0.25512636 0.52565026 -0.1277843 0.29869562 -1.0059993 -0.055314343 -0.11293333 0.27313977 -0.19163418 0.106745906 0.16905789 -0.11224401 0.11908843 0.070809714 0.05350544 0.22077003 0.07665986 -0.112228185 -0.118320644 0.38088036 0.06209524 0.0381424 0.1534821 0.20021053 0.5808255 0.15728037 0.31818497 0.0087883165 0.25546005 -0.16244341 0.3972072 -0.09895546 0.026935944 0.101274975 -0.014543132 -0.15987471 0.023626562 0.17411433 0.28752288 -0.39732245 -0.05902107 -0.7649778 0.07661527 -0.1146451 -0.32352108 0.11242563 -0.06894211 -0.11131295 -0.31469285 -0.099071115 0.252268 -0.25007743 0.12148107 0.14665984 -0.65231335 0.16185148 -0.11908045
715 -0.40542236 -0.011284071 -0.33460277 0.16364802 -0.15385729 -0.31540343 0.28906772 0.32798707 -0.16292846 0.5418863 0.03542887 -0.10966457 -0.21330214 -0.044846136 0.7563178 -0.52895206 0.23753929 0.35757434 0.065377176 0.30286607 0.13957547 0.13223088 0.3323205 0.15732612 0.6024971 -0.3889754 -0.24962315 -0.1927309 0.26976877 0.32554558 0.6191173 -0.012189321 0.5503567 0.14609084 -0.19119455 0.040826503 -0.43545234 0.1147558 -0.34010532 -0.3345274 -0.071646675 -0.08433235 0.15840289 0.03511582 0.17908183 0.07072498 -0.5049775 0.31504253 0.039346974 0.6081944 0.15704721 0.32343134 -0.38096562 -0.09580461 0.37855503 -0.14369376 -0.3888063 0.2582181 0.66766953 -0.46639568 0.041477405 -0.20844263 -0.032875165 0.40745544 -0.019107683 -0.24591844 -0.28160483 -0.24229512 0.30437636 -0.18603566 0.11003315 0.30922988 0.14715022 -0.065978035 0.049976684 -0.07109154 -0.32278273 0.27124944 -0.14110991 0.19712414 -0.0034524817 -0.10188493 -0.17723323 0.47562554 0.080830514 -0.024454942 0.08102648 -0.71237475 -0.12769935 0.07169901 -0.028118448 0.39112568 -0.24092695 -0.35429212 0.09762599 0.61410636 -0.050129674 0.07861578 -0.0035505756 0.1549685 -0.0787745 0.23782395 0.037382193 -0.19072102 0.0114756515 0.3278169 0.033938732 -0.0812446 0.21526463 0.20856431 -0.139134 -0.053895015 -0.08124444 -0.08093766 0.1748692 -0.04926866 0.07164517 0.11141547 -0.0017433795 0.29265612 -0.11448229 -0.29400778 -0.3286551 0.30648014 0.07999029 -0.011040623 0.050553393 0.20464668
272 -0.056351792 0.060285762 0.014332251 -0.20206529 -0.22119254 0.15370229 0.16639979 -0.099392414 -0.04008349 0.8026677 -0.16052735 0.35493055 -0.43935704 -0.093749546 0.06041382 -0.3700213 0.25987336 0.47889408 0.26284304 0.26425877 0.08729223 0.26971287 -0.25851065 0.75571257 -0.060503792 0.13184947 -0.0046312907 0.38070953 0.47159943 0.31341648 0.48199826 -0.81099004 0.15424773 -0.18531324 -0.52253574 0.10844909 -0.25502947 0.24167636 -0.13673119 -0.27800962 -0.16329922 -0.03378206 -0.3282947 -0.08904167 0.08183492 -0.07994398 -0.23599912 0.9086206 -0.025775276 -0.11641547 0.37470353 0.3538662 -0.15829477 0.29388416 0.08717227 -0.08402121 -0.30637494 0.062216226 0.32411298 -0.21958236 0.0244384 -0.0053408663 -0.22092274 0.21790092 -0.04047644 0.2159848 0.075738855 -0.27163437 0.27579257 -0.57758415 -0.90768737 -0.3421467 0.004056027 0.2625554 0.040914256 -0.2914411 -0.40928817 0.023966301 0.3694167 0.13329628 0.32202712 0.08801517 -0.3602987 -0.09518409 0.23839092 0.07180882 -0.026248526 -0.058732737 0.42124695 0.26914927 -0.009958789 0.24510363 0.15842457 -0.25512198 0.08804613 -0.07753835 0.49659866 -0.031624734 -0.03184412 -0.26073152 0.09025309 0.9319972 -0.5879249 -0.13703509 -0.37084013 0.1894973 0.08533668 0.0733368 -0.53881735 0.3691328 -0.4154647 0.11649771 -0.24256916 -0.112367235 -0.19761352 0.008697467 0.18352003 -0.21699385 0.009437421 -0.10062695 0.1618204 0.1353299 -0.37342215 -0.016590415 0.27004093 -0.29907843 -0.00132663 0.7905082
819 -0.20176236 -0.08404835 -0.105671704 0.121994615 0.16093837 -0.81423527 0.06680614 0.014060155 -0.14479497 0.68125606 -0.084178664 0.002521628 0.15680507 0.28568542 0.11000422 -0.29510987 -0.04076244 0.38560984 0.275939 0.19049332 0.377973 -0.122127436 -0.31069052 0.5049181 0.12898909 0.56326866 -0.44674167 -0.3243377 0.22435723 0.53646755 0.2396152 -0.60148567 -0.70542336 0.062123094 0.026645375 0.29084033 -0.47163042 0.17737705 -0.33516148 -0.5545529 -0.17441629 0.04555759 -0.05662568 0.07226855 0.516562 0.22393186 -0.12906505 0.098221056 -0.29165143 0.40116528 -0.121756464 0.21093692 0.10283038 0.08285288 0.2924491 -0.48350152 0.5948291 0.020678567 -0.2449824 0.32103887 0.48992422 -0.1589719 -0.09846535 0.37040702 -0.021485563 0.060100414 -0.10569838 -0.08577635 -0.57279974 -0.19176778 -0.66114694 0.13521978 0.07405648 -0.32995775 0.19581757 -0.18923852 -0.21091075 0.15358639 0.51437837 -0.06854407 0.51090145 0.23172589 -0.29503712 0.29780012 0.02390965 -0.27500683 -0.09628838 -0.19381605 0.2922032 0.11001768 -0.020527672 -0.07833049 0.16567421 -0.2869022 0.39910874 0.06895038 -0.19675468 -0.05826231 0.29600248 -0.23693757 -0.2730971 -0.038954474 -0.42299613 -0.6421374 -0.17281064 0.13942914 0.17576382 -0.4378449 -0.4558562 0.19578582 -0.55107987 -0.47993562 -0.4996465 0.26864702 -0.2898446 -0.25195745 -0.07140375 0.17150503 -0.105145045 -0.007730428 0.012288715 -0.08245297 -0.36806825 0.22615536 0.12476417 -0.4721785 -0.12221062 -0.37576142
171 -0.147464 -0.08343957 -0.092887856 0.37324166 0.17767832 -0.19596167 -0.03887549 0.32447863 0.20360431 0.25824395 0.004117618 -0.075590484 -0.24260095 -0.14055596 0.460337 -0.20894794 -0.26025525 0.072356366 1.104523 0.18305454 -0.07794642 0.13305707 -0.094490215 0.022223597 0.099994436 -0.3309817 0.40031016 -0.24607751 0.29016328 -0.030031493 0.32498625 0.08549171 -0.056783278 0.1706382 0.2916976 0.14430098 0.08026775 0.31833753 -0.026588997 -0.31230596 -0.030860487 -0.057183594 0.60749334 0.13020751 0.1257311 -0.2721474 0.48463583 0.28284237 0.011074691 0.47013587 0.05562716 -0.04102091 0.17402725 0.46477494 -0.25281662 0.14062324 -0.11000525 -0.33190528 0.24754043 -0.3651725 0.30611628 0.17096463 -0.29874164 0.35436276 -0.28201902 0.06064608 -0.29174837 -0.2748322 0.22312662 -0.39010015 -0.80925643 0.3904025 0.47220406 -0.32293788 0.1319354 -1.0351442 -0.14262238 -0.15233415 0.41130215 0.080484465 0.0876709 0.20436642 -0.1273803 0.05063949 -0.027119381 0.28730997 0.14472501 -0.42192924 0.15407349 -0.12816209 0.45632765 0.071410514 0.021323817 -0.06055269 0.53617555 0.18170893 0.04936058 -0.18794389 0.13520454 0.21855497 -0.37228915 0.24497235 -0.08374506 -0.12311539 0.008366479 -0.07277858 -0.3032421 0.30826166 0.04329034 0.14214212 -0.24285384 -0.00816252 -0.5998211 -0.047751147 -0.32239696 0.037381433 0.20691974 -0.14477961 0.2649991 -0.43681663 -0.08780208 0.38271457 0.13821612 0.1285568 0.3317977 -0.3496473 -0.30080292 -0.11211841
761 -0.012068343 -0.13162391 0.34905365 -0.08965761 0.089382626 -0.041778956 0.24895816 0.26422283 0.21236308 0.6809744 -0.051812824 0.5594479 0.49331695 0.25840205 0.45311436 0.107112005 -0.17445894 -0.04718031 0.40276778 0.27127412 -0.3230987 0.06046184 -0.7410633 0.069678195 0.47593677 0.4620909 -0.5069118 -0.09410451 0.048505187 1.0035785 0.8226113 -0.41600102 0.062492423 -0.08798282 0.05131562 0.026546244 -0.13852358 -0.0811338 0.622938 0.15520725 0.31614414 0.16910543 0.14141524 -0.2431267 -0.35134825 0.12533128 0.24395326 0.3792548 0.17136712 0.24891558 -0.062139552 -0.28290948 -0.24189694 0.18954933 0.4118108 0.38561982 0.1856348 0.31798553 0.5639286 0.4257678 -0.29352304 -0.2776229 -0.14259666 -0.24739385 0.2229531 -0.3211458 -0.20400892 0.12568533 0.03064263 -0.06493421 -0.5457358 -0.43326536 -0.25002643 0.36406642 -0.033023983 -0.20071921 -0.070060365 -0.025189748 -0.23651019 -0.558985 0.44069678 0.0008142009 0.16656387 0.023000317 -0.13847773 -0.43821374 0.76592565 -0.34031767 0.166993 0.4511542 -0.31670618 -0.46529043 0.23692365 -0.074198775 0.36165488 0.4701732 -0.027379537 0.2161745 0.22010224 -0.38082138 0.2822036 0.127565 -0.0627907 0.17338674 0.023415944 -0.14299881 -0.32928252 0.07808201 0.4212365 0.36014733 -0.3185387 -0.39290497 -0.35072988 -0.49736613 0.21591699 0.0015080369 -0.31432834 0.3237537 -0.081967995 0.4163294 -0.2096772 0.55134314 -0.50010407 -0.09470236 0.04894891 -0.22781946 -0.37066203 0.011261444
347 0.08930878 -0.082461506 -0.612753 0.19145955 0.17646347 0.20437907 -0.07715076 0.3876883 0.22150014 0.5904174 0.09940793 -0.17175232 -0.019533936 0.028515974 0.115720876 0.19547963 -0.2771283 0.10721485 0.25661916 -0.45309606 0.04824637 0.26463088 0.07268323 0.18509905 -0.13055095 -0.5577811 0.37282312 0.0987056 -0.39840513 0.20000021 0.12238113 -0.0018214704 -0.36676887 0.10590085 0.13017201 0.29135212 0.19980028 0.34435755 0.0037778402 0.15029947 0.39834264 -0.25560763 -0.06513086 -0.30955696 -0.012569085 -0.11462734 -0.09704465 0.17883533 -0.7164794 -0.22417888 -0.031573907 -0.22871538 -0.3036489 -0.18063356 -0.16515595 -0.04020953 0.19191086 -0.4920878 0.3871708 0.2123413 -0.58170396 -0.363937 -0.25349477 -0.1532498 -0.050130982 -0.36658335 -0.07092724 -0.14998789 -0.14008325 0.25824955 -0.39110592 -0.029652335 0.53030217 -0.20286764 0.13253953 -0.28158134 -0.46699482 -0.49209306 -0.5361485 -0.5905292 0.29868278 0.24169262 0.3198242 0.5049736 -0.10294585 -0.07495658 0.15458652 -0.82602406 -0.1572568 0.7449805 -0.18247116 0.12425045 -0.036368508 -0.27335525 0.53699464 0.7017911 -0.1481685 -0.2426396 0.20058085 0.0796546 -0.11128146 0.44988316 -0.059482653 -0.17080276 -0.2628987 0.28679305 -0.13863133 0.4980179 0.19572043 -0.42744938 -0.28292027 -0.11616331 -0.30029947 0.47208348 0.20315135 0.017923666 0.29694825 0.046907123 -0.0065972027 -0.25464496 -0.47904965 -0.023318453 -0.31555364 -0.1448466 0.34634873 -0.12585044 -0.16490388 -0.06421103
1493 -0.27579626 -0.460498 0.024172435 -0.22477587 -0.6637311 -0.14362772 0.30804625 0.23851958 -0.019288663 0.4742607 -0.32533935 0.28410217 -0.19569737 -0.13923028 0.24776903 -0.8291953 0.07479483 0.8570115 0.7206766 0.03356144 0.49833336 0.05920135 -0.007683782 0.31687197 0.49595872 -0.24310851 -0.072460175 -0.12751706 -0.4312236 0.35515854 -0.21354704 -0.6184249 0.5972163 0.16896966 -0.59588546 0.14269733 -0.111727774 0.215688 0.23703514 -0.77530515 0.17935519 -0.30187497 0.4795271 -0.3383266 0.17749465 -0.048185557 0.07002908 0.23254275 0.2339404 0.041219655 0.34210932 0.7673863 -0.015622698 -0.6432337 -0.0378504 -0.41004333 -0.6423145 0.29812872 0.14735949 -0.21118225 0.25436366 -0.12646595 -0.032248832 0.24040774 0.20992911 -0.18480378 0.37236518 -0.19185449 0.10209238 -0.32014197 -0.15276177 -0.062739745 -0.03293898 -0.43741056 0.09346412 -0.028185068 -0.052435245 0.13168257 -0.22283566 0.21365096 0.6697581 0.022409061 -0.102960415 0.19544387 -0.023525856 -0.1971039 0.5783976 -0.28856376 0.14905196 0.4989159 0.038844246 0.6321974 0.05799215 -0.39260224 -0.030182878 -0.011803582 0.13610958 0.12992087 0.1026906 0.09544484 0.19304723 -0.3505025 -0.50359756 -0.11648325 -0.069669195 -0.1900452 0.3412343 -0.12624086 0.29827482 -0.03659122 -0.18964899 0.1694137 -0.24764286 -0.058783002 -0.28058547 -0.42665696 0.48690534 0.21954243 -0.042112228 -0.22249414 -0.09794781 -0.19041695 -0.7182265 -0.07690195 0.5720735 -0.1314146 -0.7505409 -0.40094498
529 0.37857148 0.008303305 -0.4323765 0.10393405 0.02437875 -0.31720516 0.5693107 -0.10344619 0.19479518 1.0061306 0.08927481 -0.041639682 0.007637531 0.65713316 -0.062130522 -0.21336202 -0.46079323 0.042237945 0.74990773 -0.06572964 -0.032665294 0.43064505 -0.28848374 0.24298902 0.36917976 -0.05166125 -0.08696714 -0.55553305 -0.32804257 0.63414913 0.45001984 -0.35989502 -0.0803435 -0.33666316 0.16958065 -0.23609391 0.27135757 0.38634112 -0.3160347 0.07898099 -0.15872651 0.22786807 0.10272437 -0.11362424 -0.041470937 0.32476744 -0.37468714 -0.37010524 -0.4336315 -0.4870234 0.09875484 0.045919314 -0.24891362 -0.06486959 0.17343321 -0.3014481 0.09522112 0.053657938 0.6987413 0.6960069 -0.0017400768 -0.15019307 0.014463697 -0.4721327 0.24644072 -0.37600663 0.5664739 0.1242934 -0.15652548 0.34095153 -0.13031985 -0.02855052 0.27054605 0.4739969 -0.6015721 -0.48009002 0.1922401 -0.5076259 0.3071344 -0.3783911 -0.08697352 -0.019891435 0.061797045 -0.0028569945 0.28832853 0.20630395 -0.23274253 -0.5515434 0.2975602 0.06292192 -0.5549168 0.15285954 -0.03979716 0.40715793 0.41012642 0.27963424 0.07748905 -0.595209 0.25095704 0.35782585 0.20007028 0.24439642 -0.19486775 0.2931208 0.27856737 0.3384046 0.39078492 0.3716986 0.28908068 -0.19629887 -0.28396115 -0.6841716 -0.5028103 0.24000399 0.12823668 -0.20765132 -0.33795357 -0.36297223 -0.15701416 -0.058421306 0.45582944 0.036544144 -0.54497105 -0.1182789 0.8594167 -0.17503552 -0.71525484 -0.46572864
854 0.12066928 -0.54451036 -0.25656193 0.24367547 -0.053887207 -0.20619512 0.06277045 0.3929438 0.027402483 0.5184354 0.3066964 0.058103573 0.04268616 -0.5598364 0.37737945 0.019597404 -0.31854665 0.6448526 0.70080155 -0.4042829 -0.13139117 0.17604695 0.11202998 -0.10583929 0.47441795 -0.49562198 -0.112902015 -0.070862524 -0.14742072 0.16512847 0.50283355 0.16387866 -0.20535652 0.011994433 0.69238627 0.07864287 0.25774518 -0.18247199 -0.16519703 0.062445324 0.21888316 0.18441045 -0.07508038 -0.107967444 0.18950143 -0.3714391 -0.14622153 0.0038689587 0.0081737535 0.49480963 0.13800095 0.08299696 -0.22074592 0.46450797 -0.24293128 -0.21310064 -0.120356925 -0.44135097 0.7057467 -0.32368663 0.40024886 0.2727261 0.12333331 0.37274465 -0.10367825 0.10611565 -0.21712062 -0.16887489 -0.10990817 -0.009513509 -0.66293734 -0.022857623 0.3228037 -0.02431324 0.3627523 -0.64978 -0.4152208 -0.1422119 -0.18278462 0.44845596 0.43950894 0.08053795 -0.20197572 0.018603511 -0.15946913 0.0033053258 -0.23356338 -0.029198496 0.20280713 0.28893602 0.019379789 0.14248809 -0.2565334 -0.19848795 -0.0784209 0.3256426 -0.058470268 0.15679517 -0.15194377 -0.14231175 -0.28073695 0.082573704 0.22758245 -0.0333053 -0.07885001 0.066501185 0.44647142 -0.013439379 -0.07295268 0.2606827 -0.7792652 -0.013369869 -0.18817018 -0.2008051 -0.25805295 -0.6909288 0.109835394 0.17096779 -0.7739947 -0.4980108 -0.029913547 0.124883674 -0.2936045 0.02070945 0.3920781 -0.4171911 0.3129378 0.1100963
223 0.18681838 -0.44077983 0.02679619 -0.25162795 0.2523767 -0.38958985 0.024891801 0.18641992 0.2794401 -0.013908182 -0.25898597 -0.2901273 -0.4058534 -0.4427039 0.41993904 -0.52597046 -0.35117465 0.69818014 0.39369342 0.26441452 -0.064805895 0.6410603 -0.12892914 -0.015917076 0.31638154 -0.4916527 0.11563186 0.016640488 0.37790757 0.4439835 0.66593325 0.1805817 -0.14926204 0.03613245 0.31589612 0.021201257 0.27554 0.48583367 -0.22975986 -0.35500604 -0.18645173 0.0031003607 -0.08979864 0.09114174 -0.6165583 -0.6538451 0.7302425 0.16795512 0.041062936 0.11193071 -0.085822314 -0.41373187 -0.21455203 0.37563172 0.35743064 0.543914 -0.14351524 -0.35807824 0.49981102 0.03760833 0.0032662295 -0.071900606 0.0027434318 -0.17714597 -0.21197523 -0.26621687 -0.051885556 -0.14449042 0.29070225 -0.40079743 -0.47833145 0.42205623 0.36383772 0.04672845 -0.08854345 -0.7410948 -0.36811024 -0.09906845 -0.17595473 0.39520612 -0.091047145 0.16337387 -0.42536837 -0.24663174 -0.18248312 -0.32851276 -0.030238993 0.057493586 0.1753424 0.21439032 0.41501942 0.3393623 -0.28622195 -0.28109896 0.30989704 0.26576573 -0.115331486 0.07902472 0.22831081 0.079465315 0.09842001 -0.023734558 0.0038980476 -0.19125572 -0.19469744 -0.026265271 0.09248393 -0.04661383 0.07582509 -0.5325365 -0.43457916 -0.5026964 -0.24589872 0.40366462 -0.06208735 -0.42456055 0.026764078 -0.015126287 -0.33380118 -0.52463484 0.017183559 0.20964539 -0.08860195 -0.03504048 0.28009412 -0.26317754 0.35267588 -0.16474819
1599 0.23118141 0.12549946 0.24805324 -0.046176374 -0.074398145 -0.17447482 0.41926005 -0.080837876 0.3164481 0.59154433 0.23479915 0.5212407 0.25697798 -0.5030045 0.6046123 0.015437874 0.1467561 -0.2396281 0.2154273 0.039985888 0.32407814 0.7396456 -0.71204484 -0.080731675 0.3769473 0.020620497 0.16835167 -0.39595303 0.14494345 0.63452405 0.37737384 0.16524924 0.23608844 0.3032779 -0.3279587 0.11893835 -0.08679745 0.23520863 -0.3178964 -0.07767973 -0.10195949 0.28309324 0.6201868 -0.10039251 0.5792736 -0.3732972 -0.3460882 0.33645454 0.14440799 0.09274218 0.20524514 0.2894122 -0.32171512 -0.2899515 0.13818179 -0.34257665 -0.3247889 0.52994764 0.06050746 0.8361688 -0.13211311 -0.27199396 -0.51776224 0.6215455 -0.14388777 -0.56651825 -0.3368493 -0.61547405 0.12422662 -0.24495031 -0.39087373 -0.43627432 -0.05513495 -0.29865322 0.13657399 -0.47875068 -0.84503937 -0.36307397 0.088032514 0.08879423 -0.24932043 -0.19283946 -0.36490703 0.32742763 -0.34676537 -0.12984756 0.03333144 -0.21611187 0.38691458 0.16914743 -0.40378144 0.23673336 0.123145625 -0.6235065 0.29659706 0.3414868 0.34356782 -0.32691285 0.40284148 -0.05581783 -0.05663223 0.65575534 -0.44940442 -0.4250769 -0.42453334 0.20655686 -0.36778468 -0.12481148 -0.9187738 -0.0091311205 -0.37417266 0.119119145 -0.09229285 -0.15196948 0.24037008 0.16713896 -0.33388722 -0.022183476 -0.30477434 0.6328642 0.29563266 -0.10354549 -0.027193835 -0.5158243 0.11785362 -0.3604022 -0.29902542 -0.128416
164 0.18154068 -0.5593879 0.096442595 -0.056621864 -0.13611779 -0.20831047 0.24718264 -0.38953006 0.3180673 -0.0154322935 0.5190154 0.035587836 -0.040531542 -0.038984425 0.4200449 -0.40152457 0.19972263 0.5488426 0.38123178 -0.10522921 -0.14492215 0.31576082 0.20411028 0.07748158 0.093355045 -0.6403213 0.2673648 -0.30874893 -0.25685796 0.49715105 0.16730183 -0.20852895 -0.24915187 -0.20937915 0.16499041 -0.07200184 0.086144365 -0.053238273 -0.2381061 -0.05237221 0.21900271 0.21322972 0.34110412 -0.21151868 0.2963057 0.093440525 0.40529153 0.13274373 -0.037296366 -0.018328683 -0.31926045 0.095287204 -0.27064025 0.076900296 -0.0075241276 0.030225439 -0.008697945 0.35787848 -0.2176275 -0.19045784 0.33254632 -0.041771624 -0.4616387 -0.34354427 -0.823728 -0.19464585 -0.09965099 -0.25954774 -0.3036187 0.019788511 -0.11588668 0.20614915 0.5505086 -0.3368687 -0.08801101 -0.60258585 0.39108008 0.44922787 0.15733463 0.013697627 0.028273763 0.22632821 -0.04368441 0.41956294 -0.39750892 0.21403639 -0.2816762 -0.14966111 -0.509624 -0.21645269 0.5397403 -0.061924513 -0.68885463 0.06846614 0.08202134 0.68950397 0.5459123 0.29422745 -0.18974186 0.03660339 -0.39207458 0.64649576 -0.16374208 0.1192977 0.12875551 0.017579366 0.28738952 0.20229359 -0.10004089 0.15019712 -0.49348783 -0.016441584 -0.80172294 -0.23932149 -0.072117254 -0.020489668 0.19411197 0.3052436 -0.14355977 -0.18109344 0.23226619 0.21392064 0.11915156 -0.107721314 0.12246925 -0.0025815505 0.47914436 -0.0037639805
600 -0.092597574 0.15073328 0.2152776 -0.16929433 -0.07185233 -0.33405554 0.122966826 0.32429057 0.028045088 1.2815202 0.114330955 -0.34156066 -0.5248638 -0.059256516 0.9847392 -0.26177844 0.2874743 0.6176845 0.65940917 -0.12305004 0.5782267 0.09962978 -0.2039521 0.25653514 0.33607587 -0.22133261 0.08745871 -0.29429063 -0.16424288 0.7490271 0.10293579 -0.3818427 0.46514687 0.056935664 0.24383986 -0.26641724 0.18770185 0.5914876 -0.12873174 -0.35541803 0.051465 -0.48298422 -0.5312673 -0.32733196 0.18741694 -0.053695712 0.41848236 -0.11353025 -0.22700466 -0.44735345 0.77440447 0.16864432 -0.07022958 0.12766364 -0.13580757 -0.72804844 -0.5164158 0.88578534 0.18370716 0.2627586 0.12900294 -0.10794577 0.44042552 -0.055432763 0.44772077 -0.005415953 0.1281025 -0.53791517 -0.1494997 -0.34784725 -0.17644583 0.020570943 0.5467512 -0.98160094 0.0006578246 -0.041614514 -0.43924975 -0.18608111 0.0077825864 -0.0045613255 0.22668834 -0.39931583 -0.38530385 -0.137797 -0.124654904 -0.2146911 0.32027543 0.15474072 0.16733079 -0.08893622 -0.011136935 -0.34783214 0.2852085 -0.6431892 -0.07487933 0.53237456 0.66471684 -0.22425833 -0.03129286 -0.40445843 0.36543345 0.2394334 -0.059347965 -0.37777513 -0.36635843 0.31112483 0.1602029 -0.22893882 0.28405452 -0.19549356 -0.3379076 0.3741767 -0.8389195 -0.17674047 -0.0009540135 -0.19171847 0.17722876 -0.11082978 0.052908726 0.13744907 -0.15285024 0.1543745 0.23737757 -0.5981163 0.22081567 0.2788801 -0.17742711 0.021358311
1240 0.11095191 0.024576098 -0.8258328 -0.0032713816 -0.49255013 -0.15577684 0.09180975 -0.4279249 0.3358833 -0.14852506 0.07105125 0.014690917 0.13162339 0.5694008 0.45773584 -0.4113353 -0.05984301 0.08253861 1.2016257 -0.14928575 0.073980644 0.35473093 0.4843946 -0.28991792 0.07171627 0.21602906 -0.48893693 -0.19349514 -0.0723586 0.807628 0.74311507 0.14498734 -0.15209022 0.006209839 0.2546468 0.6387613 0.6291249 0.46998352 0.19806843 -0.09891931 -0.15115145 0.2106583 0.5086818 -0.24229257 -0.13579488 -0.3522218 0.38242918 0.17402576 -0.27717817 0.079043515 0.40765992 0.25389758 -0.0017545791 0.002053597 0.3911602 0.012043306 -0.03375161 -0.1449415 0.44357526 -0.017878493 -0.0627587 -0.21630651 -0.024390055 0.12447983 -0.64523864 0.117800586 -0.17673078 0.14398697 -0.44361904 -1.5106943 -0.17462173 0.33000493 0.50759107 0.09296644 -0.4961861 -0.16686045 0.28386745 -0.083511196 0.011604885 -0.90291506 0.29545423 0.2739131 0.04997525 0.41277972 0.27547058 0.32179722 0.3760832 -0.034713123 -0.28916177 0.3656837 0.21444394 -0.42112327 -0.28913617 0.5257 0.61922246 0.3429656 -0.2749893 -0.23739617 -0.051645473 -0.23358831 0.95052415 0.43540996 -0.14306863 0.14317733 -0.65167564 0.36438975 0.2697166 0.3019392 0.16474484 0.26003945 -0.40437868 -0.15898101 -0.52456874 0.3046421 -0.12055977 0.2485781 -0.1303914 -0.5385644 0.4088453 0.6737353 -0.13491562 -0.12753122 0.10752542 0.05559871 0.36452904 -0.13304384 0.01604349 -0.32171056
1121 0.67339754 0.060848046 8.514137e-05 -0.5243077 0.47278628 -0.020617591 -0.38802257 0.56282467 0.22243199 0.5916306 0.18196696 -0.42123237 0.5606601 -0.23428649 -0.088961646 0.04492596 -0.5421271 0.03752367 0.8621674 -0.15067215 -0.12999922 0.34998217 -0.061679885 0.3016545 0.1517134 0.21978325 0.058092497 0.25553587 -0.100096986 0.59210426 0.3562743 0.44833302 -0.001773517 -0.30000553 -0.03118678 0.41059062 0.58594537 -0.13273227 -0.014572192 0.013658996 -0.1480368 0.34900326 0.1798099 0.33311924 -0.1394713 0.65457726 -0.21135744 0.14334892 0.14382589 -0.05365498 0.109600954 -0.06398895 -0.24101186 -0.224559 0.43724018 -0.089016095 0.07571872 0.22444236 0.34578884 0.112075135 0.20845866 -0.48339555 -0.08630412 0.133121 -0.1241287 0.111429356 0.24254002 -0.13901977 0.043315478 0.17967512 -0.38849458 0.02812998 0.1167447 0.14855576 -0.3900894 0.017377589 0.0020563905 0.038539402 -0.47972926 -0.7650134 0.5099577 -0.07590229 -0.17476694 0.549469 0.11808629 0.28502467 -0.14479873 -0.23357405 -0.093698926 0.28209785 0.004946568 -0.04369275 -0.3586387 -0.45583904 0.7952733 0.8227524 0.20979822 -0.47150022 0.10313891 0.04230415 0.19993386 0.5566531 -0.2125585 -0.1600831 0.04817737 0.49345157 0.48551187 0.13725483 0.69941396 -0.12394568 -0.24369007 -0.33181944 -0.21939366 -0.13419747 0.32685417 -0.3618651 -0.21291736 -0.07362323 -0.09876167 0.026765017 -0.0478537 0.06175817 0.03227801 0.45340464 0.15836987 -0.20885219 -0.11202925 -0.29957116
880 -0.1622583 0.36398038 -0.087732136 -0.29058728 0.34613302 -0.04339679 0.47772622 0.048361186 0.18205492 0.7199626 -0.46139464 -0.054561984 0.23841965 -0.20293012 0.16926345 -0.4979123 -0.31393588 -0.018748345 0.8330845 0.03505863 0.3419388 0.5528311 -0.07510879 -0.40272325 0.061166264 -0.32541215 0.40798634 -0.110273644 -0.3116174 0.617537 -0.21523471 -0.58509487 0.1956809 -0.47064856 -0.0026036017 0.25884596 0.47267783 0.5761281 -0.31080005 -0.0965049 0.084968075 -0.04664089 0.26083335 0.5709677 0.24389267 -0.072178476 -0.18288764 0.5505476 -0.33572227 0.29400662 0.17051253 -0.18679225 -0.2808421 0.39476493 -0.40586773 -0.27035815 -0.14586776 0.6337674 0.08085416 0.4914066 0.07145344 0.21820146 -0.3697563 0.026009269 0.16864868 -0.272001 -0.31024823 0.19647571 -0.30248386 -0.3397492 -0.6336 0.88696784 0.018135672 0.29465574 -0.50222856 0.091359474 0.10865912 -0.054968193 -0.53333527 0.07441818 0.7595382 0.59482235 -0.1896549 -0.05175828 0.41436842 0.8211899 0.22663145 -0.264818 -0.18645814 0.06742112 -0.5193973 0.16293879 0.43185115 0.19512972 0.29051703 -0.103779644 0.043538533 0.21222249 -0.10776059 0.03589961 -0.5542326 0.13218996 0.23569374 0.015060377 -0.33006656 0.10590583 0.16012588 0.4871254 -0.09913041 -0.49599838 0.1653339 -0.49480748 -0.8034065 -0.36830977 -0.18472677 0.54382944 -0.3912313 -0.23634854 -0.26894668 0.3568977 -0.2216356 -0.056460444 -0.19667514 -0.40292063 -0.13323343 -0.09057205 -0.46343362 -0.9218509
2101 -0.05194714 0.05037215 -0.059939984 -0.69060445 0.43659797 0.22629756 0.22016282 0.39287603 0.75498456 0.15908821 -0.001086096 0.43387127 0.008475324 -0.51841646 0.25781214 -0.46224204 -0.343267 -0.19185475 0.4479745 0.43700334 0.31051806 0.45595473 0.14092413 -0.078104265 0.38449976 -0.2895918 0.3532534 0.2809189 -0.35636848 0.12746967 0.4889032 -0.82050866 0.204518 -0.23858032 0.09961 0.29310474 0.20250651 -0.40411428 -0.17791598 0.11559547 0.31216255 0.2875126 -0.19498946 0.13589013 0.063846275 -0.38083622 0.28703922 -0.3470376 -0.2533279 -0.15430976 -0.3141042 0.2632104 -0.38203642 0.01624217 0.48592296 -0.10071772 -0.38635987 0.08199777 0.3865011 0.5941231 0.004602759 -0.24765678 -0.051154237 -0.45999697 -0.45579514 0.19722952 -0.22589059 -0.3443171 -0.79799736 -0.10011401 -0.38746667 0.007706419 -0.016916074 -0.133093 -0.19211239 -0.27872238 0.37779117 -0.52700466 -0.08496542 -0.31718907 0.13812855 0.078413926 -0.17573293 0.13822527 -0.1806583 0.0756996 0.16742763 -0.31644502 0.25096887 -0.057042733 0.28395155 0.31653038 -0.5303016 -0.60676134 0.23998055 0.22587188 0.39115313 0.288818 -0.40185302 -0.15231113 0.11024716 0.12465234 -0.5579307 0.46187562 -0.11358541 -0.48389933 0.32117507 0.06934835 -0.100946784 0.40259993 -0.3575767 0.08940586 -0.3635834 -0.32760522 0.056112453 -0.12671046 0.09742581 -0.062109068 -0.20431234 0.07216044 0.25599214 -0.5104067 -0.27833655 0.019482017 0.11573683 0.19113383 0.36630404 0.39184391
1130 0.4721751 0.037021417 0.055761784 -0.5367899 0.21761575 -0.087766804 0.30554825 0.43261865 0.0012762161 0.3736816 -0.21238558 0.1972449 0.10235604 -0.24401258 0.38143125 -0.06676194 -0.6051149 0.09096824 0.3948341 0.16126055 -0.39405295 0.66861707 -0.30321828 0.4127006 -0.22088256 -0.030136578 0.22390527 0.1853351 -0.108829215 0.62634355 0.37267497 0.51686233 -0.20437595 0.07700213 -0.51475835 0.3661952 0.058586445 0.48938513 0.5384527 -0.67022693 0.34354335 0.1908795 -0.47072414 0.05194836 0.24166635 -0.24914694 -0.41530675 0.20384619 -0.57435226 -0.37544072 0.6179652 0.56131244 -0.1085345 0.2307609 1.1273166 -0.10310979 -0.16037744 -0.16036433 0.39668956 -0.040766228 0.36639187 -0.19754528 0.119503096 0.21764721 -0.64633435 0.3161371 -0.24914551 0.35224807 -0.21737756 0.28453907 -0.041759096 0.74968314 0.18711346 0.39633617 0.43484366 -0.09522345 0.031758852 -0.23485316 0.1858741 -0.57747346 0.33151 -0.02730914 1.0755785 0.6059763 0.16361769 0.022569561 -0.2047796 -0.1688299 -0.068572454 0.42481807 -0.18897249 0.17727254 0.2698296 0.0071244566 0.24651544 0.36400518 -0.12016176 -0.01995188 0.020067463 -0.075578324 0.13636468 0.44179204 -0.08130553 0.023454662 0.036120985 0.77731967 0.34783706 -0.30165187 -0.14721294 -0.21949752 -0.119070426 -0.05779786 -0.06793412 -0.7596507 0.27569178 -0.19480075 -0.14685656 -0.40412188 0.515357 -0.15043533 -0.1493684 0.103813946 0.10666295 -0.30586067 0.76432663 -0.23917082 0.025218675 -0.47123772
1194 0.25971246 0.35831186 -0.35450888 0.42520007 0.66626734 -0.12226105 0.015422381 0.08492782 0.20890643 0.67864573 -0.07479747 0.37574568 -0.026685094 0.2007281 -0.0529576 -0.17387508 -0.51725686 0.5261135 0.3944725 -0.18460242 -0.0938631 0.022210568 -0.24758428 -0.18885738 -0.29034323 0.11627207 -0.10779593 -0.6423676 -0.73361206 1.2240828 0.42044207 0.25543654 -0.09215922 -0.10725771 0.062593885 0.24349017 0.04362918 -0.07074898 0.37586603 -0.062449012 0.01443754 -0.49482924 -0.008305134 -0.029296199 -0.015324279 0.26888537 0.5006337 -0.054851327 -0.4095411 0.66201735 -0.07156833 0.07300628 -0.39696673 0.017555023 0.4982905 0.2867229 0.067437455 -0.54939705 0.2152322 0.41216418 -0.61006135 -0.43434623 0.038995367 0.098374575 -0.07047554 -0.21342891 -0.24878247 -0.27224883 0.3836263 -0.2816457 -0.61369675 -0.44008815 0.4466747 -0.05656045 -0.13447513 -0.28178555 -0.4793878 -0.58758557 -0.87524414 -0.14814363 -0.31452128 0.24375346 0.35054448 0.5378883 -0.437763 -0.6393621 0.605867 0.17320397 -0.001173542 0.22467722 -0.3183143 -0.37430575 0.27658176 0.25101167 0.59726036 0.26951444 0.23879896 -0.63038677 0.05953309 -0.19485703 0.10158525 -0.080531016 -0.18016419 -0.03175422 -0.2895127 0.22443296 -0.33807048 0.7105616 -0.015562977 0.6718617 -0.19333231 -0.012713562 -0.1699122 -0.5598977 0.48485076 0.12654835 -0.09376296 -0.014075565 -0.03496272 -0.00043930137 -0.26924473 0.4244215 -0.48706555 -0.4387166 0.073914185 -0.065101735 0.29727137 -0.4379253
1303 -0.09384579 -0.25062683 -0.18974009 -0.19012167 0.025634542 -0.43601874 0.56062603 0.081817746 0.43214172 0.39914533 -0.06633478 0.56248885 -0.05437377 0.022607906 0.13471113 -0.21946834 0.12511784 0.24444042 1.0247214 0.22522886 -0.06254206 0.23347938 -0.034427572 -0.25674364 -0.089931 -0.1465642 0.054079004 0.11852243 0.06497718 0.0908253 -0.16322906 -0.060448583 -0.18136272 -0.49582762 -0.17614415 -0.15810712 0.5958155 0.5911826 -0.4424683 -0.12193148 0.1428227 -0.29337165 0.038261376 0.65181345 0.280105 -0.026413945 -0.13276435 0.05331849 -0.5706571 0.22370887 -0.10904418 -0.5681209 -0.15925494 0.23612945 0.3681773 -0.20034002 -0.41885617 -0.122283764 -0.19923107 0.3954697 -0.035983708 -0.23160261 -0.9859569 -0.17204197 0.16449691 0.017220745 -0.8499248 -0.109742686 -0.43541205 -0.60426015 -0.5762641 -0.2653329 0.44529524 0.7913713 -0.9092779 -0.018249104 -0.07503792 -0.5573197 -0.33288452 -0.23313475 0.51397127 -0.33012933 -0.08111703 0.20728222 0.04847221 0.38411388 0.08991708 -0.94418585 0.32095706 -0.099952824 -0.14369318 -0.114703596 -0.29487267 0.00010185497 0.41057834 0.57257587 -0.5601222 -0.050367143 -0.41268486 0.530509 -0.8001092 -0.2050151 0.4179884 -0.15748201 0.04027526 0.18929194 0.35243902 0.42023847 -0.07683535 -0.016024053 -0.06268397 -0.3225933 -0.3657656 -0.28202423 0.06528355 0.0861128 -0.061418854 0.18273613 0.39405733 0.61290026 -0.18770032 0.34230697 -0.18810247 -0.45924112 0.27932402 0.19135953 -0.58704925 -0.043144163
52 -0.14839703 -0.23334944 -0.5637047 0.37828863 0.07689046 -0.20122652 -0.045484792 0.19189563 0.51758 0.4035926 -0.2520994 0.37718788 -0.26040086 -0.08648444 -0.07324223 -0.4234845 0.0024621503 0.0044449717 0.321392 0.41247383 -0.12124989 -0.054419905 0.4707445 -0.3528359 0.033721514 -0.34373975 -0.34328154 -0.035659473 -0.018801082 1.0677818 0.29681584 -0.25254682 -0.10041455 0.2190686 -0.17188191 -0.3183617 0.17775519 -0.05265107 -0.23034608 0.30190125 -0.46999177 0.78892606 0.04454888 -0.3148474 0.12666196 -0.496128 0.56405234 0.36431852 0.15504198 0.17700627 -0.38502297 -0.13729568 0.20458315 -0.44732526 -0.11502757 0.084369294 -0.02724174 0.19072016 0.40583274 -0.12168744 0.5401536 0.067629576 -0.27642575 -0.17239785 -0.54267216 0.17104854 0.2125331 -0.29286146 -0.0069535202 -0.52558506 -0.42936772 0.6309574 0.61570084 0.11401574 0.3804959 -0.23017871 0.22681299 -0.44325477 0.32298788 -0.027735256 -0.039888445 -0.6725566 0.17615163 0.10022434 -0.40280616 -0.16108178 0.9423306 -0.2788858 -0.039467983 -0.23422752 0.8170239 0.29469922 -0.15957876 -0.27977407 -0.20643166 0.5514377 0.64605665 0.19052203 -0.2793975 -0.38971928 0.0122753745 -0.22640958 -0.38356882 -0.00097536977 0.47703597 0.0020758777 0.012760331 0.6961813 0.23846722 0.25294846 -0.57366663 -0.52149796 -0.76603067 -0.5364458 0.6186369 -0.50991255 0.13534492 -0.17455909 0.3136648 -0.20269565 0.4749131 0.40550053 -0.07800971 -0.21941222 0.15678583 -0.22371535 0.16010094 0.110253654
872 1.014074 -0.7346289 -0.5179621 -0.31338006 0.20708358 0.11356772 -0.15905772 0.04488345 0.20088865 0.6486486 -0.23739457 0.2520228 -0.04558106 0.011852121 0.19570328 0.07312077 -0.163171 0.15639909 0.74629116 -0.08955601 -0.11939608 0.50011474 0.03850612 -0.16922484 0.7282478 -0.3514861 0.49267676 -0.62852573 -0.1726041 0.5010637 0.05041642 -0.25245997 -0.35550463 0.32546705 -0.30266398 0.2359869 0.8672156 0.45577502 -0.09987132 0.15971631 0.08977269 0.38467735 0.10285372 0.18130347 0.07438475 0.2597105 -0.39976847 -0.38959962 0.05589789 -0.23915127 -0.051126666 0.2648107 -0.20059286 0.25504407 0.9465967 0.1599973 0.05259012 -0.6313997 0.39782697 -0.4720641 -0.22479375 -0.34926257 -0.010074548 0.11923533 -0.28165555 -0.0063808514 -0.052255683 0.03413837 0.41487595 -0.21172917 -0.76935977 0.24696529 0.4392541 -0.10627644 -0.2798369 -0.27437726 -0.06604696 -0.2429821 -0.10931911 0.15617663 -0.07447144 0.5918935 -0.10381941 0.21807675 -0.47922936 -0.23689486 0.46490374 -0.27196252 0.19644889 0.37882057 0.08704146 0.10216452 -0.4153088 0.23293869 -0.0077873804 -0.48939338 0.25905633 -0.19830652 0.215743 -0.070824094 0.4137145 0.5624168 -0.67889875 0.47002488 -0.22821616 0.80319023 -0.22155283 1.2269573 0.0828149 0.3993093 -0.5729599 0.024535036 -0.8013518 -0.21877894 -0.10970864 0.22114937 -0.3912889 -0.0009413503 0.12929 -0.26673234 -0.6348198 0.03771275 -0.5281781 0.34188116 0.19714952 0.048963122 -0.14193308 -0.22632743
1230 -0.35653287 0.04093401 -0.74145436 0.5317083 -0.03327962 0.23483124 -0.40162763 0.3856034 0.35536727 1.3297759 0.3829211 0.17849989 0.40031216 -0.18462709 0.5666949 -0.47378868 0.07204691 0.2559393 -0.47510594 0.5755949 0.41399902 -0.000948074 -1.0112473 -0.47565705 0.5270391 -1.0570109 0.02645139 -0.21681295 -0.47548008 0.53247017 0.2493241 -0.15557481 -0.05905123 -0.36006504 -0.1386824 -0.0896793 -0.3211865 0.52600247 -0.34824425 -0.4619563 -0.04762746 0.09733082 -0.34747547 0.933391 0.24364878 0.117553085 -0.18970595 0.4043687 0.16363293 0.122107856 0.037351977 -0.39043435 0.023184897 0.31675026 0.18383516 -0.43264005 -0.57256013 0.30836487 0.42545408 0.46299744 0.7665395 -0.30820194 -0.14227532 0.52898234 -0.114502035 -0.05139933 -0.24297798 -0.2968909 0.025767727 -0.41217712 -0.3184904 0.036722228 -0.35657436 0.63405955 -0.5927688 -0.49970028 -0.23168907 -0.28473192 -0.18730417 -0.017939303 0.47709626 0.05149484 0.24152528 0.3096079 -0.029300941 -0.20285909 0.1842181 -0.3542849 0.3493019 0.039014395 -0.29906628 -0.09208389 -0.061887953 -0.18370274 0.13122974 0.2797799 0.79224175 0.10729247 -0.8257076 -0.09943831 0.01995475 -0.026634324 -0.31654212 -0.7273487 -0.39655128 0.6667678 0.15570173 -0.1616791 -0.6071493 -0.0015795027 0.0058390535 0.32556123 -0.68602514 -0.18493769 0.6348601 0.07157517 0.30730662 -0.43785226 0.29077637 0.266538 -0.10783995 -0.1822046 -0.28027907 -0.31313926 -0.47264862 0.060367256 0.27594474 -0.60256684
1206 -0.20639823 -0.0527453 0.11298982 -0.09139994 0.9364036 -0.11845698 0.8701726 -0.025130382 0.17181155 0.6545563 -0.45439765 -0.2896211 0.17457663 -0.0540501 0.2722594 -0.8012218 -0.044675205 -0.098167874 0.8159421 0.23840448 0.047369253 0.68188167 -0.7606782 -0.08667879 -0.4767302 -0.09959904 0.15190056 -0.13894404 -0.053507145 0.8083601 0.07784097 0.18748443 -0.5701022 -0.06761398 -0.09324799 0.7579678 0.51235443 0.24530144 0.0025382356 0.082579486 -0.16890357 -0.40343386 -0.3622364 0.12137881 0.29060042 -0.12540273 0.337804 0.27760294 -0.42461032 0.70090544 0.021139385 -0.05351581 -0.20227182 -0.10102982 -0.03892371 -0.16258503 -0.43779856 -0.24951701 0.3670375 0.30636898 -0.2665555 0.311636 -0.010645594 -0.17746991 -0.09743832 0.19943982 -0.29859298 0.07757164 -0.19136973 0.06045642 -0.70804626 -0.6103273 0.47981918 0.41406637 -0.5596256 -0.018574692 -0.18914959 -0.7667871 -0.17933993 0.066633865 0.26001206 0.028850466 -0.06909493 0.31631213 0.073480554 0.15173918 0.31930634 -0.35550642 -0.048867818 -0.4204994 -0.06312566 0.23224598 0.43809438 0.38653246 0.11706419 0.53907716 0.4829897 -0.06599746 -0.083808534 0.10446745 -0.47892803 -0.011217084 0.08329441 0.15117668 -0.5085319 0.29302394 0.034376074 0.26228806 -0.1521491 0.9226995 -0.28140065 -0.046783604 -0.5942702 -0.054971617 0.61054254 0.17206414 -0.59678656 -0.4953101 0.4232363 0.48714182 -0.62175906 -0.16996516 -0.049031753 -0.40448764 -0.08791409 -0.2030607 0.35939807 -0.6560126
1836 0.16888694 0.2468642 -0.39429763 -0.2553574 -0.21278441 -0.40574595 -0.031977713 0.47440112 0.9133328 0.38843396 0.32093695 -0.2083866 -0.40025845 -0.40542307 0.14727935 -0.18596718 0.0023457156 0.0365543 1.0120119 0.107273825 -0.19675647 -0.13540018 -0.46885625 -0.05417951 -0.22489141 -0.5631658 -0.12836345 -0.9796368 0.58853346 0.3560983 -0.044238657 -0.34839812 0.5042729 -0.3020685 0.10933746 0.1292444 -0.26991048 0.588467 -0.3969835 -0.47181234 0.25662863 -0.13494544 0.040102378 0.3683811 0.27909243 0.3947663 0.51519287 0.32261384 -0.1735359 0.082750194 0.49820092 -0.09409681 -0.064197056 0.26807746 0.48326156 -0.17687115 0.95172536 -0.24132259 -0.12678833 -0.60977036 -0.06828837 -0.21452779 0.12893508 0.6379706 0.36009932 -0.3053302 0.23336962 -0.65174 0.38637137 -0.025967127 -0.66646504 0.23716491 -0.09209982 0.057927642 0.22700287 -0.72353405 0.5267645 -0.27809367 -0.33619145 0.15444468 0.18204153 -0.7629914 -0.1167967 0.2560925 0.9943844 -0.53834516 -0.16150415 -0.18153743 -0.18358263 0.06456887 -0.016931698 0.32623443 -0.17682385 -0.33240694 -0.28867358 -0.021519123 0.07882423 0.2541654 -0.06451698 0.019608267 0.2028562 0.35519812 -0.4997734 -0.16227412 -0.5194896 0.39928222 -0.46083546 0.48058218 0.11622696 -0.12047934 -0.9662996 -0.44423681 -0.28384617 -0.22539534 -0.10407693 0.13437898 -0.26457497 -0.39651594 -0.18151863 0.3452541 -0.5645486 -0.5292679 -0.26843172 -0.59684867 0.35739243 -0.22506294 0.017658722 -0.3394548
552 0.34871423 0.70904547 0.3013728 -0.27702513 0.377506 -0.048087277 0.54798585 0.34123397 0.12358438 0.0449391 -0.08061826 0.33579546 -0.5300083 -0.58650887 0.029553346 0.06507801 -0.6567584 0.26217997 0.40187934 -0.03620208 0.36032394 0.56263745 0.07593479 0.266797 -0.087499075 0.0056692604 0.44011027 -0.09184669 0.072903134 1.0611484 0.4927932 -0.14275943 0.14332534 -0.5195541 -0.2624173 0.28932777 0.028174525 0.3096667 0.27758536 0.24140184 -0.096123345 -0.19127098 0.7275358 0.6312399 0.54656553 0.2845025 0.2319749 0.5760408 0.0060735075 0.32867917 -0.63166183 -0.31310505 0.114241436 0.6628777 0.41003612 -0.0531595 0.14792551 0.52737373 0.27762312 0.25949222 0.13612662 0.049410585 -0.23245409 -0.27247885 0.68041897 0.41235206 -0.22344172 -0.46897042 -0.31523728 0.29450238 -0.67690235 0.48367962 -0.028187266 0.24214493 -0.3459923 0.25747257 -0.37004843 -0.597132 -0.44180802 -0.281959 0.8718575 0.3688134 -0.37436026 0.07451592 -0.061169416 0.25550944 -0.14521368 -0.5517307 0.27615288 -0.088077866 -0.66749185 0.13382831 0.18989797 0.07467879 0.120776854 -0.24303997 0.19562775 0.09634264 0.36137316 0.20333967 -0.18889268 0.07686082 0.41823822 -0.5872675 -0.2402485 0.3472012 0.18877403 0.68876934 -0.36882132 -0.098184384 -0.2892365 0.189849 -0.78778636 -0.27724278 0.050054226 0.5610385 -0.1558662 -0.41389495 -0.5111858 -0.14881 -0.5441292 0.32163826 -0.5195338 -0.15591371 0.21398379 -0.22692323 -0.296336 0.05080965
691 0.20422317 0.3172067 -0.4612913 -0.31645316 0.10175841 -0.3710877 0.42404094 -0.10070141 0.39510915 0.66414243 0.3382502 0.054315887 0.22027798 -0.35777906 0.23133089 -0.21961074 -0.62635964 0.15137011 0.54277295 -0.047062933 0.012573174 0.20163521 -0.28103963 0.046134476 0.29383743 0.47923017 0.05535711 -0.20512415 -0.053450566 0.806957 0.13835536 0.28362572 -0.013880726 0.047112424 0.057162944 0.049610138 0.17371003 0.5773506 0.21136662 -0.82109004 0.2268528 0.17110395 0.34578332 0.18002303 -0.19003972 0.18615529 -0.14470457 0.21485606 0.06442346 0.13360417 0.10617903 -0.038583785 -0.33327252 0.2455244 0.62153363 -0.33007196 -0.26904532 0.11020521 0.30294645 0.6947818 0.5097589 -0.6215709 -0.536948 0.38458544 -0.017550344 0.061686 -0.11886273 0.17748258 -0.15959026 0.30904695 -0.23387383 0.45095915 -0.30411676 0.7243455 0.059568774 -0.0800392 0.70032585 -0.37834847 -0.28676954 -0.17857623 0.39271504 0.16959678 0.79347885 0.39197683 -0.3681006 -0.52014846 0.045494843 -0.27438888 0.31258738 0.19167696 -0.7569628 0.19832401 0.31598195 -0.38958412 0.24266882 0.5439714 -0.0036054042 0.09661793 0.64438343 0.6127993 0.19361503 0.1256774 -0.6696746 -0.38473582 -0.40314656 0.35947472 -0.2164592 0.4612928 0.18099992 0.08081811 -0.720304 -0.18693966 -0.40172535 -0.55835223 0.38740367 0.7929947 0.22391571 0.3488721 0.8194189 -0.25406316 -0.20273893 0.1090015 -0.4186608 0.273608 0.007976119 -0.12744477 0.20121963 -0.34495443
660 -0.34575975 -0.25851232 -0.30828515 0.15550335 -0.035639916 -0.48861322 0.32146192 0.2122671 0.5323504 0.51278085 0.57892424 -0.1959511 -0.22522302 -0.4171405 -0.039728843 -0.6386779 -0.3447007 0.00830714 0.504801 0.16025485 0.58147234 0.387943 -0.13632849 -0.121797584 -0.158217 -0.1000153 -0.40371114 -0.043842394 0.4645593 1.1789981 0.11690298 -0.28091666 0.018347489 0.37932423 -0.7102861 0.05255615 -0.3851799 0.23150608 -0.46905395 -0.8185543 0.5749145 0.71564615 0.036979627 0.18285112 -0.4106638 0.38709962 -0.050722413 0.2453897 -0.1039602 0.48456198 0.7785588 -0.20916164 0.130774 -0.5249528 0.1709535 -0.7787095 0.30423814 0.21743585 0.47713724 0.07448664 -0.51945376 0.007815465 -0.23638046 0.7219541 0.6185968 -0.3659322 0.38698933 -0.5698791 0.23084329 -0.1756663 -0.2670006 -0.38331097 -0.033937044 -0.33275613 -0.29531652 -0.1966874 0.21815956 0.12002137 0.097451195 -0.38458404 0.19268319 0.025359059 -0.030493535 0.6291381 0.5274892 0.24713466 -0.47387734 0.035812493 0.21562298 0.36787277 -0.025640145 0.015747521 0.30697134 0.11030453 0.29898965 0.16389473 -0.32106972 0.25848895 -0.039484583 -0.43769082 0.35792178 0.28349867 -0.509378 -0.3473344 -0.18847302 -0.14715222 -0.76181626 -0.27272037 0.030161727 -0.35578746 -1.0625745 -0.24940003 -0.08066431 -0.04735965 -0.5375784 0.20538147 -0.7652198 -0.72121704 -0.100983754 -0.19149436 -0.23227377 0.039744027 -0.1609232 -0.99702334 0.038692363 -0.04325018 0.36051664 -0.32269973
1430 0.06766166 0.3269601 -0.14597782 -0.5955602 -0.078855075 -0.5443358 0.117327824 0.45999217 -0.2990133 0.6839397 0.1476479 0.6164596 -0.15123096 -0.48070237 -0.19323537 -0.5170202 0.051259317 0.44343737 0.6048977 0.21935043 0.29183796 -0.3559371 -0.2143951 -0.44294834 0.4960466 -0.39810178 -0.54537505 -0.4371655 0.5770563 0.7974477 -0.37990087 -0.563226 0.38312256 0.38254717 -0.32706845 -0.39706436 0.16189826 0.40216774 -0.5824425 -0.019421563 0.2422279 -0.44209257 0.09303364 -0.14304873 0.016860984 0.26021326 0.045298316 0.28934845 0.20716357 -0.116183035 0.36981925 -0.3888598 0.37969315 -0.19847047 0.010245196 -0.7578825 -0.4117601 0.17735457 0.2537252 0.41234306 0.23203439 0.0996144 -0.17367032 0.24286115 0.0006361979 0.37085947 -0.26446992 -0.57542324 -0.7928812 -0.81333584 -0.088938564 0.1239954 0.53286886 -0.12845673 -0.2255715 -0.14264233 0.53267 -0.20527464 0.23257096 -0.40779224 0.37633842 -0.62737584 -0.1778935 0.4044438 0.64395404 -0.33114988 0.22874324 -0.1045606 0.1662449 0.38066757 -0.24731159 -0.07491381 -0.21573086 0.15215074 0.6174734 -0.039594684 0.012942084 0.121205956 -0.07028488 -0.053680114 0.85523677 0.31306827 0.3053382 0.250598 -0.45720008 0.08629677 0.15751351 0.028677102 -0.11595603 0.115954064 -0.18468115 -0.3573872 -1.3792976 0.37085077 0.22672987 -0.2747595 -0.36939093 0.6347008 -0.17329799 -0.2113861 -0.4469367 0.38465485 -0.5940636 -0.18035445 -0.027160559 -0.19714208 0.46116337 -0.78320974
619 -0.06968436 0.39725137 0.042485822 -0.16243865 -0.41380128 0.2916378 0.5442204 -0.18478398 0.017099472 0.9696153 -0.27669334 -0.14507256 -0.29110965 -0.18914339 -0.18298319 -0.45242786 0.23799117 0.53282946 -0.07900374 -0.1293836 0.06976808 0.37290397 -0.51823 0.7422992 0.0834041 -0.10388427 -0.3282264 -0.05536583 0.18252496 0.92523026 0.5368767 -0.652587 0.43667668 -0.033286203 -0.30672592 0.02781021 0.1686553 0.07719648 0.23720887 -0.46823034 0.11324742 -0.27919528 -0.4561835 -0.023884082 -0.145048 -0.92119455 -0.23217504 0.23319761 -0.06116447 -0.032215632 0.8934287 0.19584061 -0.06825096 -0.08947896 -0.07714459 -0.5765767 -0.58408666 0.5992993 0.1358399 0.4095304 0.072703935 -0.38332778 0.011917263 0.4660185 0.21696258 0.3847581 0.07482707 -0.6519278 -0.24560654 -0.37374508 -0.3290837 0.13148662 -0.015552471 -0.00303799 0.49413943 -0.5109304 -0.81342226 -0.32210338 0.24870305 -0.012021184 -0.12432378 -0.11638403 -0.6385065 0.14400208 0.09784663 -0.0500411 0.3165161 0.38743088 -0.028758552 0.08678757 -0.29443526 -0.39327943 -0.13514942 -0.41791534 0.47702822 0.6350207 0.36274093 -0.23982193 -0.8089003 -0.4950831 -0.051386517 0.23130007 -0.42847213 0.24025024 -0.4431019 0.2992357 0.26815698 0.27196962 -0.5786311 0.17506291 -0.05956224 -0.23602964 -0.85257703 -0.18444966 -0.54312474 0.08894665 0.2593907 -0.20913544 0.31696564 0.20733355 0.08339531 -0.09676093 -0.5158518 -0.24835585 0.53978896 -0.010527571 0.08965439 0.5534096
447 0.48515064 -0.67159843 0.008813616 -0.008340175 -0.058594108 -0.043071043 0.25919643 1.080471 0.5405955 0.2637003 0.26887238 0.23069365 -0.3636009 0.25753117 0.7974506 -0.56222576 -0.352734 0.35190973 0.7347755 0.19563054 -0.41482663 -0.1966107 -0.25274998 -0.09193649 0.22890276 0.7664956 0.31925565 0.5301702 0.14463726 1.2335589 0.7008841 -0.21799089 -0.24074319 0.0339161 0.401793 0.26317993 0.7052818 -0.2258393 -0.0033579627 -0.6950114 0.29942995 -0.23039405 0.47148505 -0.23180059 0.14788465 0.025914682 0.13598469 -0.68740284 -0.060941715 -0.14807804 0.3599 -0.45850748 0.17464781 0.14602228 0.0798734 0.46953404 0.047957413 -0.5438818 0.353141 0.50504166 -0.3520567 0.22858053 -0.09224149 0.1020543 0.019235153 -1.0871253 0.5276694 -0.025639974 0.22073512 -0.23741078 -0.14147271 0.60511696 0.11240354 0.5219147 -0.059272684 -0.23497766 0.15013674 -0.34877753 0.29383215 -0.6415399 0.5885128 0.25255746 0.37050784 0.70967275 -0.014050671 0.50244063 -0.20568 0.08080295 0.3083177 -0.2535716 0.5775102 0.032867447 -0.04832066 -0.06743234 0.14191945 -0.13559201 1.0331075 -0.0895303 0.18377917 -0.27002138 -0.040400755 0.16210346 -0.13469183 -0.6727088 -0.24429026 -0.14238349 0.03383116 0.39780065 0.12825707 0.4032384 -0.453094 -0.20056778 -0.4170766 -0.08615956 -0.417628 0.060216997 0.5438235 -0.08978853 0.11559393 0.20671497 0.5445149 -0.1686721 -0.77950877 0.15111043 0.1894295 -0.16950169 0.10265326 0.16463053
244 0.10796848 -1.1000463 0.26034805 0.2776421 0.20045538 0.25013542 0.2126169 0.06554476 -0.4476467 0.2997718 0.07231925 0.08200889 0.048436552 0.21831486 -0.23208983 0.22459847 0.32570598 0.44472548 0.7240664 0.33444214 -0.17080264 0.11986306 0.0058811363 0.2992103 0.27318966 -0.26529148 -0.09348525 -0.18781878 0.42463592 0.5428761 0.3796491 0.0019541949 -0.20460936 -0.5087224 0.29414675 0.60091466 0.7592212 0.30320764 -0.2967302 0.16189894 -0.6508101 0.18538474 -0.24110919 -0.38239545 -0.315715 -0.27804682 -0.0059256265 -0.04600246 -0.609718 0.37670478 0.23773094 -0.05108766 -0.6058771 0.17253517 0.27663347 0.32866463 0.19691412 0.34182385 0.31342372 -0.17886275 0.15884589 -0.2619583 0.22229862 0.5837059 -0.31101084 -1.2992691 0.1763244 0.17397 0.24788775 -0.034883305 -0.58668697 0.63821054 0.5444944 0.10084368 0.42126462 -0.22204691 0.48886445 -0.8004224 0.02711502 0.2736766 0.40760168 -0.03580084 -0.3274148 0.027959604 -0.44704702 0.6538978 -0.18868095 0.04562983 -0.38312268 0.92922246 -0.021897623 -0.19460161 -0.38088927 -0.19019772 0.21248944 0.2630962 0.38819844 0.8184465 0.008561221 -0.020289725 -0.39520708 0.37355968 -0.004230156 -0.2144776 -0.38425118 0.24805276 0.27392295 0.30527925 0.038243525 -0.21124732 -0.29049754 -0.0023171687 -0.82614386 -0.3146925 -0.22783604 -0.106572814 -0.79476506 0.19646132 0.39065796 0.22182617 -0.38637742 0.12886906 -0.6360255 0.44680494 0.8705436 -0.008908979 -0.25316194 0.012304028
1131 0.28286406 -0.015811564 0.12777247 -0.09644551 -0.15990712 -0.0096020745 -0.109691195 0.066963375 0.09079626 1.1760302 -0.07735954 -0.09168152 0.09243799 -0.36624452 0.45201844 0.15259953 -0.2922903 0.035119172 0.7625868 0.06655697 -0.008937231 0.1660378 -0.1403907 0.18854578 -0.9280544 0.20579474 0.24585398 -0.22924095 -0.31265017 1.0097511 0.24206507 -0.27883598 -0.14514543 -0.07957419 -0.25470638 -0.00834238 -0.12488055 0.6642731 -0.37749237 0.59458685 -0.07415903 0.3345671 -0.45521232 1.0223955 0.14616774 0.1911983 -0.069728315 0.039547145 -0.16060232 -0.29954544 -0.3175409 0.16947961 -0.3587944 0.341128 0.2280855 -0.5253169 -0.05381842 0.29775932 0.3070507 0.3268331 -0.17978354 -0.48979422 -0.4196917 0.37643522 -0.076372854 0.44450998 -0.11047284 0.32665095 0.18763801 0.683947 -0.36346683 0.41682047 -0.61303014 0.53224105 -0.10900109 -0.40538976 0.015189552 -0.21523027 -0.2780602 -0.22005805 0.57395905 -0.43710417 0.108772926 0.34248132 0.109614186 0.092257485 0.045640714 0.053537685 -0.57209045 0.28061837 0.15871221 0.03520573 -0.18946324 -0.3771142 0.36386728 0.35160932 -0.09631814 0.26127613 -0.08834276 0.6332639 -0.009155285 0.65924424 0.559415 -0.48583227 -0.5920364 0.378797 -0.018773785 0.045392722 0.43395698 0.08330388 -0.07664611 -0.5532703 -0.52019167 -0.04841191 -0.32085797 0.1796594 -0.8023329 -0.16428234 0.07154153 -0.5884938 -0.070730425 0.119891286 -0.42270055 0.040371243 0.49946442 -0.28983682 -0.26611125 -0.6940219
60 0.027544962 0.22041564 -0.47238043 0.20592062 0.058339827 -0.38126248 0.50692505 0.23024654 0.35236964 0.7335944 -0.2582027 0.12205558 -0.11828289 -0.33427235 0.66738385 0.025743745 0.6032492 0.027129358 0.43889144 0.3607046 -0.24638286 0.75988865 0.57374936 -0.36883453 0.2470947 0.06357013 -0.017562639 -0.11395227 -0.019001875 1.3166504 0.4459539 -0.41738266 -0.41034475 -0.4189491 0.49583614 0.006211276 0.09960415 -0.28093535 0.05576895 0.31156325 -0.21540466 -0.16289693 0.019636828 0.47800645 0.35156375 -0.32984203 0.43431112 -0.15832643 0.18295087 -0.14284433 -0.22593327 0.06652846 0.35999724 -0.12340495 0.14820904 -0.5388354 -0.43996117 0.057791594 0.66654223 0.62787575 -0.3205866 0.03161295 -0.23940359 -0.6005562 0.25714236 0.59152514 0.13191633 -0.48749942 0.058652114 -0.14570223 -0.16042052 0.05046236 0.4301386 0.123365365 0.30904004 -0.24207021 0.3997539 -0.70313907 -0.16215639 -0.7077038 0.1267664 0.080787614 0.2968254 -0.052402757 0.13812341 -0.5604388 0.09672672 -0.46761763 -0.02323766 -0.45448703 -0.10267347 -0.21205793 -1.4710398 -0.35810986 0.7347783 0.03195708 0.31746137 0.440038 -0.29778397 0.11139661 0.18803972 -0.0812443 -0.8172551 -0.1494941 -0.48727643 -0.3288092 0.032416668 0.06567749 0.06531689 0.40644768 -0.3957652 0.19739372 -0.29907623 -0.16536836 0.4819971 0.31514487 0.054214425 0.04884557 -0.26942512 0.19401139 -0.17513095 -0.14278561 -0.07995265 0.07951129 -0.08063676 0.53041977 -0.06233337 0.43965152
841 0.513273 0.1312129 -0.15238912 0.19662128 0.252016 -0.13041948 -0.35797197 0.13793041 0.081415735 0.6107501 0.1918589 0.18160129 -0.09190563 -0.64617205 0.04066734 -0.9225339 0.42108265 0.43966958 0.2720569 -0.058727782 0.9148483 0.653745 -0.26690596 -0.034035027 -0.1006435 -0.14688282 0.4868842 -0.2814756 -0.5841424 0.954513 0.67482734 -1.1722966 -0.27145123 0.019674063 -0.2282056 0.10215151 -0.00426061 0.26838765 -0.37408742 -0.31034702 0.12314966 0.20618281 -0.43438417 0.13482106 -0.4804915 0.50455076 -0.59639305 -0.12873846 0.30457294 0.14958051 0.4831805 -0.19850412 0.046124157 0.5560519 -0.046211604 -0.23029727 -0.16976656 0.18592416 -0.43432623 0.27770764 0.3244819 -0.33125433 -0.16866203 0.044507477 0.32682842 -0.18333474 -0.4258648 -0.08668621 0.22358875 -0.38812158 -0.6322633 0.049553897 0.2132242 -0.049773462 0.12650235 -0.37567642 -0.5244583 0.47824103 0.5203928 -0.08794417 0.38074636 -0.36447018 -0.24048525 0.29893428 0.5542013 -0.056192882 -0.14710791 -0.15461594 -0.028386613 -0.3835082 0.16288906 0.19106811 0.5966137 -0.42330638 0.09285223 0.034403615 -0.3281876 0.4558737 -0.064395174 -0.12115966 -0.064080656 0.7316147 -0.6220215 -0.9089666 -0.26662576 0.94860655 0.02420936 -0.2876691 -0.44572377 0.47299007 -0.41133794 -0.086113535 -0.16264476 -0.1598743 -0.10037943 -0.6317202 -0.6002165 -0.045376528 0.5007572 0.2813045 -0.25282517 -0.5469546 0.015194541 -0.332134 -0.3533894 -0.07051205 0.13569959 -1.1723187
580 -0.038962737 -0.07066598 0.3039287 0.035394594 -0.22979319 -0.4575564 0.23177104 0.5766649 -0.20378916 0.8501778 0.14339569 -0.45880136 -0.16954066 -0.05885101 0.67333096 -0.005051694 0.07565763 0.99923843 0.8741506 -0.17304021 0.83912736 0.20043993 -0.6461744 -0.025948597 0.50842 -0.2071814 -0.086778864 -0.34104905 -0.030306816 0.791397 0.032446176 -0.5979902 0.66378677 -0.19583234 0.40275142 0.02943757 0.22805752 0.6887555 -0.35342675 -0.14040707 -0.09797397 -0.4778712 -0.14019363 -0.26408184 -0.06097562 -0.23500806 0.626032 -0.13559282 -0.32501522 -0.38861609 1.0204881 0.24936134 -0.37384793 0.37335128 0.13970126 -0.8276311 -0.82000846 0.91448194 0.1686 -0.031142093 -0.039237533 -0.29536647 0.34196255 -0.12988605 0.08788965 0.09170708 -0.23924035 -0.5893546 -0.09130775 -0.21611272 -0.53164136 0.5747083 -0.13911648 -0.65034723 0.2737647 0.25671208 -0.071956985 -0.32933855 -0.07209671 -0.24269031 0.3554743 -0.35274538 -0.3240713 -0.09745802 0.2611622 -0.43152446 0.39774275 0.234813 0.35302916 -0.16099814 0.09637442 -0.20958027 0.14911403 -0.31713733 -0.04051845 0.37423432 0.5350044 -0.5746235 -0.18504836 -0.3766192 0.35334173 0.09974698 -0.1119872 0.00025610178 -0.39476243 0.29675528 0.032187965 0.17198673 -0.23373976 0.062373754 -0.45796645 0.2968424 -0.98588 -0.11527268 0.3816345 -0.10134991 0.17481774 0.21318272 0.044736605 -0.0684326 0.02361987 0.044737782 -0.028781157 -0.6499749 0.030704511 0.029065253 -0.22848997 -0.16756222
876 0.025127336 0.34235957 0.28013375 -0.3145429 0.044887878 0.39114937 0.31986284 0.15972228 0.44868135 0.8478701 -0.33521405 -0.16534258 -0.04262827 0.023352712 -0.34675908 -0.3747039 -0.51553756 -0.05931465 0.8449561 -0.04993478 -0.26314053 0.55049694 0.21702264 -0.44616896 -0.118366726 0.03375227 0.07186767 -0.32967576 -0.0016149094 0.38855374 -0.13948539 0.24040505 0.08576629 -0.17208043 0.251288 0.4494671 0.3691044 0.41221815 -0.4482137 -0.1376599 0.22937864 -0.08586884 -0.38540986 0.58367527 0.53285223 -0.18159395 0.0058567454 0.037789006 -0.34885004 -0.08657513 0.34939623 -0.30816483 0.06461842 0.15021281 -0.3511451 -0.6546836 -0.047306743 0.2795058 0.15871967 0.5401245 -0.47555017 -0.12327129 -0.31235942 -0.08050006 0.0821178 0.06333812 -0.72804374 -0.29122803 -0.37710166 -0.6068159 -0.7879265 0.2104261 0.86568254 0.6968236 -0.929155 -0.029270645 -0.27469885 -0.19476813 -0.10950904 0.20720015 0.41972542 -0.009209092 -0.20262344 0.27064922 -0.039556816 0.261939 -0.067107834 -0.7915124 0.675055 -0.09126941 -0.05475658 -0.24279863 0.18738925 0.39383084 0.3358933 1.002121 0.4696799 0.32615665 -0.11475392 0.3319777 -0.6830418 0.06007439 0.216312 -0.18952516 0.032182924 0.11286182 0.14071056 0.14585346 -0.50967884 0.10058559 -0.2528339 0.056585927 -0.38177398 -0.21163 0.5642573 0.64182425 -0.14246084 -0.14650302 -0.016290788 0.35314426 -0.44141597 -0.132831 -0.15541618 -0.10623811 -0.1899727 -0.7995454 -0.3545556 -0.2848433
1424 0.22239612 0.69714755 -0.03875768 -0.66402084 -0.067712486 -0.26152873 0.40964362 0.58973336 0.2121251 0.38185665 0.088395566 0.44199187 0.27287376 -0.46076953 0.23065095 -0.34660944 0.41469818 0.6305028 0.28724918 -0.014061122 0.14697897 0.18113591 -0.22715741 -0.4338385 0.37337264 -0.3556446 -0.66821647 -0.37644485 0.8809679 0.64620095 -0.36016917 -0.62958634 0.36342674 0.3728821 -0.77375877 0.025456058 0.03779032 0.2258362 -0.1852827 0.19193181 -0.077480145 -0.20871027 -0.30695787 -0.4295629 0.2637958 0.33661222 0.35622296 -0.12606083 0.050703097 0.082361 0.22122115 -0.12059218 0.30526584 -0.3552118 -0.30533704 -0.055351224 -0.61618614 -0.025132962 0.5832779 0.03633751 0.43206427 -0.03506806 -0.23709337 0.47040695 0.17055231 0.6907012 -0.4869225 -0.47619522 -0.7794936 -0.6256016 0.24705957 -0.24489617 0.14923497 -0.1888543 -0.3169384 -0.19069894 0.68275523 -0.34173837 0.4664515 -0.6221434 0.33061486 -0.437218 -0.35768458 0.52111906 0.14044501 0.054575317 0.2013659 -0.12742043 0.20830879 0.24297534 -0.31935146 -0.25286666 -0.14542148 0.099622585 0.50465107 0.022261508 0.06390369 -0.4889521 -0.09862245 -0.20422815 0.30403656 0.47775596 0.11489351 -0.16883984 -0.60723394 0.16490503 0.05301423 0.48809406 -0.47227126 0.2976973 -0.2759008 -0.21223772 -1.4467388 0.27939463 -0.0071861325 -0.16042943 -0.30046734 0.515084 0.10497779 -0.04194193 -0.056330144 0.54001236 -0.37960297 -0.6091731 -0.010706142 -0.21183571 0.037512656 -0.9728111
745 0.28915468 -0.15639335 -0.40941608 0.46142566 0.27999362 -0.26799056 0.1394749 0.23074879 0.07553648 0.8668584 0.057006974 0.31125972 0.10376969 -0.4731155 0.49408314 -0.9598336 0.4292347 0.66581213 0.09934725 0.05087719 0.4217861 0.27947366 -0.039196927 -0.37856686 0.5564699 0.005801238 0.44206107 -0.29788908 -0.7448719 0.28248164 0.16135123 -0.75492156 0.74309283 -0.29092306 -0.30828974 0.25620842 -0.6516398 0.550422 0.020978428 -0.433957 -0.19728789 0.16911562 -0.35424703 0.58649737 0.03490617 -0.020749478 0.361236 0.84893745 0.47359648 -0.082961716 0.5703107 0.06987297 0.34727287 -0.44689214 -0.090888746 -0.117713764 0.24107455 0.57717675 0.27282763 -0.54043114 0.21331859 -0.35348886 -0.14050667 0.64239323 -0.26317757 -0.32913938 0.12597777 -0.54169774 0.0031438184 -0.082860805 -0.50397056 0.057379622 0.06838455 0.3375061 0.2703032 -0.47178167 -0.123935394 0.08674304 -0.6067459 0.06938638 0.58430004 -0.46863016 -0.14695144 0.29862967 0.6230155 -0.0753629 -0.17115507 -0.98683023 -0.064295806 -0.028093878 -0.66428113 -0.03795408 0.5481507 -0.34328327 -0.030230464 0.25851434 0.2327252 0.37093794 -0.30602622 0.2509692 -0.33262557 0.3626818 0.021101698 -0.5574516 -0.2985605 0.51333606 -0.22426714 0.07663915 -0.23390321 0.0021715045 -0.20057507 0.36927852 0.018600559 0.1460957 -0.28012666 -0.067957036 0.42249295 0.42796436 0.6643962 -0.008143324 -0.41511926 0.067937136 0.019667499 -0.1610546 -0.38020346 -0.44265965 0.31057552 -0.31047457
2393 -0.0021228702 -0.080354035 -0.07613164 -0.11788339 -0.31742758 -0.14164945 0.35043108 0.46867436 0.041733604 1.1151532 0.093578145 -0.7334192 -0.25550595 -0.002267636 0.28194058 -0.4180122 0.028472336 1.1304083 0.47213355 -0.009948173 0.5831483 -0.1622701 -0.4881509 0.016425826 0.28658876 -0.4116044 0.2674698 -0.20303331 0.081973076 0.47784862 0.21019979 -0.71289456 0.5384589 -0.30814353 0.050322447 0.252656 0.3745815 0.29728517 -0.14539 -0.08990655 0.01163898 -0.5096555 -0.6201547 -0.033772457 -0.31888965 -0.24732152 0.39866135 -0.30062708 -0.2275301 -0.40855604 0.765419 0.124831975 -0.2676025 0.5658907 0.14210525 -0.9690122 -0.3234074 0.818173 0.2314923 -0.012532653 0.11424467 -0.059759192 0.44071934 0.45417997 0.28960186 0.34864366 0.08689185 -0.47489446 -0.35104665 -0.14119048 -0.2831575 0.26823792 0.20077294 -0.39230034 0.19825453 0.04309725 -0.3741695 -0.25783527 -0.1880794 -0.61825305 -0.10036682 -0.57567996 -0.12221392 0.060501043 -0.045253817 -0.20722161 0.54861706 0.017288815 0.27113998 -0.33494607 0.134092 -0.11815271 0.2634281 -0.41261697 0.277509 0.31794494 0.7162692 -0.47722697 -0.055492967 -0.31229144 0.33197317 0.23388307 -0.18566212 -0.10954864 -0.042818274 -0.013718147 0.033215374 0.012496359 -0.46079245 0.2807481 -0.40278012 0.40582612 -1.3373085 -0.06597031 0.48516032 0.05872203 0.7339516 -0.14616191 0.15321599 0.004382182 0.011771134 0.25113747 -0.3172841 -0.8509505 0.29228508 0.1517699 -0.1849484 -0.14529364
161 0.025052637 0.06344243 -0.37843704 0.30292124 0.38539538 0.020827826 0.5715097 0.46723527 0.54990405 0.26046365 -0.41686273 0.3475995 -0.21712877 -0.6581133 -0.19925664 0.0001025111 -0.045102235 0.24694648 0.3083142 0.49684384 0.606084 0.34280133 -0.21863082 -0.21699265 0.2401548 -0.19175093 0.20895681 -0.25267693 -0.14599994 0.42632833 0.76389897 -0.5983159 0.5590531 0.0055212965 -0.06370828 -0.16961809 -0.27772915 -0.51033884 -0.16598174 0.42706826 -0.10495645 0.4110519 -0.24830477 0.37053546 0.3913513 -0.076589555 0.19518004 0.33270943 -0.4373823 -0.53968984 -0.25827125 0.3011529 -0.34451848 0.8111743 -0.10857094 0.2508779 -0.392266 0.41413328 0.3036175 0.17289357 -0.31819212 -0.05945733 0.15388371 0.28336984 -0.41422182 0.38066417 -0.19026281 -0.62878793 -0.32064646 0.05287753 0.005194431 -0.18316564 0.19675069 0.1482483 0.1866529 -0.072947286 0.33626893 -0.036043614 0.18137507 -1.0444518 0.17758526 -0.24885818 -0.2967157 0.01655 0.103420556 -0.033736568 0.3739522 0.17928435 -0.09076878 0.15873802 0.44254974 0.24535127 -0.45074853 -0.6385473 0.24567181 0.43099877 0.036772616 0.27773654 -0.59659797 -0.0064790035 -0.07124438 -0.25198 -0.2038285 -0.14929487 0.42089814 -0.1796322 0.0549039 0.23570548 0.16106598 0.04374708 -0.4431696 0.027733397 -0.59127986 -0.052937195 0.4254654 -0.044537302 0.22025996 -0.35863847 -0.2611848 0.15548114 0.4266495 0.039147343 -0.6485808 0.169012 0.4062807 0.19147938 0.29864565 0.090436235
1824 0.16174902 -0.1490305 -0.1594391 -0.590645 0.64298844 -0.074985 0.0022524353 0.49488717 0.36973402 0.82303035 0.8113893 0.4354417 -0.055504326 0.77988774 0.3068261 -0.61631393 0.087613195 0.41819125 0.79067284 -0.08654901 -0.40330887 0.10646291 -0.53670955 -0.04370291 0.3650994 0.010217388 -0.071045145 -0.07249748 0.12648496 1.1360754 0.13296673 0.3325922 0.44247162 -0.025155187 -0.08269881 -0.07162569 0.12839636 0.12632504 0.5301349 0.23725972 0.14383867 -0.024120098 0.6102694 -0.7405203 -0.22201565 0.60672176 0.03298784 -0.0846744 -0.48835638 0.35593116 0.427242 -0.33139867 -0.3406037 -0.44902426 0.3763375 0.34101894 -0.009193055 0.2749225 0.23448442 0.42829657 -0.4806014 0.2666796 -0.37232628 -0.009599168 -0.10269899 0.5754708 0.18037587 0.022815138 -0.12143381 0.25744876 -0.2552814 -0.17854811 0.25202543 0.1537486 -0.054114703 -0.22722743 -0.20030142 -0.17314766 -0.20098731 -0.8626703 0.5196395 -0.29415056 0.30063266 0.08490958 -0.11908865 -0.58420146 -0.12366273 -0.14980027 -0.050208587 0.54646075 -0.42836896 -0.19690506 0.23898073 -0.11900132 0.58827996 0.42776495 0.13718385 -0.006083585 -0.077682644 -0.4207709 0.4030435 0.34209752 -0.18639082 -0.011273334 -0.7266728 -0.17491889 -0.16349411 -0.07306364 0.11822239 -0.4368566 -0.53039104 -0.20230293 -0.5591457 -0.44654018 0.27922782 -0.08955358 0.2393461 -0.036045805 -0.041410457 0.7209329 0.26428512 0.4293195 -0.76096004 -0.2307705 0.6028566 -0.8586358 -0.43602824 -0.049553923
214 0.08697468 -0.27157658 -0.010258899 0.38709366 -0.3197696 0.1640459 -0.45565882 0.41677162 0.16259046 0.32026052 0.20572662 -0.50451475 0.41176844 0.09708062 0.4930768 -1.0142866 0.093256466 -0.44596612 0.91623026 0.21861207 -0.2822975 0.5958903 -0.25649163 0.043600544 -0.32374287 -0.55722195 0.3763572 -0.22234604 0.43399075 0.22650743 0.4642202 -0.064127736 -0.176249 -0.56888735 0.040508445 0.27447975 0.09788507 0.32362738 -0.19679087 0.12128774 0.12049585 -0.09488908 -0.10386061 0.05698039 0.06519214 -0.115552 0.60891503 0.37553924 -0.06491494 0.27021852 0.4384835 0.111854665 -0.09786027 0.08756392 0.12591496 -0.023599729 -0.35871708 0.02651775 0.06813326 -0.6600343 0.12636791 -0.20862721 -0.08153183 0.2177601 -0.70604867 0.18508008 -0.63653237 -0.28723544 -0.08872521 -0.10587091 -0.6418738 0.3162703 0.26133162 -0.10179989 -0.03431121 -0.92055833 -0.131864 -0.082112156 0.22877164 0.26204312 0.46437523 -0.15541436 0.096539274 -0.106830284 -0.047624428 0.031674977 -0.12562358 0.03007195 0.09154218 -0.26070356 0.32995024 0.21180877 0.11289786 -0.5511044 0.5323049 0.03247429 -0.19321306 0.07112109 -0.1029505 0.08416862 -0.3631572 -0.10186044 -0.30143374 0.256576 -0.023072697 0.5666453 0.017081331 0.03250064 -0.049011588 -0.6488212 -0.5460971 -0.5700243 -0.43756935 0.1491214 -0.321254 -0.30176878 0.32350448 0.14649196 -0.44348305 0.05848325 0.25172457 -0.07063529 -0.55489033 -0.73480254 0.07762917 -0.7050267 0.2861708 -0.30016845
776 -0.28990096 -0.26753977 0.31159866 -0.3451228 0.13270922 0.021477977 -0.20491587 -0.06247851 0.21174477 1.0220269 -0.042426564 0.17910293 -0.016038561 -0.0556411 0.19030581 0.1332758 -0.48587298 -0.26721874 -0.21021524 0.01222932 -0.43954787 -0.03641047 0.057457794 -0.124758296 0.45991668 0.054351725 0.023215983 0.042991616 -0.1375193 1.0831804 0.91613 0.12860407 0.29292312 -0.013336759 0.30128655 0.43321168 0.29742715 -0.38399786 0.26678458 -0.40308607 0.10749608 -0.6140373 0.21683328 0.42197868 0.19128124 -0.49565533 -0.15606686 0.08804289 -0.22515564 -0.017886184 0.04510037 0.3867542 -0.044798303 -0.15461275 0.3075476 0.6418417 -0.35974205 -0.4249595 0.3082885 1.0651166 -0.4783167 -0.68424016 -0.254667 0.66526204 -0.36610228 -0.37545815 -0.05078317 0.08486385 -0.10223153 0.38822797 -0.3892716 -0.20975798 0.24101804 0.596162 0.18295358 -0.25087512 -0.22276625 -0.3490664 -0.8947793 -0.6358858 0.6842958 0.24045484 -0.2695152 -0.42484498 -0.02803526 0.26851806 0.039187204 0.20969905 0.097438574 0.36690438 -0.068126686 -0.2030338 0.019944694 0.64066166 0.061303478 0.5640821 0.09313276 -0.39706618 -0.20756553 -0.09915317 0.6787357 0.41126454 -0.3134628 -0.27253178 0.595913 -0.30319318 -0.1903858 0.55238146 -0.13569991 0.62569124 -0.018204091 -0.4643994 -0.77488565 -0.7315421 0.20167021 -0.14867061 0.14829145 0.60382986 -0.05091651 0.35506102 -0.97819227 -0.0041047195 -0.31265447 -0.5077015 0.17145355 -0.4865518 -0.018038135 -0.5822811
71 -0.24313287 0.2011109 -0.41031677 0.14958318 0.094702944 -0.21475959 0.5289997 -0.056523833 0.44465503 -0.15864141 0.07963615 0.4405549 0.15117386 -0.44650033 0.20319511 0.08592955 -0.27092385 0.6493776 0.7577383 0.23044798 -0.16035412 0.15713689 0.25841966 -0.012187967 -0.19220844 -0.33429986 0.45796272 -0.09022345 -0.53713477 0.58996564 0.5649058 -0.6572007 0.44406426 -0.26834527 -0.06659788 -0.12842828 0.051850475 -0.0014225567 0.07701569 -0.43736166 -0.60590994 0.16571811 0.31370035 0.24404779 0.32110924 -0.71530586 0.07058644 -0.53600734 -0.32357055 -0.32433993 -0.41928908 0.0015951227 -0.82567364 0.051195838 0.28049722 0.022455212 -0.08798796 0.25564095 -0.025575863 0.00927676 0.07242231 0.20305178 -0.5118715 -0.29054525 -0.47494096 -0.1281449 -0.13614303 -0.06556846 -0.6585074 0.5267226 -0.25388402 0.5179834 0.44062856 -0.7151404 -0.27666768 -0.6440753 0.10996676 -0.2138482 0.2164956 0.08942124 0.2006066 -0.48580408 0.26345268 0.12968636 -0.091903314 0.017865364 0.22907232 -0.55267966 -0.13170657 -0.4521673 0.47955853 0.38604045 -0.5145509 0.43048322 0.30890298 0.5328686 0.08007446 -0.30983013 -0.51997715 0.1578631 0.47024748 -0.109932974 -0.27426508 -0.17078975 -0.03707871 0.18634392 0.12636171 0.055804305 -0.0072089173 0.41616827 -0.5656369 -0.37000003 -0.35443255 -0.65656096 0.41607517 -0.05304547 -0.14002137 0.3823871 0.0015491456 0.027171923 -0.25879058 0.06753068 0.18802042 0.03430052 -0.31790844 0.084951825 0.275364 0.4087679
2597 -0.0077587287 0.40649244 0.1736535 -0.43629923 0.005262758 -0.47383654 0.6325037 0.6114571 -0.101872884 0.7705629 0.03391688 0.57708025 0.3388592 -0.5817324 0.014264363 -0.7318754 0.04776302 0.5902317 0.6865855 -0.12380366 -0.06232777 -0.027714929 -0.4201279 -0.18777058 0.4228736 -0.09118237 -0.35809368 -0.0014647552 0.5518341 0.8177114 -0.27319485 -0.59548914 0.52220404 -0.0023665598 -0.34300968 -0.029947383 0.037793502 0.7547888 -0.5117496 -0.19473374 -0.18571669 -0.03291778 -0.1305706 -0.21637453 -0.47130623 0.1722405 0.08108721 0.3473871 0.25057882 -0.0033290312 0.2828971 -0.5376084 0.14585035 -0.033019293 -0.038394906 -0.5764601 -0.35562935 0.06924959 0.28218856 0.3401228 0.26307476 0.01672793 -0.15765007 0.07061791 0.08327062 0.74565864 -0.55659395 -0.45470634 -0.77087015 -0.8379563 0.4050807 -0.26833963 0.19665672 -0.1792618 -0.09935613 -0.21027143 0.09759889 -0.16215365 0.6231549 -0.40142033 0.23186828 -0.515552 -0.18006818 0.6244245 0.2842284 -0.0667318 0.31108525 -0.16098407 0.043104842 0.02364709 -0.35670522 -0.2784112 -0.08117423 0.08636546 0.49581617 -0.24758066 0.052845825 0.18016425 0.23448622 0.12689881 0.8002682 0.48437637 0.12380751 0.15231004 -0.4093175 0.025277788 0.3853514 0.3505542 -0.19326946 0.16892046 -0.27576572 -0.20998503 -1.5018009 0.50017935 -0.14857131 -0.30717692 -0.65888196 0.6560794 0.036070574 -0.2463097 -0.20095408 -0.040734973 -0.38642523 -0.09117553 -0.29017165 -0.37421578 0.3074203 -0.7634712
677 0.04721354 -0.11713731 -0.0696221 -0.33003077 0.33470225 0.05745299 -0.022817096 0.1770441 0.38712052 0.8343772 0.189583 -0.5176876 -0.20087516 0.18716623 -0.10831185 -0.34556684 -0.33760273 -0.2171895 0.5777377 -0.57175434 0.21816997 -0.06661502 -0.058437582 -0.008208363 -0.06769595 0.61377966 -0.0747862 -0.21361543 -0.17217469 0.68489426 0.009651762 -0.34737325 0.11017378 -0.5715115 -0.28140035 0.1010382 0.17138241 0.32931936 0.20056245 -0.0136583345 0.30986705 0.13189788 0.08241844 0.4850546 -0.55446416 0.2299668 -0.15263991 0.6902774 -0.18197657 -0.26295182 0.19833195 0.288438 -0.57086825 -0.05251823 -0.18050712 0.22449353 -0.25971034 -0.3333293 0.90150976 0.6492848 0.3040887 -0.7333926 0.1858702 -0.24932885 -0.2097896 0.47522685 0.009872772 -0.084249295 0.25483894 0.14365396 -0.12090434 0.1586979 0.25498587 0.0430651 -0.20495212 0.34778917 0.003799471 -0.58720565 0.048067596 -0.47020483 0.7436659 0.05202686 -0.022711268 0.6854526 -0.49755743 -0.024824005 -0.10531529 -1.0315171 0.59991467 0.19847949 -0.006579186 0.33670273 0.17078155 0.41272077 0.7442923 0.063433744 -0.10360802 -0.55474657 -0.8686891 0.122457325 0.095811054 0.58738446 -0.18984494 -0.089002594 -0.047480654 0.089624695 0.56108415 0.20398234 0.058005136 0.35129476 -0.59008 -0.2085491 -0.35879907 -0.35624084 0.6446616 0.06957918 -0.17018886 -0.018556144 0.2518337 0.18819326 0.25165617 0.81032544 -0.5380133 0.4917012 0.71908057 0.021924881 -0.7317201 -0.25689796
626 0.23588097 0.2053891 0.37815168 0.031213833 -0.06393549 -0.115917325 0.41347972 -0.057813026 -0.14208357 1.2983958 -0.06039553 -0.20018679 -0.477565 -0.10980784 0.12745187 -0.32109913 0.2533493 0.74840873 0.3018449 0.06505184 0.13069487 -0.24895921 -0.59576225 0.73678774 0.06000949 -0.35375845 -0.41014686 0.118310355 0.14703618 0.99504006 0.45705855 -0.7186269 0.25183418 0.61449695 -0.24139161 -0.022003988 0.23414128 0.52861214 0.5110493 -0.12926655 0.46321097 -0.33931577 -0.45988286 -0.19186154 0.32830325 -1.2121178 0.068620436 0.48806006 -0.50857145 -0.054706693 0.49667928 -0.023007484 -0.32523593 0.03156742 0.15157565 -0.39007443 -0.3159989 0.6112986 0.11850306 -0.050025426 -0.047702424 0.12503773 -0.070177615 0.45621243 0.5254157 0.07205779 -0.25119174 -0.3714664 0.0340662 -0.076225586 -0.25771952 0.25106856 0.36085624 -0.4643178 0.17942281 -0.7695305 -0.4028641 -0.29193065 0.26250038 -0.13719691 -0.35659727 0.48637244 -0.3868365 0.12916695 0.753329 0.17896628 0.49415964 0.3265601 0.14276268 0.060853746 -0.46980834 -0.1596768 -0.13171823 -0.5315363 0.23714265 0.16911277 0.71198815 -0.5468363 -0.49153763 -0.6436099 0.18352342 0.3807675 -0.31242856 -0.42132273 -0.48055547 0.24280505 0.2540766 0.23059861 -0.27312416 -0.17060421 -0.7765723 0.1855211 -0.78790146 0.036964834 -0.352907 -0.36542782 0.44926715 -0.2762787 0.0021715676 0.5657326 -0.44156343 -0.13358207 -0.6348674 -0.68753815 0.09760175 0.12920359 0.043289416 0.17245208
95 -0.060990427 0.18434386 -0.69831747 0.08466239 -0.22019896 -0.30410564 0.005976469 0.20158519 0.08346209 0.06299597 -0.17519358 0.24272662 0.20504239 -0.052220672 0.15215006 0.011224617 0.27993655 0.5247343 0.42866695 0.545112 -0.20979378 0.71556073 0.43678975 0.11034912 0.36999518 -0.28973427 -0.33676317 0.08134222 0.1286123 0.44007385 0.32896665 -0.2257448 0.30747882 -0.12883177 -0.30357367 0.5214648 -0.30602586 -0.5882917 -0.21689487 -0.283881 -0.3515047 0.3922902 -0.32102662 0.30560815 -0.1258211 -0.37446672 0.052662194 0.085787505 -0.5776464 -0.3166855 -0.34441465 0.43546662 -0.054520667 -0.2624836 -0.09657661 -0.076648474 -0.5467655 -0.21049136 0.26339564 0.11248141 -0.08109415 -0.33697212 -0.15715855 -0.6432768 0.040070716 -0.013038835 -0.5026236 -0.16253684 -0.121220455 0.76660883 -0.12887506 0.028876094 0.86234266 -0.9876912 -0.13407229 -0.41483378 -0.066840895 -0.032132868 0.53805965 -0.44044924 0.76078296 -0.14753982 0.20791495 0.55030155 -0.06642733 0.12226096 0.465608 -0.2745809 0.13185418 -0.23248285 0.18376727 0.13430502 -0.09599422 -0.5174351 0.22263098 0.067575485 0.38739088 0.48913717 -0.42660996 -0.3090929 0.35244274 0.054838803 0.30369556 -0.091943726 0.45179683 0.3344963 0.3115482 0.08985492 0.56649774 0.14402017 -0.7116178 0.3346063 -0.6081663 -0.13765895 0.28824753 -0.07657656 0.11268147 -0.028013969 -0.20447107 0.32325098 0.11892452 -0.0617717 -0.1818168 -0.09827533 0.18598343 -0.23224595 -0.086135894 -0.021402996
110 -0.39696357 0.34770626 0.113041624 -0.07867299 0.8482691 0.18604243 0.4796749 0.89808667 0.018483493 -0.16536495 -0.018851528 0.7840039 0.44980466 -0.7125241 -0.33356965 -0.22636367 0.5919303 0.10715695 0.29484704 -0.47742397 -0.13351071 0.51358074 0.20566447 -0.00080356625 0.38706714 -0.57972986 -0.07012973 -0.35597473 -0.648047 0.2251152 0.70445967 -0.238304 0.072653316 0.34527344 0.009246694 0.39073673 0.25781465 -0.16178761 0.005799382 0.0001265308 0.2748168 0.054797832 0.53435504 0.2381909 -0.19924124 -0.26863316 0.49827728 0.7987583 -0.25368685 0.031588834 0.7254161 -0.2246987 -0.5027725 0.43177685 0.1739454 0.5294459 -0.06669304 0.3850274 0.05612135 0.06696503 -0.08298748 -0.33618304 -0.42088988 -0.10836196 -0.19004965 0.37542728 0.7841734 -0.7256959 0.13137028 0.08667424 -0.40966845 0.1834868 0.3877151 -0.06118141 -0.106724 0.062242787 0.7648685 -0.14789954 -0.0017806821 -0.18144004 -0.1719767 0.12346972 0.09745736 0.4014428 -0.1851026 -0.46996084 0.033987816 -0.4960395 -0.15018982 0.2188143 0.3761188 0.0026412378 -0.67020774 -0.15667783 0.57403713 0.34948233 0.6536404 -0.15771294 -0.47294432 0.4548747 -0.10359189 -0.21145442 -0.37250125 0.27158922 0.21822156 0.050965723 0.13435307 0.08266511 0.13467842 0.37954506 -0.84408295 -0.32406154 -0.63135743 -0.67122126 0.48722726 0.053809334 -0.025056833 0.0943025 -0.07425389 0.21366076 0.12359555 -0.4379862 -0.24744456 -0.3902957 0.43821225 0.04165715 0.31651002 -0.732307
111 -0.039939657 0.08847764 -0.5616776 -0.11054703 0.47280228 -0.24093908 0.21725084 0.5242518 0.23778199 0.6720505 0.09582431 0.46561807 0.12354802 -0.6616943 0.00522641 0.1668489 -0.16914979 0.26900464 0.010544338 0.1903368 -0.46195042 0.9025941 0.2425679 0.48265246 0.32226312 0.048823245 0.10788874 -0.49517742 -0.014748984 0.6026562 0.31696525 -0.55223525 -0.05157161 0.118475385 -0.3055833 0.6039717 -0.1631243 -0.19759518 0.14777707 -0.16916949 -0.1793412 0.5563324 0.10726656 0.46727067 0.34253216 -0.052926317 0.48428023 0.30634612 0.11692573 -0.018345222 0.22373278 -0.42956504 -0.036835678 0.072528906 -0.027950803 -0.107007645 -0.112569086 0.383192 -0.12823957 0.678591 -0.19544446 0.819331 -0.0924258 -0.06141112 -0.37307414 0.2704343 0.099850796 -0.80331403 -0.37250504 -0.6545118 -0.4805079 0.40223914 0.8668197 -0.7516358 -0.072030686 -0.4705303 -0.16750461 -0.24921232 0.17544131 -0.4970834 0.09001861 -0.4962208 0.29353994 0.3221786 -0.27198252 -0.13483666 -0.014085687 0.05097317 0.28751266 -0.27021968 -0.7352456 -0.3395141 -0.13591205 -0.46797284 0.156096 0.73158544 0.10853524 0.33850196 -0.13397717 -0.332948 0.13247772 -0.93203884 0.069674805 0.050429102 0.17967267 -0.08812796 0.43253997 0.43233404 0.10263053 0.27213994 -0.6556169 0.24544889 -0.3253513 -0.22814935 0.32846934 -0.23593558 -0.1115761 0.4072392 -0.049353193 0.3635484 0.40474436 -0.7456656 0.123536706 0.08244945 0.34401077 0.14004739 0.64688087 0.0662189
1202 0.034673408 0.20180984 -0.11945031 -0.14094184 0.31310564 -0.3183947 0.57014585 -0.03503743 0.84881353 0.9135302 -0.5049446 0.50119394 0.1599004 -0.07407339 -0.82423186 0.009073084 -0.33455855 -0.14279994 0.35217565 0.11795514 -0.37209317 0.4510522 -0.15943976 -0.111264646 -0.0074895136 -0.32204187 0.03330048 0.065988205 -0.05795845 0.6602875 -0.3147038 -0.036671888 0.07061804 -0.13577953 0.34063557 0.502097 0.4788818 0.2337347 0.26851833 -0.062293336 0.13373637 -0.26066282 0.123203106 0.3693003 0.16117615 0.3392107 0.22226965 0.052296765 -0.28363416 0.6015799 0.7017517 -0.3861539 0.255521 0.065741375 -0.10290774 -0.08750434 -0.23886126 -0.14295103 -0.053802744 0.20333837 -0.2226356 0.19418566 -0.46221143 -0.091987416 -0.43360716 -0.1448088 -1.0925066 -0.45951962 -0.44465438 -0.5906146 -0.57239115 -0.38220575 -0.10967449 0.63669163 -0.5931788 0.13363962 -0.20974033 -0.72625744 -0.22128344 0.16703853 0.42486227 -0.32127503 -0.18040462 0.79346156 0.25504765 -0.11048881 0.4827747 -0.5127666 0.2868718 0.25814405 -0.5225706 0.15059191 0.70010227 0.1797221 0.4505026 0.6118086 -0.11213521 0.116043665 -0.10794899 0.16250332 -0.6324864 0.20097695 0.15961544 -0.22142166 -0.57614845 0.33628497 0.099262364 0.60661083 0.32937092 0.54714566 -0.14278628 0.09157227 -0.5111607 -0.11473117 0.22816889 -0.12392107 0.24972229 -0.44275895 0.1785118 0.27979 -0.7281464 -0.16733202 -0.64209616 -0.82203925 0.33833936 -0.17518368 -0.28853023 -0.812752
473 -0.26369342 0.15755305 0.33193827 -0.4721863 -1.1382443 -0.87335116 0.5248571 -0.16714363 -1.0564135 0.6496715 -0.048569966 0.1655877 -0.19752899 -0.08617596 0.41621226 0.4703871 -0.4378463 -0.065665744 0.39244482 -0.01421868 0.23188876 0.009322031 -0.62639946 0.043319378 0.12780735 -0.5506101 -0.1728484 -0.07560016 -0.17283428 0.44139186 1.060611 -0.665346 0.065948 0.31280628 -0.34294006 0.43032128 0.0022478006 -0.25532416 -0.046473395 0.009623614 -0.28610203 -0.4533021 -0.10332411 0.19961794 0.455407 -0.06284222 0.45938748 0.55477506 0.003315448 0.46920228 -0.1198356 -0.12108121 -0.015153493 0.40009537 0.41612807 -0.20603536 -0.20655148 0.15660319 -0.24076423 0.29043928 -0.3919744 -0.048849717 -0.55053645 0.121318735 0.53177786 0.76044685 -0.27835265 -0.5495144 -0.31021118 -0.19698238 0.015691066 0.25385863 0.4573277 -0.30448556 1.1177157 -0.1354281 0.18312241 0.3613709 -0.3519669 -0.420348 0.4387373 0.030266045 0.27632743 0.6819711 -0.18342783 0.1886411 -0.3365115 -0.39267346 -0.07997258 0.28329265 0.6183328 -0.29672107 0.08506996 -0.37019444 0.30943364 0.056342553 0.14108054 -0.076546 -0.18371451 0.40905565 -0.19682182 0.05876793 -0.43350506 -0.48090658 -0.69925535 0.28051117 0.1537046 0.9312224 0.4983313 0.36849982 -0.6116159 -0.09802322 -0.48923716 0.27489924 -0.09898243 -0.4260754 0.31895512 0.13416134 -0.5679283 0.002035279 0.13442573 0.3312932 0.13587412 -0.12848035 0.13697374 -0.17469804 -0.5072679 -0.110050425
1757 0.34640777 -0.004149978 -0.15370046 -0.8367755 -0.24592252 -0.23893008 0.0723027 1.1613355 -0.0442534 0.55525446 0.19916363 0.6209881 0.35300487 0.0018886898 -0.1690974 0.03354251 0.263305 0.5479087 0.7285949 -0.38637328 -0.149216 -0.15066074 -0.075188875 -0.6188411 -0.107546546 -0.77460045 -0.104055464 -0.3901703 0.18257232 0.6089064 0.16146672 -1.1386274 -0.5019949 0.64321387 0.58363974 -0.14302704 0.2493502 -0.007168643 -0.5133566 -0.3809449 -0.0641127 0.49344903 0.15287943 0.3069782 -0.3191767 -0.4288593 -0.31951392 0.40607095 -0.21035221 -0.0976495 0.4079604 -0.16619112 -0.32877046 0.18529207 0.29903686 -0.20083952 0.08418505 -0.1376482 1.0900512 0.41577524 -0.20389336 -0.45293373 -0.022658104 -0.09352821 -0.31982264 0.12307971 -0.5276774 -0.082684256 -0.28523907 0.2570431 -0.46175334 -0.122125484 0.4345963 -0.41469488 -0.000535691 -0.4784105 0.23467246 -0.52484983 -0.07135636 -0.5353307 0.1295321 0.016082339 0.10877842 0.43183696 0.47458285 0.1069833 0.50917906 -0.866257 0.36802462 0.40623942 -0.4498293 -0.2600195 0.1975525 -0.18819617 0.30427366 0.62151414 0.5169744 -0.45204914 0.42649105 -0.02577274 -0.0505825 0.47227317 -0.01213759 0.2945381 -0.2933796 0.71456385 0.039111782 0.4866585 -0.38310957 0.008791264 -0.18751732 -0.35616052 -0.04520907 0.44545662 0.33581454 -0.9025213 0.22392261 0.21213524 0.6732351 0.089525856 -0.5340462 0.6932287 -0.44341022 -0.10992595 0.50173926 -0.55173963 -0.18874563 0.037255976
1468 0.5955983 0.26942003 -0.027905334 -0.17245276 0.43085065 -0.33129272 -0.30668443 0.020820796 0.152294 0.26022393 -0.42022687 -0.2555895 0.10117461 -0.15652241 -0.37538663 -0.9462109 0.11821747 0.03583021 0.5703599 -0.12319021 0.16803654 0.3780959 0.18499729 -0.14661047 -0.22055782 -0.45365995 0.79936415 -0.43112314 -0.40475714 0.22858159 0.3321821 -0.16826001 -0.44473478 -0.6096717 -0.26709908 -0.12792856 0.72235334 0.073918454 -0.056948517 -0.86230624 -0.32736254 -0.050068185 0.13210498 0.3090567 -0.016046515 0.27702716 0.114772044 0.30062708 0.7746395 0.017479561 0.35054338 -0.0729026 -0.15016271 0.017141905 0.28796938 0.02012422 -0.11385363 -0.14743073 0.5871214 -0.18727417 -0.37703553 -0.13038819 0.1990219 1.10325 -0.053106878 -0.37942347 -0.49806324 -0.4592082 -0.3043217 -0.26179764 -0.5920472 0.33124316 -0.040462013 -0.46443492 0.3070112 -0.46428868 -0.08705428 -0.2615069 -0.49656373 -0.037112106 0.6991414 -0.95144904 -0.23181085 0.41201428 0.5315307 0.5676594 -0.4885495 -0.24854492 0.027358638 -0.33906314 0.19479606 -0.13731588 0.07826203 -0.34376317 0.51260376 0.49309826 0.23247284 0.49168786 -0.16871193 0.22544657 -0.2332463 0.32925174 0.19836599 -0.23099779 -0.66420436 -0.016081573 -0.4457774 -0.2892679 0.08583998 0.31970394 0.07725871 -0.44054127 -0.52435195 -0.1579837 -0.3087018 -0.7385226 0.16383918 0.3926845 0.2058768 -0.31082222 0.25978598 0.1702532 -0.18343712 -0.55287075 -0.22191831 -0.50910395 -0.56660193 -0.80561143
96 -0.89566153 -0.010111348 -0.9099683 -0.12509806 0.5188939 -0.12131436 0.01933466 0.25955504 0.29105356 0.046434987 -0.24328285 0.13570315 0.53684086 -0.3914374 0.11740047 0.023401706 0.3534252 0.66718113 0.53539973 -0.06827759 -0.10230686 0.39559314 0.20155941 -0.48560235 0.72668654 -0.5864936 0.3494072 -0.25942317 -0.47666028 0.8605901 0.29316902 -0.39615944 -0.04692114 0.14878458 -0.22155473 0.28287607 0.38153788 0.068866156 0.29746675 -0.4296717 -0.35631424 -0.15800002 -0.08209882 0.22661315 0.23910213 -0.013142697 0.3470456 0.48400453 -0.25397536 -0.16266571 -0.5548891 -0.079161905 -0.77733016 0.13745011 -0.1279119 -0.0017676065 -0.17761983 0.05271228 0.11640903 0.020008096 -0.11899091 0.057618856 -0.33275318 0.04871282 -0.73330986 0.024151184 -0.16259407 -0.72006845 -0.51324445 0.3997168 0.10844902 0.50519985 0.3587985 -0.28710505 -0.42626 -0.45433894 0.65901756 0.10090024 0.114573605 0.092288926 0.22596347 -0.29534188 0.105429254 0.17181301 -0.17906535 -0.08112696 0.540265 0.3114146 0.17390016 -0.64380145 0.18310367 0.3248062 -0.101348266 0.7764005 -0.072077304 0.14913775 0.35689664 -0.36169475 -0.34448123 0.14573102 0.64273816 0.31184128 -0.09960553 0.02320341 0.41025418 -0.2157059 0.30992967 0.030505005 0.099540874 0.19773123 -0.7900672 0.0020771655 -0.59664667 -0.17637865 0.124559194 -0.12067183 0.2883274 0.011220005 -0.12156878 0.0026597916 0.68325067 0.114839464 -0.5988336 -0.18166038 0.026082579 0.43863034 0.10762796 0.29068708
569 0.0032060933 -0.17121516 0.056323104 -0.60762274 -0.101320125 -0.060268342 0.024755154 -0.5276718 -0.11485673 0.63566285 -0.023903111 0.5660354 -0.26284808 0.022095043 -0.1901185 0.069150016 -0.08917654 -0.03968398 0.7449066 0.030458339 0.10401228 -0.14472428 -0.18528134 0.13912317 0.41797432 -0.5421398 0.4956203 -0.15946196 0.70531726 1.6956358 -0.33179522 0.2624289 0.018323157 -0.5170934 -0.05123537 -0.7798535 0.116626725 0.4601254 0.010424438 -0.2253196 0.13972655 0.22384745 0.10324039 0.615581 0.46595034 0.08015419 0.10194064 0.4082018 -0.67799807 0.16757822 0.6422495 -0.39496884 0.5506618 0.5441791 0.53015757 -0.46382082 0.2742257 0.48590988 0.2233111 0.90781385 -0.294695 -0.5895243 -0.073619105 0.012833117 0.22014125 0.60293686 0.14989646 -0.18005933 -0.35454664 0.5863829 -0.28232476 0.76822037 -0.0045169774 -0.11831998 0.22265884 -0.18776654 -0.73168474 -0.19063684 -0.74993175 -1.1207128 0.5885574 -0.004864423 0.36071214 0.686701 0.2507552 0.047710545 -0.10211646 -0.28070772 -0.26334453 0.06960078 -0.26761314 0.7490625 0.080421485 0.051538803 -0.11936594 -0.0045564454 -0.16458766 0.15811092 0.90515435 -0.24087799 -0.3162171 -0.1981056 0.22411267 -0.8930293 0.35945866 -0.29182842 0.2926361 0.27429417 -0.20388825 0.1920356 -0.4111198 -0.38881308 -1.0133349 0.020436708 0.002126774 0.39167544 -0.04852472 -0.3057522 -0.053775676 -0.24743515 -0.2390241 0.15884498 -0.20557545 0.012416175 0.10654865 -0.53520006 -0.42838913 -0.19364245
2010 -0.53108835 -0.12480326 -0.14087947 -0.8501265 0.03764278 -0.4343761 -0.22126262 1.0570874 0.19948925 0.5159358 0.21299006 0.41827494 -0.16408743 0.06487124 0.45310208 0.14088081 0.32907683 0.6563672 0.035951335 -0.036968168 -0.14942439 -0.30842674 -0.76490235 -0.34312963 0.6027983 -0.045629513 -0.14274323 -0.46872973 0.6072439 0.52541614 0.19979614 -0.6236649 0.23516586 0.0015530834 0.09615083 0.49896213 0.29750976 0.90506387 -0.03361756 -0.46274137 0.35788396 0.402139 -0.37193742 0.30333397 0.515412 0.2623065 0.05289576 0.17183521 -0.24314572 -0.07712737 0.4905897 -0.34342802 -0.32967478 0.19425498 0.10033235 -0.6791691 0.2538587 0.25811654 -0.08230184 -0.20236161 -0.19854204 0.14287347 0.13469973 0.08358469 0.0711444 0.69358665 -0.50012404 -0.4561656 0.044729188 -0.5826147 -0.36193717 0.35677266 -0.17067325 -0.3564089 -0.80553544 -0.7737565 0.20825192 -0.31786922 -0.39360288 -0.079436995 0.61498976 -0.80402017 0.45375323 0.4306792 0.6606131 0.28222114 0.3940159 -0.048090294 -0.122985594 -0.080744885 0.023872554 0.156077 -0.48891026 -0.41798308 0.44946617 0.095623165 0.4339614 -0.64809436 0.19698122 0.123861074 0.35183978 0.19055867 -0.12521906 0.24443725 -0.23233153 0.4098629 -0.3253246 0.31819552 -0.19822736 0.90651864 -0.9921439 -0.5941429 -0.45832875 0.13076313 0.103026494 0.2820862 -0.39627033 -0.5542057 0.019599412 -0.29219082 0.3640452 -0.33694446 -0.543157 -0.7360449 0.46499255 -0.13859543 0.13634281 -0.3907994
1072 -0.13554893 0.82798487 -0.060597915 0.2567291 0.22991632 -0.560089 0.4593124 0.13214713 0.12861264 0.7218858 0.32724985 0.7506868 0.11964304 -0.09363795 -0.07856384 -1.0083992 0.07060422 0.2899431 0.034738366 0.28659698 0.25520277 -0.42183718 -0.048149925 0.034724463 0.4757764 0.061103415 -0.7471619 -0.2915448 0.24276792 0.36693135 0.3914557 -0.4114686 -0.35887626 0.17442591 -0.5516203 0.538141 -0.77852494 0.29669884 -0.5252825 -0.13528797 -0.029044885 0.30295053 -0.03909814 0.3887023 -0.014229959 0.73377377 -0.071109496 -0.261111 -0.13342638 0.23373197 -0.26443282 -0.12691173 -0.10036613 0.104558036 0.49453446 -0.23698854 -0.07321415 0.16420655 0.22593191 0.48624966 0.17004447 -0.30995387 -0.41158465 0.59598863 0.2715927 0.17510618 -0.17619011 0.36070177 -0.6483637 -0.588581 0.0014003444 -0.15412526 0.22228272 -0.3663165 0.20606333 0.37316433 -0.1422846 -0.3942539 0.8051389 0.0034978297 0.6423371 -0.06169989 -0.4649825 0.4536317 0.08601854 0.081548646 0.23452617 -0.52708304 -0.032561038 -0.13048917 0.21790588 -0.4868246 0.18465206 -0.14760827 0.39718583 0.6888602 -0.14401723 0.544501 0.4206107 0.05602191 0.4853335 0.34063894 -0.51039 -0.55892766 -0.42123604 -0.33660465 0.3184029 0.32946798 -0.8917381 0.35268703 -0.35401747 -0.492024 -1.0801352 0.45393336 -0.43838164 -0.6053132 0.30489403 0.6800142 0.2244842 -0.43824145 0.30185562 -0.15949418 -0.11924221 -0.22812147 0.3014606 -0.5740691 -0.19258817 -0.7385814
193 -0.37563887 -0.5913163 -0.25401425 0.19835794 0.2762469 0.3035337 0.10343478 0.7691402 -0.09338855 0.38413355 0.036820963 0.13974378 0.11952419 -0.10041378 0.40749326 -0.47403458 -0.22752358 0.28804114 0.9993723 0.117064156 -0.52781826 0.69838125 -0.55386895 0.4796943 0.049986005 0.017204154 -0.122761115 -0.7714382 0.14873005 -0.07845966 0.4537196 0.019489828 -0.067267746 0.14758642 0.25302052 -0.07741969 0.023216465 0.10712292 0.10158598 -0.30664173 0.19014277 -0.19635548 0.19096647 -0.5450231 0.28253058 -0.37466303 0.29693907 -0.035986055 -0.08901061 -0.03873573 0.12038447 -0.21638638 -0.03879422 0.16655406 -0.20548376 -0.5980804 -0.26827973 -0.39604965 0.47560003 -0.75185686 0.92422426 -0.0889152 -0.13303223 0.2542772 -0.8995094 -0.15293354 -0.34165746 -0.13002777 -0.4876458 -0.040180966 -0.46854237 0.50538045 0.4755869 0.08151374 -0.36646792 -0.9087681 -0.07472026 0.042464443 0.4348372 -0.17338891 0.123822324 -0.0450831 0.16148758 0.31335834 -0.48721352 0.50497216 0.30590418 -0.18530138 0.1406884 -0.09711484 0.17387393 -0.21496259 0.1653753 -0.14388984 -0.07583787 0.3172917 0.66116107 0.15356167 -0.5179634 0.7372515 -0.47453904 -0.35711855 -0.33809695 -0.074298784 -0.068132415 -0.05870979 -0.79866135 -0.09375155 -0.05382965 0.3154507 -0.31779987 0.0015486259 -0.88048804 -0.052248266 0.05284822 -0.103060395 -0.21001008 0.06619834 0.02373483 -0.12547424 -0.10075075 0.13588543 -0.3348995 0.2902852 0.04260856 -0.600572 0.32228085 0.089754194
1062 -0.140737 0.087589785 -0.34806755 0.35269713 -0.12371746 0.02726468 0.92826456 0.9340897 -0.038221575 0.3757606 -0.117699005 0.15394162 -0.23001878 -0.36791086 0.59735084 -0.67223287 0.50653434 0.30680057 0.33402944 0.1912868 0.51984274 -0.08965238 -0.3964998 0.6628569 0.58529484 -0.31222045 -0.52642864 -0.41590908 0.3947892 0.47596648 0.5129083 -0.96357584 -0.7153243 -0.39341995 -0.35369083 0.7537726 -0.8056338 -0.4854453 0.15990992 -0.14242586 -0.22982186 0.36167568 -0.012712746 0.2787688 -0.22703812 0.034154613 -0.32357657 0.37732947 0.13307682 -0.046231594 0.9772378 -0.23630211 0.0816926 0.06502015 0.45872772 -0.33087945 -0.48204744 -0.3295062 0.4540801 -0.14886813 0.07973401 -0.4767153 -0.2265612 0.19609939 0.43713492 -0.1448026 -0.43375054 -0.4867108 -0.45414728 -0.51344234 -0.32482198 0.56638 0.8279464 -0.5080239 0.32166195 -0.01730473 0.35917044 -0.273793 -0.10259901 -0.47427064 0.57352483 -0.124636 -0.16013224 0.6674344 0.6539465 -0.23280889 -0.42454052 -0.26873973 0.05601846 -0.027672935 -0.18679419 0.26859477 0.12240108 0.40566954 0.066324346 0.40118733 -0.23134466 -0.3447361 0.7971666 0.19561161 0.2965758 0.2725765 -0.31486264 -0.035164475 -0.012221835 0.023053853 -0.06121952 0.27435637 -0.4261363 0.1552013 -0.6752087 -0.68699706 -0.813339 0.55602276 -0.43042156 0.25105557 -0.12523401 0.36239558 0.17763536 -0.084777035 0.43154904 0.026278922 -0.4926605 -0.3518207 -0.18756136 -0.21325192 -0.29244965 -0.39713448
1389 -0.18195942 0.36743104 -0.17261334 -0.2493604 0.39276543 -0.43298712 0.107378915 -0.05463187 0.13721535 0.6978811 -0.4305336 -0.32209918 0.8687707 0.41007665 0.082879424 -0.1350111 -0.13402158 -0.44654325 0.75816447 -0.0875173 -0.5224434 0.39281926 0.0659771 0.12721035 -0.60116976 -0.8126831 0.025983151 -0.13795595 0.049338154 0.7899373 0.4496026 -0.24721347 -0.50553787 0.61175513 0.07525239 0.30228662 -0.5718668 0.03777246 0.6613347 -0.7945932 0.45143735 -0.34213695 0.7300527 0.012249536 0.5277878 -0.42616555 -0.031466443 0.5156732 -0.33782902 0.47637755 -0.14107364 0.09297179 -0.039821927 -0.3298212 -0.44610724 -0.4737077 -0.5439543 -0.35229188 0.11204577 -0.43161002 -0.20059378 0.11379527 -0.21666084 -0.39810428 0.15933427 0.2108442 -0.22015342 -0.3085824 0.22856337 -0.6410144 -0.68128926 -0.18136501 0.52062684 0.17417476 -0.35328504 -0.23803209 0.107986905 -0.1462891 -0.37545165 -0.8066903 0.09798077 -0.8215188 -0.11483714 0.41804057 -0.3951537 1.0125822 0.1751678 -0.032539107 0.18627337 0.038589682 0.75000423 0.08284576 -0.093637705 0.6958018 -0.13997178 0.12505814 0.40132883 0.09887106 0.24578103 0.19981474 -0.3898717 0.0912616 0.68524754 -0.38259465 -0.06400376 0.22868715 0.1898483 0.29069638 0.043284073 -0.46686062 -0.677165 -0.440598 -0.5164816 -0.24950428 0.37044206 0.5369415 -0.022782752 -0.6532615 0.19921038 -0.8082033 -0.116646506 -0.13301177 -0.81374717 -0.77840966 -0.06683591 -0.96456224 0.19911565 -0.42888662
1819 -0.10642455 0.24715503 -0.33685234 -0.48256397 0.24424428 0.12402686 0.57512283 0.50883055 -0.19737343 0.7152892 0.4586176 0.005913642 0.017129522 -1.0908349 0.10135136 -0.43725634 -0.14182265 0.2494703 0.55969685 -0.036410365 0.632225 -0.003549615 0.40632838 -0.5402115 0.11583628 -0.20682046 0.023438988 -0.31012264 0.87489915 0.3620928 -0.4226991 -0.30803904 0.61421496 0.090759404 -0.6368651 -0.12414631 -0.20989728 -0.18006328 -0.32971236 -0.2274906 0.29397386 0.040356044 0.14520204 -0.18678091 -0.09394795 0.079609476 0.40451807 -0.42001507 -0.16823901 -0.38825002 0.043932345 -0.32566333 -0.029812507 -0.14770734 0.13273352 -0.86541444 -0.1648722 0.008935296 0.85279167 0.21421297 0.19014543 -0.011516866 -0.080517516 0.20504712 0.1784144 0.00018281818 -0.21885635 -0.3834014 -0.27426142 -0.5450467 -0.23223907 0.57463557 0.34632242 -0.45610505 -0.54690284 -0.34277806 0.3248033 -0.4150191 0.40553647 -0.67803246 0.33862597 -0.31882384 -0.2758648 0.5032813 0.35260367 0.047610562 0.19212781 -0.10535923 0.038127154 0.2792681 0.01166871 0.01370149 0.118799925 0.60102785 0.54662377 0.37676322 0.54562265 0.06425005 -0.3469898 0.037359044 0.5471233 0.022605052 -0.29956114 -0.10517603 -0.6990871 0.7042972 -0.289794 0.36241063 -0.08232617 0.33227104 -0.34478617 0.042604513 -0.64413035 0.20296942 0.20803396 -0.055330317 -0.5428903 0.5910504 -0.1500136 0.3099339 -0.39770433 0.5712154 -0.5826908 -1.1094625 0.033738527 -0.08850666 0.28519118 -0.5787118
216 0.12356097 0.273638 -0.6694128 0.38661286 -0.2267726 -0.041662615 -0.021849327 -0.020911397 0.39097568 0.055745557 -0.40861008 -0.060038585 0.33111152 -0.4787497 0.6878591 -0.79424495 0.16738513 -0.08660125 0.04680578 -0.60524595 -0.16751525 0.37375665 0.34407187 -0.29876986 0.23525558 -0.545908 0.7671655 -0.5803733 -0.1784951 0.3371006 0.21958263 -0.27632985 -0.12313035 -0.25080097 0.7697697 -0.16739437 0.64658743 0.013200633 -0.562025 -0.7602622 -0.25107574 -0.27542698 -0.33789146 -0.34226286 -0.21217875 -0.08479928 0.6770908 0.48924372 0.3356521 0.1120424 0.07996887 -0.21728194 -0.7870613 0.19508982 -0.12681988 0.12510255 0.033775594 0.2742209 0.44784817 -0.1502625 0.5050631 -0.430387 -0.6131197 -0.3425006 -0.5321017 0.009564138 -0.08247352 -1.0566093 -0.102323264 -0.51243365 -0.35955638 0.2864625 0.18940951 0.08797316 -0.27413017 -0.3624996 -0.1005357 -0.2611775 0.27791068 0.099754676 -0.26966017 0.020696312 -0.5437754 0.37871337 -0.36383617 0.035237294 0.053493842 0.042011004 -0.8120795 0.11293592 0.44740832 -0.22399415 0.24433888 0.23976998 0.2591354 0.51137054 0.4550156 0.4084695 -0.17690668 0.4335082 -0.18049939 0.11235648 -0.20197907 -0.6561082 0.15524518 0.4078214 0.39785284 0.26121905 -0.019508015 -0.0002885247 0.071314275 -0.056191254 -0.24787068 -0.008384659 -0.18553804 -0.09123954 -0.28632537 0.25765976 -0.2355571 -0.062229376 0.17013073 0.6137371 -0.4792597 -0.5749919 0.70016015 -0.4117099 0.29135606 -0.8985104
658 -0.01793882 -0.36232656 0.33147797 -0.07747491 0.07707699 -0.64261365 0.03228316 0.20465402 0.019463101 0.31796303 0.646498 -0.20190658 0.045273688 -0.38624874 -0.15082407 -0.574566 -0.15682693 -0.31565306 0.44102934 -0.17678191 0.39437753 0.32195124 -0.26905477 -0.044792276 0.11550779 -0.42434654 0.100135535 -0.623239 0.41318792 0.460599 0.09000138 -0.08386762 0.706631 0.2653658 -0.31248367 0.30959558 -0.3335416 0.046253778 -0.2481253 -0.556908 0.5704198 0.7554228 0.1960645 0.65957063 -0.004676807 0.3235054 0.35386896 0.043654725 0.19402705 0.50193155 0.41733736 -0.09565397 0.104387306 -0.13879962 0.21262766 -0.81734324 0.013942125 0.17806996 0.48312455 0.58962524 -0.080840796 -0.04182284 -0.6884711 0.41000763 0.758351 -0.114399925 -0.16686013 -0.4888015 -0.07323123 -0.5668465 -0.44556448 0.85904634 0.087628044 0.20646758 -0.42394274 -0.29125905 0.29742035 -0.17204306 0.4952879 -0.7013537 0.2973153 -0.4341415 -0.37050706 0.83509624 0.5337534 0.833068 0.08431171 -0.1128191 0.24916825 0.579827 0.59315866 0.024304086 0.29304904 -0.08184129 0.20052907 0.89967245 -0.079067595 -0.14034334 -0.5126331 -0.33788124 0.93368447 -0.04066704 -0.38812903 -0.76053894 -0.3949533 0.2190094 -0.055133443 0.34700897 -0.14406718 0.037848603 0.11646588 -0.28217676 -0.15827651 -0.59131366 -0.27060255 -0.1692716 -1.1054952 0.028007353 -0.5018155 0.120866284 -0.33959788 0.123758614 -0.08537427 -0.80137527 0.20247209 -0.12430447 -0.15495871 -0.6374137
